svm_type c_svc
kernel_type rbf
gamma 0.0078125
nr_class 2
total_sv 355
rho 25.1243
label 0 1
nr_sv 185 170
SV
2048 1:-0.419501 2:0.102564 3:0.038961 4:-0.0187668 5:-0.0182768 6:-0.684211 7:-0.99397 8:-0.253356 9:0.0760747 10:-0.811163 11:-0.385488 12:-0.0769231 13:-0.116883 14:-0.152815 15:-0.122715 16:-0.473684 17:-0.98995 18:-0.199658 19:0.116541 20:-0.789809 21:-0.442177 22:-0.179487 23:-0.194805 24:-0.179625 25:-0.148825 26:-0.157895 27:-0.99397 28:-0.199414 29:0.106022 30:-0.742153 
1134.966595461303 1:-0.442177 2:-0.179487 3:-0.194805 4:-0.179625 5:-0.148825 6:-0.157895 7:-0.99397 8:-0.199414 9:0.106022 10:-0.742153 11:-0.117914 12:-0.205128 13:-0.246753 14:-0.394102 15:-0.383812 16:-1 17:-0.98995 18:-0.303637 19:0.159417 20:-0.827021 21:-0.292517 22:-0.435897 23:-0.428571 24:-0.394102 25:-0.357702 26:0.0526316 27:-0.99397 28:-0.199658 29:0.327344 30:-0.819074 
2048 1:-0.117914 2:-0.205128 3:-0.246753 4:-0.394102 5:-0.383812 6:-1 7:-0.98995 8:-0.303637 9:0.159417 10:-0.827021 11:-0.292517 12:-0.435897 13:-0.428571 14:-0.394102 15:-0.357702 16:0.0526316 17:-0.99397 18:-0.199658 19:0.327344 20:-0.819074 21:-0.260771 22:-0.461538 23:-0.506494 24:-0.581769 25:-0.56658 26:-0.894737 27:-0.98995 28:-0.199658 29:-0.0125269 30:-0.805038 
2048 1:-0.292517 2:-0.435897 3:-0.428571 4:-0.394102 5:-0.357702 6:0.0526316 7:-0.99397 8:-0.199658 9:0.327344 10:-0.819074 11:-0.260771 12:-0.461538 13:-0.506494 14:-0.581769 15:-0.56658 16:-0.894737 17:-0.98995 18:-0.199658 19:-0.0125269 20:-0.805038 21:-0.199546 22:-0.564103 23:-0.636364 24:-0.608579 25:-0.592689 26:-0.157895 27:-0.98995 28:-0.200391 29:0.0475877 30:-0.825602 
2048 1:-0.163265 2:-0.769231 3:-0.792208 4:-0.903485 5:-0.906005 6:-0.578947 7:-0.98995 8:-0.217232 9:0.0840364 10:-0.890418 11:-0.031746 12:-1 13:-0.896104 14:-0.983914 15:-0.853786 16:0.157895 17:-0.98593 18:-0.199658 19:0.0879807 20:-0.783969 21:-0.605442 22:-0.846154 23:-0.922078 24:-0.876676 25:-0.853786 26:-0.0526316 27:-0.99598 28:-0.199658 29:0.159928 30:-0.788074 
2048 1:-0.031746 2:-1 3:-0.896104 4:-0.983914 5:-0.853786 6:0.157895 7:-0.98593 8:-0.199658 9:0.0879807 10:-0.783969 11:-0.605442 12:-0.846154 13:-0.922078 14:-0.876676 15:-0.853786 16:-0.0526316 17:-0.99598 18:-0.199658 19:0.159928 20:-0.788074 21:-0.446712 22:-0.897436 23:-0.948052 24:-0.983914 25:-0.958225 26:-0.473684 27:-0.99397 28:-0.212839 29:0.0559147 30:-0.790526 
2048 1:-0.260771 2:-0.948718 3:-1 4:-1 5:-1 6:-0.221053 7:-0.99196 8:-0.199658 9:0.0149374 10:-0.799052 11:-0.535147 12:-0.948718 13:-0.974026 14:-0.957105 15:-0.879896 16:0.431579 17:-0.99598 18:-0.199658 19:0.0693547 20:-0.726792 21:-0.235828 22:-0.871795 23:-0.896104 24:-0.876676 25:-0.827676 26:0.157895 27:-0.99196 28:-0.201367 29:0.147584 30:-0.824753 
2048 1:-0.535147 2:-0.948718 3:-0.974026 4:-0.957105 5:-0.879896 6:0.431579 7:-0.99598 8:-0.199658 9:0.0693547 10:-0.726792 11:-0.235828 12:-0.871795 13:-0.896104 14:-0.876676 15:-0.827676 16:0.157895 17:-0.99196 18:-0.201367 19:0.147584 20:-0.824753 21:-0.46712 22:-0.897436 23:-0.974026 24:-0.957105 25:-0.958225 26:-0.578947 27:-0.99397 28:-0.19917 29:0.0624886 30:-0.783515 
2048 1:-0.235828 2:-0.871795 3:-0.896104 4:-0.876676 5:-0.827676 6:0.157895 7:-0.99196 8:-0.201367 9:0.147584 10:-0.824753 11:-0.46712 12:-0.897436 13:-0.974026 14:-0.957105 15:-0.958225 16:-0.578947 17:-0.99397 18:-0.19917 19:0.0624886 20:-0.783515 21:-0.44898 22:-0.948718 23:-1 24:-0.957105 25:-0.958225 26:-0.0526316 27:-0.99598 28:-0.199658 29:0.106095 30:-0.770796 
905.9374171689609 1:-0.349206 2:-1 3:-0.974026 4:-0.983914 5:-0.958225 6:-0.0526316 7:-0.99598 8:-0.200391 9:0.137212 10:-0.797742 11:0.92517 12:-0.923077 13:-0.792208 14:-0.930295 15:-0.827676 16:0.473684 17:-0.98593 18:-0.198682 19:0.292575 20:-0.871647 21:-0.0453515 22:-0.769231 23:-0.662338 24:-0.742627 25:-0.56658 26:1 27:-0.98995 28:-0.184281 29:0.245973 30:-0.707846 
279.1442278586686 1:0.92517 2:-0.923077 3:-0.792208 4:-0.930295 5:-0.827676 6:0.473684 7:-0.98593 8:-0.198682 9:0.292575 10:-0.871647 11:-0.0453515 12:-0.769231 13:-0.662338 14:-0.742627 15:-0.56658 16:1 17:-0.98995 18:-0.184281 19:0.245973 20:-0.707846 21:-0.253968 22:-0.589744 23:-0.636364 24:-0.689008 25:-0.56658 26:-0.0526316 27:-0.98794 28:-0.199658 29:0.00785216 30:-0.698698 
18.88524212071615 1:-0.0453515 2:-0.769231 3:-0.662338 4:-0.742627 5:-0.56658 6:1 7:-0.98995 8:-0.184281 9:0.245973 10:-0.707846 11:-0.253968 12:-0.589744 13:-0.636364 14:-0.689008 15:-0.56658 16:-0.0526316 17:-0.98794 18:-0.199658 19:0.00785216 20:-0.698698 21:-0.222222 22:-0.641026 23:-0.61039 24:-0.662198 25:-0.56658 26:-0.0526316 27:-0.99196 28:-0.199658 29:0.0979146 30:-0.728563 
2048 1:-0.253968 2:-0.589744 3:-0.636364 4:-0.689008 5:-0.56658 6:-0.0526316 7:-0.98794 8:-0.199658 9:0.00785216 10:-0.698698 11:-0.222222 12:-0.641026 13:-0.61039 14:-0.662198 15:-0.56658 16:-0.0526316 17:-0.99196 18:-0.199658 19:0.0979146 20:-0.728563 21:-0.442177 22:-0.666667 23:-0.714286 24:-0.715818 25:-0.697128 26:-0.578947 27:-0.99397 28:-0.199658 29:0.0163982 30:-0.815334 
215.9473683122902 1:-0.104308 2:-0.717949 3:-0.584416 4:-0.715818 5:-0.54047 6:0.789474 7:-0.99196 8:-0.199658 9:0.306673 10:-0.693956 11:-0.54195 12:-0.564103 13:-0.61039 14:-0.608579 15:-0.592689 16:-0.263158 17:-0.99397 18:-0.198926 19:0.105438 20:-0.754843 21:-0.0453515 22:-0.564103 23:-0.584416 24:-0.581769 25:-0.54047 26:0.157895 27:-0.98995 28:-0.199658 29:0.181549 30:-0.698801 
2048 1:-0.54195 2:-0.564103 3:-0.61039 4:-0.608579 5:-0.592689 6:-0.263158 7:-0.99397 8:-0.198926 9:0.105438 10:-0.754843 11:-0.0453515 12:-0.564103 13:-0.584416 14:-0.581769 15:-0.54047 16:0.157895 17:-0.98995 18:-0.199658 19:0.181549 20:-0.698801 21:-0.680272 22:-0.589744 23:-0.636364 24:-0.608579 25:-0.56658 26:-0.157895 27:-0.99598 28:-0.197217 29:0.125963 30:-0.763683 
2048 1:-0.680272 2:-0.589744 3:-0.636364 4:-0.608579 5:-0.56658 6:-0.157895 7:-0.99598 8:-0.197217 9:0.125963 10:-0.763683 11:-0.573696 12:-0.589744 13:-0.61039 14:-0.608579 15:-0.592689 16:-0.157895 17:-0.99397 18:-0.199658 19:0.128082 20:-0.741451 21:-0.585034 22:-0.564103 23:-0.636364 24:-0.608579 25:-0.56658 26:0.0526316 27:-0.99397 28:-0.199658 29:0.129104 30:-0.750086 
476.3331654864702 1:-0.585034 2:-0.564103 3:-0.636364 4:-0.608579 5:-0.56658 6:0.0526316 7:-0.99397 8:-0.199658 9:0.129104 10:-0.750086 11:-0.362812 12:-0.615385 13:-0.662338 14:-0.662198 15:-0.618799 16:-0.263158 17:-0.98995 18:-0.199658 19:0.0870312 20:-0.757228 21:-0.503401 22:-0.641026 23:-0.662338 24:-0.662198 25:-0.56658 26:0.157895 27:-0.99397 28:-0.199658 29:0.0945546 30:-0.750884 
265.195411417519 1:-0.0113379 2:-0.512821 3:-0.480519 4:-0.50134 5:-0.409922 6:0.473684 7:-0.98794 8:-0.211374 9:0.125963 10:-0.723463 11:0.501134 12:-0.435897 13:-0.246753 14:-0.394102 15:-0.148825 16:1 17:-0.98191 18:-0.199658 19:0.151894 20:-0.627968 21:-1 22:-0.153846 23:0.038961 24:-0.152815 25:0.0078329 26:0.578947 27:-0.975879 28:-0.199658 29:0.22669 30:-0.806611 
2048 1:-0.360544 2:-0.102564 3:-0.038961 4:-0.0723861 5:0.0339426 6:0.368421 7:-0.99397 8:-0.197706 9:0.160513 10:-0.706382 11:-0.362812 12:-0.0512821 13:-0.0909091 14:-0.0455764 15:0.0078329 16:-0.157895 17:-0.99397 18:-0.199658 19:0.120339 20:-0.749252 21:-0.183673 22:-4.44089e-016 23:-0.012987 24:-0.0187668 25:-0.0182768 26:-0.157895 27:-0.99196 28:-0.199658 29:0.125963 30:-0.786552 
2048 1:-0.54195 2:-0.205128 3:-0.246753 4:-0.179625 5:-0.148825 6:0.263158 7:-0.99397 8:-0.199658 9:0.0325408 10:-0.681208 11:-0.217687 12:-0.102564 13:-0.0909091 14:-0.0991957 15:-0.0704961 16:0.263158 17:-0.99196 18:-0.199658 19:0.163654 20:-0.685782 21:-0.165533 22:-0.0769231 23:-0.116883 24:-0.0723861 25:-0.0443864 26:0.0526316 27:-0.99196 28:-0.199414 29:0.056426 30:-0.699693 
1842.293202027161 1:-0.47619 2:-0.0512821 3:-0.116883 4:-0.126005 5:-0.0443864 6:-0.0526316 7:-0.99397 8:-0.175494 9:0.144078 10:-0.746581 11:-0.0612245 12:-0.128205 13:-0.168831 14:-0.179625 15:-0.174935 16:-0.578947 17:-0.99196 18:-0.199658 19:0.765239 20:-0.791924 21:-0.464853 22:-0.230769 23:-0.194805 24:-0.179625 25:-0.148825 26:0.0526316 27:-0.99598 28:-0.181108 29:0.177386 30:-0.677754 
2048 1:-0.539683 2:-0.205128 3:-0.246753 4:-0.233244 5:-0.148825 6:-0.0526316 7:-0.99397 8:-0.199658 9:0.102005 10:-0.707963 11:-0.716553 12:-0.153846 13:-0.220779 14:-0.206434 15:-0.201044 16:-0.263158 17:-0.99799 18:-0.199658 19:0.149337 20:-0.767649 21:-0.768707 22:-0.230769 23:-0.246753 24:-0.206434 25:-0.174935 26:0.0526316 27:-0.99799 28:-0.288992 29:0.162777 30:-0.697886 
2048 1:-0.356009 2:-0.25641 3:-0.298701 4:-0.313673 5:-0.253264 6:-0.368421 7:-0.99397 8:-0.199658 9:-0.0779738 10:-0.687684 11:-0.489796 12:-0.282051 13:-0.246753 14:-0.260054 15:-0.148825 16:0.368421 17:-0.99397 18:-0.199658 19:0.14532 20:-0.637401 21:-0.360544 22:-0.153846 23:-0.220779 24:-0.233244 25:-0.201044 26:-0.263158 27:-0.99397 28:-0.199658 29:0.204047 30:-0.746142 
2048 1:-0.489796 2:-0.282051 3:-0.246753 4:-0.260054 5:-0.148825 6:0.368421 7:-0.99397 8:-0.199658 9:0.14532 10:-0.637401 11:-0.360544 12:-0.153846 13:-0.220779 14:-0.233244 15:-0.201044 16:-0.263158 17:-0.99397 18:-0.199658 19:0.204047 20:-0.746142 21:-0.582766 22:-0.282051 23:-0.324675 24:-0.286863 25:-0.279373 26:-0.368421 27:-0.99598 28:-0.199658 29:0.0586903 30:-0.761297 
1511.687794678586 1:-0.582766 2:-0.282051 3:-0.324675 4:-0.286863 5:-0.279373 6:-0.368421 7:-0.99598 8:-0.199658 9:0.0586903 10:-0.761297 11:-0.321995 12:-0.358974 13:-0.402597 14:-0.367292 15:-0.305483 16:-0.157895 17:-0.99397 18:-0.199658 19:0.164457 20:-0.71572 21:0.170068 22:-0.410256 23:-0.480519 24:-0.52815 25:-0.488251 26:-0.789474 27:-0.98794 28:-0.200146 29:0.0526277 30:-0.900978 
2048 1:-0.321995 2:-0.358974 3:-0.402597 4:-0.367292 5:-0.305483 6:-0.157895 7:-0.99397 8:-0.199658 9:0.164457 10:-0.71572 11:0.170068 12:-0.410256 13:-0.480519 14:-0.52815 15:-0.488251 16:-0.789474 17:-0.98794 18:-0.200146 19:0.0526277 20:-0.900978 21:0.00680272 22:-0.589744 23:-0.558442 24:-0.581769 25:-0.54047 26:-0.263158 27:-0.98593 28:-0.199658 29:0.197473 30:-0.892087 
2048 1:-0.131519 2:-0.641026 3:-0.662338 4:-0.635389 5:-0.592689 6:0.157895 7:-0.98593 8:-0.209666 9:0.170885 10:-0.8106 11:-0.29932 12:-0.564103 13:-0.584416 14:-0.55496 15:-0.54047 16:0.157895 17:-0.99397 18:-0.199658 19:0.196888 20:-0.71662 21:-0.482993 22:-0.538462 23:-0.558442 24:-0.55496 25:-0.488251 26:0.157895 27:-0.99598 28:-0.18599 29:0.118148 30:-0.676466 
2048 1:-0.29932 2:-0.564103 3:-0.584416 4:-0.55496 5:-0.54047 6:0.157895 7:-0.99397 8:-0.199658 9:0.196888 10:-0.71662 11:-0.482993 12:-0.538462 13:-0.558442 14:-0.55496 15:-0.488251 16:0.157895 17:-0.99598 18:-0.18599 19:0.118148 20:-0.676466 21:-0.77551 22:-0.538462 23:-0.584416 24:-0.52815 25:-0.51436 26:-0.157895 27:-0.99799 28:-0.199658 29:0.119828 30:-0.73995 
2048 1:-0.482993 2:-0.538462 3:-0.558442 4:-0.55496 5:-0.488251 6:0.157895 7:-0.99598 8:-0.18599 9:0.118148 10:-0.676466 11:-0.77551 12:-0.538462 13:-0.584416 14:-0.52815 15:-0.51436 16:-0.157895 17:-0.99799 18:-0.199658 19:0.119828 20:-0.73995 21:-0.546485 22:-0.512821 23:-0.558442 24:-0.608579 25:-0.592689 26:-0.368421 27:-0.99598 28:-0.199658 29:0.129104 30:-0.821818 
2048 1:-0.46712 2:-0.589744 3:-0.61039 4:-0.662198 5:-0.671018 6:-0.368421 7:-0.99397 8:-0.19917 9:0.074979 10:-0.758838 11:-0.60771 12:-0.641026 13:-0.714286 14:-0.662198 15:-0.644909 16:0.0526316 17:-0.99598 18:-0.199658 19:0.303678 20:-0.738033 21:-0.702948 22:-0.666667 23:-0.662338 24:-0.662198 25:-0.592689 26:0.157895 27:-0.99799 28:-0.199658 29:0.101202 30:-0.719701 
2048 1:-0.600907 2:-0.692308 3:-0.688312 4:-0.662198 5:-0.592689 6:-0.0526316 7:-0.99799 8:-0.199902 9:0.705635 10:-0.734872 11:-0.45805 12:-0.589744 13:-0.584416 14:-0.581769 15:-0.51436 16:0.263158 17:-0.99598 18:-0.199658 19:0.480881 20:-0.710341 21:-0.650794 22:-0.564103 23:-0.584416 24:-0.55496 25:-0.488251 26:0.0526316 27:-0.99598 28:-0.199658 29:0.153135 30:-0.74743 
2048 1:-0.45805 2:-0.589744 3:-0.584416 4:-0.581769 5:-0.51436 6:0.263158 7:-0.99598 8:-0.199658 9:0.480881 10:-0.710341 11:-0.650794 12:-0.564103 13:-0.584416 14:-0.55496 15:-0.488251 16:0.0526316 17:-0.99598 18:-0.199658 19:0.153135 20:-0.74743 21:-0.54195 22:-0.512821 23:-0.584416 24:-0.635389 25:-0.644909 26:-0.684211 27:-0.99397 28:-0.199658 29:0.0954311 30:-0.796263 
2048 1:-0.650794 2:-0.564103 3:-0.584416 4:-0.55496 5:-0.488251 6:0.0526316 7:-0.99598 8:-0.199658 9:0.153135 10:-0.74743 11:-0.54195 12:-0.512821 13:-0.584416 14:-0.635389 15:-0.644909 16:-0.684211 17:-0.99397 18:-0.199658 19:0.0954311 20:-0.796263 21:-0.353741 22:-0.692308 23:-0.688312 24:-0.689008 25:-0.644909 26:-0.0526316 27:-0.99598 28:-0.199658 29:0.146488 30:-0.839975 
2048 1:-0.54195 2:-0.512821 3:-0.584416 4:-0.635389 5:-0.644909 6:-0.684211 7:-0.99397 8:-0.199658 9:0.0954311 10:-0.796263 11:-0.353741 12:-0.692308 13:-0.688312 14:-0.689008 15:-0.644909 16:-0.0526316 17:-0.99598 18:-0.199658 19:0.146488 20:-0.839975 21:-0.480726 22:-0.641026 23:-0.688312 24:-0.715818 25:-0.644909 26:-0.0526316 27:-0.99598 28:-0.199658 29:0.12852 30:-0.766449 
1058.724212590417 1:-0.353741 2:-0.692308 3:-0.688312 4:-0.689008 5:-0.644909 6:-0.0526316 7:-0.99598 8:-0.199658 9:0.146488 10:-0.839975 11:-0.480726 12:-0.641026 13:-0.688312 14:-0.715818 15:-0.644909 16:-0.0526316 17:-0.99598 18:-0.199658 19:0.12852 20:-0.766449 21:-0.174603 22:-0.692308 23:-0.766234 24:-0.903485 25:-0.827676 26:-0.789474 27:-0.99196 28:-0.199658 29:0.138235 30:-0.877026 
2048 1:-0.480726 2:-0.641026 3:-0.688312 4:-0.715818 5:-0.644909 6:-0.0526316 7:-0.99598 8:-0.199658 9:0.12852 10:-0.766449 11:-0.174603 12:-0.692308 13:-0.766234 14:-0.903485 15:-0.827676 16:-0.789474 17:-0.99196 18:-0.199658 19:0.138235 20:-0.877026 21:-0.301587 22:-0.846154 23:-0.896104 24:-0.876676 25:-0.853786 26:-0.157895 27:-0.99598 28:-0.198682 29:0.139988 30:-0.903854 
2048 1:-0.301587 2:-0.846154 3:-0.896104 4:-0.876676 5:-0.853786 6:-0.157895 7:-0.99598 8:-0.198682 9:0.139988 10:-0.903854 11:-0.199546 12:-0.871795 13:-0.948052 14:-0.930295 15:-0.906005 16:-0.263158 17:-0.98794 18:-0.199658 19:0.0629999 20:-0.899149 21:-0.367347 22:-0.897436 23:-0.922078 24:-0.903485 25:-0.879896 26:0.0526316 27:-0.99598 28:-0.199658 29:0.14437 30:-0.8825 
2048 1:-0.199546 2:-0.871795 3:-0.948052 4:-0.930295 5:-0.906005 6:-0.263158 7:-0.98794 8:-0.199658 9:0.0629999 10:-0.899149 11:-0.367347 12:-0.897436 13:-0.922078 14:-0.903485 15:-0.879896 16:0.0526316 17:-0.99598 18:-0.199658 19:0.14437 20:-0.8825 21:-0.185941 22:-0.923077 23:-0.922078 24:-0.930295 25:-0.879896 26:-0.0526316 27:-0.99397 28:-0.196973 29:0.176728 30:-0.925787 
267.5610280533036 1:-0.185941 2:-0.923077 3:-0.922078 4:-0.930295 5:-0.879896 6:-0.0526316 7:-0.99397 8:-0.196973 9:0.176728 10:-0.925787 11:0.102041 12:-0.846154 13:-0.922078 14:-0.930295 15:-0.879896 16:-0.0526316 17:-0.99397 18:-0.199658 19:0.00902085 20:-0.985971 21:-0.190476 22:-0.923077 23:-0.922078 24:-0.930295 25:-0.879896 26:-0.0526316 27:-0.99598 28:-0.199658 29:0.122603 30:-0.908399 
1788.039185881898 1:-0.190476 2:-0.923077 3:-0.922078 4:-0.930295 5:-0.879896 6:-0.0526316 7:-0.99598 8:-0.199658 9:0.122603 10:-0.908399 11:-0.324263 12:-0.897436 13:-0.974026 14:-0.930295 15:-0.906005 16:-0.157895 17:-0.98995 18:-0.19917 19:0.13597 20:-0.855613 21:-0.278912 22:-0.923077 23:-0.948052 24:-0.930295 25:-0.879896 26:0.0526316 27:-0.99397 28:-0.199658 29:0.103685 30:-0.8118 
2048 1:-0.324263 2:-0.897436 3:-0.974026 4:-0.930295 5:-0.906005 6:-0.157895 7:-0.98995 8:-0.19917 9:0.13597 10:-0.855613 11:-0.278912 12:-0.923077 13:-0.948052 14:-0.930295 15:-0.879896 16:0.0526316 17:-0.99397 18:-0.199658 19:0.103685 20:-0.8118 21:-0.185941 22:-0.923077 23:-0.948052 24:-0.930295 25:-0.879896 26:-0.0526316 27:-0.99397 28:-0.199658 29:0.134582 30:-0.849034 
2048 1:-0.185941 2:-0.923077 3:-0.948052 4:-0.930295 5:-0.879896 6:-0.0526316 7:-0.99397 8:-0.199658 9:0.134582 10:-0.849034 11:-0.306122 12:-0.923077 13:-0.974026 14:-0.930295 15:-0.906005 16:-0.157895 17:-0.98794 18:-0.199658 19:0.152697 20:-0.842426 21:-0.349206 22:-0.923077 23:-0.948052 24:-0.930295 25:-0.879896 26:0.0526316 27:-0.99598 28:-0.199658 29:0.129762 30:-0.75305 
1044.095757251931 1:-0.349206 2:-0.923077 3:-0.948052 4:-0.930295 5:-0.879896 6:0.0526316 7:-0.99598 8:-0.199658 9:0.129762 10:-0.75305 11:-0.741497 12:-0.871795 13:-0.922078 14:-0.903485 15:-0.906005 16:-0.157895 17:-0.99799 18:-0.199658 19:0.0773164 20:-0.736277 21:-0.426304 22:-0.923077 23:-0.818182 24:-0.930295 25:-0.723238 26:0.684211 27:-0.99598 28:-0.199658 29:0.190461 30:-0.689924 
1494.085785197409 1:-0.426304 2:-0.923077 3:-0.818182 4:-0.930295 5:-0.723238 6:0.684211 7:-0.99598 8:-0.199658 9:0.190461 10:-0.689924 11:-0.69161 12:-0.74359 13:-0.792208 14:-0.796247 15:-0.801567 16:-0.368421 17:-0.99598 18:-0.199658 19:0.126255 20:-0.73856 21:-0.560091 22:-0.769231 23:-0.792208 24:-0.769437 25:-0.697128 26:0.368421 27:-0.99598 28:-0.199658 29:0.121946 30:-0.714425 
2048 1:-0.496599 2:-0.641026 3:-0.636364 4:-0.635389 5:-0.56658 6:0.157895 7:-0.99397 8:-0.199658 9:0.100106 10:-0.670026 11:0.115646 12:-0.589744 13:-0.558442 14:-0.608579 15:-0.462141 16:0.368421 17:-0.99196 18:-0.212351 19:0.148534 20:-0.662371 21:-0.0453515 22:-0.487179 23:-0.506494 24:-0.50134 25:-0.488251 26:-0.157895 27:-0.98593 28:-0.199658 29:0.183887 30:-0.687706 
453.5166934581519 1:0.115646 2:-0.589744 3:-0.558442 4:-0.608579 5:-0.462141 6:0.368421 7:-0.99196 8:-0.212351 9:0.148534 10:-0.662371 11:-0.0453515 12:-0.487179 13:-0.506494 14:-0.50134 15:-0.488251 16:-0.157895 17:-0.98593 18:-0.199658 19:0.183887 20:-0.687706 21:-0.995465 22:-0.564103 23:-0.636364 24:-0.662198 25:-0.592689 26:-0.473684 27:-0.98593 28:-0.199658 29:0.108141 30:1 
210.0976436461267 1:-0.995465 2:-0.564103 3:-0.636364 4:-0.662198 5:-0.592689 6:-0.473684 7:-0.98593 8:-0.199658 9:0.108141 10:1 11:0.786848 12:-0.615385 13:-0.688312 14:-0.715818 15:-0.671018 16:-0.368421 17:-0.98392 18:-0.197217 19:0.162193 20:-0.981727 21:-0.879819 22:-0.692308 23:-0.714286 24:-0.689008 25:-0.644909 26:0.0526316 27:1 28:-0.199658 29:0.142909 30:-0.728 
2048 1:-0.378685 2:-0.666667 3:-0.714286 4:-0.662198 5:-0.644909 6:-0.0526316 7:-0.99397 8:-0.199658 9:0.111574 10:-0.702174 11:-0.0453515 12:-0.641026 13:-0.688312 14:-0.635389 15:-0.618799 16:0.0526316 17:-0.98995 18:-0.199658 19:0.155765 20:-0.736591 21:-0.213152 22:-0.615385 23:-0.662338 24:-0.635389 25:-0.592689 26:0.0526316 27:-0.99196 28:-0.199658 29:0.154596 30:-0.724114 
2048 1:-0.0453515 2:-0.641026 3:-0.688312 4:-0.635389 5:-0.618799 6:0.0526316 7:-0.98995 8:-0.199658 9:0.155765 10:-0.736591 11:-0.213152 12:-0.615385 13:-0.662338 14:-0.635389 15:-0.592689 16:0.0526316 17:-0.99196 18:-0.199658 19:0.154596 20:-0.724114 21:0.369615 22:-0.666667 23:-0.74026 24:-0.849866 25:-0.827676 26:-1 27:-0.98392 28:-0.199658 29:0.0768051 30:-1 
1320.438319734542 1:0.369615 2:-0.666667 3:-0.74026 4:-0.849866 5:-0.827676 6:-1 7:-0.98392 8:-0.199658 9:0.0768051 10:-1 11:-0.578231 12:-0.820513 13:-0.87013 14:-0.823056 15:-0.827676 16:-0.0526316 17:-0.99196 18:-0.199658 19:0.159928 20:-0.784291 21:-0.596372 22:-0.820513 23:-0.87013 24:-0.823056 25:-0.801567 26:0.0526316 27:-0.99397 28:-0.199658 29:0.149118 30:-0.791638 
2048 1:-0.281179 2:-0.820513 3:-0.896104 4:-0.876676 5:-0.853786 6:-0.263158 7:-0.99397 8:-0.0224555 9:0.105365 10:-0.859924 11:-0.362812 12:-0.846154 13:-0.896104 14:-0.849866 15:-0.827676 16:0.0526316 17:-0.99397 18:0.261899 19:0.131368 20:-0.750576 21:-0.648526 22:-0.846154 23:-0.87013 24:-0.823056 25:-0.775457 26:0.157895 27:-0.99598 28:-0.102758 29:0.141302 30:-0.733196 
2048 1:-0.648526 2:-0.846154 3:-0.87013 4:-0.823056 5:-0.775457 6:0.157895 7:-0.99598 8:-0.102758 9:0.141302 10:-0.733196 11:-0.510204 12:-0.794872 13:-0.844156 14:-0.796247 15:-0.775457 16:-0.0526316 17:-0.99397 18:-0.118623 19:0.115445 20:-0.687414 21:-0.575964 22:-0.794872 23:-0.844156 24:-0.823056 25:-0.749347 26:0.0526316 27:-0.99598 28:-0.199658 29:0.128958 30:-0.7128 
2048 1:-0.510204 2:-0.794872 3:-0.844156 4:-0.796247 5:-0.775457 6:-0.0526316 7:-0.99397 8:-0.118623 9:0.115445 10:-0.687414 11:-0.575964 12:-0.794872 13:-0.844156 14:-0.823056 15:-0.749347 16:0.0526316 17:-0.99598 18:-0.199658 19:0.128958 20:-0.7128 21:-0.684807 22:-0.794872 23:-0.844156 24:-0.796247 25:-0.775457 26:-0.157895 27:-0.99799 28:-0.199658 29:0.129542 30:-0.713488 
2048 1:-0.575964 2:-0.794872 3:-0.844156 4:-0.823056 5:-0.749347 6:0.0526316 7:-0.99598 8:-0.199658 9:0.128958 10:-0.7128 11:-0.684807 12:-0.794872 13:-0.844156 14:-0.796247 15:-0.775457 16:-0.157895 17:-0.99799 18:-0.199658 19:0.129542 20:-0.713488 21:-0.0181406 22:-0.794872 23:-0.844156 24:-0.930295 25:-0.879896 26:-0.473684 27:-0.99196 28:-0.210398 29:0.0646068 30:-0.811997 
2048 1:-0.623583 2:-0.923077 3:-0.948052 4:-0.930295 5:-0.853786 6:0.0526316 7:-0.99598 8:-0.200146 9:0.126255 10:-0.740433 11:-0.575964 12:-0.871795 13:-0.896104 14:-0.876676 15:-0.801567 16:0.157895 17:-0.99598 18:-0.199658 19:0.144735 20:-0.705416 21:-0.396825 22:-0.820513 23:-0.844156 24:-0.823056 25:-0.775457 26:0.0526316 27:-0.99397 28:-0.19917 29:0.118586 30:-0.714066 
1628.52349529562 1:-0.621315 2:-0.794872 3:-0.844156 4:-0.796247 5:-0.775457 6:-0.0526316 7:-0.99598 8:-0.199658 9:0.171542 10:-0.698061 11:-0.641723 12:-0.794872 13:-0.792208 14:-0.769437 15:-0.749347 16:0.0526316 17:-0.99598 18:-0.199658 19:0.151967 20:-0.72044 21:0.929705 22:-0.74359 23:-0.558442 24:-0.715818 25:-0.488251 26:1 27:-0.979899 28:-0.223578 29:0.3047 30:-0.382548 
304.704689897499 1:-0.641723 2:-0.794872 3:-0.792208 4:-0.769437 5:-0.749347 6:0.0526316 7:-0.99598 8:-0.199658 9:0.151967 10:-0.72044 11:0.929705 12:-0.74359 13:-0.558442 14:-0.715818 15:-0.488251 16:1 17:-0.979899 18:-0.223578 19:0.3047 20:-0.382548 21:-0.174603 22:-0.538462 23:-0.61039 24:-0.608579 25:-0.592689 26:-0.473684 27:-0.98995 28:-0.224555 29:-0.0144261 30:-0.745498 
2048 1:-0.174603 2:-0.538462 3:-0.61039 4:-0.608579 5:-0.592689 6:-0.473684 7:-0.98995 8:-0.224555 9:-0.0144261 10:-0.745498 11:-0.641723 12:-0.589744 13:-0.636364 14:-0.608579 15:-0.592689 16:-0.0526316 17:-0.99598 18:-0.199658 19:0.115664 20:-0.725402 21:-0.133787 22:-0.564103 23:-0.584416 24:-0.55496 25:-0.51436 26:0.263158 27:-0.98794 28:-0.199658 29:0.205873 30:-0.611005 
2048 1:-0.641723 2:-0.589744 3:-0.636364 4:-0.608579 5:-0.592689 6:-0.0526316 7:-0.99598 8:-0.199658 9:0.115664 10:-0.725402 11:-0.133787 12:-0.564103 13:-0.584416 14:-0.55496 15:-0.51436 16:0.263158 17:-0.98794 18:-0.199658 19:0.205873 20:-0.611005 21:0.0861678 22:-0.512821 23:-0.558442 24:-0.52815 25:-0.51436 26:-0.0526316 27:-0.98794 28:-0.199658 29:0.119755 30:-0.571333 
334.3491575607849 1:0.0861678 2:-0.512821 3:-0.558442 4:-0.52815 5:-0.51436 6:-0.0526316 7:-0.98794 8:-0.199658 9:0.119755 10:-0.571333 11:0.142857 12:-0.487179 13:-0.558442 14:-0.52815 15:-0.51436 16:-0.0526316 17:-0.98794 18:-0.199658 19:0.356488 20:-0.641324 21:0.848073 22:-0.538462 23:-0.532468 24:-0.50134 25:-0.488251 26:0.0526316 27:-0.98392 28:-0.190139 29:1 30:-0.628803 
2048 1:-0.165533 2:-0.384615 3:-0.454545 4:-0.447721 5:-0.409922 6:-0.263158 7:-0.98794 8:-0.180376 9:0.0469304 10:-0.701098 11:0.0816327 12:-0.410256 13:-0.454545 14:-0.394102 15:-0.357702 16:0.157895 17:-0.98392 18:-0.206004 19:0.174829 20:-0.652338 21:-0.306122 22:-0.384615 23:-0.454545 24:-0.474531 25:-0.436031 26:-0.368421 27:-0.99196 28:-0.173542 29:0.0592016 30:-0.739592 
407.4110230940481 1:-0.306122 2:-0.384615 3:-0.454545 4:-0.474531 5:-0.436031 6:-0.368421 7:-0.99196 8:-0.173542 9:0.0592016 10:-0.739592 11:-0.267574 12:-0.435897 13:-0.506494 14:-0.52815 15:-0.462141 16:-0.157895 17:-0.99196 18:-0.0837198 19:0.11676 20:-0.727253 21:0.344671 22:-0.487179 23:-0.350649 24:-0.50134 25:-0.279373 26:0.684211 27:-0.979899 28:0.599219 29:0.226252 30:-0.524929 
52.15303118569657 1:0.344671 2:-0.487179 3:-0.350649 4:-0.50134 5:-0.279373 6:0.684211 7:-0.979899 8:0.599219 9:0.226252 10:-0.524929 11:-0.1678 12:-0.282051 13:-0.324675 14:-0.313673 15:-0.305483 16:-0.157895 17:-0.99196 18:-0.200146 19:0.0722034 20:-0.707216 21:0.0997732 22:-0.333333 23:-0.376623 24:-0.367292 25:-0.305483 26:-0.0526316 27:-0.98392 28:-0.171589 29:0.165114 30:-0.615286 
2048 1:-0.306122 2:-0.384615 3:-0.402597 4:-0.367292 5:-0.331593 6:0.0526316 7:-0.98794 8:-0.199414 9:0.16044 10:-0.633889 11:-0.124717 12:-0.358974 13:-0.376623 14:-0.340483 15:-0.279373 16:0.157895 17:-0.98995 18:-0.202099 19:0.116614 20:-0.655653 21:-0.29932 22:-0.358974 23:-0.402597 24:-0.367292 25:-0.357702 26:-0.368421 27:-0.98593 28:-0.195021 29:0.128885 30:-0.799864 
409.6319117833249 1:0.605442 2:-0.205128 3:-0.0909091 4:-0.179625 5:-0.0182768 6:0.578947 7:-0.98392 8:-0.19917 9:0.39133 10:-0.700264 11:-0.124717 12:-0.0769231 13:-0.142857 14:-0.206434 15:-0.0704961 16:-0.263158 17:-0.98794 18:-0.198194 19:-0.193528 20:-0.767335 21:0.0702948 22:-0.102564 23:-0.0649351 24:-0.0723861 25:0.0339426 26:0.368421 27:-0.98392 28:-0.201367 29:0.335086 30:-0.6099 
2048 1:0.0702948 2:-0.102564 3:-0.0649351 4:-0.0723861 5:0.0339426 6:0.368421 7:-0.98392 8:-0.201367 9:0.335086 10:-0.6099 11:-0.333333 12:-4.44089e-016 13:-0.0649351 14:-0.0187668 15:0.0078329 16:-0.157895 17:-0.99397 18:-0.1938 19:-0.0753442 20:-0.71422 21:-0.369615 22:-0.025641 23:-0.0909091 24:-0.0455764 25:-0.0182768 26:-0.157895 27:-0.99196 28:-0.20332 29:0.0275739 30:-0.70587 
1336.745478883407 1:-0.639456 2:-0.205128 3:-0.246753 4:-0.233244 5:-0.227154 6:-0.368421 7:-0.99196 8:-0.202587 9:0.0881998 10:-0.767547 11:-0.575964 12:-0.282051 13:-0.194805 14:-0.233244 15:-0.0966057 16:0.473684 17:-0.99196 18:-0.200146 19:0.161462 20:-0.715142 21:-0.512472 22:-0.179487 23:-0.168831 24:-0.152815 25:-0.0966057 26:-0.0526316 27:-0.98995 28:-0.198926 29:0.127935 30:-0.733269 
2048 1:-0.512472 2:-0.179487 3:-0.168831 4:-0.152815 5:-0.0966057 6:-0.0526316 7:-0.98995 8:-0.198926 9:0.127935 10:-0.733269 11:-0.371882 12:-0.179487 13:-0.246753 14:-0.233244 15:-0.253264 16:-0.684211 17:-0.98995 18:-0.200146 19:0.101129 20:-0.853798 21:-0.637188 22:-0.230769 23:-0.272727 24:-0.206434 25:-0.201044 26:0.157895 27:-0.99397 28:-0.181108 29:0.0915598 30:-0.732303 
2048 1:-0.371882 2:-0.179487 3:-0.246753 4:-0.233244 5:-0.253264 6:-0.684211 7:-0.98995 8:-0.200146 9:0.101129 10:-0.853798 11:-0.637188 12:-0.230769 13:-0.272727 14:-0.206434 15:-0.201044 16:0.157895 17:-0.99397 18:-0.181108 19:0.0915598 20:-0.732303 21:-0.306122 22:-0.25641 23:-0.298701 24:-0.313673 25:-0.331593 26:-0.578947 27:-0.99397 28:-0.201123 29:0.103612 30:-0.814595 
2048 1:-0.637188 2:-0.230769 3:-0.272727 4:-0.206434 5:-0.201044 6:0.157895 7:-0.99397 8:-0.181108 9:0.0915598 10:-0.732303 11:-0.306122 12:-0.25641 13:-0.298701 14:-0.313673 15:-0.331593 16:-0.578947 17:-0.99397 18:-0.201123 19:0.103612 20:-0.814595 21:-0.517007 22:-0.358974 23:-0.402597 24:-0.420912 25:-0.409922 26:-0.368421 27:-0.99397 28:-0.141323 29:0.152697 30:-0.804313 
2048 1:-0.650794 2:-0.358974 3:-0.350649 4:-0.313673 5:-0.253264 6:0.0526316 7:-0.99598 8:-0.199658 9:0.155254 10:-0.734842 11:-0.571429 12:-0.307692 13:-0.298701 14:-0.260054 15:-0.227154 16:0.0526316 17:-0.99598 18:-0.193556 19:0.152405 20:-0.727795 21:-0.512472 22:-0.25641 23:-0.272727 24:-0.233244 25:-0.201044 26:0.0526316 27:-0.99397 28:-0.202343 29:0.11413 30:-0.765608 
2048 1:-0.571429 2:-0.307692 3:-0.298701 4:-0.260054 5:-0.227154 6:0.0526316 7:-0.99598 8:-0.193556 9:0.152405 10:-0.727795 11:-0.512472 12:-0.25641 13:-0.272727 14:-0.233244 15:-0.201044 16:0.0526316 17:-0.99397 18:-0.202343 19:0.11413 20:-0.765608 21:-0.340136 22:-0.282051 23:-0.324675 24:-0.340483 25:-0.357702 26:-0.684211 27:-0.99397 28:-0.19917 29:0.0746868 30:-0.852123 
1783.582417053875 1:-0.340136 2:-0.282051 3:-0.324675 4:-0.340483 5:-0.357702 6:-0.684211 7:-0.99397 8:-0.19917 9:0.0746868 10:-0.852123 11:-0.693878 12:-0.461538 13:-0.454545 14:-0.447721 15:-0.383812 16:-0.157895 17:-1 18:-0.199658 19:0.0978416 20:-0.753152 21:-0.46712 22:-0.435897 23:-0.428571 24:-0.420912 25:-0.357702 26:0.0526316 27:-0.99598 28:-0.199658 29:0.158029 30:-0.76219 
2048 1:-0.693878 2:-0.461538 3:-0.454545 4:-0.447721 5:-0.383812 6:-0.157895 7:-1 8:-0.199658 9:0.0978416 10:-0.753152 11:-0.46712 12:-0.435897 13:-0.428571 14:-0.420912 15:-0.357702 16:0.0526316 17:-0.99598 18:-0.199658 19:0.158029 20:-0.76219 21:-0.47619 22:-0.384615 23:-0.428571 24:-0.420912 25:-0.409922 26:-0.263158 27:-0.99196 28:-0.197706 29:0.0787773 30:-0.807599 
2048 1:-0.47619 2:-0.384615 3:-0.428571 4:-0.420912 5:-0.409922 6:-0.263158 7:-0.99196 8:-0.197706 9:0.0787773 10:-0.807599 11:-0.580499 12:-0.435897 13:-0.480519 14:-0.420912 15:-0.436031 16:-0.157895 17:-0.99598 18:-0.162558 19:0.123042 20:-0.785272 21:-0.510204 22:-0.435897 23:-0.402597 24:-0.394102 25:-0.357702 26:0.263158 27:-0.99598 28:-0.199658 29:0.210474 30:-0.775524 
2048 1:-0.580499 2:-0.435897 3:-0.480519 4:-0.420912 5:-0.436031 6:-0.157895 7:-0.99598 8:-0.162558 9:0.123042 10:-0.785272 11:-0.510204 12:-0.435897 13:-0.402597 14:-0.394102 15:-0.357702 16:0.263158 17:-0.99598 18:-0.199658 19:0.210474 20:-0.775524 21:-0.673469 22:-0.384615 23:-0.402597 24:-0.367292 25:-0.357702 26:-0.0526316 27:-0.99598 28:-0.153771 29:0.131588 30:-0.772655 
2048 1:-0.768707 2:-0.333333 3:-0.376623 4:-0.313673 5:-0.279373 6:0.0526316 7:-0.99799 8:-0.199658 9:0.155473 10:-0.70587 11:-0.768707 12:-0.333333 13:-0.376623 14:-0.340483 15:-0.357702 16:-0.368421 17:-1 18:-0.199658 19:0.105 20:-0.751403 21:-0.469388 22:-0.333333 23:-0.376623 24:-0.313673 25:-0.305483 26:0.157895 27:-0.99397 28:-0.199658 29:0.133998 30:-0.688804 
2048 1:-0.569161 2:-0.333333 3:-0.402597 4:-0.340483 5:-0.357702 6:-0.263158 7:-0.99598 8:-0.162558 9:0.0748329 10:-0.72568 11:-0.827664 12:-0.358974 13:-0.402597 14:-0.340483 15:-0.331593 16:0.0526316 17:-1 18:-0.199658 19:0.169205 20:-0.725958 21:-0.716553 22:-0.333333 23:-0.376623 24:-0.340483 25:-0.279373 26:0.157895 27:-0.99598 28:-0.199658 29:0.143494 30:-0.698874 
2048 1:-0.827664 2:-0.358974 3:-0.402597 4:-0.340483 5:-0.331593 6:0.0526316 7:-1 8:-0.199658 9:0.169205 10:-0.725958 11:-0.716553 12:-0.333333 13:-0.376623 14:-0.340483 15:-0.279373 16:0.157895 17:-0.99598 18:-0.199658 19:0.143494 20:-0.698874 21:-0.696145 22:-0.358974 23:-0.376623 24:-0.313673 25:-0.305483 26:-0.157895 27:-0.99598 28:-0.199658 29:0.115153 30:-0.717374 
2048 1:-0.716553 2:-0.333333 3:-0.376623 4:-0.340483 5:-0.279373 6:0.157895 7:-0.99598 8:-0.199658 9:0.143494 10:-0.698874 11:-0.696145 12:-0.358974 13:-0.376623 14:-0.313673 15:-0.305483 16:-0.157895 17:-0.99598 18:-0.199658 19:0.115153 20:-0.717374 21:-0.793651 22:-0.333333 23:-0.376623 24:-0.313673 25:-0.305483 26:-0.0526316 27:-0.99799 28:-0.199658 29:0.115372 30:-0.741875 
2048 1:-0.696145 2:-0.358974 3:-0.376623 4:-0.313673 5:-0.305483 6:-0.157895 7:-0.99598 8:-0.199658 9:0.115153 10:-0.717374 11:-0.793651 12:-0.333333 13:-0.376623 14:-0.313673 15:-0.305483 16:-0.0526316 17:-0.99799 18:-0.199658 19:0.115372 20:-0.741875 21:-0.712018 22:-0.307692 23:-0.376623 24:-0.340483 25:-0.305483 26:-0.0526316 27:-0.99799 28:-0.199658 29:0.149702 30:-0.718728 
2048 1:-0.712018 2:-0.307692 3:-0.376623 4:-0.340483 5:-0.305483 6:-0.0526316 7:-0.99799 8:-0.199658 9:0.149702 10:-0.718728 11:-0.641723 12:-0.307692 13:-0.376623 14:-0.340483 15:-0.331593 16:-0.157895 17:-0.99799 18:-0.198926 19:0.12589 20:-0.716598 21:0.21542 22:-0.384615 23:-0.402597 24:-0.340483 25:-0.305483 26:0.0526316 27:-0.99598 28:-0.200146 29:0.135094 30:-0.714359 
2048 1:0.21542 2:-0.384615 3:-0.402597 4:-0.340483 5:-0.305483 6:0.0526316 7:-0.99598 8:-0.200146 9:0.135094 10:-0.714359 11:-0.557823 12:-0.333333 13:-0.402597 14:-0.394102 15:-0.409922 16:-0.473684 17:-0.99196 18:-0.198682 19:0.116468 20:-0.803699 21:-0.759637 22:-0.410256 23:-0.428571 24:-0.394102 25:-0.331593 26:0.263158 27:-0.99799 28:-0.199658 29:0.096965 30:-0.690897 
2048 1:-0.759637 2:-0.410256 3:-0.428571 4:-0.394102 5:-0.331593 6:0.263158 7:-0.99799 8:-0.199658 9:0.096965 10:-0.690897 11:-0.780045 12:-0.358974 13:-0.428571 14:-0.394102 15:-0.383812 16:-0.263158 17:-0.99799 18:-0.199658 19:0.119828 20:-0.727385 21:-0.721088 22:-0.410256 23:-0.402597 24:-0.367292 25:-0.305483 26:0.263158 27:-0.99799 28:-0.199658 29:0.121142 30:-0.682869 
52.0764080267958 1:-0.276644 2:-0.128205 3:-0.142857 4:-0.126005 5:-0.0966057 6:-0.0526316 7:-0.99397 8:-0.201123 9:0.0139878 10:-0.706433 11:-0.707483 12:-0.128205 13:-0.142857 14:-0.0991957 15:-0.0966057 16:-0.0526316 17:-0.99799 18:-0.199658 19:0.129104 20:-0.704362 21:-0.639456 22:-0.102564 23:-0.168831 24:-0.0991957 25:-0.0704961 26:0.0526316 27:-0.99196 28:-0.199658 29:0.139622 30:-0.668906 
2048 1:-0.707483 2:-0.128205 3:-0.142857 4:-0.0991957 5:-0.0966057 6:-0.0526316 7:-0.99799 8:-0.199658 9:0.129104 10:-0.704362 11:-0.639456 12:-0.102564 13:-0.168831 14:-0.0991957 15:-0.0704961 16:0.0526316 17:-0.99196 18:-0.199658 19:0.139622 20:-0.668906 21:-0.714286 22:-0.102564 23:-0.168831 24:-0.126005 25:-0.122715 26:-0.263158 27:-0.99598 28:-0.199658 29:0.175925 30:-0.708775 
610.2061254061088 1:-0.678005 2:-0.128205 3:-0.168831 4:-0.126005 5:-0.122715 6:-0.0526316 7:-0.99598 8:-0.199658 9:0.169862 10:-0.708087 11:-0.632653 12:-0.128205 13:-0.168831 14:-0.126005 15:-0.0704961 16:0.157895 17:-0.99598 18:-0.199658 19:0.123772 20:-0.665642 21:-0.725624 22:-0.153846 23:-0.142857 24:-0.126005 25:-0.0443864 26:0.0526316 27:-0.99598 28:-0.199658 29:0.0695007 30:-0.731103 
2048 1:-0.632653 2:-0.128205 3:-0.168831 4:-0.126005 5:-0.0704961 6:0.157895 7:-0.99598 8:-0.199658 9:0.123772 10:-0.665642 11:-0.725624 12:-0.153846 13:-0.142857 14:-0.126005 15:-0.0443864 16:0.0526316 17:-0.99598 18:-0.199658 19:0.0695007 20:-0.731103 21:-0.734694 22:-0.102564 23:-0.142857 24:-0.0991957 25:-0.0704961 26:-0.157895 27:-0.99598 28:-0.200635 29:0.0856433 30:-0.693612 
2048 1:-0.725624 2:-0.153846 3:-0.142857 4:-0.126005 5:-0.0443864 6:0.0526316 7:-0.99598 8:-0.199658 9:0.0695007 10:-0.731103 11:-0.734694 12:-0.102564 13:-0.142857 14:-0.0991957 15:-0.0704961 16:-0.157895 17:-0.99598 18:-0.200635 19:0.0856433 20:-0.693612 21:-0.761905 22:-0.153846 23:-0.168831 24:-0.126005 25:-0.122715 26:-0.263158 27:-0.99799 28:-0.199658 29:0.136701 30:-0.721487 
2048 1:-0.396825 2:-0.179487 3:-0.220779 4:-0.260054 5:-0.279373 6:-0.684211 7:-0.99196 8:-0.199658 9:0.168474 10:-0.762022 11:-0.637188 12:-0.307692 13:-0.246753 14:-0.260054 15:-0.148825 16:0.473684 17:-0.99397 18:-0.333415 19:0.00785216 20:-0.685525 21:-0.664399 22:-0.205128 23:-0.168831 24:-0.152815 25:-0.0966057 26:0.157895 27:-0.99397 28:-0.199658 29:0.169643 30:-0.705665 
2048 1:-0.637188 2:-0.307692 3:-0.246753 4:-0.260054 5:-0.148825 6:0.473684 7:-0.99397 8:-0.333415 9:0.00785216 10:-0.685525 11:-0.664399 12:-0.205128 13:-0.168831 14:-0.152815 15:-0.0966057 16:0.157895 17:-0.99397 18:-0.199658 19:0.169643 20:-0.705665 21:-0.746032 22:-0.102564 23:-0.168831 24:-0.126005 25:-0.0966057 26:-0.0526316 27:-0.99799 28:-0.199658 29:0.121581 30:-0.703404 
1289.335585934902 1:-0.746032 2:-0.102564 3:-0.168831 4:-0.126005 5:-0.0966057 6:-0.0526316 7:-0.99799 8:-0.199658 9:0.121581 10:-0.703404 11:-0.0929705 12:-0.0769231 13:-0.116883 14:-0.313673 15:-0.305483 16:-0.894737 17:-0.98794 18:-0.199658 19:0.0490486 20:-0.745505 21:-0.482993 22:-0.179487 23:-0.194805 24:-0.152815 25:-0.0966057 26:0.789474 27:-0.99397 28:-0.199658 29:0.19236 30:-0.66464 
637.2890465829895 1:-0.482993 2:-0.179487 3:-0.194805 4:-0.152815 5:-0.0966057 6:0.789474 7:-0.99397 8:-0.199658 9:0.19236 10:-0.66464 11:-0.408163 12:-0.153846 13:-0.194805 14:-0.179625 15:-0.201044 16:-0.473684 17:-0.99196 18:-0.199658 19:0.0920711 20:-0.784635 21:-0.369615 22:-0.25641 23:-0.194805 24:-0.233244 25:-0.148825 26:0.157895 27:-0.99397 28:-0.199658 29:0.173076 30:-0.766742 
2048 1:-0.408163 2:-0.153846 3:-0.194805 4:-0.179625 5:-0.201044 6:-0.473684 7:-0.99196 8:-0.199658 9:0.0920711 10:-0.784635 11:-0.369615 12:-0.25641 13:-0.194805 14:-0.233244 15:-0.148825 16:0.157895 17:-0.99397 18:-0.199658 19:0.173076 20:-0.766742 21:-0.548753 22:-0.153846 23:-0.194805 24:-0.179625 25:-0.201044 26:-0.263158 27:-0.99598 28:-0.199658 29:0.104781 30:-0.752925 
2048 1:-0.548753 2:-0.153846 3:-0.194805 4:-0.179625 5:-0.201044 6:-0.263158 7:-0.99598 8:-0.199658 9:0.104781 10:-0.752925 11:-0.643991 12:-0.205128 13:-0.246753 14:-0.179625 15:-0.201044 16:-0.0526316 17:-0.99598 18:-0.199658 19:0.121069 20:-0.745271 21:-0.736961 22:-0.230769 23:-0.246753 24:-0.206434 25:-0.174935 26:0.0526316 27:-0.99598 28:-0.199658 29:0.124064 30:-0.744927 
2048 1:-0.646259 2:-0.230769 3:-0.272727 4:-0.233244 5:-0.253264 6:-0.368421 7:-0.99397 8:-0.199658 9:0.256419 10:-0.780595 11:-0.632653 12:-0.282051 13:-0.272727 14:-0.260054 15:-0.174935 16:0.263158 17:-0.99598 18:-0.199658 19:0.108871 20:-0.733518 21:-0.594104 22:-0.205128 23:-0.220779 24:-0.206434 25:-0.122715 26:0.157895 27:-0.99598 28:-0.199658 29:0.108725 30:-0.691856 
2048 1:-0.138322 2:-0.153846 3:-0.0909091 4:-0.126005 5:-0.0443864 6:0.263158 7:-0.99196 8:-0.199658 9:0.526679 10:-0.7265 11:0.0907029 12:-0.102564 13:-0.038961 14:-0.0991957 15:-0.122715 16:-0.368421 17:-0.99196 18:-0.199658 19:0.0204887 20:-0.733869 21:-0.251701 22:-0.102564 23:-0.0909091 24:-0.0723861 25:-0.0704961 26:0.157895 27:-0.98995 28:-0.206004 29:0.0883459 30:-0.653318 
218.7137921013449 1:0.0907029 2:-0.102564 3:-0.038961 4:-0.0991957 5:-0.122715 6:-0.368421 7:-0.99196 8:-0.199658 9:0.0204887 10:-0.733869 11:-0.251701 12:-0.102564 13:-0.0909091 14:-0.0723861 15:-0.0704961 16:0.157895 17:-0.98995 18:-0.206004 19:0.0883459 20:-0.653318 21:-0.297052 22:-0.102564 23:-0.142857 24:-0.126005 25:-0.122715 26:-0.263158 27:-0.99196 28:-0.230168 29:0.186151 30:-0.730956 
2048 1:-0.297052 2:-0.102564 3:-0.142857 4:-0.126005 5:-0.122715 6:-0.263158 7:-0.99196 8:-0.230168 9:0.186151 10:-0.730956 11:0.0816327 12:-0.153846 13:-0.194805 14:-0.179625 15:-0.174935 16:-0.263158 17:-0.99397 18:-0.199658 19:0.199591 20:-0.763237 21:-0.47619 22:-0.205128 23:-0.194805 24:-0.152815 25:-0.148825 26:0.0526316 27:-0.99397 28:-0.199658 29:0.169278 30:-0.71291 
2048 1:0.0816327 2:-0.153846 3:-0.194805 4:-0.179625 5:-0.174935 6:-0.263158 7:-0.99397 8:-0.199658 9:0.199591 10:-0.763237 11:-0.47619 12:-0.205128 13:-0.194805 14:-0.152815 15:-0.148825 16:0.0526316 17:-0.99397 18:-0.199658 19:0.169278 20:-0.71291 21:-0.324263 22:-0.205128 23:-0.220779 24:-0.179625 25:-0.174935 26:-0.157895 27:-0.99196 28:-0.199658 29:0.0843285 30:-0.6976 
2048 1:-0.324263 2:-0.205128 3:-0.220779 4:-0.179625 5:-0.174935 6:-0.157895 7:-0.99196 8:-0.199658 9:0.0843285 10:-0.6976 11:-0.501134 12:-0.179487 13:-0.246753 14:-0.206434 15:-0.227154 16:-0.263158 17:-0.99598 18:-0.199658 19:0.121727 20:-0.783801 21:-0.639456 22:-0.205128 23:-0.246753 24:-0.179625 25:-0.174935 26:0.157895 27:-0.99799 28:-0.199658 29:0.141156 30:-0.711937 
461.3220680231386 1:-0.650794 2:-0.205128 3:-0.246753 4:-0.206434 5:-0.201044 6:-0.157895 7:-0.99799 8:-0.199658 9:0.128228 10:-0.736782 11:0.278912 12:-0.179487 13:-0.142857 14:-0.126005 15:-0.0443864 16:0.578947 17:-0.98794 18:-0.199658 19:0.0387495 20:-0.632286 21:0.70068 22:-0.0769231 23:-0.012987 24:-0.0455764 25:0.0600522 26:0.368421 27:-0.98593 28:-0.199658 29:0.0461999 30:-0.661171 
2048 1:0.70068 2:-0.0769231 3:-0.012987 4:-0.0455764 5:0.0600522 6:0.368421 7:-0.98593 8:-0.199658 9:0.0461999 10:-0.661171 11:-0.235828 12:0.0512821 13:0.038961 14:0.0080429 15:0.0078329 16:-0.263158 17:-0.99397 18:-0.102026 19:-0.0603703 20:-0.720916 21:-0.136054 22:-0.025641 23:0.012987 24:0.0080429 25:0.0861619 26:0.263158 27:-0.99196 28:-0.199658 29:0.162047 30:-0.688475 
2048 1:-0.235828 2:0.0512821 3:0.038961 4:0.0080429 5:0.0078329 6:-0.263158 7:-0.99397 8:-0.102026 9:-0.0603703 10:-0.720916 11:-0.136054 12:-0.025641 13:0.012987 14:0.0080429 15:0.0861619 16:0.263158 17:-0.99196 18:-0.199658 19:0.162047 20:-0.688475 21:0.0294785 22:0.0769231 23:0.0649351 24:0.0348525 25:0.0600522 26:-0.157895 27:-0.99196 28:-0.354162 29:-0.161097 30:-0.725812 
2048 1:0.0294785 2:0.0769231 3:0.0649351 4:0.0348525 5:0.0600522 6:-0.157895 7:-0.99196 8:-0.354162 9:-0.161097 10:-0.725812 11:-0.333333 12:-4.44089e-016 13:-0.012987 14:0.0348525 15:0.0339426 16:-0.157895 17:-0.99598 18:-0.199658 19:0.196669 20:-0.707934 21:-0.23356 22:0.0512821 23:0.012987 24:0.0616622 25:0.0600522 26:0.0526316 27:-0.99397 28:-0.199658 29:0.0830138 30:-0.674753 
2048 1:-0.333333 2:-4.44089e-016 3:-0.012987 4:0.0348525 5:0.0339426 6:-0.157895 7:-0.99598 8:-0.199658 9:0.196669 10:-0.707934 11:-0.23356 12:0.0512821 13:0.012987 14:0.0616622 15:0.0600522 16:0.0526316 17:-0.99397 18:-0.199658 19:0.0830138 20:-0.674753 21:-0.712018 22:0.0512821 23:-0.012987 24:0.0080429 25:0.0078329 26:-0.263158 27:-0.99799 28:-0.199658 29:0.0607355 30:-0.737806 
2048 1:-0.23356 2:0.0512821 3:0.012987 4:0.0616622 5:0.0600522 6:0.0526316 7:-0.99397 8:-0.199658 9:0.0830138 10:-0.674753 11:-0.712018 12:0.0512821 13:-0.012987 14:0.0080429 15:0.0078329 16:-0.263158 17:-0.99799 18:-0.199658 19:0.0607355 20:-0.737806 21:-0.818594 22:-0.025641 23:-0.0649351 24:0.0080429 25:0.0078329 26:-0.0526316 27:-1 28:-0.199658 29:0.170228 30:-0.738904 
2048 1:-0.712018 2:0.0512821 3:-0.012987 4:0.0080429 5:0.0078329 6:-0.263158 7:-0.99799 8:-0.199658 9:0.0607355 10:-0.737806 11:-0.818594 12:-0.025641 13:-0.0649351 14:0.0080429 15:0.0078329 16:-0.0526316 17:-1 18:-0.199658 19:0.170228 20:-0.738904 21:-0.29932 22:-0.025641 23:-0.0649351 24:-0.0187668 25:-0.0443864 26:-0.263158 27:-0.99799 28:-0.199658 29:0.301633 30:-0.780581 
2048 1:-0.818594 2:-0.025641 3:-0.0649351 4:0.0080429 5:0.0078329 6:-0.0526316 7:-1 8:-0.199658 9:0.170228 10:-0.738904 11:-0.29932 12:-0.025641 13:-0.0649351 14:-0.0187668 15:-0.0443864 16:-0.263158 17:-0.99799 18:-0.199658 19:0.301633 20:-0.780581 21:-0.68254 22:-0.0769231 23:-0.142857 24:-0.0723861 25:-0.0966057 26:-0.263158 27:-1 28:-0.199658 29:0.172565 30:-0.756292 
2048 1:-0.68254 2:-0.0769231 3:-0.142857 4:-0.0723861 5:-0.0966057 6:-0.263158 7:-1 8:-0.199658 9:0.172565 10:-0.756292 11:-0.666667 12:-0.153846 13:-0.168831 14:-0.126005 15:-0.0966057 16:-0.0526316 17:-0.99799 18:-0.199658 19:0.0594938 20:-0.771887 21:-0.907029 22:-0.128205 23:-0.142857 24:-0.0723861 25:-0.0704961 26:0.0526316 27:-1 28:-0.199658 29:0.128593 30:-0.737352 
2048 1:-0.907029 2:-0.128205 3:-0.142857 4:-0.0723861 5:-0.0704961 6:0.0526316 7:-1 8:-0.199658 9:0.128593 10:-0.737352 11:-0.852608 12:-0.102564 13:-0.142857 14:-0.0991957 15:-0.0966057 16:-0.157895 17:-1 18:-0.199658 19:0.137285 20:-0.740836 21:-0.575964 22:-0.102564 23:-0.0649351 24:-0.0723861 25:-0.0182768 26:0.263158 27:-0.99799 28:-0.199658 29:0.234287 30:-0.721165 
2048 1:-0.614512 2:-0.0769231 3:-0.0909091 4:-0.0455764 5:-0.0443864 6:-0.157895 7:-0.99397 8:-0.199658 9:0.172346 10:-0.745541 11:-0.342404 12:-0.0512821 13:-0.038961 14:-0.0187668 15:0.0600522 16:0.368421 17:-0.99397 18:-0.199658 19:0.146927 20:-0.691043 21:-0.673469 22:0.025641 23:-0.038961 24:0.0080429 25:0.0339426 26:-0.157895 27:-0.99598 28:-0.199658 29:0.121946 30:-0.757287 
2048 1:-0.673469 2:0.025641 3:-0.038961 4:0.0080429 5:0.0339426 6:-0.157895 7:-0.99598 8:-0.199658 9:0.121946 10:-0.757287 11:-0.623583 12:-4.44089e-016 13:-0.038961 14:0.0080429 15:0.0339426 16:-0.0526316 17:-0.99196 18:-0.199658 19:0.106972 20:-0.74339 21:-0.378685 22:-0.025641 23:-0.012987 24:0.0348525 25:0.0861619 26:0.157895 27:-0.99598 28:-0.195997 29:0.176144 30:-0.749369 
2048 1:-0.482993 2:0.25641 3:0.194805 4:0.276139 5:0.295039 6:-0.0526316 7:-0.99598 8:-0.199658 9:-0.234214 10:-0.727224 11:-0.435374 12:0.205128 13:0.142857 14:0.22252 15:0.21671 16:-0.368421 17:-0.99397 18:-0.199658 19:-0.0155948 20:-0.767701 21:-0.668934 22:0.153846 23:0.168831 24:0.22252 25:0.24282 26:0.0526316 27:-0.99799 28:-0.199658 29:0.0676747 30:-0.740441 
2048 1:-0.435374 2:0.205128 3:0.142857 4:0.22252 5:0.21671 6:-0.368421 7:-0.99397 8:-0.199658 9:-0.0155948 10:-0.767701 11:-0.668934 12:0.153846 13:0.168831 14:0.22252 15:0.24282 16:0.0526316 17:-0.99799 18:-0.199658 19:0.0676747 20:-0.740441 21:-0.714286 22:0.205128 23:0.142857 24:0.22252 25:0.24282 26:-0.0526316 27:-0.99799 28:-0.199658 29:0.0163252 30:-0.739321 
996.7434604538144 1:-0.668934 2:0.153846 3:0.168831 4:0.22252 5:0.24282 6:0.0526316 7:-0.99799 8:-0.199658 9:0.0676747 10:-0.740441 11:-0.714286 12:0.205128 13:0.142857 14:0.22252 15:0.24282 16:-0.0526316 17:-0.99799 18:-0.199658 19:0.0163252 20:-0.739321 21:-0.596372 22:0.179487 23:0.142857 24:0.19571 25:0.24282 26:-0.0526316 27:-0.99799 28:-0.199658 29:0.255761 30:-0.769838 
2048 1:-0.596372 2:0.179487 3:0.142857 4:0.19571 5:0.24282 6:-0.0526316 7:-0.99799 8:-0.199658 9:0.255761 10:-0.769838 11:-0.442177 12:0.153846 13:0.116883 14:0.19571 15:0.164491 16:-0.368421 17:-0.99598 18:-0.0556505 19:0.184252 20:-0.837091 21:-0.496599 22:0.205128 23:0.168831 24:0.22252 25:0.26893 26:0.368421 27:-0.99598 28:-0.116427 29:0.170593 30:-0.692178 
2048 1:-0.442177 2:0.153846 3:0.116883 4:0.19571 5:0.164491 6:-0.368421 7:-0.99598 8:-0.0556505 9:0.184252 10:-0.837091 11:-0.496599 12:0.205128 13:0.168831 14:0.22252 15:0.26893 16:0.368421 17:-0.99598 18:-0.116427 19:0.170593 20:-0.692178 21:-0.362812 22:0.205128 23:0.194805 24:0.24933 25:0.26893 26:-0.0526316 27:-0.99397 28:-0.109348 29:0.106242 30:-0.729903 
2048 1:-0.496599 2:0.205128 3:0.168831 4:0.22252 5:0.26893 6:0.368421 7:-0.99598 8:-0.116427 9:0.170593 10:-0.692178 11:-0.362812 12:0.205128 13:0.194805 14:0.24933 15:0.26893 16:-0.0526316 17:-0.99397 18:-0.109348 19:0.106242 20:-0.729903 21:-0.21542 22:0.25641 23:0.220779 24:0.22252 25:0.190601 26:-0.368421 27:-0.99196 28:-0.0312424 29:0.158687 30:-0.798173 
2048 1:-0.335601 2:0.461538 3:0.428571 4:0.517426 5:0.530026 6:-0.0526316 7:-0.99397 8:-0.198682 9:0.14868 10:-0.690319 11:-0.344671 12:0.487179 13:0.480519 14:0.571046 15:0.582245 16:0.157895 17:-0.99397 18:0.166463 19:0.155327 20:-0.673612 21:0.031746 22:0.564103 23:0.584416 24:0.597855 25:0.582245 26:-0.0526316 27:-0.99196 28:-0.199658 29:0.359337 30:-0.728358 
2048 1:0.031746 2:0.564103 3:0.584416 4:0.597855 5:0.582245 6:-0.0526316 7:-0.99196 8:-0.199658 9:0.359337 10:-0.728358 11:-0.321995 12:0.538462 13:0.506494 14:0.544236 15:0.582245 16:-0.0526316 17:-0.98995 18:-0.198438 19:0.0965268 20:-0.74762 21:-0.750567 22:0.538462 23:0.532468 24:0.571046 25:0.582245 26:-0.0526316 27:-1 28:-0.199658 29:0.141448 30:-0.727056 
2048 1:-0.394558 2:0.538462 3:0.506494 4:0.571046 5:0.530026 6:-0.263158 7:-0.99598 8:-0.199658 9:0.0779738 10:-0.777785 11:-0.335601 12:0.487179 13:0.506494 14:0.544236 15:0.608355 16:0.263158 17:-0.99598 18:-0.199658 19:0.179431 20:-0.675727 21:-0.455782 22:0.589744 23:0.532468 24:0.571046 25:0.582245 26:-0.157895 27:-0.99799 28:-0.199658 29:0.0923633 30:-0.777229 
2048 1:-0.188209 2:0.461538 3:0.480519 4:0.517426 5:0.582245 6:0.368421 7:-0.99397 8:-0.199414 9:0.144224 10:-0.693802 11:-0.342404 12:0.487179 13:0.454545 14:0.517426 15:0.477807 16:-0.473684 17:-0.99598 18:-0.199658 19:0.0559877 20:-0.78604 21:-0.0702948 22:0.487179 23:0.480519 24:0.544236 25:0.556136 26:0.263158 27:-0.99799 28:-0.199658 29:0.189657 30:-0.679693 
2048 1:-0.0702948 2:0.487179 3:0.480519 4:0.544236 5:0.556136 6:0.263158 7:-0.99799 8:-0.199658 9:0.189657 10:-0.679693 11:-0.562358 12:0.487179 13:0.454545 14:0.517426 15:0.503916 16:-0.263158 17:-0.99799 18:-0.20332 19:-0.17556 20:-0.701076 21:-0.653061 22:0.487179 23:0.454545 24:0.544236 25:0.530026 26:0.0526316 27:-0.99799 28:-0.171345 29:0.123115 30:-0.703382 
2048 1:-0.562358 2:0.487179 3:0.454545 4:0.517426 5:0.503916 6:-0.263158 7:-0.99799 8:-0.20332 9:-0.17556 10:-0.701076 11:-0.653061 12:0.487179 13:0.454545 14:0.544236 15:0.530026 16:0.0526316 17:-0.99799 18:-0.171345 19:0.123115 20:-0.703382 21:-0.598639 22:0.435897 23:0.428571 24:0.517426 25:0.503916 26:-0.157895 27:-0.99799 28:-0.0327069 29:0.15876 30:-0.698837 
2048 1:0.0725624 2:0.615385 3:0.636364 4:0.705094 5:0.738903 6:0.263158 7:-0.99196 8:-0.195021 9:0.0667251 10:-0.590302 11:-0.648526 12:0.692308 13:0.636364 14:0.705094 15:0.686684 16:-0.263158 17:-0.99598 18:-0.201611 19:0.0879077 20:-0.718581 21:-0.315193 22:0.641026 23:0.61039 24:0.705094 25:0.686684 26:-0.0526316 27:-0.99397 28:-0.199902 29:0.115372 30:-0.649476 
2048 1:-0.260771 2:0.589744 3:0.558442 4:0.624665 5:0.634465 6:-0.263158 7:-0.99196 8:-0.199658 9:-0.384683 10:-0.677014 11:-0.585034 12:0.615385 13:0.584416 14:0.651475 15:0.660574 16:0.0526316 17:-0.99598 18:-0.199658 19:0.124429 20:-0.703587 21:-0.319728 22:0.641026 23:0.61039 24:0.678284 25:0.660574 26:-0.0526316 27:-0.99397 28:-0.198682 29:0.120631 30:-0.660234 
2048 1:-0.585034 2:0.615385 3:0.584416 4:0.651475 5:0.660574 6:0.0526316 7:-0.99598 8:-0.199658 9:0.124429 10:-0.703587 11:-0.319728 12:0.641026 13:0.61039 14:0.678284 15:0.660574 16:-0.0526316 17:-0.99397 18:-0.198682 19:0.120631 20:-0.660234 21:-0.292517 22:0.564103 23:0.558442 24:0.624665 25:0.608355 26:-0.263158 27:-0.99397 28:-0.186722 29:0.195135 30:-0.657102 
2048 1:-0.319728 2:0.641026 3:0.61039 4:0.678284 5:0.660574 6:-0.0526316 7:-0.99397 8:-0.198682 9:0.120631 10:-0.660234 11:-0.292517 12:0.564103 13:0.558442 14:0.624665 15:0.608355 16:-0.263158 17:-0.99397 18:-0.186722 19:0.195135 20:-0.657102 21:0.199546 22:0.512821 23:0.480519 24:0.490617 25:0.530026 26:-0.368421 27:-0.98995 28:-0.199658 29:0.0315182 30:-0.659949 
554.2861536956915 1:0.199546 2:0.512821 3:0.480519 4:0.490617 5:0.530026 6:-0.368421 7:-0.98995 8:-0.199658 9:0.0315182 10:-0.659949 11:-0.376417 12:0.487179 13:0.454545 14:0.517426 15:0.530026 16:-0.0526316 17:-0.99598 18:-0.200146 19:0.143128 20:-0.662891 21:-0.365079 22:0.461538 23:0.454545 24:0.544236 25:0.556136 26:0.0526316 27:-0.99598 28:-0.199658 29:0.149629 30:-0.72235 
2048 1:-0.37415 2:0.564103 3:0.558442 4:0.624665 5:0.660574 6:0.157895 7:-0.99397 8:-0.199658 9:0.049633 10:-0.615937 11:-0.015873 12:0.641026 13:0.584416 14:0.571046 15:0.660574 16:-0.0526316 17:-0.99598 18:-0.31999 19:0.0573756 20:-0.66903 21:-0.394558 22:0.564103 23:0.532468 24:0.597855 25:0.556136 26:-0.473684 27:-1 28:-0.442275 29:0.142252 30:-0.723382 
2048 1:-0.394558 2:0.564103 3:0.532468 4:0.597855 5:0.556136 6:-0.473684 7:-1 8:-0.442275 9:0.142252 10:-0.723382 11:-0.369615 12:0.512821 13:0.480519 14:0.517426 15:0.503916 16:-0.263158 17:-0.99598 18:-0.199658 19:0.164749 20:-0.755604 21:-0.498866 22:0.461538 23:0.428571 24:0.517426 25:0.530026 26:0.0526316 27:-0.99598 28:-0.199658 29:0.148534 30:-0.694651 
2048 1:-0.369615 2:0.512821 3:0.480519 4:0.517426 5:0.503916 6:-0.263158 7:-0.99598 8:-0.199658 9:0.164749 10:-0.755604 11:-0.498866 12:0.461538 13:0.428571 14:0.517426 15:0.530026 16:0.0526316 17:-0.99598 18:-0.199658 19:0.148534 20:-0.694651 21:-0.736961 22:0.487179 23:0.428571 24:0.517426 25:0.503916 26:-0.157895 27:-1 28:-0.200146 29:0.143786 30:-0.742131 
2048 1:-0.498866 2:0.461538 3:0.428571 4:0.517426 5:0.530026 6:0.0526316 7:-0.99598 8:-0.199658 9:0.148534 10:-0.694651 11:-0.736961 12:0.487179 13:0.428571 14:0.517426 15:0.503916 16:-0.157895 17:-1 18:-0.200146 19:0.143786 20:-0.742131 21:-0.564626 22:0.435897 23:0.402597 24:0.436997 25:0.399478 26:-0.473684 27:-0.99799 28:-0.206737 29:0.168036 30:-0.712529 
2048 1:-0.564626 2:0.435897 3:0.402597 4:0.436997 5:0.399478 6:-0.473684 7:-0.99799 8:-0.206737 9:0.168036 10:-0.712529 11:-0.675737 12:0.358974 13:0.324675 14:0.383378 15:0.399478 16:-0.0526316 17:-0.99799 18:-0.282646 19:0.115883 20:-0.714117 21:-0.696145 22:0.410256 23:0.350649 24:0.410188 25:0.451697 26:0.157895 27:-0.99799 28:-0.267513 29:0.116102 30:-0.69801 
2048 1:-0.675737 2:0.358974 3:0.324675 4:0.383378 5:0.399478 6:-0.0526316 7:-0.99799 8:-0.282646 9:0.115883 10:-0.714117 11:-0.696145 12:0.410256 13:0.350649 14:0.410188 15:0.451697 16:0.157895 17:-0.99799 18:-0.267513 19:0.116102 20:-0.69801 21:-0.55102 22:0.333333 23:0.324675 24:0.356568 25:0.347258 26:-0.473684 27:-0.99397 28:-0.300464 29:0.0597129 30:-0.743609 
636.6237831560139 1:-0.60771 2:0.487179 3:0.454545 4:0.517426 5:0.530026 6:-0.157895 7:-0.99799 8:-0.205516 9:0.119243 10:-0.70063 11:-0.473923 12:0.512821 13:0.480519 14:0.544236 15:0.582245 16:0.157895 17:-0.99598 18:-0.200146 19:0.220554 20:-0.664925 21:-0.709751 22:0.538462 23:0.480519 24:0.571046 25:0.582245 26:-0.0526316 27:-0.99799 28:-0.199658 29:0.115153 30:-0.703338 
2048 1:-0.473923 2:0.512821 3:0.480519 4:0.544236 5:0.582245 6:0.157895 7:-0.99598 8:-0.200146 9:0.220554 10:-0.664925 11:-0.709751 12:0.538462 13:0.480519 14:0.571046 15:0.582245 16:-0.0526316 17:-0.99799 18:-0.199658 19:0.115153 20:-0.703338 21:-0.614512 22:0.538462 23:0.506494 24:0.597855 25:0.582245 26:-0.0526316 27:-0.99799 28:-0.199658 29:0.0375808 30:-0.657482 
2048 1:-0.614512 2:0.538462 3:0.506494 4:0.597855 5:0.582245 6:-0.0526316 7:-0.99799 8:-0.199658 9:0.0375808 10:-0.657482 11:-0.591837 12:0.538462 13:0.506494 14:0.597855 15:0.582245 16:-0.0526316 17:-0.99799 18:-0.199658 19:0.0234104 20:-0.676495 21:-0.573696 22:0.538462 23:0.506494 24:0.624665 25:0.608355 26:0.0526316 27:-0.99799 28:-0.199658 29:0.0647529 30:-0.657914 
2048 1:-0.573696 2:0.538462 3:0.506494 4:0.624665 5:0.608355 6:0.0526316 7:-0.99799 8:-0.199658 9:0.0647529 10:-0.657914 11:-0.473923 12:0.538462 13:0.532468 14:0.597855 15:0.556136 16:-0.263158 17:-0.99799 18:-0.20576 19:0.0594208 20:-0.666206 21:-0.369615 22:0.538462 23:0.506494 24:0.597855 25:0.608355 26:0.157895 27:-0.99799 28:-0.199658 29:-0.027866 30:-0.629161 
2048 1:-0.369615 2:0.538462 3:0.506494 4:0.597855 5:0.608355 6:0.157895 7:-0.99799 8:-0.199658 9:-0.027866 10:-0.629161 11:-0.619048 12:0.564103 13:0.506494 14:0.597855 15:0.582245 16:-0.157895 17:-0.99598 18:-0.199658 19:0.0407217 20:-0.670831 21:-0.684807 22:0.538462 23:0.506494 24:0.597855 25:0.582245 26:-0.0526316 27:-0.99598 28:-0.199658 29:0.121215 30:-0.705314 
2048 1:-0.684807 2:0.538462 3:0.506494 4:0.597855 5:0.582245 6:-0.0526316 7:-0.99598 8:-0.199658 9:0.121215 10:-0.705314 11:-0.662132 12:0.538462 13:0.480519 14:0.571046 15:0.582245 16:-0.0526316 17:-0.99598 18:-0.0839639 19:0.124722 20:-0.709836 21:0.235828 22:0.564103 23:0.532468 24:0.624665 25:0.634465 26:0.157895 27:-0.98794 28:0.136441 29:-0.0423286 30:-0.51606 
2048 1:-0.430839 2:0.589744 3:0.532468 4:0.571046 5:0.582245 6:-0.263158 7:-0.99397 8:-0.199658 9:0.0416712 10:-0.685145 11:-0.283447 12:0.487179 13:0.454545 14:0.544236 15:0.530026 16:-0.263158 17:-0.99598 18:-0.202587 19:0.0688434 20:-0.655199 21:-0.417234 22:0.487179 23:0.454545 24:0.544236 25:0.530026 26:-0.0526316 27:-0.99799 28:-0.199658 29:0.0393338 30:-0.685723 
2048 1:-0.417234 2:0.487179 3:0.454545 4:0.544236 5:0.530026 6:-0.0526316 7:-0.99799 8:-0.199658 9:0.0393338 10:-0.685723 11:-0.535147 12:0.487179 13:0.454545 14:0.544236 15:0.530026 16:-0.0526316 17:-0.99598 18:-0.732243 19:0.0657755 20:-0.667713 21:-0.281179 22:0.487179 23:0.506494 24:0.571046 25:0.582245 26:0.157895 27:-0.99598 28:-1 29:0.0488295 30:-0.608927 
2048 1:-0.38322 2:0.615385 3:0.61039 4:0.678284 5:0.712794 6:0.157895 7:-0.99598 8:-0.205272 9:0.152332 10:-0.676963 11:-0.659864 12:0.641026 13:0.61039 14:0.705094 15:0.660574 16:-0.263158 17:-0.99799 18:-0.200635 19:0.105584 20:-0.724524 21:-0.673469 22:0.615385 23:0.584416 24:0.678284 25:0.686684 26:0.0526316 27:-0.99799 28:-0.203808 29:0.0611738 30:-0.69763 
2048 1:-0.659864 2:0.641026 3:0.61039 4:0.705094 5:0.660574 6:-0.263158 7:-0.99799 8:-0.200635 9:0.105584 10:-0.724524 11:-0.673469 12:0.615385 13:0.584416 14:0.678284 15:0.686684 16:0.0526316 17:-0.99799 18:-0.203808 19:0.0611738 20:-0.69763 21:-0.768707 22:0.641026 23:0.584416 24:0.678284 25:0.660574 26:-0.157895 27:-0.99799 28:-0.201611 29:0.124429 30:-0.733196 
2048 1:-0.673469 2:0.615385 3:0.584416 4:0.678284 5:0.686684 6:0.0526316 7:-0.99799 8:-0.203808 9:0.0611738 10:-0.69763 11:-0.768707 12:0.641026 13:0.584416 14:0.678284 15:0.660574 16:-0.157895 17:-0.99799 18:-0.201611 19:0.124429 20:-0.733196 21:-0.539683 22:0.589744 23:0.558442 24:0.571046 25:0.556136 26:-0.473684 27:-0.99598 28:-0.203808 29:0.133195 30:-0.762176 
2048 1:-0.539683 2:0.589744 3:0.558442 4:0.571046 5:0.556136 6:-0.473684 7:-0.99598 8:-0.203808 9:0.133195 10:-0.762176 11:-0.664399 12:0.487179 13:0.480519 14:0.544236 15:0.503916 16:-0.263158 17:-0.99799 18:-0.199658 19:0.128008 20:-0.764049 21:-0.868481 22:0.487179 23:0.454545 24:0.544236 25:0.530026 26:0.0526316 27:-1 28:-0.199658 29:0.0671634 30:-0.714827 
2048 1:-0.868481 2:0.487179 3:0.454545 4:0.544236 5:0.530026 6:0.0526316 7:-1 8:-0.199658 9:0.0671634 10:-0.714827 11:-0.752834 12:0.487179 13:0.454545 14:0.544236 15:0.530026 16:-0.0526316 17:-1 18:-0.200879 19:0.0320295 20:-0.724224 21:-0.798186 22:0.487179 23:0.454545 24:0.544236 25:0.556136 26:0.0526316 27:-1 28:-0.199658 29:0.123772 30:-0.729222 
2048 1:-0.630385 2:0.487179 3:0.454545 4:0.544236 5:0.503916 6:-0.263158 7:-1 8:-0.158653 9:0.127862 10:-0.742863 11:-0.641723 12:0.461538 13:0.480519 14:0.544236 15:0.582245 16:0.263158 17:-0.99799 18:-0.202587 19:0.145466 20:-0.708285 21:0.0136054 22:0.564103 23:0.61039 24:0.624665 25:0.686684 26:0.368421 27:-0.99598 28:-0.207713 29:0.363792 30:-0.730276 
1318.970363415538 1:-0.641723 2:0.461538 3:0.480519 4:0.544236 5:0.582245 6:0.263158 7:-0.99799 8:-0.202587 9:0.145466 10:-0.708285 11:0.0136054 12:0.564103 13:0.61039 14:0.624665 15:0.686684 16:0.368421 17:-0.99598 18:-0.207713 19:0.363792 20:-0.730276 21:0.485261 22:0.615385 23:0.584416 24:0.624665 25:0.660574 26:-0.157895 27:-0.98593 28:-0.199658 29:-0.00507651 30:-0.715083 
2048 1:0.188209 2:1 3:1 4:1 5:1 6:-0.0526316 7:-0.99196 8:-0.199658 9:-0.0940433 10:-0.711812 11:-0.569161 12:0.948718 13:0.922078 14:0.97319 15:0.97389 16:-0.157895 17:-0.99799 18:-0.199658 19:0.0859355 20:-0.730832 21:-0.473923 22:0.897436 23:0.844156 24:0.865952 25:0.817232 26:-0.684211 27:-0.99598 28:-0.199658 29:0.116322 30:-0.742036 
141.9207218623844 1:-0.108844 2:0.794872 3:0.87013 4:0.892761 5:0.895561 6:0.157895 7:-0.99397 8:-0.205272 9:0.426756 10:-0.736401 11:0.287982 12:0.871795 13:0.844156 14:0.946381 15:0.947781 16:0.157895 17:-0.98995 18:-0.205028 19:0.961579 20:-0.740133 21:-0.111111 22:0.666667 23:0.636364 24:0.705094 25:0.712794 26:-0.0526316 27:-0.99397 28:-0.205272 29:-0.436909 30:-0.767225 
687.0577090432099 1:0.287982 2:0.871795 3:0.844156 4:0.946381 5:0.947781 6:0.157895 7:-0.98995 8:-0.205028 9:0.961579 10:-0.740133 11:-0.111111 12:0.666667 13:0.636364 14:0.705094 15:0.712794 16:-0.0526316 17:-0.99397 18:-0.205272 19:-0.436909 20:-0.767225 21:-0.414966 22:0.666667 23:0.61039 24:0.678284 25:0.634465 26:-0.368421 27:-0.99397 28:-0.200391 29:-0.10405 30:-0.756372 
907.9650427575427 1:-0.414966 2:0.666667 3:0.61039 4:0.678284 5:0.634465 6:-0.368421 7:-0.99397 8:-0.200391 9:-0.10405 10:-0.756372 11:-0.290249 12:0.564103 13:0.532468 14:0.597855 15:0.582245 16:-0.263158 17:-0.99397 18:-0.190139 19:0.105219 20:-0.753547 21:-0.294785 22:0.538462 23:0.61039 24:0.624665 25:0.686684 26:0.368421 27:-0.99397 28:-0.199658 29:0.0321756 30:-0.671182 
2048 1:-0.294785 2:0.538462 3:0.61039 4:0.624665 5:0.686684 6:0.368421 7:-0.99397 8:-0.199658 9:0.0321756 10:-0.671182 11:-0.612245 12:0.641026 13:0.61039 14:0.651475 15:0.660574 16:-0.157895 17:-0.99598 18:-0.197706 19:0.112158 20:-0.71692 21:-0.512472 22:0.589744 23:0.558442 24:0.597855 25:0.582245 26:-0.368421 27:-0.99598 28:-0.200146 29:0.0117965 30:-0.717784 
2048 1:-0.612245 2:0.641026 3:0.61039 4:0.651475 5:0.660574 6:-0.157895 7:-0.99598 8:-0.197706 9:0.112158 10:-0.71692 11:-0.512472 12:0.589744 13:0.558442 14:0.597855 15:0.582245 16:-0.368421 17:-0.99598 18:-0.200146 19:0.0117965 20:-0.717784 21:-0.557823 22:0.512821 23:0.480519 24:0.544236 25:0.582245 26:-0.0526316 27:-0.99598 28:-0.199658 29:0.111062 30:-0.715691 
2048 1:-0.512472 2:0.589744 3:0.558442 4:0.597855 5:0.582245 6:-0.368421 7:-0.99598 8:-0.200146 9:0.0117965 10:-0.717784 11:-0.557823 12:0.512821 13:0.480519 14:0.544236 15:0.582245 16:-0.0526316 17:-0.99598 18:-0.199658 19:0.111062 20:-0.715691 21:-0.746032 22:0.538462 23:0.506494 24:0.571046 25:0.556136 26:-0.157895 27:-0.99799 28:-0.198438 29:0.118951 30:-0.712939 
2048 1:-0.605442 2:0.512821 3:0.506494 4:0.571046 5:0.556136 6:-0.0526316 7:-0.99799 8:-0.205272 9:0.141229 10:-0.72205 11:-0.0294785 12:0.538462 13:0.558442 14:0.597855 15:0.660574 16:0.368421 17:-0.99397 18:-0.199658 19:0.129542 20:-0.564542 21:-0.46712 22:0.615385 23:0.558442 24:0.571046 25:0.556136 26:-0.473684 27:-0.99799 28:-0.1794 29:-0.0802381 30:-0.730737 
2048 1:-0.0294785 2:0.538462 3:0.558442 4:0.597855 5:0.660574 6:0.368421 7:-0.99397 8:-0.199658 9:0.129542 10:-0.564542 11:-0.46712 12:0.615385 13:0.558442 14:0.571046 15:0.556136 16:-0.473684 17:-0.99799 18:-0.1794 19:-0.0802381 20:-0.730737 21:-0.408163 22:0.512821 23:0.480519 24:0.544236 25:0.556136 26:-0.0526316 27:-0.99799 28:-0.194533 29:0.142617 30:-0.754294 
2048 1:-0.408163 2:0.512821 3:0.480519 4:0.544236 5:0.556136 6:-0.0526316 7:-0.99799 8:-0.194533 9:0.142617 10:-0.754294 11:-0.47619 12:0.512821 13:0.480519 14:0.571046 15:0.530026 16:-0.157895 17:-0.99598 18:-0.205516 19:0.121727 20:-0.700001 21:-0.444444 22:0.512821 23:0.480519 24:0.571046 25:0.582245 26:0.157895 27:-0.99799 28:-0.200391 29:0.1638 30:-0.695976 
2048 1:-0.47619 2:0.512821 3:0.480519 4:0.571046 5:0.530026 6:-0.157895 7:-0.99598 8:-0.205516 9:0.121727 10:-0.700001 11:-0.444444 12:0.512821 13:0.480519 14:0.571046 15:0.582245 16:0.157895 17:-0.99799 18:-0.200391 19:0.1638 20:-0.695976 21:-0.195011 22:0.487179 23:0.454545 24:0.490617 25:0.530026 26:-0.263158 27:-0.99598 28:-0.193556 29:0.0926555 30:-0.748513 
2048 1:-0.195011 2:0.487179 3:0.454545 4:0.490617 5:0.530026 6:-0.263158 7:-0.99598 8:-0.193556 9:0.0926555 10:-0.748513 11:-0.646259 12:0.461538 13:0.454545 14:0.544236 15:0.530026 16:-0.0526316 17:-1 18:-0.19258 19:0.126913 20:-0.752128 21:-0.62585 22:0.512821 23:0.480519 24:0.571046 25:0.556136 26:0.0526316 27:-0.99799 28:-0.194044 29:0.182864 30:-0.729127 
2048 1:-0.62585 2:0.512821 3:0.480519 4:0.571046 5:0.556136 6:0.0526316 7:-0.99799 8:-0.194044 9:0.182864 10:-0.729127 11:-0.174603 12:0.538462 13:0.506494 14:0.544236 15:0.556136 16:-0.0526316 17:-0.99598 18:-0.193312 19:0.144297 20:-0.724795 21:-0.405896 22:0.512821 23:0.506494 24:0.571046 25:0.582245 26:0.0526316 27:-0.99799 28:-0.189407 29:0.083452 30:-0.693693 
2048 1:-0.44898 2:0.538462 3:0.480519 4:0.517426 5:0.530026 6:-0.263158 7:-0.99799 8:-0.194289 9:0.0875425 10:-0.680535 11:-0.349206 12:0.461538 13:0.454545 14:0.517426 15:0.556136 16:0.0526316 17:-0.99799 18:-0.198194 19:0.139476 20:-0.681801 21:-0.750567 22:0.512821 23:0.480519 24:0.517426 25:0.503916 26:-0.263158 27:-1 28:-0.194289 29:0.0722764 30:-0.729617 
2048 1:-0.653061 2:0.461538 3:0.454545 4:0.517426 5:0.530026 6:0.0526316 7:-0.99799 8:-0.192092 9:0.129469 10:-0.721472 11:-0.603175 12:0.512821 13:0.506494 14:0.571046 15:0.608355 16:0.263158 17:-0.99799 18:-0.199414 19:0.16957 20:-0.680535 21:-0.462585 22:0.512821 23:0.480519 24:0.544236 25:0.530026 26:-0.368421 27:-0.99598 28:-0.199658 29:0.0990833 30:-0.763961 
2048 1:-0.496599 2:0.512821 3:0.506494 4:0.597855 5:0.582245 6:0.157895 7:-0.99598 8:-0.200146 9:0.138673 10:-0.694146 11:-0.519274 12:0.538462 13:0.506494 14:0.597855 15:0.608355 16:0.0526316 17:-0.99598 18:-0.419087 19:0.130711 20:-0.703162 21:-0.594104 22:0.564103 23:0.532468 24:0.597855 25:0.608355 26:-0.0526316 27:-0.99598 28:-0.201611 29:0.107337 30:-0.742636 
2048 1:-0.519274 2:0.538462 3:0.506494 4:0.597855 5:0.608355 6:0.0526316 7:-0.99598 8:-0.419087 9:0.130711 10:-0.703162 11:-0.594104 12:0.564103 13:0.532468 14:0.597855 15:0.608355 16:-0.0526316 17:-0.99598 18:-0.201611 19:0.107337 20:-0.742636 21:-0.537415 22:0.564103 23:0.506494 24:0.597855 25:0.582245 26:-0.157895 27:-0.99799 28:-0.337808 29:0.116395 30:-0.728937 
2048 1:-0.630385 2:0.538462 3:0.506494 4:0.597855 5:0.608355 6:0.0526316 7:-0.99799 8:-0.220161 9:0.172492 10:-0.726361 11:-0.460317 12:0.564103 13:0.532468 14:0.624665 15:0.634465 16:0.0526316 17:-0.99799 18:-0.199414 19:0.166429 20:-0.69632 21:-0.0430839 22:0.589744 23:0.636364 24:0.651475 25:0.686684 26:0.157895 27:-0.99397 28:-0.201855 29:0.237573 30:-0.729376 
2048 1:-0.460317 2:0.564103 3:0.532468 4:0.624665 5:0.634465 6:0.0526316 7:-0.99799 8:-0.199414 9:0.166429 10:-0.69632 11:-0.0430839 12:0.589744 13:0.636364 14:0.651475 15:0.686684 16:0.157895 17:-0.99397 18:-0.201855 19:0.237573 20:-0.729376 21:-0.657596 22:0.641026 23:0.584416 24:0.624665 25:0.608355 26:-0.368421 27:-0.99799 28:-0.199658 29:0.111209 30:-0.73635 
2048 1:-0.0430839 2:0.589744 3:0.636364 4:0.651475 5:0.686684 6:0.157895 7:-0.99397 8:-0.201855 9:0.237573 10:-0.729376 11:-0.657596 12:0.641026 13:0.584416 14:0.624665 15:0.608355 16:-0.368421 17:-0.99799 18:-0.199658 19:0.111209 20:-0.73635 21:-0.204082 22:0.564103 23:0.532468 24:0.624665 25:0.608355 26:-0.0526316 27:-0.99598 28:-0.19917 29:0.133414 30:-0.759951 
2048 1:-0.657596 2:0.641026 3:0.584416 4:0.624665 5:0.608355 6:-0.368421 7:-0.99799 8:-0.199658 9:0.111209 10:-0.73635 11:-0.204082 12:0.564103 13:0.532468 14:0.624665 15:0.608355 16:-0.0526316 17:-0.99598 18:-0.19917 19:0.133414 20:-0.759951 21:-0.417234 22:0.538462 23:0.506494 24:0.597855 25:0.608355 26:-0.0526316 27:-0.99397 28:-0.200879 29:0.0846207 30:-0.706492 
2048 1:-0.598639 2:0.641026 3:0.61039 4:0.678284 5:0.686684 6:0.0526316 7:-0.99598 8:-0.199658 9:0.0607355 10:-0.712251 11:-0.396825 12:0.666667 13:0.636364 14:0.731903 15:0.738903 16:0.157895 17:-0.99598 18:-0.145716 19:0.145028 20:-0.687597 21:-0.612245 22:0.692308 23:0.636364 24:0.705094 25:0.660574 26:-0.368421 27:-0.99799 28:-0.186234 29:0.114422 30:-0.770225 
2048 1:-0.229025 2:0.820513 3:0.792208 4:0.812332 5:0.765013 6:-0.473684 7:-0.98995 8:-0.165975 9:0.0583251 10:-0.739775 11:-0.53288 12:0.717949 13:0.688312 14:0.705094 15:0.686684 16:-0.368421 17:-0.99397 18:-0.199658 19:-0.0591286 20:-0.758853 21:-0.294785 22:0.615385 23:0.688312 24:0.705094 25:0.738903 26:0.157895 27:-0.99799 28:-0.199658 29:0.19572 30:-0.746603 
2048 1:-0.294785 2:0.615385 3:0.688312 4:0.705094 5:0.738903 6:0.157895 7:-0.99799 8:-0.199658 9:0.19572 10:-0.746603 11:-0.487528 12:0.666667 13:0.61039 14:0.678284 15:0.686684 16:-0.263158 17:-0.99598 18:-0.199658 19:0.0142069 20:-0.716415 21:-0.573696 22:0.641026 23:0.584416 24:0.624665 25:0.634465 26:-0.263158 27:-0.99799 28:-0.199658 29:0.0976955 30:-0.710678 
2048 1:-0.487528 2:0.666667 3:0.61039 4:0.678284 5:0.686684 6:-0.263158 7:-0.99598 8:-0.199658 9:0.0142069 10:-0.716415 11:-0.573696 12:0.641026 13:0.584416 14:0.624665 15:0.634465 16:-0.263158 17:-0.99799 18:-0.199658 19:0.0976955 20:-0.710678 21:-0.734694 22:0.564103 23:0.558442 24:0.651475 25:0.608355 26:-0.157895 27:-0.99799 28:-0.199658 29:0.0937511 30:-0.732479 
2048 1:-0.573696 2:0.641026 3:0.584416 4:0.624665 5:0.634465 6:-0.263158 7:-0.99799 8:-0.199658 9:0.0976955 10:-0.710678 11:-0.734694 12:0.564103 13:0.558442 14:0.651475 15:0.608355 16:-0.157895 17:-0.99799 18:-0.199658 19:0.0937511 20:-0.732479 21:-0.689342 22:0.564103 23:0.558442 24:0.651475 25:0.608355 26:-0.0526316 27:-0.99799 28:-0.199658 29:0.085059 30:-0.738311 
2048 1:-0.562358 2:0.615385 3:0.558442 4:0.597855 5:0.556136 6:-0.263158 7:-0.99799 8:-0.197462 9:0.0999598 10:-0.756101 11:-0.61678 12:0.538462 13:0.532468 14:0.597855 15:0.608355 16:0.157895 17:-0.99799 18:-0.200879 19:0.147949 20:-0.710583 21:-0.952381 22:0.564103 23:0.532468 24:0.624665 25:0.634465 26:0.0526316 27:-0.316583 28:-0.199658 29:0.0974033 30:-0.729456 
169.2261322230919 1:-0.952381 2:0.564103 3:0.532468 4:0.624665 5:0.634465 6:0.0526316 7:-0.316583 8:-0.199658 9:0.0974033 10:-0.729456 11:-0.834467 12:0.589744 13:0.558442 14:0.651475 15:0.634465 16:-0.0526316 17:0.973869 18:-0.199658 19:0.130638 20:-0.736474 21:-0.809524 22:0.615385 23:0.584416 24:0.651475 25:0.660574 26:0.0526316 27:-1 28:-0.199414 29:0.115664 30:-0.723814 
2048 1:-0.285714 2:0.692308 3:0.688312 4:0.758713 5:0.791123 6:0.157895 7:-0.99397 8:-0.199658 9:0.132829 10:-0.677124 11:-0.430839 12:0.717949 13:0.714286 14:0.812332 15:0.791123 16:-0.0526316 17:-0.99397 18:-0.198194 19:0.145831 20:-0.722292 21:-0.494331 22:0.769231 23:0.714286 24:0.758713 25:0.765013 26:-0.157895 27:-0.99799 28:-0.201611 29:0.131588 30:-0.714176 
2048 1:-0.430839 2:0.717949 3:0.714286 4:0.812332 5:0.791123 6:-0.0526316 7:-0.99397 8:-0.198194 9:0.145831 10:-0.722292 11:-0.494331 12:0.769231 13:0.714286 14:0.758713 15:0.765013 16:-0.157895 17:-0.99799 18:-0.201611 19:0.131588 20:-0.714176 21:-0.582766 22:0.717949 23:0.688312 24:0.785523 25:0.765013 26:-0.0526316 27:-0.99799 28:-0.201123 29:0.106972 30:-0.719504 
2048 1:-0.582766 2:0.717949 3:0.688312 4:0.785523 5:0.765013 6:-0.0526316 7:-0.99799 8:-0.201123 9:0.106972 10:-0.719504 11:-0.285714 12:0.717949 13:0.688312 14:0.705094 15:0.660574 16:-0.473684 17:-0.98995 18:-0.201123 19:0.227201 20:-0.785996 21:-0.76644 22:0.641026 23:0.636364 24:0.731903 25:0.738903 26:0.263158 27:-1 28:-0.212106 29:0.0866659 30:-0.70699 
778.5932283706903 1:-0.76644 2:0.641026 3:0.636364 4:0.731903 5:0.738903 6:0.263158 7:-1 8:-0.212106 9:0.0866659 10:-0.70699 11:-0.716553 12:0.666667 13:0.636364 14:0.731903 15:0.686684 16:-0.263158 17:-0.99799 18:-0.199658 19:0.104269 20:-0.727649 21:-0.521542 22:0.641026 23:0.688312 24:0.731903 25:0.765013 26:0.263158 27:-0.99799 28:0.559678 29:0.129688 30:-0.737126 
2048 1:-0.716553 2:0.666667 3:0.636364 4:0.731903 5:0.686684 6:-0.263158 7:-0.99799 8:-0.199658 9:0.104269 10:-0.727649 11:-0.521542 12:0.641026 13:0.688312 14:0.731903 15:0.765013 16:0.263158 17:-0.99799 18:0.559678 19:0.129688 20:-0.737126 21:-0.564626 22:0.692308 23:0.662338 24:0.758713 25:0.738903 26:-0.157895 27:-0.99799 28:-0.201367 29:0.0919981 30:-0.740126 
2048 1:-0.526077 2:0.666667 3:0.662338 4:0.758713 5:0.738903 6:-0.0526316 7:-0.99598 8:-0.1196 9:0.233483 10:-0.792187 11:-0.628118 12:0.692308 13:0.688312 14:0.758713 15:0.738903 16:-0.0526316 17:-0.99799 18:-0.201123 19:0.122749 20:-0.740331 21:-0.326531 22:0.717949 23:0.714286 24:0.785523 25:0.765013 26:0.0526316 27:-0.99598 28:0.0856724 29:0.0323217 30:-0.728841 
-2048 1:-0.385488 2:-0.0769231 3:-0.116883 4:-0.152815 5:-0.122715 6:-0.473684 7:-0.98995 8:-0.199658 9:0.116541 10:-0.789809 11:-0.442177 12:-0.179487 13:-0.194805 14:-0.179625 15:-0.148825 16:-0.157895 17:-0.99397 18:-0.199414 19:0.106022 20:-0.742153 21:-0.117914 22:-0.205128 23:-0.246753 24:-0.394102 25:-0.383812 26:-1 27:-0.98995 28:-0.303637 29:0.159417 30:-0.827021 
-2048 1:-0.333333 2:-0.589744 3:-0.636364 4:-0.635389 5:-0.592689 6:-0.0526316 7:-0.98995 8:-0.228216 9:0.158541 10:-0.765235 11:-0.195011 12:-0.692308 13:-0.766234 14:-0.849866 15:-0.775457 16:-0.789474 17:-0.98995 18:-0.199658 19:0.126109 20:-0.80034 21:-0.163265 22:-0.769231 23:-0.792208 24:-0.903485 25:-0.906005 26:-0.578947 27:-0.98995 28:-0.217232 29:0.0840364 30:-0.890418 
-2048 1:-0.605442 2:-0.846154 3:-0.922078 4:-0.876676 5:-0.853786 6:-0.0526316 7:-0.99598 8:-0.199658 9:0.159928 10:-0.788074 11:-0.446712 12:-0.897436 13:-0.948052 14:-0.983914 15:-0.958225 16:-0.473684 17:-0.99397 18:-0.212839 19:0.0559147 20:-0.790526 21:-0.260771 22:-0.948718 23:-1 24:-1 25:-1 26:-0.221053 27:-0.99196 28:-0.199658 29:0.0149374 30:-0.799052 
-2048 1:-0.446712 2:-0.897436 3:-0.948052 4:-0.983914 5:-0.958225 6:-0.473684 7:-0.99397 8:-0.212839 9:0.0559147 10:-0.790526 11:-0.260771 12:-0.948718 13:-1 14:-1 15:-1 16:-0.221053 17:-0.99196 18:-0.199658 19:0.0149374 20:-0.799052 21:-0.535147 22:-0.948718 23:-0.974026 24:-0.957105 25:-0.879896 26:0.431579 27:-0.99598 28:-0.199658 29:0.0693547 30:-0.726792 
-2048 1:-0.46712 2:-0.897436 3:-0.974026 4:-0.957105 5:-0.958225 6:-0.578947 7:-0.99397 8:-0.19917 9:0.0624886 10:-0.783515 11:-0.44898 12:-0.948718 13:-1 14:-0.957105 15:-0.958225 16:-0.0526316 17:-0.99598 18:-0.199658 19:0.106095 20:-0.770796 21:-0.349206 22:-1 23:-0.974026 24:-0.983914 25:-0.958225 26:-0.0526316 27:-0.99598 28:-0.200391 29:0.137212 30:-0.797742 
-2048 1:-0.44898 2:-0.948718 3:-1 4:-0.957105 5:-0.958225 6:-0.0526316 7:-0.99598 8:-0.199658 9:0.106095 10:-0.770796 11:-0.349206 12:-1 13:-0.974026 14:-0.983914 15:-0.958225 16:-0.0526316 17:-0.99598 18:-0.200391 19:0.137212 20:-0.797742 21:0.92517 22:-0.923077 23:-0.792208 24:-0.930295 25:-0.827676 26:0.473684 27:-0.98593 28:-0.198682 29:0.292575 30:-0.871647 
-2048 1:-0.222222 2:-0.641026 3:-0.61039 4:-0.662198 5:-0.56658 6:-0.0526316 7:-0.99196 8:-0.199658 9:0.0979146 10:-0.728563 11:-0.442177 12:-0.666667 13:-0.714286 14:-0.715818 15:-0.697128 16:-0.578947 17:-0.99397 18:-0.199658 19:0.0163982 20:-0.815334 21:-0.421769 22:-0.794872 23:-0.792208 24:-0.796247 25:-0.749347 26:-0.263158 27:-0.99196 28:-0.201123 29:0.137212 30:-0.77177 
-2048 1:-0.421769 2:-0.794872 3:-0.792208 4:-0.796247 5:-0.749347 6:-0.263158 7:-0.99196 8:-0.201123 9:0.137212 10:-0.77177 11:-0.104308 12:-0.717949 13:-0.584416 14:-0.715818 15:-0.54047 16:0.789474 17:-0.99196 18:-0.199658 19:0.306673 20:-0.693956 21:-0.54195 22:-0.564103 23:-0.61039 24:-0.608579 25:-0.592689 26:-0.263158 27:-0.99397 28:-0.198926 29:0.105438 30:-0.754843 
-2048 1:-0.0453515 2:-0.564103 3:-0.584416 4:-0.581769 5:-0.54047 6:0.157895 7:-0.98995 8:-0.199658 9:0.181549 10:-0.698801 11:-0.680272 12:-0.589744 13:-0.636364 14:-0.608579 15:-0.56658 16:-0.157895 17:-0.99598 18:-0.197217 19:0.125963 20:-0.763683 21:-0.573696 22:-0.589744 23:-0.61039 24:-0.608579 25:-0.592689 26:-0.157895 27:-0.99397 28:-0.199658 29:0.128082 30:-0.741451 
-2048 1:-0.573696 2:-0.589744 3:-0.61039 4:-0.608579 5:-0.592689 6:-0.157895 7:-0.99397 8:-0.199658 9:0.128082 10:-0.741451 11:-0.585034 12:-0.564103 13:-0.636364 14:-0.608579 15:-0.56658 16:0.0526316 17:-0.99397 18:-0.199658 19:0.129104 20:-0.750086 21:-0.362812 22:-0.615385 23:-0.662338 24:-0.662198 25:-0.618799 26:-0.263158 27:-0.98995 28:-0.199658 29:0.0870312 30:-0.757228 
-2048 1:-0.362812 2:-0.615385 3:-0.662338 4:-0.662198 5:-0.618799 6:-0.263158 7:-0.98995 8:-0.199658 9:0.0870312 10:-0.757228 11:-0.503401 12:-0.641026 13:-0.662338 14:-0.662198 15:-0.56658 16:0.157895 17:-0.99397 18:-0.199658 19:0.0945546 20:-0.750884 21:-0.276644 22:-0.589744 23:-0.636364 24:-0.608579 25:-0.618799 26:-0.263158 27:-0.99397 28:-0.169636 29:0.128593 30:-0.763032 
-2048 1:-0.503401 2:-0.641026 3:-0.662338 4:-0.662198 5:-0.56658 6:0.157895 7:-0.99397 8:-0.199658 9:0.0945546 10:-0.750884 11:-0.276644 12:-0.589744 13:-0.636364 14:-0.608579 15:-0.618799 16:-0.263158 17:-0.99397 18:-0.169636 19:0.128593 20:-0.763032 21:-0.435374 22:-0.615385 23:-0.636364 24:-0.608579 25:-0.54047 26:0.263158 27:-0.99397 28:-0.199658 29:0.147803 30:-0.720477 
-2048 1:-0.276644 2:-0.589744 3:-0.636364 4:-0.608579 5:-0.618799 6:-0.263158 7:-0.99397 8:-0.169636 9:0.128593 10:-0.763032 11:-0.435374 12:-0.615385 13:-0.636364 14:-0.608579 15:-0.54047 16:0.263158 17:-0.99397 18:-0.199658 19:0.147803 20:-0.720477 21:-0.0113379 22:-0.512821 23:-0.480519 24:-0.50134 25:-0.409922 26:0.473684 27:-0.98794 28:-0.211374 29:0.125963 30:-0.723463 
-2048 1:-0.435374 2:-0.615385 3:-0.636364 4:-0.608579 5:-0.54047 6:0.263158 7:-0.99397 8:-0.199658 9:0.147803 10:-0.720477 11:-0.0113379 12:-0.512821 13:-0.480519 14:-0.50134 15:-0.409922 16:0.473684 17:-0.98794 18:-0.211374 19:0.125963 20:-0.723463 21:0.501134 22:-0.435897 23:-0.246753 24:-0.394102 25:-0.148825 26:1 27:-0.98191 28:-0.199658 29:0.151894 30:-0.627968 
-2048 1:-0.362812 2:-0.0512821 3:-0.0909091 4:-0.0455764 5:0.0078329 6:-0.157895 7:-0.99397 8:-0.199658 9:0.120339 10:-0.749252 11:-0.183673 12:-4.44089e-016 13:-0.012987 14:-0.0187668 15:-0.0182768 16:-0.157895 17:-0.99196 18:-0.199658 19:0.125963 20:-0.786552 21:-0.163265 22:-0.0512821 23:-0.116883 24:-0.260054 25:-0.227154 26:-0.894737 27:-0.98995 28:-0.199658 29:0.021 30:-0.758048 
-2048 1:-0.183673 2:-4.44089e-016 3:-0.012987 4:-0.0187668 5:-0.0182768 6:-0.157895 7:-0.99196 8:-0.199658 9:0.125963 10:-0.786552 11:-0.163265 12:-0.0512821 13:-0.116883 14:-0.260054 15:-0.227154 16:-0.894737 17:-0.98995 18:-0.199658 19:0.021 20:-0.758048 21:-0.54195 22:-0.205128 23:-0.246753 24:-0.179625 25:-0.148825 26:0.263158 27:-0.99397 28:-0.199658 29:0.0325408 30:-0.681208 
-2048 1:-0.163265 2:-0.0512821 3:-0.116883 4:-0.260054 5:-0.227154 6:-0.894737 7:-0.98995 8:-0.199658 9:0.021 10:-0.758048 11:-0.54195 12:-0.205128 13:-0.246753 14:-0.179625 15:-0.148825 16:0.263158 17:-0.99397 18:-0.199658 19:0.0325408 20:-0.681208 21:-0.217687 22:-0.102564 23:-0.0909091 24:-0.0991957 25:-0.0704961 26:0.263158 27:-0.99196 28:-0.199658 29:0.163654 30:-0.685782 
-2048 1:-0.165533 2:-0.0769231 3:-0.116883 4:-0.0723861 5:-0.0443864 6:0.0526316 7:-0.99196 8:-0.199414 9:0.056426 10:-0.699693 11:-0.47619 12:-0.0512821 13:-0.116883 14:-0.126005 15:-0.0443864 16:-0.0526316 17:-0.99397 18:-0.175494 19:0.144078 20:-0.746581 21:-0.0612245 22:-0.128205 23:-0.168831 24:-0.179625 25:-0.174935 26:-0.578947 27:-0.99196 28:-0.199658 29:0.765239 30:-0.791924 
-2048 1:-0.464853 2:-0.230769 3:-0.194805 4:-0.179625 5:-0.148825 6:0.0526316 7:-0.99598 8:-0.181108 9:0.177386 10:-0.677754 11:-0.539683 12:-0.205128 13:-0.246753 14:-0.233244 15:-0.148825 16:-0.0526316 17:-0.99397 18:-0.199658 19:0.102005 20:-0.707963 21:-0.716553 22:-0.153846 23:-0.220779 24:-0.206434 25:-0.201044 26:-0.263158 27:-0.99799 28:-0.199658 29:0.149337 30:-0.767649 
-2048 1:-0.716553 2:-0.153846 3:-0.220779 4:-0.206434 5:-0.201044 6:-0.263158 7:-0.99799 8:-0.199658 9:0.149337 10:-0.767649 11:-0.768707 12:-0.230769 13:-0.246753 14:-0.206434 15:-0.174935 16:0.0526316 17:-0.99799 18:-0.288992 19:0.162777 20:-0.697886 21:-0.356009 22:-0.25641 23:-0.298701 24:-0.313673 25:-0.253264 26:-0.368421 27:-0.99397 28:-0.199658 29:-0.0779738 30:-0.687684 
-2048 1:0.00680272 2:-0.589744 3:-0.558442 4:-0.581769 5:-0.54047 6:-0.263158 7:-0.98593 8:-0.199658 9:0.197473 10:-0.892087 11:-0.684807 12:-0.564103 13:-0.61039 14:-0.55496 15:-0.54047 16:-0.0526316 17:-0.99799 18:-0.199658 19:0.0843285 20:-0.776987 21:-0.253968 22:-0.589744 23:-0.584416 24:-0.635389 25:-0.644909 26:-0.473684 27:-0.98995 28:-0.198438 29:0.0757825 30:-0.852108 
-2048 1:-0.684807 2:-0.564103 3:-0.61039 4:-0.55496 5:-0.54047 6:-0.0526316 7:-0.99799 8:-0.199658 9:0.0843285 10:-0.776987 11:-0.253968 12:-0.589744 13:-0.584416 14:-0.635389 15:-0.644909 16:-0.473684 17:-0.98995 18:-0.198438 19:0.0757825 20:-0.852108 21:-0.131519 22:-0.641026 23:-0.662338 24:-0.635389 25:-0.592689 26:0.157895 27:-0.98593 28:-0.209666 29:0.170885 30:-0.8106 
-2048 1:-0.253968 2:-0.589744 3:-0.584416 4:-0.635389 5:-0.644909 6:-0.473684 7:-0.98995 8:-0.198438 9:0.0757825 10:-0.852108 11:-0.131519 12:-0.641026 13:-0.662338 14:-0.635389 15:-0.592689 16:0.157895 17:-0.98593 18:-0.209666 19:0.170885 20:-0.8106 21:-0.29932 22:-0.564103 23:-0.584416 24:-0.55496 25:-0.54047 26:0.157895 27:-0.99397 28:-0.199658 29:0.196888 30:-0.71662 
-790.5266547753492 1:-0.77551 2:-0.538462 3:-0.584416 4:-0.52815 5:-0.51436 6:-0.157895 7:-0.99799 8:-0.199658 9:0.119828 10:-0.73995 11:-0.546485 12:-0.512821 13:-0.558442 14:-0.608579 15:-0.592689 16:-0.368421 17:-0.99598 18:-0.199658 19:0.129104 20:-0.821818 21:-0.46712 22:-0.589744 23:-0.61039 24:-0.662198 25:-0.671018 26:-0.368421 27:-0.99397 28:-0.19917 29:0.074979 30:-0.758838 
-2048 1:-0.546485 2:-0.512821 3:-0.558442 4:-0.608579 5:-0.592689 6:-0.368421 7:-0.99598 8:-0.199658 9:0.129104 10:-0.821818 11:-0.46712 12:-0.589744 13:-0.61039 14:-0.662198 15:-0.671018 16:-0.368421 17:-0.99397 18:-0.19917 19:0.074979 20:-0.758838 21:-0.60771 22:-0.641026 23:-0.714286 24:-0.662198 25:-0.644909 26:0.0526316 27:-0.99598 28:-0.199658 29:0.303678 30:-0.738033 
-2048 1:-0.60771 2:-0.641026 3:-0.714286 4:-0.662198 5:-0.644909 6:0.0526316 7:-0.99598 8:-0.199658 9:0.303678 10:-0.738033 11:-0.702948 12:-0.666667 13:-0.662338 14:-0.662198 15:-0.592689 16:0.157895 17:-0.99799 18:-0.199658 19:0.101202 20:-0.719701 21:-0.600907 22:-0.692308 23:-0.688312 24:-0.662198 25:-0.592689 26:-0.0526316 27:-0.99799 28:-0.199902 29:0.705635 30:-0.734872 
-2048 1:-0.702948 2:-0.666667 3:-0.662338 4:-0.662198 5:-0.592689 6:0.157895 7:-0.99799 8:-0.199658 9:0.101202 10:-0.719701 11:-0.600907 12:-0.692308 13:-0.688312 14:-0.662198 15:-0.592689 16:-0.0526316 17:-0.99799 18:-0.199902 19:0.705635 20:-0.734872 21:-0.45805 22:-0.589744 23:-0.584416 24:-0.581769 25:-0.51436 26:0.263158 27:-0.99598 28:-0.199658 29:0.480881 30:-0.710341 
-2048 1:-0.174603 2:-0.692308 3:-0.766234 4:-0.903485 5:-0.827676 6:-0.789474 7:-0.99196 8:-0.199658 9:0.138235 10:-0.877026 11:-0.301587 12:-0.846154 13:-0.896104 14:-0.876676 15:-0.853786 16:-0.157895 17:-0.99598 18:-0.198682 19:0.139988 20:-0.903854 21:-0.199546 22:-0.871795 23:-0.948052 24:-0.930295 25:-0.906005 26:-0.263158 27:-0.98794 28:-0.199658 29:0.0629999 30:-0.899149 
-2048 1:0.102041 2:-0.846154 3:-0.922078 4:-0.930295 5:-0.879896 6:-0.0526316 7:-0.99397 8:-0.199658 9:0.00902085 10:-0.985971 11:-0.190476 12:-0.923077 13:-0.922078 14:-0.930295 15:-0.879896 16:-0.0526316 17:-0.99598 18:-0.199658 19:0.122603 20:-0.908399 21:-0.324263 22:-0.897436 23:-0.974026 24:-0.930295 25:-0.906005 26:-0.157895 27:-0.98995 28:-0.19917 29:0.13597 30:-0.855613 
-2048 1:-0.278912 2:-0.923077 3:-0.948052 4:-0.930295 5:-0.879896 6:0.0526316 7:-0.99397 8:-0.199658 9:0.103685 10:-0.8118 11:-0.185941 12:-0.923077 13:-0.948052 14:-0.930295 15:-0.879896 16:-0.0526316 17:-0.99397 18:-0.199658 19:0.134582 20:-0.849034 21:-0.306122 22:-0.923077 23:-0.974026 24:-0.930295 25:-0.906005 26:-0.157895 27:-0.98794 28:-0.199658 29:0.152697 30:-0.842426 
-2048 1:-0.306122 2:-0.923077 3:-0.974026 4:-0.930295 5:-0.906005 6:-0.157895 7:-0.98794 8:-0.199658 9:0.152697 10:-0.842426 11:-0.349206 12:-0.923077 13:-0.948052 14:-0.930295 15:-0.879896 16:0.0526316 17:-0.99598 18:-0.199658 19:0.129762 20:-0.75305 21:-0.741497 22:-0.871795 23:-0.922078 24:-0.903485 25:-0.906005 26:-0.157895 27:-0.99799 28:-0.199658 29:0.0773164 30:-0.736277 
-664.5388487530113 1:-0.741497 2:-0.871795 3:-0.922078 4:-0.903485 5:-0.906005 6:-0.157895 7:-0.99799 8:-0.199658 9:0.0773164 10:-0.736277 11:-0.426304 12:-0.923077 13:-0.818182 14:-0.930295 15:-0.723238 16:0.684211 17:-0.99598 18:-0.199658 19:0.190461 20:-0.689924 21:-0.69161 22:-0.74359 23:-0.792208 24:-0.796247 25:-0.801567 26:-0.368421 27:-0.99598 28:-0.199658 29:0.126255 30:-0.73856 
-2048 1:-0.69161 2:-0.74359 3:-0.792208 4:-0.796247 5:-0.801567 6:-0.368421 7:-0.99598 8:-0.199658 9:0.126255 10:-0.73856 11:-0.560091 12:-0.769231 13:-0.792208 14:-0.769437 15:-0.697128 16:0.368421 17:-0.99598 18:-0.199658 19:0.121946 20:-0.714425 21:-0.746032 22:-0.74359 23:-0.792208 24:-0.742627 25:-0.723238 26:-0.157895 27:-0.99799 28:-0.202831 29:0.166064 30:-0.743346 
-2048 1:-0.560091 2:-0.769231 3:-0.792208 4:-0.769437 5:-0.697128 6:0.368421 7:-0.99598 8:-0.199658 9:0.121946 10:-0.714425 11:-0.746032 12:-0.74359 13:-0.792208 14:-0.742627 15:-0.723238 16:-0.157895 17:-0.99799 18:-0.202831 19:0.166064 20:-0.743346 21:-0.478458 22:-0.717949 23:-0.688312 24:-0.715818 25:-0.618799 26:0.368421 27:-0.99598 28:-0.199658 29:0.152989 30:-0.683696 
-2048 1:-0.746032 2:-0.74359 3:-0.792208 4:-0.742627 5:-0.723238 6:-0.157895 7:-0.99799 8:-0.202831 9:0.166064 10:-0.743346 11:-0.478458 12:-0.717949 13:-0.688312 14:-0.715818 15:-0.618799 16:0.368421 17:-0.99598 18:-0.199658 19:0.152989 20:-0.683696 21:-0.496599 22:-0.641026 23:-0.636364 24:-0.635389 25:-0.56658 26:0.157895 27:-0.99397 28:-0.199658 29:0.100106 30:-0.670026 
-85.79341847441687 1:-0.0453515 2:-0.487179 3:-0.506494 4:-0.50134 5:-0.488251 6:-0.157895 7:-0.98593 8:-0.199658 9:0.183887 10:-0.687706 11:-0.995465 12:-0.564103 13:-0.636364 14:-0.662198 15:-0.592689 16:-0.473684 17:-0.98593 18:-0.199658 19:0.108141 20:1 21:0.786848 22:-0.615385 23:-0.688312 24:-0.715818 25:-0.671018 26:-0.368421 27:-0.98392 28:-0.197217 29:0.162193 30:-0.981727 
-163.2171807613709 1:0.786848 2:-0.615385 3:-0.688312 4:-0.715818 5:-0.671018 6:-0.368421 7:-0.98392 8:-0.197217 9:0.162193 10:-0.981727 11:-0.879819 12:-0.692308 13:-0.714286 14:-0.689008 15:-0.644909 16:0.0526316 17:1 18:-0.199658 19:0.142909 20:-0.728 21:-0.378685 22:-0.666667 23:-0.714286 24:-0.662198 25:-0.644909 26:-0.0526316 27:-0.99397 28:-0.199658 29:0.111574 30:-0.702174 
-2048 1:-0.213152 2:-0.615385 3:-0.662338 4:-0.635389 5:-0.592689 6:0.0526316 7:-0.99196 8:-0.199658 9:0.154596 10:-0.724114 11:0.369615 12:-0.666667 13:-0.74026 14:-0.849866 15:-0.827676 16:-1 17:-0.98392 18:-0.199658 19:0.0768051 20:-1 21:-0.578231 22:-0.820513 23:-0.87013 24:-0.823056 25:-0.827676 26:-0.0526316 27:-0.99196 28:-0.199658 29:0.159928 30:-0.784291 
-2048 1:-0.578231 2:-0.820513 3:-0.87013 4:-0.823056 5:-0.827676 6:-0.0526316 7:-0.99196 8:-0.199658 9:0.159928 10:-0.784291 11:-0.596372 12:-0.820513 13:-0.87013 14:-0.823056 15:-0.801567 16:0.0526316 17:-0.99397 18:-0.199658 19:0.149118 20:-0.791638 21:-0.281179 22:-0.820513 23:-0.896104 24:-0.876676 25:-0.853786 26:-0.263158 27:-0.99397 28:-0.0224555 29:0.105365 30:-0.859924 
-1049.93979401381 1:-0.596372 2:-0.820513 3:-0.87013 4:-0.823056 5:-0.801567 6:0.0526316 7:-0.99397 8:-0.199658 9:0.149118 10:-0.791638 11:-0.281179 12:-0.820513 13:-0.896104 14:-0.876676 15:-0.853786 16:-0.263158 17:-0.99397 18:-0.0224555 19:0.105365 20:-0.859924 21:-0.362812 22:-0.846154 23:-0.896104 24:-0.849866 25:-0.827676 26:0.0526316 27:-0.99397 28:0.261899 29:0.131368 30:-0.750576 
-2048 1:-0.362812 2:-0.846154 3:-0.896104 4:-0.849866 5:-0.827676 6:0.0526316 7:-0.99397 8:0.261899 9:0.131368 10:-0.750576 11:-0.648526 12:-0.846154 13:-0.87013 14:-0.823056 15:-0.775457 16:0.157895 17:-0.99598 18:-0.102758 19:0.141302 20:-0.733196 21:-0.510204 22:-0.794872 23:-0.844156 24:-0.796247 25:-0.775457 26:-0.0526316 27:-0.99397 28:-0.118623 29:0.115445 30:-0.687414 
-2048 1:-0.684807 2:-0.794872 3:-0.844156 4:-0.796247 5:-0.775457 6:-0.157895 7:-0.99799 8:-0.199658 9:0.129542 10:-0.713488 11:-0.0181406 12:-0.794872 13:-0.844156 14:-0.930295 15:-0.879896 16:-0.473684 17:-0.99196 18:-0.210398 19:0.0646068 20:-0.811997 21:-0.687075 22:-0.897436 23:-0.948052 24:-0.930295 25:-0.879896 26:-0.0526316 27:-0.99799 28:-0.163778 29:0.125379 30:-0.73485 
-2048 1:-0.0181406 2:-0.794872 3:-0.844156 4:-0.930295 5:-0.879896 6:-0.473684 7:-0.99196 8:-0.210398 9:0.0646068 10:-0.811997 11:-0.687075 12:-0.897436 13:-0.948052 14:-0.930295 15:-0.879896 16:-0.0526316 17:-0.99799 18:-0.163778 19:0.125379 20:-0.73485 21:-0.623583 22:-0.923077 23:-0.948052 24:-0.930295 25:-0.853786 26:0.0526316 27:-0.99598 28:-0.200146 29:0.126255 30:-0.740433 
-2048 1:-0.687075 2:-0.897436 3:-0.948052 4:-0.930295 5:-0.879896 6:-0.0526316 7:-0.99799 8:-0.163778 9:0.125379 10:-0.73485 11:-0.623583 12:-0.923077 13:-0.948052 14:-0.930295 15:-0.853786 16:0.0526316 17:-0.99598 18:-0.200146 19:0.126255 20:-0.740433 21:-0.575964 22:-0.871795 23:-0.896104 24:-0.876676 25:-0.801567 26:0.157895 27:-0.99598 28:-0.199658 29:0.144735 30:-0.705416 
-2048 1:-0.575964 2:-0.871795 3:-0.896104 4:-0.876676 5:-0.801567 6:0.157895 7:-0.99598 8:-0.199658 9:0.144735 10:-0.705416 11:-0.396825 12:-0.820513 13:-0.844156 14:-0.823056 15:-0.775457 16:0.0526316 17:-0.99397 18:-0.19917 19:0.118586 20:-0.714066 21:-0.621315 22:-0.794872 23:-0.844156 24:-0.796247 25:-0.775457 26:-0.0526316 27:-0.99598 28:-0.199658 29:0.171542 30:-0.698061 
-2048 1:-0.396825 2:-0.820513 3:-0.844156 4:-0.823056 5:-0.775457 6:0.0526316 7:-0.99397 8:-0.19917 9:0.118586 10:-0.714066 11:-0.621315 12:-0.794872 13:-0.844156 14:-0.796247 15:-0.775457 16:-0.0526316 17:-0.99598 18:-0.199658 19:0.171542 20:-0.698061 21:-0.641723 22:-0.794872 23:-0.792208 24:-0.769437 25:-0.749347 26:0.0526316 27:-0.99598 28:-0.199658 29:0.151967 30:-0.72044 
-2048 1:-0.133787 2:-0.564103 3:-0.584416 4:-0.55496 5:-0.51436 6:0.263158 7:-0.98794 8:-0.199658 9:0.205873 10:-0.611005 11:0.0861678 12:-0.512821 13:-0.558442 14:-0.52815 15:-0.51436 16:-0.0526316 17:-0.98794 18:-0.199658 19:0.119755 20:-0.571333 21:0.142857 22:-0.487179 23:-0.558442 24:-0.52815 25:-0.51436 26:-0.0526316 27:-0.98794 28:-0.199658 29:0.356488 30:-0.641324 
-1135.206550204008 1:0.142857 2:-0.487179 3:-0.558442 4:-0.52815 5:-0.51436 6:-0.0526316 7:-0.98794 8:-0.199658 9:0.356488 10:-0.641324 11:0.848073 12:-0.538462 13:-0.532468 14:-0.50134 15:-0.488251 16:0.0526316 17:-0.98392 18:-0.190139 19:1 20:-0.628803 21:0.809524 22:-0.641026 23:-0.558442 24:-0.608579 25:-0.462141 26:-0.0526316 27:-0.975879 28:-0.199658 29:-0.803294 30:-0.510161 
-2048 1:0.0589569 2:-0.461538 3:-0.454545 4:-0.420912 5:-0.383812 6:0.263158 7:-0.98392 8:-0.199658 9:0.0258208 10:-0.65656 11:-0.0907029 12:-0.410256 13:-0.428571 14:-0.420912 15:-0.357702 16:0.0526316 17:-0.98794 18:-0.195265 19:0.138673 20:-0.607353 21:-0.165533 22:-0.384615 23:-0.454545 24:-0.447721 25:-0.409922 26:-0.263158 27:-0.98794 28:-0.180376 29:0.0469304 30:-0.701098 
-2048 1:0.0816327 2:-0.410256 3:-0.454545 4:-0.394102 5:-0.357702 6:0.157895 7:-0.98392 8:-0.206004 9:0.174829 10:-0.652338 11:-0.306122 12:-0.384615 13:-0.454545 14:-0.474531 15:-0.436031 16:-0.368421 17:-0.99196 18:-0.173542 19:0.0592016 20:-0.739592 21:-0.267574 22:-0.435897 23:-0.506494 24:-0.52815 25:-0.462141 26:-0.157895 27:-0.99196 28:-0.0837198 29:0.11676 30:-0.727253 
-2048 1:-0.1678 2:-0.282051 3:-0.324675 4:-0.313673 5:-0.305483 6:-0.157895 7:-0.99196 8:-0.200146 9:0.0722034 10:-0.707216 11:0.0997732 12:-0.333333 13:-0.376623 14:-0.367292 15:-0.305483 16:-0.0526316 17:-0.98392 18:-0.171589 19:0.165114 20:-0.615286 21:-0.38322 22:-0.333333 23:-0.376623 24:-0.340483 25:-0.357702 26:-0.263158 27:-0.99397 28:-0.204784 29:0.0695007 30:-0.730005 
-2048 1:0.0997732 2:-0.333333 3:-0.376623 4:-0.367292 5:-0.305483 6:-0.0526316 7:-0.98392 8:-0.171589 9:0.165114 10:-0.615286 11:-0.38322 12:-0.333333 13:-0.376623 14:-0.340483 15:-0.357702 16:-0.263158 17:-0.99397 18:-0.204784 19:0.0695007 20:-0.730005 21:-0.306122 22:-0.384615 23:-0.402597 24:-0.367292 25:-0.331593 26:0.0526316 27:-0.98794 28:-0.199414 29:0.16044 30:-0.633889 
-2048 1:-0.124717 2:-0.358974 3:-0.376623 4:-0.340483 5:-0.279373 6:0.157895 7:-0.98995 8:-0.202099 9:0.116614 10:-0.655653 11:-0.29932 12:-0.358974 13:-0.402597 14:-0.367292 15:-0.357702 16:-0.368421 17:-0.98593 18:-0.195021 19:0.128885 20:-0.799864 21:-0.505669 22:-0.384615 23:-0.428571 24:-0.420912 25:-0.383812 26:-0.157895 27:-0.99196 28:-0.186234 29:0.0678938 30:-0.74429 
-2048 1:-0.29932 2:-0.358974 3:-0.402597 4:-0.367292 5:-0.357702 6:-0.368421 7:-0.98593 8:-0.195021 9:0.128885 10:-0.799864 11:-0.505669 12:-0.384615 13:-0.428571 14:-0.420912 15:-0.383812 16:-0.157895 17:-0.99196 18:-0.186234 19:0.0678938 20:-0.74429 21:-0.292517 22:-0.410256 23:-0.402597 24:-0.367292 25:-0.331593 26:0.157895 27:-0.98995 28:-0.201123 29:0.250064 30:-0.692924 
-2048 1:-0.505669 2:-0.384615 3:-0.428571 4:-0.420912 5:-0.383812 6:-0.157895 7:-0.99196 8:-0.186234 9:0.0678938 10:-0.74429 11:-0.292517 12:-0.410256 13:-0.402597 14:-0.367292 15:-0.331593 16:0.157895 17:-0.98995 18:-0.201123 19:0.250064 20:-0.692924 21:-0.253968 22:-0.307692 23:-0.324675 24:-0.286863 25:-0.227154 26:0.368421 27:-0.98593 28:-0.201611 29:0.0760747 30:-0.673568 
-2048 1:-0.292517 2:-0.410256 3:-0.402597 4:-0.367292 5:-0.331593 6:0.157895 7:-0.98995 8:-0.201123 9:0.250064 10:-0.692924 11:-0.253968 12:-0.307692 13:-0.324675 14:-0.286863 15:-0.227154 16:0.368421 17:-0.98593 18:-0.201611 19:0.0760747 20:-0.673568 21:0.0907029 22:-0.282051 23:-0.246753 24:-0.260054 25:-0.174935 26:0.157895 27:-0.98593 28:-0.199902 29:0.169132 30:-0.70849 
-2048 1:0.0907029 2:-0.282051 3:-0.246753 4:-0.260054 5:-0.174935 6:0.157895 7:-0.98593 8:-0.199902 9:0.169132 10:-0.70849 11:0.605442 12:-0.205128 13:-0.0909091 14:-0.179625 15:-0.0182768 16:0.578947 17:-0.98392 18:-0.19917 19:0.39133 20:-0.700264 21:-0.124717 22:-0.0769231 23:-0.142857 24:-0.206434 25:-0.0704961 26:-0.263158 27:-0.98794 28:-0.198194 29:-0.193528 30:-0.767335 
-2048 1:-0.333333 2:-4.44089e-016 3:-0.0649351 4:-0.0187668 5:0.0078329 6:-0.157895 7:-0.99397 8:-0.1938 9:-0.0753442 10:-0.71422 11:-0.369615 12:-0.025641 13:-0.0909091 14:-0.0455764 15:-0.0182768 16:-0.157895 17:-0.99196 18:-0.20332 19:0.0275739 20:-0.70587 21:-0.489796 22:-0.102564 23:-0.142857 24:-0.0723861 25:-0.0704961 26:-0.263158 27:-0.98995 28:-0.198194 29:0.100325 30:-0.754953 
-2048 1:-0.489796 2:-0.102564 3:-0.142857 4:-0.0723861 5:-0.0704961 6:-0.263158 7:-0.98995 8:-0.198194 9:0.100325 10:-0.754953 11:-0.38322 12:-0.128205 13:-0.0909091 14:-0.126005 15:-0.0182768 16:0.157895 17:-0.98995 18:-0.201123 19:0.102735 20:-0.725943 21:-0.253968 22:-0.0769231 23:-0.142857 24:-0.206434 25:-0.227154 26:-0.894737 27:-0.98593 28:-0.281425 29:0.0440817 30:-0.799403 
-2048 1:-0.356009 2:-0.282051 3:-0.246753 4:-0.313673 5:-0.148825 6:0.263158 7:-0.98995 8:-0.199658 9:0.116468 10:-0.747671 11:-0.505669 12:-0.205128 13:-0.194805 14:-0.206434 15:-0.148825 16:-0.0526316 17:-0.98995 18:-0.200146 19:0.218071 20:-0.75777 21:-0.639456 22:-0.205128 23:-0.246753 24:-0.233244 25:-0.227154 26:-0.368421 27:-0.99196 28:-0.202587 29:0.0881998 30:-0.767547 
-2048 1:-0.575964 2:-0.282051 3:-0.194805 4:-0.233244 5:-0.0966057 6:0.473684 7:-0.99196 8:-0.200146 9:0.161462 10:-0.715142 11:-0.512472 12:-0.179487 13:-0.168831 14:-0.152815 15:-0.0966057 16:-0.0526316 17:-0.98995 18:-0.198926 19:0.127935 20:-0.733269 21:-0.371882 22:-0.179487 23:-0.246753 24:-0.233244 25:-0.253264 26:-0.684211 27:-0.98995 28:-0.200146 29:0.101129 30:-0.853798 
-2048 1:-0.306122 2:-0.25641 3:-0.298701 4:-0.313673 5:-0.331593 6:-0.578947 7:-0.99397 8:-0.201123 9:0.103612 10:-0.814595 11:-0.517007 12:-0.358974 13:-0.402597 14:-0.420912 15:-0.409922 16:-0.368421 17:-0.99397 18:-0.141323 19:0.152697 20:-0.804313 21:-0.548753 22:-0.410256 23:-0.454545 24:-0.420912 25:-0.409922 26:-0.0526316 27:-0.99397 28:-0.199658 29:0.172492 30:-0.804321 
-2048 1:-0.517007 2:-0.358974 3:-0.402597 4:-0.420912 5:-0.409922 6:-0.368421 7:-0.99397 8:-0.141323 9:0.152697 10:-0.804313 11:-0.548753 12:-0.410256 13:-0.454545 14:-0.420912 15:-0.409922 16:-0.0526316 17:-0.99397 18:-0.199658 19:0.172492 20:-0.804321 21:-0.623583 22:-0.384615 23:-0.376623 24:-0.340483 25:-0.279373 26:0.473684 27:-0.99799 28:-0.201611 29:0.140572 30:-0.678339 
-2048 1:-0.548753 2:-0.410256 3:-0.454545 4:-0.420912 5:-0.409922 6:-0.0526316 7:-0.99397 8:-0.199658 9:0.172492 10:-0.804321 11:-0.623583 12:-0.384615 13:-0.376623 14:-0.340483 15:-0.279373 16:0.473684 17:-0.99799 18:-0.201611 19:0.140572 20:-0.678339 21:-0.650794 22:-0.358974 23:-0.350649 24:-0.313673 25:-0.253264 26:0.0526316 27:-0.99598 28:-0.199658 29:0.155254 30:-0.734842 
-2048 1:-0.623583 2:-0.384615 3:-0.376623 4:-0.340483 5:-0.279373 6:0.473684 7:-0.99799 8:-0.201611 9:0.140572 10:-0.678339 11:-0.650794 12:-0.358974 13:-0.350649 14:-0.313673 15:-0.253264 16:0.0526316 17:-0.99598 18:-0.199658 19:0.155254 20:-0.734842 21:-0.571429 22:-0.307692 23:-0.298701 24:-0.260054 25:-0.227154 26:0.0526316 27:-0.99598 28:-0.193556 29:0.152405 30:-0.727795 
-2048 1:-0.512472 2:-0.25641 3:-0.272727 4:-0.233244 5:-0.201044 6:0.0526316 7:-0.99397 8:-0.202343 9:0.11413 10:-0.765608 11:-0.340136 12:-0.282051 13:-0.324675 14:-0.340483 15:-0.357702 16:-0.684211 17:-0.99397 18:-0.19917 19:0.0746868 20:-0.852123 21:-0.693878 22:-0.461538 23:-0.454545 24:-0.447721 25:-0.383812 26:-0.157895 27:-1 28:-0.199658 29:0.0978416 30:-0.753152 
-2048 1:-0.46712 2:-0.435897 3:-0.428571 4:-0.420912 5:-0.357702 6:0.0526316 7:-0.99598 8:-0.199658 9:0.158029 10:-0.76219 11:-0.47619 12:-0.384615 13:-0.428571 14:-0.420912 15:-0.409922 16:-0.263158 17:-0.99196 18:-0.197706 19:0.0787773 20:-0.807599 21:-0.580499 22:-0.435897 23:-0.480519 24:-0.420912 25:-0.436031 26:-0.157895 27:-0.99598 28:-0.162558 29:0.123042 30:-0.785272 
-502.4497150739227 1:-0.510204 2:-0.435897 3:-0.402597 4:-0.394102 5:-0.357702 6:0.263158 7:-0.99598 8:-0.199658 9:0.210474 10:-0.775524 11:-0.673469 12:-0.384615 13:-0.402597 14:-0.367292 15:-0.357702 16:-0.0526316 17:-0.99598 18:-0.153771 19:0.131588 20:-0.772655 21:-0.301587 22:-0.384615 23:-0.402597 24:-0.367292 25:-0.357702 26:-0.0526316 27:-0.99799 28:-0.199658 29:-1 30:-0.746039 
-573.918952152293 1:-0.673469 2:-0.384615 3:-0.402597 4:-0.367292 5:-0.357702 6:-0.0526316 7:-0.99598 8:-0.153771 9:0.131588 10:-0.772655 11:-0.301587 12:-0.384615 13:-0.402597 14:-0.367292 15:-0.357702 16:-0.0526316 17:-0.99799 18:-0.199658 19:-1 20:-0.746039 21:-0.77551 22:-0.358974 23:-0.402597 24:-0.340483 25:-0.305483 26:0.157895 27:-0.99799 28:-0.199658 29:0.129396 30:-0.699371 
-2048 1:-0.77551 2:-0.358974 3:-0.402597 4:-0.340483 5:-0.305483 6:0.157895 7:-0.99799 8:-0.199658 9:0.129396 10:-0.699371 11:-0.768707 12:-0.333333 13:-0.376623 14:-0.313673 15:-0.279373 16:0.0526316 17:-0.99799 18:-0.199658 19:0.155473 20:-0.70587 21:-0.768707 22:-0.333333 23:-0.376623 24:-0.340483 25:-0.357702 26:-0.368421 27:-1 28:-0.199658 29:0.105 30:-0.751403 
-2048 1:-0.768707 2:-0.333333 3:-0.376623 4:-0.340483 5:-0.357702 6:-0.368421 7:-1 8:-0.199658 9:0.105 10:-0.751403 11:-0.469388 12:-0.333333 13:-0.376623 14:-0.313673 15:-0.305483 16:0.157895 17:-0.99397 18:-0.199658 19:0.133998 20:-0.688804 21:-0.569161 22:-0.333333 23:-0.402597 24:-0.340483 25:-0.357702 26:-0.263158 27:-0.99598 28:-0.162558 29:0.0748329 30:-0.72568 
-2048 1:-0.469388 2:-0.333333 3:-0.376623 4:-0.313673 5:-0.305483 6:0.157895 7:-0.99397 8:-0.199658 9:0.133998 10:-0.688804 11:-0.569161 12:-0.333333 13:-0.402597 14:-0.340483 15:-0.357702 16:-0.263158 17:-0.99598 18:-0.162558 19:0.0748329 20:-0.72568 21:-0.827664 22:-0.358974 23:-0.402597 24:-0.340483 25:-0.331593 26:0.0526316 27:-1 28:-0.199658 29:0.169205 30:-0.725958 
-2048 1:-0.793651 2:-0.333333 3:-0.376623 4:-0.313673 5:-0.305483 6:-0.0526316 7:-0.99799 8:-0.199658 9:0.115372 10:-0.741875 11:-0.712018 12:-0.307692 13:-0.376623 14:-0.340483 15:-0.305483 16:-0.0526316 17:-0.99799 18:-0.199658 19:0.149702 20:-0.718728 21:-0.641723 22:-0.307692 23:-0.376623 24:-0.340483 25:-0.331593 26:-0.157895 27:-0.99799 28:-0.198926 29:0.12589 30:-0.716598 
-2048 1:-0.641723 2:-0.307692 3:-0.376623 4:-0.340483 5:-0.331593 6:-0.157895 7:-0.99799 8:-0.198926 9:0.12589 10:-0.716598 11:0.21542 12:-0.384615 13:-0.402597 14:-0.340483 15:-0.305483 16:0.0526316 17:-0.99598 18:-0.200146 19:0.135094 20:-0.714359 21:-0.557823 22:-0.333333 23:-0.402597 24:-0.394102 25:-0.409922 26:-0.473684 27:-0.99196 28:-0.198682 29:0.116468 30:-0.803699 
-2048 1:-0.557823 2:-0.333333 3:-0.402597 4:-0.394102 5:-0.409922 6:-0.473684 7:-0.99196 8:-0.198682 9:0.116468 10:-0.803699 11:-0.759637 12:-0.410256 13:-0.428571 14:-0.394102 15:-0.331593 16:0.263158 17:-0.99799 18:-0.199658 19:0.096965 20:-0.690897 21:-0.780045 22:-0.358974 23:-0.428571 24:-0.394102 25:-0.383812 26:-0.263158 27:-0.99799 28:-0.199658 29:0.119828 30:-0.727385 
-2048 1:-0.780045 2:-0.358974 3:-0.428571 4:-0.394102 5:-0.383812 6:-0.263158 7:-0.99799 8:-0.199658 9:0.119828 10:-0.727385 11:-0.721088 12:-0.410256 13:-0.402597 14:-0.367292 15:-0.305483 16:0.263158 17:-0.99799 18:-0.199658 19:0.121142 20:-0.682869 21:-0.689342 22:-0.333333 23:-0.376623 24:-0.313673 25:-0.305483 26:-0.0526316 27:-0.99799 28:-0.199658 29:0.177386 30:-0.681947 
-2048 1:0.356009 2:-0.25641 3:-0.168831 4:-0.206434 5:-0.0966057 6:0.789474 7:-0.98593 8:-0.194777 9:0.348088 10:-0.509115 11:-0.276644 12:-0.128205 13:-0.142857 14:-0.126005 15:-0.0966057 16:-0.0526316 17:-0.99397 18:-0.201123 19:0.0139878 20:-0.706433 21:-0.707483 22:-0.128205 23:-0.142857 24:-0.0991957 25:-0.0966057 26:-0.0526316 27:-0.99799 28:-0.199658 29:0.129104 30:-0.704362 
-2048 1:-0.639456 2:-0.102564 3:-0.168831 4:-0.0991957 5:-0.0704961 6:0.0526316 7:-0.99196 8:-0.199658 9:0.139622 10:-0.668906 11:-0.714286 12:-0.102564 13:-0.168831 14:-0.126005 15:-0.122715 16:-0.263158 17:-0.99598 18:-0.199658 19:0.175925 20:-0.708775 21:-0.678005 22:-0.128205 23:-0.168831 24:-0.126005 25:-0.122715 26:-0.0526316 27:-0.99598 28:-0.199658 29:0.169862 30:-0.708087 
-2048 1:-0.714286 2:-0.102564 3:-0.168831 4:-0.126005 5:-0.122715 6:-0.263158 7:-0.99598 8:-0.199658 9:0.175925 10:-0.708775 11:-0.678005 12:-0.128205 13:-0.168831 14:-0.126005 15:-0.122715 16:-0.0526316 17:-0.99598 18:-0.199658 19:0.169862 20:-0.708087 21:-0.632653 22:-0.128205 23:-0.168831 24:-0.126005 25:-0.0704961 26:0.157895 27:-0.99598 28:-0.199658 29:0.123772 30:-0.665642 
