svm_type c_svc
kernel_type rbf
gamma 0.03125
nr_class 2
total_sv 392
rho -2.00305
label 0 1
nr_sv 196 196
SV
8 1:-0.651822 2:-0.706612 3:-0.740426 4:-0.738241 5:-0.617391 6:0.188874 7:0.493402 8:-0.4159 9:-0.740891 10:-0.743802 11:-0.731915 12:-0.734151 13:-0.286957 14:0.421863 15:0.526404 16:-0.276815 17:-0.769231 18:-0.793388 19:-0.795745 20:-0.738241 21:-0.321739 22:0.241812 23:0.494986 24:-0.246921 
8 1:-0.740891 2:-0.743802 3:-0.731915 4:-0.734151 5:-0.286957 6:0.421863 7:0.526404 8:-0.276815 9:-0.769231 10:-0.793388 11:-0.795745 12:-0.738241 13:-0.321739 14:0.241812 15:0.494986 16:-0.246921 17:-0.801619 18:-0.818182 19:-0.808511 20:-0.766871 21:-0.426087 22:0.119486 23:0.535051 24:-0.284303 
8 1:-0.769231 2:-0.793388 3:-0.795745 4:-0.738241 5:-0.321739 6:0.241812 7:0.494986 8:-0.246921 9:-0.801619 10:-0.818182 11:-0.808511 12:-0.766871 13:-0.426087 14:0.119486 15:0.535051 16:-0.284303 17:-0.813765 18:-0.826446 19:-0.8 20:-0.779141 21:-0.356522 22:-0.0940631 23:0.533579 24:-0.26302 
8 1:-0.817814 2:-0.871901 3:-0.880851 4:-0.885481 5:-0.756522 6:-0.00912218 7:0.498042 8:-0.438473 9:-0.862348 10:-0.900826 11:-0.876596 12:-0.848671 13:-0.147826 14:-0.208016 15:0.490482 16:-0.0876127 17:-0.821862 18:-0.867769 19:-0.838298 20:-0.836401 21:-0.252174 22:0.116196 23:0.514 24:-0.134121 
8 1:-0.862348 2:-0.900826 3:-0.876596 4:-0.848671 5:-0.147826 6:-0.208016 7:0.490482 8:-0.0876127 9:-0.821862 10:-0.867769 11:-0.838298 12:-0.836401 13:-0.252174 14:0.116196 15:0.514 16:-0.134121 17:-0.890688 18:-0.921488 19:-0.910638 20:-0.860941 21:-0.408696 22:0.208913 23:0.509269 24:-0.204733 
8 1:-0.821862 2:-0.867769 3:-0.838298 4:-0.836401 5:-0.252174 6:0.116196 7:0.514 8:-0.134121 9:-0.890688 10:-0.921488 11:-0.910638 12:-0.860941 13:-0.408696 14:0.208913 15:0.509269 16:-0.204733 17:-0.850202 18:-0.896694 19:-0.923404 20:-0.889571 21:-0.426087 22:-0.135337 23:0.481745 24:-0.375744 
8 1:-0.850202 2:-0.896694 3:-0.923404 4:-0.889571 5:-0.426087 6:-0.135337 7:0.481745 8:-0.375744 9:-0.97166 10:-0.950413 11:-0.974468 12:-0.90593 13:-0.373913 14:0.0794078 15:0.524819 16:-0.191029 17:-0.882591 18:-0.933884 19:-0.906383 20:-0.889571 21:-0.234783 22:0.100344 23:0.525748 24:-0.193272 
8 1:-0.97166 2:-0.950413 3:-0.974468 4:-0.90593 5:-0.373913 6:0.0794078 7:0.524819 8:-0.191029 9:-0.882591 10:-0.933884 11:-0.906383 12:-0.889571 13:-0.234783 14:0.100344 15:0.525748 16:-0.193272 17:-0.906883 18:-0.966942 19:-0.974468 20:-0.97955 21:-0.686957 22:0.0168985 23:0.467349 24:-0.304859 
8 1:-0.97166 2:-1 3:-0.991489 4:-0.99591 5:-0.373913 6:0.282488 7:0.473483 8:-0.11499 9:-0.963563 10:-0.971074 11:-0.961702 12:-0.91002 13:0.0608696 14:0.282189 15:0.486045 16:0.0132264 17:-0.854251 18:-0.913223 19:-0.87234 20:-0.860941 21:-0.0956522 22:0.253477 23:0.515901 24:-0.10447 
8 1:-0.963563 2:-0.971074 3:-0.961702 4:-0.91002 5:0.0608696 6:0.282189 7:0.486045 8:0.0132264 9:-0.854251 10:-0.913223 11:-0.87234 12:-0.860941 13:-0.0956522 14:0.253477 15:0.515901 16:-0.10447 17:-0.890688 18:-0.929752 19:-0.893617 20:-0.881391 21:-0.391304 22:0.277703 23:0.499378 24:-0.141928 
8 1:-0.854251 2:-0.913223 3:-0.87234 4:-0.860941 5:-0.0956522 6:0.253477 7:0.515901 8:-0.10447 9:-0.890688 10:-0.929752 11:-0.893617 12:-0.881391 13:-0.391304 14:0.277703 15:0.499378 16:-0.141928 17:-0.862348 18:-0.921488 19:-0.889362 20:-0.889571 21:-0.33913 22:0.282488 23:0.513841 24:-0.0956774 
8 1:-0.923077 2:-0.847107 3:-0.914894 4:-0.787321 5:0.165217 6:0.123075 7:0.574617 8:0.0246261 9:-0.777328 10:-0.809917 11:-0.761702 12:-0.770961 13:-0.234783 14:0.501122 15:0.501732 16:-0.0648587 17:-0.736842 18:-0.77686 19:-0.757447 20:-0.717791 21:-0.0782609 22:0.414685 23:0.507481 24:0.0214124 
8 1:-0.777328 2:-0.809917 3:-0.761702 4:-0.770961 5:-0.234783 6:0.501122 7:0.501732 8:-0.0648587 9:-0.736842 10:-0.77686 11:-0.757447 12:-0.717791 13:-0.0782609 14:0.414685 15:0.507481 16:0.0214124 17:-0.708502 18:-0.760331 19:-0.748936 20:-0.762781 21:-0.495652 22:0.291162 23:0.509858 24:-0.13356 
8 1:-0.736842 2:-0.77686 3:-0.757447 4:-0.717791 5:-0.0782609 6:0.414685 7:0.507481 8:0.0214124 9:-0.708502 10:-0.760331 11:-0.748936 12:-0.762781 13:-0.495652 14:0.291162 15:0.509858 16:-0.13356 17:-0.781377 18:-0.834711 19:-0.838298 20:-0.836401 21:-0.617391 22:0.294452 23:0.499355 24:-0.324718 
8 1:-0.910931 2:-0.880165 3:-0.902128 4:-0.836401 5:0.026087 6:0.175714 7:0.526268 8:-0.100271 9:-0.821862 10:-0.880165 11:-0.868085 12:-0.832311 13:-0.286957 14:0.224166 15:0.536975 16:-0.159755 17:-0.821862 18:-0.847107 19:-0.817021 20:-0.791411 21:-0.130435 22:0.282488 23:0.50558 24:-0.0249293 
8 1:-0.821862 2:-0.880165 3:-0.868085 4:-0.832311 5:-0.286957 6:0.224166 7:0.536975 8:-0.159755 9:-0.821862 10:-0.847107 11:-0.817021 12:-0.791411 13:-0.130435 14:0.282488 15:0.50558 16:-0.0249293 17:-0.793522 18:-0.85124 19:-0.842553 20:-0.832311 21:-0.478261 22:0.268132 23:0.524865 24:-0.215784 
8 1:-0.793522 2:-0.85124 3:-0.842553 4:-0.832311 5:-0.478261 6:0.268132 7:0.524865 8:-0.215784 9:-0.854251 10:-0.85124 11:-0.846809 12:-0.832311 13:-0.304348 14:0.282488 15:0.525317 16:-0.142277 17:-0.838057 18:-0.871901 19:-0.825532 20:-0.820041 21:-0.252174 22:0.2786 23:0.511193 24:-0.15019 
8 1:-0.838057 2:-0.871901 3:-0.825532 4:-0.820041 5:-0.252174 6:0.2786 7:0.511193 8:-0.15019 9:-0.821862 10:-0.838843 11:-0.842553 12:-0.840491 13:-0.391304 14:0.285479 15:0.518844 16:-0.193257 17:-0.842105 18:-0.756198 19:-0.838298 20:-0.758691 21:0.0434783 22:0.330941 23:0.601145 24:-0.153267 
8 1:-0.821862 2:-0.838843 3:-0.842553 4:-0.840491 5:-0.391304 6:0.285479 7:0.518844 8:-0.193257 9:-0.842105 10:-0.756198 11:-0.838298 12:-0.758691 13:0.0434783 14:0.330941 15:0.601145 16:-0.153267 17:-0.801619 18:-0.838843 19:-0.829787 20:-0.779141 21:-0.391304 22:-0.103335 23:0.451912 24:-0.0241714 
8 1:-0.753036 2:-0.77686 3:-0.757447 4:-0.717791 5:0.00869565 6:0.204726 7:0.525363 8:0.0517308 9:-0.680162 10:-0.735537 11:-0.702128 12:-0.676892 13:-0.130435 14:0.282488 15:0.507526 16:0.104834 17:-0.659919 18:-0.632231 19:-0.659574 20:-0.578732 21:0.113043 22:0.282488 23:0.612237 24:0.101999 
8 1:-0.659919 2:-0.632231 3:-0.659574 4:-0.578732 5:0.113043 6:0.282488 7:0.612237 8:0.101999 9:-0.574899 10:-0.599174 11:-0.617021 12:-0.631902 13:-0.530435 14:0.177509 15:0.465153 16:-0.10306 17:-0.635628 18:-0.632231 19:-0.634043 20:-0.574642 21:-0.0608696 22:0.248392 23:0.546368 24:-0.0493205 
8 1:-0.566802 2:-0.61157 3:-0.561702 4:-0.574642 5:-0.269565 6:0.366233 7:0.501732 8:-0.0264452 9:-0.578947 10:-0.623967 11:-0.582979 12:-0.566462 13:-0.269565 14:0.278002 15:0.522194 16:-0.0420895 17:-0.546559 18:-0.590909 19:-0.53617 20:-0.533742 21:-0.165217 22:0.282488 23:0.516218 24:0.063176 
8 1:-0.546559 2:-0.590909 3:-0.53617 4:-0.533742 5:-0.165217 6:0.282488 7:0.516218 8:0.063176 9:-0.538462 10:-0.582645 11:-0.595745 12:-0.603272 13:-0.6 14:0.343801 15:0.511125 16:-0.105122 17:-0.595142 18:-0.590909 19:-0.570213 20:-0.574642 21:-0.182609 22:0.415582 23:0.573893 24:-0.00896667 
8 1:-0.54251 2:-0.586777 3:-0.574468 4:-0.595092 5:-0.391304 6:0.282488 7:0.481247 8:-0.00435827 9:-0.578947 10:-0.590909 11:-0.557447 12:-0.533742 13:-0.0434783 14:-0.254075 15:0.547862 16:0.200716 17:-0.522267 18:-0.566116 19:-0.531915 20:-0.513292 21:-0.217391 22:0.292956 23:0.482446 24:0.102317 
8 1:-0.578947 2:-0.590909 3:-0.557447 4:-0.533742 5:-0.0434783 6:-0.254075 7:0.547862 8:0.200716 9:-0.522267 10:-0.566116 11:-0.531915 12:-0.513292 13:-0.217391 14:0.292956 15:0.482446 16:0.102317 17:-0.518219 18:-0.570248 19:-0.531915 20:-0.521472 21:-0.33913 22:0.311799 23:0.502909 24:-0.0198207 
8 1:-0.518219 2:-0.570248 3:-0.531915 4:-0.521472 5:-0.33913 6:0.311799 7:0.502909 8:-0.0198207 9:-0.538462 10:-0.570248 11:-0.52766 12:-0.525562 13:-0.321739 14:0.282488 15:0.527083 16:-0.0334336 17:-0.534413 18:-0.553719 19:-0.531915 20:-0.513292 21:-0.252174 22:0.192762 23:0.544444 24:0.0254144 
8 1:-0.534413 2:-0.553719 3:-0.531915 4:-0.513292 5:-0.252174 6:0.192762 7:0.544444 8:0.0254144 9:-0.506073 10:-0.557851 11:-0.519149 12:-0.541922 13:-0.426087 14:0.282488 15:0.513094 16:-0.0828527 17:-0.510121 18:-0.549587 19:-0.497872 20:-0.513292 21:-0.182609 22:0.282488 23:0.529052 24:0.0161673 
8 1:-0.506073 2:-0.557851 3:-0.519149 4:-0.541922 5:-0.426087 6:0.282488 7:0.513094 8:-0.0828527 9:-0.510121 10:-0.549587 11:-0.497872 12:-0.513292 13:-0.182609 14:0.282488 15:0.529052 16:0.0161673 17:-0.497976 18:-0.549587 19:-0.544681 20:-0.546012 21:-0.443478 22:0.28189 23:0.495213 24:-0.0707708 
8 1:-0.510121 2:-0.549587 3:-0.497872 4:-0.513292 5:-0.182609 6:0.282488 7:0.529052 8:0.0161673 9:-0.497976 10:-0.549587 11:-0.544681 12:-0.546012 13:-0.443478 14:0.28189 15:0.495213 16:-0.0707708 17:-0.453441 18:-0.475207 19:-0.510638 20:-0.501022 21:-0.304348 22:0.18678 23:0.534394 24:0.0556722 
8 1:-0.497976 2:-0.549587 3:-0.544681 4:-0.546012 5:-0.443478 6:0.28189 7:0.495213 8:-0.0707708 9:-0.453441 10:-0.475207 11:-0.510638 12:-0.501022 13:-0.304348 14:0.18678 15:0.534394 16:0.0556722 17:-0.534413 18:-0.566116 19:-0.553191 20:-0.574642 21:-0.617391 22:0.260655 23:0.526132 24:-0.295718 
8 1:-0.57085 2:-0.623967 3:-0.629787 4:-0.648262 5:-0.617391 6:0.27202 7:0.490097 8:-0.194894 9:-0.659919 10:-0.677686 11:-0.668085 12:-0.635992 13:-0.252174 14:0.154479 15:0.49648 16:-0.124116 17:-0.65587 18:-0.677686 19:-0.642553 20:-0.619632 21:-0.234783 22:0.27202 23:0.50558 24:-0.0429839 
8 1:-0.62753 2:-0.677686 3:-0.651064 4:-0.648262 5:-0.426087 6:0.276208 7:0.504108 8:-0.115293 9:-0.62753 10:-0.64876 11:-0.629787 12:-0.615542 13:-0.165217 14:0.280694 15:0.509699 16:-0.0353589 17:-0.607287 18:-0.599174 19:-0.582979 20:-0.546012 21:-0.00869565 22:0.824136 23:0.5396 24:0.077744 
8 1:-0.607287 2:-0.599174 3:-0.582979 4:-0.546012 5:-0.00869565 6:0.824136 7:0.5396 8:0.077744 9:-0.578947 10:-0.599174 11:-0.578723 12:-0.599182 13:-0.530435 14:0.278002 15:0.52276 16:-0.212403 17:-0.611336 18:-0.623967 19:-0.608511 20:-0.578732 21:-0.217391 22:0.246 23:0.504652 24:-0.0453791 
8 1:-0.578947 2:-0.599174 3:-0.578723 4:-0.599182 5:-0.530435 6:0.278002 7:0.52276 8:-0.212403 9:-0.611336 10:-0.623967 11:-0.608511 12:-0.578732 13:-0.217391 14:0.246 15:0.504652 16:-0.0453791 17:-0.57085 18:-0.623967 19:-0.574468 20:-0.591002 21:-0.356522 22:0.279498 23:0.508703 24:-0.0611295 
8 1:-0.611336 2:-0.623967 3:-0.608511 4:-0.578732 5:-0.217391 6:0.246 7:0.504652 8:-0.0453791 9:-0.57085 10:-0.623967 11:-0.574468 12:-0.591002 13:-0.356522 14:0.279498 15:0.508703 16:-0.0611295 17:-0.587045 18:-0.619835 19:-0.629787 20:-0.635992 21:-0.495652 22:0.262749 23:0.523575 24:-0.215723 
8 1:-0.65587 2:-0.657025 3:-0.714894 4:-0.730061 5:-0.704348 6:0.282189 7:0.515426 8:-0.388508 9:-0.708502 10:-0.735537 11:-0.702128 12:-0.685072 13:-0.113043 14:0.280096 15:0.507232 16:0.000250127 17:-0.65587 18:-0.710744 19:-0.668085 20:-0.656442 21:-0.182609 22:0.303425 23:0.49356 24:0.0159551 
8 1:-0.708502 2:-0.735537 3:-0.702128 4:-0.685072 5:-0.113043 6:0.280096 7:0.507232 8:0.000250127 9:-0.65587 10:-0.710744 11:-0.668085 12:-0.656442 13:-0.182609 14:0.303425 15:0.49356 16:0.0159551 17:-0.65587 18:-0.698347 19:-0.67234 20:-0.685072 21:-0.426087 22:0.28189 23:0.527174 24:-0.150205 
8 1:-0.65587 2:-0.710744 3:-0.668085 4:-0.656442 5:-0.182609 6:0.303425 7:0.49356 8:0.0159551 9:-0.65587 10:-0.698347 11:-0.67234 12:-0.685072 13:-0.426087 14:0.28189 15:0.527174 16:-0.150205 17:-0.700405 18:-0.706612 19:-0.680851 20:-0.689162 21:-0.321739 22:0.233737 23:0.518844 24:-0.100119 
8 1:-0.65587 2:-0.698347 3:-0.67234 4:-0.685072 5:-0.426087 6:0.28189 7:0.527174 8:-0.150205 9:-0.700405 10:-0.706612 11:-0.680851 12:-0.689162 13:-0.321739 14:0.233737 15:0.518844 16:-0.100119 17:-0.704453 18:-0.747934 19:-0.710638 20:-0.717791 21:-0.426087 22:0.238523 23:0.516716 24:-0.185071 
8 1:-0.700405 2:-0.706612 3:-0.680851 4:-0.689162 5:-0.321739 6:0.233737 7:0.518844 8:-0.100119 9:-0.704453 10:-0.747934 11:-0.710638 12:-0.717791 13:-0.426087 14:0.238523 15:0.516716 16:-0.185071 17:-0.700405 18:-0.747934 19:-0.740426 20:-0.754601 21:-0.46087 22:0.259758 23:0.502795 24:-0.176127 
8 1:-0.704453 2:-0.747934 3:-0.710638 4:-0.717791 5:-0.426087 6:0.238523 7:0.516716 8:-0.185071 9:-0.700405 10:-0.747934 11:-0.740426 12:-0.754601 13:-0.46087 14:0.259758 15:0.502795 16:-0.176127 17:-0.817814 18:-0.85124 19:-0.804255 20:-0.815951 21:-0.565217 22:0.250486 23:0.529822 24:-0.348306 
8 1:-0.817814 2:-0.85124 3:-0.804255 4:-0.815951 5:-0.565217 6:0.250486 7:0.529822 8:-0.348306 9:-0.821862 10:-0.876033 11:-0.868085 12:-0.877301 13:-0.565217 14:0.281591 15:0.506168 16:-0.400772 17:-0.878543 18:-0.904959 19:-0.897872 20:-0.873211 21:-0.286957 22:0.171826 23:0.545689 24:-0.304344 
8 1:-0.821862 2:-0.876033 3:-0.868085 4:-0.877301 5:-0.565217 6:0.281591 7:0.506168 8:-0.400772 9:-0.878543 10:-0.904959 11:-0.897872 12:-0.873211 13:-0.286957 14:0.171826 15:0.545689 16:-0.304344 17:-0.874494 18:-0.917355 19:-0.893617 20:-0.885481 21:-0.356522 22:0.20981 23:0.521945 24:-0.259685 
8 1:-0.878543 2:-0.904959 3:-0.897872 4:-0.873211 5:-0.286957 6:0.171826 7:0.545689 8:-0.304344 9:-0.874494 10:-0.917355 11:-0.893617 12:-0.885481 13:-0.356522 14:0.20981 15:0.521945 16:-0.259685 17:-0.88664 18:-0.942149 19:-0.953191 20:-0.95092 21:-0.582609 22:0.192463 23:0.486838 24:-0.427876 
8 1:-0.88664 2:-0.942149 3:-0.953191 4:-0.95092 5:-0.582609 6:0.192463 7:0.486838 8:-0.427876 9:-0.94332 10:-0.995868 11:-1 12:-1 13:-0.513043 14:-0.439509 15:0.514928 16:-0.393116 17:-1 18:-0.971074 19:-1 20:-0.91002 21:0.0782609 22:0.286377 23:0.50816 24:-0.106501 
8 1:-0.94332 2:-0.995868 3:-1 4:-1 5:-0.513043 6:-0.439509 7:0.514928 8:-0.393116 9:-1 10:-0.971074 11:-1 12:-0.91002 13:0.0782609 14:0.286377 15:0.50816 16:-0.106501 17:-0.910931 18:-0.942149 19:-0.961702 20:-0.94274 21:-0.443478 22:0.257066 23:0.526562 24:-0.334571 
8 1:-0.910931 2:-0.942149 3:-0.961702 4:-0.94274 5:-0.443478 6:0.257066 7:0.526562 8:-0.334571 9:-0.947368 10:-1 11:-0.978723 12:-0.97137 13:-0.426087 14:0.282488 15:0.528735 16:-0.336527 17:-0.902834 18:-0.946281 19:-0.957447 20:-0.92638 21:-0.113043 22:0.282488 23:0.503226 24:-0.736775 
8 1:-0.939271 2:-0.987603 3:-0.957447 4:-0.94274 5:-0.373913 6:0.282488 7:0.521288 8:-0.329175 9:-0.935223 10:-0.975207 11:-0.93617 12:-0.93047 13:-0.252174 14:0.263646 15:0.559044 16:-0.355127 17:-0.931174 18:-0.983471 19:-0.957447 20:-0.92638 21:-0.286957 22:0.118887 23:0.506938 24:-0.279452 
8 1:-0.935223 2:-0.975207 3:-0.93617 4:-0.93047 5:-0.252174 6:0.263646 7:0.559044 8:-0.355127 9:-0.931174 10:-0.983471 11:-0.957447 12:-0.92638 13:-0.286957 14:0.118887 15:0.506938 16:-0.279452 17:-0.927126 18:-0.975207 19:-0.944681 20:-0.93456 21:-0.33913 22:0.245102 23:0.507436 24:-0.296886 
8 1:-0.927126 2:-0.975207 3:-0.944681 4:-0.93456 5:-0.33913 6:0.245102 7:0.507436 8:-0.296886 9:-0.931174 10:-0.971074 11:-0.93617 12:-0.94274 13:-0.33913 14:0.285778 15:0.50481 16:-0.235081 17:-0.927126 18:-0.85124 19:-0.92766 20:-0.803681 21:0.286957 22:0.275908 23:0.590348 24:0.0732266 
8 1:-0.927126 2:-0.85124 3:-0.92766 4:-0.803681 5:0.286957 6:0.275908 7:0.590348 8:0.0732266 9:-0.809717 10:-0.863636 11:-0.834043 12:-0.844581 13:-0.478261 14:0.282488 15:0.484484 16:-0.199867 17:-0.801619 18:-0.768595 19:-0.791489 20:-0.762781 21:0.0434783 22:0.587558 23:0.5396 24:-0.150448 
8 1:-0.740891 2:-0.760331 3:-0.744681 4:-0.717791 5:-0.113043 6:0.282488 7:0.508296 8:0.0622058 9:-0.720648 10:-0.752066 11:-0.719149 12:-0.693252 13:-0.2 14:0.276507 15:0.503791 16:-0.0840654 17:-0.716599 18:-0.714876 19:-0.697872 20:-0.672802 21:-0.217391 22:0.298938 23:0.550556 24:-0.0386029 
8 1:-0.672065 2:-0.72314 3:-0.714894 4:-0.725971 5:-0.530435 6:0.280694 7:0.509631 8:-0.17355 9:-0.720648 10:-0.747934 11:-0.702128 12:-0.697342 13:-0.182609 14:0.282488 15:0.538853 16:-0.0145756 17:-0.704453 18:-0.743802 19:-0.693617 20:-0.689162 21:-0.269565 22:0.282488 23:0.524752 24:-0.118052 
8 1:-0.708502 2:-0.698347 3:-0.697872 4:-0.689162 5:-0.304348 6:0.276208 7:0.556712 8:-0.122737 9:-0.668016 10:-0.706612 11:-0.655319 12:-0.652352 13:-0.147826 14:0.287274 15:0.523846 16:-0.000219809 17:-0.639676 18:-0.673554 19:-0.634043 20:-0.644172 21:-0.269565 22:0.282488 23:0.511623 24:-0.0170162 
8 1:-0.704453 2:-0.756198 3:-0.740426 4:-0.754601 5:-0.773913 6:0.147899 7:0.502546 8:-0.375274 9:-0.781377 10:-0.760331 11:-0.765957 12:-0.701431 13:-0.0782609 14:0.248991 15:0.518119 16:-0.0877036 17:-0.728745 18:-0.743802 19:-0.714894 20:-0.689162 21:-0.252174 22:0.0411246 23:0.519704 24:-0.0502149 
8 1:-0.688259 2:-0.714876 3:-0.676596 4:-0.668712 5:-0.269565 6:0.282488 7:0.525385 8:-0.117203 9:-0.672065 10:-0.694215 11:-0.651064 12:-0.635992 13:-0.165217 14:0.282488 15:0.515901 16:-0.0178348 17:-0.619433 18:-0.632231 19:-0.595745 20:-0.578732 21:-0.0608696 22:0.25258 23:0.484212 24:0.0268849 
8 1:-0.57085 2:-0.623967 3:-0.655319 4:-0.635992 5:-0.547826 6:0.266338 7:0.513298 8:-0.340165 9:-0.659919 10:-0.669421 11:-0.646809 12:-0.615542 13:-0.217391 14:0.276507 15:0.534688 16:-0.109381 17:-0.651822 18:-0.652893 19:-0.646809 20:-0.595092 21:-0.217391 22:0.283685 23:0.533013 24:-0.110867 
8 1:-0.659919 2:-0.669421 3:-0.646809 4:-0.615542 5:-0.217391 6:0.276507 7:0.534688 8:-0.109381 9:-0.651822 10:-0.652893 11:-0.646809 12:-0.595092 13:-0.217391 14:0.283685 15:0.533013 16:-0.110867 17:-0.619433 18:-0.636364 19:-0.595745 20:-0.595092 21:-0.304348 22:0.282488 23:0.506145 24:-0.0501997 
8 1:-0.591093 2:-0.636364 3:-0.587234 4:-0.595092 5:-0.304348 6:0.282488 7:0.507504 8:-0.0542018 9:-0.59919 10:-0.615702 11:-0.574468 12:-0.586912 13:-0.269565 14:0.282488 15:0.540166 16:0.014333 17:-0.566802 18:-0.61157 19:-0.553191 20:-0.562372 21:-0.2 22:0.244205 23:0.566197 24:-0.0214579 
8 1:-0.59919 2:-0.615702 3:-0.574468 4:-0.586912 5:-0.269565 6:0.282488 7:0.540166 8:0.014333 9:-0.566802 10:-0.61157 11:-0.553191 12:-0.562372 13:-0.2 14:0.244205 15:0.566197 16:-0.0214579 17:-0.578947 18:-0.619835 19:-0.570213 20:-0.574642 21:-0.356522 22:0.248093 23:0.502977 24:-0.150311 
8 1:-0.611336 2:-0.632231 3:-0.587234 4:-0.595092 5:-0.234783 6:0.282488 7:0.534462 8:-0.131332 9:-0.595142 10:-0.61157 11:-0.570213 12:-0.562372 13:-0.165217 14:0.306415 15:0.522669 16:-0.00593483 17:-0.54251 18:-0.595041 19:-0.553191 20:-0.554192 21:-0.269565 22:0.414087 23:0.505444 24:-0.108699 
8 1:-0.550607 2:-0.557851 3:-0.523404 4:-0.513292 5:-0.130435 6:0.251682 7:0.552095 8:0.0494114 9:-0.481781 10:-0.508264 11:-0.468085 12:-0.451943 13:-0.0434783 14:0.387169 15:0.539329 16:0.140746 17:-0.441296 18:-0.491736 19:-0.442553 20:-0.443763 21:-0.269565 22:0.307313 23:0.579461 24:0.0745303 
8 1:-0.465587 2:-0.495868 3:-0.442553 4:-0.451943 5:-0.33913 6:0.318977 7:0.58478 8:-0.0382694 9:-0.445344 10:-0.42562 11:-0.417021 12:-0.394683 13:-0.0608696 14:0.289068 15:0.572308 16:0.061175 17:-0.388664 18:-0.429752 19:-0.374468 20:-0.386503 21:-0.269565 22:0.332735 23:0.450644 24:0.0315236 
8 1:-0.40081 2:-0.42562 3:-0.442553 4:-0.386503 5:-0.304348 6:0.450277 7:0.504561 8:-0.103105 9:-0.396761 10:-0.429752 11:-0.395745 12:-0.378323 13:-0.269565 14:0.339315 15:0.523733 16:0.0620542 17:-0.360324 18:-0.363636 19:-0.32766 20:-0.329243 21:-0.0956522 22:0.26873 23:0.572421 24:0.159755 
8 1:-0.396761 2:-0.429752 3:-0.395745 4:-0.378323 5:-0.269565 6:0.339315 7:0.523733 8:0.0620542 9:-0.360324 10:-0.363636 11:-0.32766 12:-0.329243 13:-0.0956522 14:0.26873 15:0.572421 16:0.159755 17:-0.319838 18:-0.367769 19:-0.319149 20:-0.329243 21:-0.304348 22:0.295947 23:0.505489 24:-0.020139 
8 1:-0.319838 2:-0.367769 3:-0.319149 4:-0.329243 5:-0.304348 6:0.295947 7:0.505489 8:-0.020139 9:-0.336032 10:-0.384298 11:-0.344681 12:-0.374233 13:-0.495652 14:0.247495 15:0.529482 16:-0.251529 17:-0.384615 18:-0.384298 19:-0.348936 20:-0.337423 21:-0.147826 22:0.420368 23:0.511261 24:0.173111 
8 1:-0.336032 2:-0.384298 3:-0.344681 4:-0.374233 5:-0.495652 6:0.247495 7:0.529482 8:-0.251529 9:-0.384615 10:-0.384298 11:-0.348936 12:-0.337423 13:-0.147826 14:0.420368 15:0.511261 16:0.173111 17:-0.34413 18:-0.384298 19:-0.319149 20:-0.349693 21:-0.356522 22:0.278301 23:0.529279 24:-0.127087 
8 1:-0.376518 2:-0.42562 3:-0.361702 4:-0.370143 5:-0.217391 6:0.273217 7:0.506304 8:-0.0513215 9:-0.376518 10:-0.392562 11:-0.348936 12:-0.353783 13:-0.234783 14:0.227157 15:0.529324 16:-0.0259147 17:-0.327935 18:-0.342975 19:-0.297872 20:-0.288344 21:-0.026087 22:0.20981 23:0.597818 24:0.144914 
8 1:-0.327935 2:-0.342975 3:-0.297872 4:-0.288344 5:-0.026087 6:0.20981 7:0.597818 8:0.144914 9:-0.295547 10:-0.338843 11:-0.289362 12:-0.292434 13:-0.321739 14:0.497832 15:0.451278 16:0.00419152 17:-0.299595 18:-0.342975 19:-0.27234 20:-0.288344 21:-0.286957 22:0.253178 23:0.513343 24:-0.0669203 
8 1:-0.295547 2:-0.338843 3:-0.289362 4:-0.292434 5:-0.321739 6:0.497832 7:0.451278 8:0.00419152 9:-0.299595 10:-0.342975 11:-0.27234 12:-0.288344 13:-0.286957 14:0.253178 15:0.513343 16:-0.0669203 17:-0.319838 18:-0.355372 19:-0.323404 20:-0.308793 21:-0.391304 22:0.25258 23:0.490686 24:-0.0437116 
8 1:-0.319838 2:-0.355372 3:-0.323404 4:-0.308793 5:-0.391304 6:0.25258 7:0.490686 8:-0.0437116 9:-0.437247 10:-0.433884 11:-0.425532 12:-0.443763 13:-0.878261 14:-0.0656498 15:0.673057 16:-1 17:-0.465587 18:-0.458678 19:-0.446809 20:-0.402863 21:-0.130435 22:0.0874832 23:0.510582 24:-0.284667 
8 1:-0.437247 2:-0.433884 3:-0.425532 4:-0.443763 5:-0.878261 6:-0.0656498 7:0.673057 8:-1 9:-0.465587 10:-0.458678 11:-0.446809 12:-0.402863 13:-0.130435 14:0.0874832 15:0.510582 16:-0.284667 17:-0.417004 18:-0.458678 19:-0.421277 20:-0.443763 21:-0.478261 22:0.0773142 23:0.521085 24:-0.295127 
8 1:-0.417004 2:-0.458678 3:-0.421277 4:-0.443763 5:-0.478261 6:0.0773142 7:0.521085 8:-0.295127 9:-0.45749 10:-0.504132 11:-0.476596 12:-0.492843 13:-0.513043 14:0.167639 15:0.544603 16:-0.603268 17:-0.502024 18:-0.508264 19:-0.489362 20:-0.464213 21:-0.182609 22:0.279797 23:0.60325 24:-0.431621 
8 1:-0.489879 2:-0.512397 3:-0.459574 4:-0.460123 5:-0.234783 6:0.210109 7:0.572195 8:-0.358477 9:-0.449393 10:-0.46281 11:-0.421277 12:-0.423313 13:-0.147826 14:0.311201 15:0.610448 16:-0.287835 17:-0.421053 18:-0.404959 19:-0.387234 20:-0.349693 21:0.00869565 22:0.265141 23:0.597048 24:-0.149962 
8 1:-0.421053 2:-0.404959 3:-0.387234 4:-0.349693 5:0.00869565 6:0.265141 7:0.597048 8:-0.149962 9:-0.340081 10:-0.384298 11:-0.33617 12:-0.349693 13:-0.304348 14:0.283685 15:0.706354 16:-0.25303 17:-0.336032 18:-0.355372 19:-0.323404 20:-0.316973 21:-0.165217 22:0.281591 23:0.912492 24:-0.204051 
8 1:-0.340081 2:-0.384298 3:-0.33617 4:-0.349693 5:-0.304348 6:0.283685 7:0.706354 8:-0.25303 9:-0.336032 10:-0.355372 11:-0.323404 12:-0.316973 13:-0.165217 14:0.281591 15:0.912492 16:-0.204051 17:-0.323887 18:-0.363636 19:-0.310638 20:-0.329243 21:-0.356522 22:0.329744 23:0.790873 24:-0.233732 
8 1:-0.336032 2:-0.355372 3:-0.323404 4:-0.316973 5:-0.165217 6:0.281591 7:0.912492 8:-0.204051 9:-0.323887 10:-0.363636 11:-0.310638 12:-0.329243 13:-0.356522 14:0.329744 15:0.790873 16:-0.233732 17:-0.348178 18:-0.38843 19:-0.340426 20:-0.370143 21:-0.478261 22:0.298639 23:0.709568 24:-0.355855 
8 1:-0.323887 2:-0.363636 3:-0.310638 4:-0.329243 5:-0.356522 6:0.329744 7:0.790873 8:-0.233732 9:-0.348178 10:-0.38843 11:-0.340426 12:-0.370143 13:-0.478261 14:0.298639 15:0.709568 16:-0.355855 17:-0.408907 18:-0.433884 19:-0.391489 20:-0.394683 21:-0.408696 22:0.366831 23:1 24:-0.435016 
8 1:-0.838057 2:-0.842975 3:-0.838298 4:-0.811861 5:-0.304348 6:0.292358 7:-1 8:-0.379018 9:-0.785425 10:-0.822314 11:-0.782979 12:-0.770961 13:-0.130435 14:0.270525 15:0.296159 16:-0.0900684 17:-0.748988 18:-0.760331 19:-0.740426 20:-0.705521 21:-0.026087 22:0.419471 23:0.461848 24:0.00739011 
8 1:-0.785425 2:-0.822314 3:-0.782979 4:-0.770961 5:-0.130435 6:0.270525 7:0.296159 8:-0.0900684 9:-0.748988 10:-0.760331 11:-0.740426 12:-0.705521 13:-0.026087 14:0.419471 15:0.461848 16:0.00739011 17:-0.684211 18:-0.72314 19:-0.702128 20:-0.717791 21:-0.356522 22:0.292358 23:0.53367 24:-0.265839 
8 1:-0.748988 2:-0.760331 3:-0.740426 4:-0.705521 5:-0.026087 6:0.419471 7:0.461848 8:0.00739011 9:-0.684211 10:-0.72314 11:-0.702128 12:-0.717791 13:-0.356522 14:0.292358 15:0.53367 16:-0.265839 17:-0.716599 18:-0.768595 19:-0.744681 20:-0.758691 21:-0.478261 22:0.282488 23:0.528554 24:-0.48104 
8 1:-0.716599 2:-0.768595 3:-0.744681 4:-0.758691 5:-0.478261 6:0.282488 7:0.528554 8:-0.48104 9:-0.789474 10:-0.842975 11:-0.787234 12:-0.791411 13:-0.443478 14:0.273217 15:0.491455 16:-0.407063 17:-0.82996 18:-0.826446 19:-0.821277 20:-0.779141 21:-0.252174 22:0.313893 23:0.482876 24:-0.174232 
8 1:-0.789474 2:-0.842975 3:-0.787234 4:-0.791411 5:-0.443478 6:0.273217 7:0.491455 8:-0.407063 9:-0.82996 10:-0.826446 11:-0.821277 12:-0.779141 13:-0.252174 14:0.313893 15:0.482876 16:-0.174232 17:-0.781377 18:-0.830579 19:-0.787234 20:-0.799591 21:-0.391304 22:0.282488 23:0.528079 24:-0.430362 
8 1:-0.769231 2:-0.818182 3:-0.817021 4:-0.811861 5:-0.356522 6:0.299237 7:0.506259 8:-0.307512 9:-0.813765 10:-0.830579 11:-0.8 12:-0.803681 13:-0.269565 14:0.548976 15:0.522805 16:-0.316865 17:-0.704453 18:-0.735537 19:-0.714894 20:-0.680982 21:0.217391 22:0.447884 23:0.586817 24:0.216375 
8 1:-0.813765 2:-0.830579 3:-0.8 4:-0.803681 5:-0.269565 6:0.548976 7:0.522805 8:-0.316865 9:-0.704453 10:-0.735537 11:-0.714894 12:-0.680982 13:0.217391 14:0.447884 15:0.586817 16:0.216375 17:-0.680162 18:-0.727273 19:-0.680851 20:-0.689162 21:-0.33913 22:0.650665 23:0.481881 24:0.0632973 
8 1:-0.704453 2:-0.735537 3:-0.714894 4:-0.680982 5:0.217391 6:0.447884 7:0.586817 8:0.216375 9:-0.680162 10:-0.727273 11:-0.680851 12:-0.689162 13:-0.33913 14:0.650665 15:0.481881 16:0.0632973 17:-0.704453 18:-0.752066 19:-0.710638 20:-0.697342 21:-0.33913 22:0.333333 23:0.509903 24:-0.098027 
8 1:-0.704453 2:-0.752066 3:-0.710638 4:-0.697342 5:-0.33913 6:0.333333 7:0.509903 8:-0.098027 9:-0.688259 10:-0.72314 11:-0.710638 12:-0.713701 13:-0.373913 14:0.334231 15:0.509767 16:-0.153479 17:-0.704453 18:-0.756198 19:-0.706383 20:-0.705521 21:-0.269565 22:0.312696 23:0.537133 24:-0.183692 
8 1:-0.704453 2:-0.756198 3:-0.706383 4:-0.705521 5:-0.269565 6:0.312696 7:0.537133 8:-0.183692 9:-0.736842 10:-0.780992 11:-0.740426 12:-0.742331 13:-0.46087 14:0.379692 15:0.50945 16:-0.223939 17:-0.708502 18:-0.756198 19:-0.710638 20:-0.705521 21:-0.147826 22:0.314192 23:0.559157 24:-0.0113315 
8 1:-0.740891 2:-0.77686 3:-0.72766 4:-0.717791 5:-0.252174 6:0.247495 7:0.528894 8:-0.106622 9:-0.736842 10:-0.764463 11:-0.719149 12:-0.713701 13:-0.286957 14:0.351578 15:0.48102 16:-0.0704221 17:-0.692308 18:-0.743802 19:-0.680851 20:-0.689162 21:-0.2 22:0.343502 23:0.494217 24:-0.0273093 
8 1:-0.659919 2:-0.677686 3:-0.659574 4:-0.652352 5:-0.113043 6:0.518768 7:0.552276 8:0.0869456 9:-0.639676 10:-0.68595 11:-0.642553 12:-0.631902 13:-0.217391 14:0.596531 15:0.502682 16:-0.0637975 17:-0.615385 18:-0.657025 19:-0.612766 20:-0.623722 21:-0.269565 22:0.689846 23:0.506327 24:-0.110867 
8 1:-0.611336 2:-0.652893 3:-0.587234 4:-0.599182 5:-0.252174 6:0.660236 7:0.469907 8:0.0751821 9:-0.587045 10:-0.61157 11:-0.565957 12:-0.554192 13:-0.113043 14:0.673396 15:0.52276 16:0.0935702 17:-0.538462 18:-0.549587 19:-0.514894 20:-0.521472 21:-0.165217 22:1 23:0.551914 24:-0.0836561 
8 1:-0.538462 2:-0.549587 3:-0.514894 4:-0.521472 5:-0.165217 6:1 7:0.551914 8:-0.0836561 9:-0.502024 10:-0.549587 11:-0.506383 12:-0.525562 13:-0.321739 14:0.367728 15:0.535571 16:-0.110003 17:-0.51417 18:-0.512397 19:-0.489362 20:-0.464213 21:-0.0434783 22:0.52445 23:0.578759 24:0.013757 
8 1:-0.502024 2:-0.549587 3:-0.506383 4:-0.525562 5:-0.321739 6:0.367728 7:0.535571 8:-0.110003 9:-0.51417 10:-0.512397 11:-0.489362 12:-0.464213 13:-0.0434783 14:0.52445 15:0.578759 16:0.013757 17:-0.489879 18:-0.512397 19:-0.468085 20:-0.468303 21:-0.321739 22:0.453567 23:0.493606 24:0.00209955 
8 1:-0.51417 2:-0.512397 3:-0.489362 4:-0.464213 5:-0.0434783 6:0.52445 7:0.578759 8:0.013757 9:-0.489879 10:-0.512397 11:-0.468085 12:-0.468303 13:-0.321739 14:0.453567 15:0.493606 16:0.00209955 17:-0.461538 18:-0.491736 19:-0.468085 20:-0.476483 21:-0.33913 22:0.436519 23:0.540777 24:-0.0422715 
8 1:-0.461538 2:-0.491736 3:-0.468085 4:-0.476483 5:-0.33913 6:0.436519 7:0.540777 8:-0.0422715 9:-0.461538 10:-0.512397 11:-0.485106 12:-0.501022 13:-0.408696 14:0.455062 15:0.51993 16:-0.0568849 17:-0.510121 18:-0.53719 19:-0.52766 20:-0.480573 21:-0.217391 22:0.349185 23:0.543833 24:-0.0495176 
8 1:-0.461538 2:-0.512397 3:-0.485106 4:-0.501022 5:-0.408696 6:0.455062 7:0.51993 8:-0.0568849 9:-0.510121 10:-0.53719 11:-0.52766 12:-0.480573 13:-0.217391 14:0.349185 15:0.543833 16:-0.0495176 17:-0.48583 18:-0.533058 19:-0.493617 20:-0.509202 21:-0.426087 22:0.369822 23:0.519681 24:-0.119932 
8 1:-0.510121 2:-0.53719 3:-0.52766 4:-0.480573 5:-0.217391 6:0.349185 7:0.543833 8:-0.0495176 9:-0.48583 10:-0.533058 11:-0.493617 12:-0.509202 13:-0.426087 14:0.369822 15:0.519681 16:-0.119932 17:-0.538462 18:-0.57438 19:-0.570213 20:-0.591002 21:-0.652174 22:0.333632 23:0.517938 24:-0.27395 
8 1:-0.615385 2:-0.632231 3:-0.612766 4:-0.627812 5:-0.46087 6:0.307612 7:0.495846 8:-0.214238 9:-0.635628 10:-0.652893 11:-0.612766 12:-0.615542 13:-0.252174 14:0.409601 15:0.525815 16:-0.226835 17:-0.59919 18:-0.607438 19:-0.582979 20:-0.554192 21:-0.0434783 22:0.458352 23:0.614772 24:-0.169912 
8 1:-0.635628 2:-0.652893 3:-0.612766 4:-0.615542 5:-0.252174 6:0.409601 7:0.525815 8:-0.226835 9:-0.59919 10:-0.607438 11:-0.582979 12:-0.554192 13:-0.0434783 14:0.458352 15:0.614772 16:-0.169912 17:-0.54251 18:-0.590909 19:-0.570213 20:-0.574642 21:-0.391304 22:0.439809 23:0.446049 24:-0.0807152 
8 1:-0.54251 2:-0.590909 3:-0.570213 4:-0.574642 5:-0.391304 6:0.439809 7:0.446049 8:-0.0807152 9:-0.538462 10:-0.582645 11:-0.676596 12:-0.680982 13:-0.756522 14:0.28189 15:0.373911 16:-0.281029 17:-0.603239 18:-0.657025 19:-0.617021 20:-0.635992 21:-0.113043 22:0.286077 23:0.467168 24:-0.23067 
8 1:-0.538462 2:-0.582645 3:-0.676596 4:-0.680982 5:-0.756522 6:0.28189 7:0.373911 8:-0.281029 9:-0.603239 10:-0.657025 11:-0.617021 12:-0.635992 13:-0.113043 14:0.286077 15:0.467168 16:-0.23067 17:-0.720648 18:-0.743802 19:-0.723404 20:-0.738241 21:-0.73913 22:0.218484 23:0.46289 24:-0.574769 
8 1:-0.603239 2:-0.657025 3:-0.617021 4:-0.635992 5:-0.113043 6:0.286077 7:0.467168 8:-0.23067 9:-0.720648 10:-0.743802 11:-0.723404 12:-0.738241 13:-0.73913 14:0.218484 15:0.46289 16:-0.574769 17:-0.720648 18:-0.772727 19:-0.740426 20:-0.738241 21:-0.304348 22:0.329445 23:0.53745 24:-0.338937 
8 1:-0.720648 2:-0.743802 3:-0.723404 4:-0.738241 5:-0.73913 6:0.218484 7:0.46289 8:-0.574769 9:-0.720648 10:-0.772727 11:-0.740426 12:-0.738241 13:-0.304348 14:0.329445 15:0.53745 16:-0.338937 17:-0.753036 18:-0.764463 19:-0.73617 20:-0.738241 21:-0.304348 22:0.291461 23:0.531723 24:-0.261701 
8 1:-0.724696 2:-0.760331 3:-0.723404 4:-0.738241 5:-0.304348 6:0.251383 7:0.523891 8:-0.366421 9:-0.708502 10:-0.731405 11:-0.710638 12:-0.672802 13:-0.026087 14:0.297742 15:0.516829 16:-0.00867865 17:-0.676113 18:-0.702479 19:-0.689362 20:-0.660532 21:-0.252174 22:0.454165 23:0.549696 24:-0.197471 
8 1:-0.663968 2:-0.710744 3:-0.659574 4:-0.660532 5:-0.304348 6:0.303425 7:0.52233 8:-0.127527 9:-0.647773 10:-0.68595 11:-0.638298 12:-0.648262 13:-0.252174 14:0.438612 15:0.534485 16:0.0312507 17:-0.62753 18:-0.661157 19:-0.608511 20:-0.615542 21:-0.165217 22:0.305817 23:0.533127 24:-0.0313113 
8 1:-0.647773 2:-0.68595 3:-0.638298 4:-0.648262 5:-0.252174 6:0.438612 7:0.534485 8:0.0312507 9:-0.62753 10:-0.661157 11:-0.608511 12:-0.615542 13:-0.165217 14:0.305817 15:0.533127 16:-0.0313113 17:-0.639676 18:-0.68595 19:-0.634043 20:-0.652352 21:-0.46087 22:0.310004 23:0.520972 24:-0.180993 
8 1:-0.663968 2:-0.714876 3:-0.66383 4:-0.676892 5:-0.408696 6:0.333932 7:0.504833 8:-0.184662 9:-0.643725 10:-0.698347 11:-0.651064 12:-0.644172 13:-0.165217 14:0.324361 15:0.519251 16:-0.0474256 17:-0.619433 18:-0.640496 19:-0.612766 20:-0.615542 21:-0.182609 22:0.274413 23:0.57018 24:0.151084 
8 1:-0.619433 2:-0.640496 3:-0.612766 4:-0.615542 5:-0.182609 6:0.274413 7:0.57018 8:0.151084 9:-0.611336 10:-0.636364 11:-0.625532 12:-0.615542 13:-0.304348 14:0.364438 15:0.473279 16:-0.113338 17:-0.591093 18:-0.644628 19:-0.608511 20:-0.599182 21:-0.234783 22:0.284283 23:0.51314 24:0.0181683 
8 1:-0.611336 2:-0.636364 3:-0.625532 4:-0.615542 5:-0.304348 6:0.364438 7:0.473279 8:-0.113338 9:-0.591093 10:-0.644628 11:-0.608511 12:-0.599182 13:-0.234783 14:0.284283 15:0.51314 16:0.0181683 17:-0.639676 18:-0.677686 19:-0.625532 20:-0.627812 21:-0.426087 22:0.282488 23:0.442111 24:-0.138366 
8 1:-0.57085 2:-0.615702 3:-0.561702 4:-0.570552 5:-0.165217 6:0.757141 7:0.515132 8:0.18636 9:-0.538462 10:-0.557851 11:-0.523404 12:-0.501022 13:-0.00869565 14:0.379094 15:0.607506 16:0.532202 17:-0.477733 18:-0.524793 19:-0.480851 20:-0.492843 21:-0.269565 22:0.478092 23:0.486543 24:0.281984 
8 1:-0.477733 2:-0.524793 3:-0.480851 4:-0.492843 5:-0.269565 6:0.478092 7:0.486543 8:0.281984 9:-0.518219 10:-0.553719 11:-0.540426 12:-0.558282 13:-0.582609 14:0.330342 15:0.484325 16:-0.0462583 17:-0.538462 18:-0.57438 19:-0.52766 20:-0.517382 21:-0.130435 22:0.34111 23:0.520089 24:0.220635 
8 1:-0.538462 2:-0.57438 3:-0.52766 4:-0.517382 5:-0.130435 6:0.34111 7:0.520089 8:0.220635 9:-0.502024 10:-0.549587 11:-0.523404 12:-0.546012 13:-0.426087 14:0.43921 15:0.524412 16:-0.0647374 17:-0.558704 18:-0.578512 19:-0.531915 20:-0.525562 21:-0.217391 22:0.290265 23:0.563073 24:-0.142383 
8 1:-0.502024 2:-0.549587 3:-0.523404 4:-0.546012 5:-0.426087 6:0.43921 7:0.524412 8:-0.0647374 9:-0.558704 10:-0.578512 11:-0.531915 12:-0.525562 13:-0.217391 14:0.290265 15:0.563073 16:-0.142383 17:-0.54251 18:-0.570248 19:-0.52766 20:-0.550102 21:-0.408696 22:0.291461 23:0.506349 24:-0.0629789 
8 1:-0.54251 2:-0.570248 3:-0.52766 4:-0.550102 5:-0.408696 6:0.291461 7:0.506349 8:-0.0629789 9:-0.558704 10:-0.603306 11:-0.561702 12:-0.582822 13:-0.443478 14:0.379393 15:0.532946 16:-0.12977 17:-0.558704 18:-0.599174 19:-0.553191 20:-0.546012 21:-0.147826 22:0.732616 23:0.525046 24:0.0399066 
8 1:-0.558704 2:-0.603306 3:-0.561702 4:-0.582822 5:-0.443478 6:0.379393 7:0.532946 8:-0.12977 9:-0.558704 10:-0.599174 11:-0.553191 12:-0.546012 13:-0.147826 14:0.732616 15:0.525046 16:0.0399066 17:-0.534413 18:-0.582645 19:-0.540426 20:-0.562372 21:-0.373913 22:0.359653 23:0.503203 24:-0.0257934 
8 1:-0.558704 2:-0.599174 3:-0.553191 4:-0.546012 5:-0.147826 6:0.732616 7:0.525046 8:0.0399066 9:-0.534413 10:-0.582645 11:-0.540426 12:-0.562372 13:-0.373913 14:0.359653 15:0.503203 16:-0.0257934 17:-0.554656 18:-0.607438 19:-0.565957 20:-0.582822 21:-0.391304 22:0.583371 23:0.52611 24:-0.140533 
8 1:-0.587045 2:-0.619835 3:-0.561702 4:-0.562372 5:-0.2 6:0.339315 7:0.506757 8:-0.101908 9:-0.558704 10:-0.607438 11:-0.553191 12:-0.554192 13:-0.269565 14:0.410797 15:0.527264 16:-0.127557 17:-0.574899 18:-0.590909 19:-0.548936 20:-0.533742 21:-0.217391 22:0.379094 23:0.537971 24:-0.0952832 
8 1:-0.574899 2:-0.578512 3:-0.548936 4:-0.550102 5:-0.373913 6:0.333034 7:0.522918 8:-0.171534 9:-0.530364 10:-0.57438 11:-0.510638 12:-0.525562 13:-0.2 14:0.323164 15:0.494805 16:-0.0332517 17:-0.550607 18:-0.578512 19:-0.523404 20:-0.521472 21:-0.286957 22:0.318379 23:0.524865 24:-0.139927 
8 1:-0.530364 2:-0.57438 3:-0.510638 4:-0.525562 5:-0.2 6:0.323164 7:0.494805 8:-0.0332517 9:-0.550607 10:-0.578512 11:-0.523404 12:-0.521472 13:-0.286957 14:0.318379 15:0.524865 16:-0.139927 17:-0.526316 18:-0.566116 19:-0.502128 20:-0.525562 21:-0.321739 22:0.35397 23:0.505625 24:-0.0368293 
8 1:-0.550607 2:-0.578512 3:-0.523404 4:-0.521472 5:-0.286957 6:0.318379 7:0.524865 8:-0.139927 9:-0.526316 10:-0.566116 11:-0.502128 12:-0.525562 13:-0.321739 14:0.35397 15:0.505625 16:-0.0368293 17:-0.522267 18:-0.570248 19:-0.519149 20:-0.533742 21:-0.33913 22:0.349783 23:0.540913 24:-0.209614 
8 1:-0.526316 2:-0.566116 3:-0.502128 4:-0.525562 5:-0.321739 6:0.35397 7:0.505625 8:-0.0368293 9:-0.522267 10:-0.570248 11:-0.519149 12:-0.533742 13:-0.33913 14:0.349783 15:0.540913 16:-0.209614 17:-0.518219 18:-0.570248 19:-0.519149 20:-0.541922 21:-0.33913 22:0.418274 23:0.497838 24:-0.10738 
8 1:-0.54251 2:-0.586777 3:-0.52766 4:-0.533742 5:-0.217391 6:0.33124 7:0.507006 8:-0.041938 9:-0.522267 10:-0.57438 11:-0.53617 12:-0.525562 13:-0.269565 14:0.322566 15:0.505602 16:0.0467889 17:-0.530364 18:-0.57438 19:-0.52766 20:-0.521472 21:-0.286957 22:0.144609 23:0.481066 24:0.124298 
8 1:-0.522267 2:-0.57438 3:-0.53617 4:-0.525562 5:-0.269565 6:0.322566 7:0.505602 8:0.0467889 9:-0.530364 10:-0.57438 11:-0.52766 12:-0.521472 13:-0.286957 14:0.144609 15:0.481066 16:0.124298 17:-0.526316 18:-0.57438 19:-0.514894 20:-0.525562 21:-0.321739 22:0.323763 23:0.508545 24:-0.0561573 
8 1:-0.526316 2:-0.57438 3:-0.514894 4:-0.525562 5:-0.321739 6:0.323763 7:0.508545 8:-0.0561573 9:-0.538462 10:-0.590909 11:-0.531915 12:-0.554192 13:-0.426087 14:0.342306 15:0.525295 16:-0.174657 17:-0.546559 18:-0.590909 19:-0.531915 20:-0.533742 21:-0.217391 22:0.30492 23:0.507277 24:-0.137259 
8 1:-0.546559 2:-0.590909 3:-0.531915 4:-0.533742 5:-0.217391 6:0.30492 7:0.507277 8:-0.137259 9:-0.538462 10:-0.586777 11:-0.540426 12:-0.562372 13:-0.426087 14:0.274413 15:0.486453 16:-0.10594 17:-0.566802 18:-0.599174 19:-0.553191 20:-0.554192 21:-0.269565 22:0.431733 23:0.43944 24:-0.16782 
8 1:-0.566802 2:-0.599174 3:-0.553191 4:-0.554192 5:-0.269565 6:0.431733 7:0.43944 8:-0.16782 9:-0.538462 10:-0.590909 11:-0.53617 12:-0.558282 13:-0.321739 14:0.36055 15:0.428846 16:-0.0823221 17:-0.558704 18:-0.590909 19:-0.53617 20:-0.533742 21:-0.2 22:0.313594 23:0.526494 24:-0.00197828 
8 1:-0.558704 2:-0.590909 3:-0.53617 4:-0.533742 5:-0.2 6:0.313594 7:0.526494 8:-0.00197828 9:-0.554656 10:-0.590909 11:-0.52766 12:-0.546012 13:-0.356522 14:0.222073 15:0.503746 16:-0.106698 17:-0.469636 18:-0.520661 19:-0.544681 20:-0.529652 21:-0.234783 22:0.238523 23:0.526064 24:-0.047653 
8 1:-0.271255 2:-0.31405 3:-0.27234 4:-0.288344 5:-0.286957 6:0.419172 7:0.439711 8:0.390342 9:-0.275304 10:-0.301653 11:-0.251064 12:-0.251534 13:-0.147826 14:0.412592 15:0.537993 16:0.423404 17:-0.234818 18:-0.268595 19:-0.255319 20:-0.247444 21:-0.286957 22:0.388665 23:0.483918 24:0.16447 
8 1:-0.275304 2:-0.301653 3:-0.251064 4:-0.251534 5:-0.147826 6:0.412592 7:0.537993 8:0.423404 9:-0.234818 10:-0.268595 11:-0.255319 12:-0.247444 13:-0.286957 14:0.388665 15:0.483918 16:0.16447 17:-0.279352 18:-0.305785 19:-0.255319 20:-0.288344 21:-0.478261 22:0.349185 23:0.515471 24:-0.0352982 
8 1:-0.295547 2:-0.330579 3:-0.27234 4:-0.292434 5:-0.321739 6:0.351578 7:0.52663 8:-0.124677 9:-0.295547 10:-0.334711 11:-0.26383 12:-0.284254 13:-0.269565 14:0.249888 15:0.497137 16:0.0944646 17:-0.255061 18:-0.301653 19:-0.26383 20:-0.267894 21:-0.234783 22:0.415582 23:0.524774 24:0.0441664 
8 1:-0.295547 2:-0.334711 3:-0.26383 4:-0.284254 5:-0.269565 6:0.249888 7:0.497137 8:0.0944646 9:-0.255061 10:-0.301653 11:-0.26383 12:-0.267894 13:-0.234783 14:0.415582 15:0.524774 16:0.0441664 17:-0.267206 18:-0.305785 19:-0.255319 20:-0.267894 21:-0.304348 22:0.296246 23:0.540823 24:0.00670795 
8 1:-0.255061 2:-0.301653 3:-0.26383 4:-0.267894 5:-0.234783 6:0.415582 7:0.524774 8:0.0441664 9:-0.267206 10:-0.305785 11:-0.255319 12:-0.267894 13:-0.304348 14:0.296246 15:0.540823 16:0.00670795 17:-0.303644 18:-0.31405 19:-0.26383 20:-0.276074 21:-0.33913 22:-0.0674443 23:0.572082 24:-0.0699522 
8 1:-0.267206 2:-0.305785 3:-0.255319 4:-0.267894 5:-0.304348 6:0.296246 7:0.540823 8:0.00670795 9:-0.303644 10:-0.31405 11:-0.26383 12:-0.276074 13:-0.33913 14:-0.0674443 15:0.572082 16:-0.0699522 17:-0.303644 18:-0.330579 19:-0.276596 20:-0.308793 21:-0.443478 22:0.214895 23:0.514362 24:-0.116233 
8 1:-0.303644 2:-0.330579 3:-0.276596 4:-0.308793 5:-0.443478 6:0.214895 7:0.514362 8:-0.116233 9:-0.279352 10:-0.326446 11:-0.297872 12:-0.329243 13:-0.391304 14:0.388964 15:0.498744 16:-0.0562179 17:-0.291498 18:-0.330579 19:-0.306383 20:-0.304703 21:-0.2 22:0.28847 23:0.525499 24:-0.0262633 
8 1:-0.34413 2:-0.347107 3:-0.319149 4:-0.292434 5:-0.113043 6:0.397039 7:0.539578 8:-0.0645858 9:-0.299595 10:-0.31405 11:-0.27234 12:-0.267894 13:-0.2 14:0.640796 15:0.526494 16:-0.0809274 17:-0.263158 18:-0.301653 19:-0.251064 20:-0.259714 21:-0.269565 22:0.278899 23:0.521424 24:0.0733933 
8 1:-0.287449 2:-0.330579 3:-0.285106 4:-0.316973 5:-0.547826 6:0.334829 7:0.52663 8:-0.396527 9:-0.340081 10:-0.342975 11:-0.340426 12:-0.292434 13:-0.2 14:0.28189 15:0.504403 16:-0.214723 17:-0.287449 18:-0.334711 19:-0.276596 20:-0.288344 21:-0.286957 22:0.086885 23:0.505534 24:-0.096026 
8 1:-0.299595 2:-0.326446 3:-0.268085 4:-0.284254 5:-0.286957 6:0.368028 7:0.515969 8:-0.0251567 9:-0.275304 10:-0.285124 11:-0.238298 12:-0.251534 13:-0.165217 14:0.282488 15:0.609136 16:0.0592498 17:-0.242915 18:-0.285124 19:-0.212766 20:-0.231084 21:-0.217391 22:0.272918 23:0.488467 24:0.286168 
8 1:-0.242915 2:-0.285124 3:-0.212766 4:-0.231084 5:-0.217391 6:0.272918 7:0.488467 8:0.286168 9:-0.242915 10:-0.285124 11:-0.217021 12:-0.235174 13:-0.321739 14:0.279498 15:0.514453 16:-0.0885374 17:-0.242915 18:-0.268595 19:-0.2 20:-0.226994 21:-0.269565 22:0.290863 23:0.544467 24:0.0115286 
8 1:-0.242915 2:-0.285124 3:-0.217021 4:-0.235174 5:-0.321739 6:0.279498 7:0.514453 8:-0.0885374 9:-0.242915 10:-0.268595 11:-0.2 12:-0.226994 13:-0.269565 14:0.290863 15:0.544467 16:0.0115286 17:-0.263158 18:-0.280992 19:-0.234043 20:-0.226994 21:-0.304348 22:0.124271 23:0.489871 24:-0.103833 
8 1:-0.242915 2:-0.268595 3:-0.2 4:-0.226994 5:-0.269565 6:0.290863 7:0.544467 8:0.0115286 9:-0.263158 10:-0.280992 11:-0.234043 12:-0.226994 13:-0.304348 14:0.124271 15:0.489871 16:-0.103833 17:-0.226721 18:-0.272727 19:-0.221277 20:-0.235174 21:-0.33913 22:0.282488 23:0.513434 24:-0.114611 
8 1:-0.263158 2:-0.280992 3:-0.234043 4:-0.226994 5:-0.304348 6:0.124271 7:0.489871 8:-0.103833 9:-0.226721 10:-0.272727 11:-0.221277 12:-0.235174 13:-0.33913 14:0.282488 15:0.513434 16:-0.114611 17:-0.275304 18:-0.301653 19:-0.234043 20:-0.263804 21:-0.426087 22:0.240616 23:0.509428 24:-0.185966 
8 1:-0.295547 2:-0.301653 3:-0.26383 4:-0.267894 5:-0.321739 6:0.274114 7:0.492655 8:-0.0665868 9:-0.259109 10:-0.289256 11:-0.229787 12:-0.239264 13:-0.182609 14:0.193958 15:0.491116 16:0.0555812 17:-0.226721 18:-0.268595 19:-0.212766 20:-0.226994 21:-0.252174 22:0.269329 23:0.522601 24:-0.0521098 
8 1:-0.259109 2:-0.289256 3:-0.229787 4:-0.239264 5:-0.182609 6:0.193958 7:0.491116 8:0.0555812 9:-0.226721 10:-0.268595 11:-0.212766 12:-0.226994 13:-0.252174 14:0.269329 15:0.522601 16:-0.0521098 17:-0.234818 18:-0.27686 19:-0.204255 20:-0.231084 21:-0.321739 22:0.276507 23:0.512166 24:-0.0936915 
8 1:-0.234818 2:-0.27686 3:-0.204255 4:-0.231084 5:-0.321739 6:0.276507 7:0.512166 8:-0.0936915 9:-0.238866 10:-0.27686 11:-0.212766 12:-0.247444 13:-0.373913 14:0.365635 15:0.534349 16:-0.109442 17:-0.0526316 18:0.00413223 19:-0.0170213 20:0.0388548 21:0.913043 22:0.55077 23:0.681546 24:1 
8 1:-0.238866 2:-0.27686 3:-0.212766 4:-0.247444 5:-0.373913 6:0.365635 7:0.534349 8:-0.109442 9:-0.0526316 10:0.00413223 11:-0.0170213 12:0.0388548 13:0.913043 14:0.55077 15:0.681546 16:1 17:0.0364372 18:0.0123967 19:0.0297872 20:0.0102249 21:-0.426087 22:0.286377 23:0.486498 24:0.0731659 
8 1:-0.0161943 2:-0.0289256 3:0.0212766 4:-0.00613497 5:-0.234783 6:0.373112 7:0.469069 8:0.157375 9:0.00404858 10:-0.0371901 11:0.0255319 12:0.0102249 13:-0.234783 14:0.451473 15:0.488581 16:0.169442 17:0.0161943 18:0.0413223 19:0.0638298 20:0.0593047 21:-0.0956522 22:0.519366 23:0.584871 24:0.0840957 
8 1:0.0161943 2:0.0413223 3:0.0638298 4:0.0593047 5:-0.0956522 6:0.519366 7:0.584871 8:0.0840957 9:0.0161943 10:-0.0206612 11:0.0297872 12:-0.0143149 13:-0.617391 14:0.394945 15:0.516286 16:-0.242312 17:-0.0242915 18:-0.0413223 19:-0.0170213 20:0.0102249 21:-0.2 22:0.356363 23:0.502184 24:-0.0196994 
8 1:0.0161943 2:-0.0206612 3:0.0297872 4:-0.0143149 5:-0.617391 6:0.394945 7:0.516286 8:-0.242312 9:-0.0242915 10:-0.0413223 11:-0.0170213 12:0.0102249 13:-0.2 14:0.356363 15:0.502184 16:-0.0196994 17:0.0242915 18:-0.0123967 19:0.0340426 20:-0.00204499 21:-0.356522 22:0.366532 23:0.503497 24:-0.151706 
8 1:0.048583 2:0.0495868 3:0.0851064 4:0.0715746 5:-0.217391 6:0.35397 7:0.601802 8:-0.0894621 9:0.101215 10:0.0909091 11:0.161702 12:0.120654 13:-0.0956522 14:0.402722 15:0.531474 16:0.0471679 17:0.109312 18:0.132231 19:0.170213 20:0.141104 21:-0.217391 22:0.520861 23:0.517599 24:0.0054649 
8 1:0.101215 2:0.0909091 3:0.161702 4:0.120654 5:-0.0956522 6:0.402722 7:0.531474 8:0.0471679 9:0.109312 10:0.132231 11:0.170213 12:0.141104 13:-0.217391 14:0.520861 15:0.517599 16:0.0054649 17:0.129555 18:0.11157 19:0.170213 20:0.141104 21:-0.304348 22:0.972484 23:0.514928 24:-0.129528 
8 1:0.109312 2:0.11157 3:0.170213 4:0.120654 5:-0.391304 6:0.274712 7:0.509246 8:-0.16735 9:0.149798 10:0.132231 11:0.170213 12:0.161554 13:-0.130435 14:0.282488 15:0.504652 16:-0.0830649 17:0.190283 18:0.297521 19:0.234043 20:0.284254 21:0.217391 22:0.673097 23:0.440005 24:0.0400279 
8 1:0.149798 2:0.132231 3:0.170213 4:0.161554 5:-0.130435 6:0.282488 7:0.504652 8:-0.0830649 9:0.190283 10:0.297521 11:0.234043 12:0.284254 13:0.217391 14:0.673097 15:0.440005 16:0.0400279 17:0.331984 18:0.297521 19:0.297872 20:0.284254 21:-0.304348 22:0.310004 23:0.521945 24:0.0266272 
8 1:0.190283 2:0.297521 3:0.234043 4:0.284254 5:0.217391 6:0.673097 7:0.440005 8:0.0400279 9:0.331984 10:0.297521 11:0.297872 12:0.284254 13:-0.304348 14:0.310004 15:0.521945 16:0.0266272 17:0.271255 18:0.235537 19:0.297872 20:0.284254 21:-0.304348 22:0.303125 23:0.542611 24:-0.0828678 
8 1:0.271255 2:0.235537 3:0.297872 4:0.284254 5:-0.304348 6:0.303125 7:0.542611 8:-0.0828678 9:0.271255 10:0.27686 11:0.255319 12:0.222904 13:-0.565217 14:0.350381 15:0.558818 16:-0.166183 17:0.230769 18:0.256198 19:0.276596 20:0.284254 21:-0.0434783 22:0.461044 23:0.533579 24:0.000492674 
8 1:0.271255 2:0.27686 3:0.255319 4:0.222904 5:-0.565217 6:0.350381 7:0.558818 8:-0.166183 9:0.230769 10:0.256198 11:0.276596 12:0.284254 13:-0.0434783 14:0.461044 15:0.533579 16:0.000492674 17:0.271255 18:0.235537 19:0.276596 20:0.263804 21:-0.391304 22:0.944669 23:0.525861 24:-0.128497 
8 1:0.230769 2:0.256198 3:0.276596 4:0.284254 5:-0.0434783 6:0.461044 7:0.533579 8:0.000492674 9:0.271255 10:0.235537 11:0.276596 12:0.263804 13:-0.391304 14:0.944669 15:0.525861 16:-0.128497 17:0.230769 18:0.214876 19:0.255319 20:0.243354 21:-0.391304 22:0.317482 23:0.509677 24:-0.111701 
8 1:0.271255 2:0.235537 3:0.276596 4:0.263804 5:-0.391304 6:0.944669 7:0.525861 8:-0.128497 9:0.230769 10:0.214876 11:0.255319 12:0.243354 13:-0.391304 14:0.317482 15:0.509677 16:-0.111701 17:0.149798 18:0.152893 19:0.191489 20:0.202454 21:-0.478261 22:0.251084 23:0.499061 24:-0.257805 
8 1:0.190283 2:0.173554 3:0.234043 4:0.182004 5:-0.391304 6:0.260057 7:0.503972 8:-0.153858 9:0.210526 10:0.173554 11:0.255319 12:0.222904 13:-0.130435 14:0.366831 15:0.525001 16:-0.109215 17:0.230769 18:0.256198 19:0.276596 20:0.284254 21:-0.0434783 22:0.314192 23:0.559361 24:0.031281 
8 1:0.230769 2:0.256198 3:0.276596 4:0.284254 5:-0.0434783 6:0.314192 7:0.559361 8:0.031281 9:0.251012 10:0.256198 11:0.319149 12:0.284254 13:-0.304348 14:0.263646 15:0.512302 16:-0.104849 17:0.291498 18:0.27686 19:0.340426 20:0.325153 21:-0.130435 22:0.277703 23:0.51366 24:-0.0118318 
8 1:0.251012 2:0.256198 3:0.319149 4:0.284254 5:-0.304348 6:0.263646 7:0.512302 8:-0.104849 9:0.291498 10:0.27686 11:0.340426 12:0.325153 13:-0.130435 14:0.277703 15:0.51366 16:-0.0118318 17:0.271255 18:0.256198 19:0.340426 20:0.304703 21:-0.391304 22:0.496037 23:0.511736 24:-0.163818 
8 1:0.251012 2:0.235537 3:0.297872 4:0.243354 5:-0.565217 6:0.27202 7:0.502841 8:-0.319245 9:0.251012 10:0.256198 11:0.297872 12:0.304703 13:-0.0434783 14:0.211006 15:0.521334 16:0.00181153 17:0.311741 18:0.297521 19:0.361702 20:0.345603 21:-0.130435 22:0.261851 23:0.514837 24:0.0945707 
8 1:0.311741 2:0.297521 3:0.361702 4:0.345603 5:-0.130435 6:0.261851 7:0.514837 8:0.0945707 9:0.311741 10:0.297521 11:0.361702 12:0.325153 13:-0.391304 14:0.0225811 15:0.52036 16:-0.125223 17:0.311741 18:0.318182 19:0.382979 20:0.345603 21:-0.217391 22:0.278899 23:0.544625 24:-0.030235 
8 1:0.311741 2:0.297521 3:0.361702 4:0.325153 5:-0.391304 6:0.0225811 7:0.52036 8:-0.125223 9:0.311741 10:0.318182 11:0.382979 12:0.345603 13:-0.217391 14:0.278899 15:0.544625 16:-0.030235 17:0.331984 18:0.297521 19:0.382979 20:0.325153 21:-0.391304 22:0.133543 23:0.508273 24:-0.181039 
8 1:0.311741 2:0.318182 3:0.382979 4:0.345603 5:-0.217391 6:0.278899 7:0.544625 8:-0.030235 9:0.331984 10:0.297521 11:0.382979 12:0.325153 13:-0.391304 14:0.133543 15:0.508273 16:-0.181039 17:0.311741 18:0.297521 19:0.361702 20:0.325153 21:-0.304348 22:0.290564 23:0.508658 24:-0.155147 
8 1:0.331984 2:0.297521 3:0.382979 4:0.325153 5:-0.391304 6:0.133543 7:0.508273 8:-0.181039 9:0.311741 10:0.297521 11:0.361702 12:0.325153 13:-0.304348 14:0.290564 15:0.508658 16:-0.155147 17:0.311741 18:0.297521 19:0.361702 20:0.325153 21:-0.304348 22:0.278301 23:0.503022 24:-0.143141 
8 1:0.311741 2:0.297521 3:0.361702 4:0.325153 5:-0.304348 6:0.290564 7:0.508658 8:-0.155147 9:0.311741 10:0.297521 11:0.361702 12:0.325153 13:-0.304348 14:0.278301 15:0.503022 16:-0.143141 17:0.311741 18:0.318182 19:0.382979 20:0.325153 21:-0.304348 22:0.46882 23:0.500373 24:-0.261549 
8 1:0.311741 2:0.297521 3:0.361702 4:0.325153 5:-0.304348 6:0.278301 7:0.503022 8:-0.143141 9:0.311741 10:0.318182 11:0.382979 12:0.325153 13:-0.304348 14:0.46882 15:0.500373 16:-0.261549 17:0.230769 18:0.214876 19:0.255319 20:0.202454 21:-0.826087 22:0.261851 23:0.522737 24:-0.337573 
8 1:0.311741 2:0.318182 3:0.382979 4:0.325153 5:-0.304348 6:0.46882 7:0.500373 8:-0.261549 9:0.230769 10:0.214876 11:0.255319 12:0.202454 13:-0.826087 14:0.261851 15:0.522737 16:-0.337573 17:0.149798 18:0.173554 19:0.212766 20:0.202454 21:-0.304348 22:0.218484 23:0.540279 24:-0.274526 
8 1:0.574899 2:0.690083 3:0.659574 4:0.713701 5:0.565217 6:0.99671 7:0.517621 8:-0.0428475 9:0.65587 10:0.64876 11:0.680851 12:0.652352 13:-0.565217 14:0.812472 15:0.561737 16:-0.318336 17:0.635628 18:0.669421 19:0.680851 20:0.631902 21:-0.391304 22:0.325557 23:0.563254 24:-0.224379 
8 1:0.898785 2:0.896694 3:0.957447 4:0.897751 5:-0.130435 6:0.220876 7:0.535164 8:-0.185708 9:0.817814 10:0.81405 11:0.851064 12:0.815951 13:-0.652174 14:0.362345 15:0.562281 16:-0.350458 17:0.757085 18:0.81405 19:0.851064 20:0.795501 21:-0.391304 22:0.207417 23:0.604224 24:-0.187436 
3.184684445921533 1:0.797571 2:0.834711 3:0.87234 4:0.877301 5:0.217391 6:0.482877 7:0.710337 8:0.00269076 9:0.8583 10:0.876033 11:0.93617 12:0.877301 13:-0.304348 14:0.481382 15:0.793024 16:-0.0838077 17:0.736842 18:0.731405 19:0.808511 20:0.754601 21:-0.304348 22:0.343502 23:0.0842482 24:-0.125677 
8 1:0.8583 2:0.876033 3:0.93617 4:0.877301 5:-0.304348 6:0.481382 7:0.793024 8:-0.0838077 9:0.736842 10:0.731405 11:0.808511 12:0.754601 13:-0.304348 14:0.343502 15:0.0842482 16:-0.125677 17:0.757085 18:0.731405 19:0.808511 20:0.754601 21:-0.304348 22:0.300733 23:0.410557 24:-0.132272 
8 1:0.757085 2:0.731405 3:0.808511 4:0.754601 5:-0.304348 6:0.300733 7:0.410557 8:-0.132272 9:0.757085 10:0.731405 11:0.808511 12:0.754601 13:-0.304348 14:0.136234 15:0.423572 16:-0.14117 17:0.736842 18:0.772727 19:0.808511 20:0.815951 21:-0.0434783 22:0.184388 23:0.481994 24:-0.0150607 
7.188129360409723 1:0.757085 2:0.731405 3:0.808511 4:0.754601 5:-0.304348 6:0.136234 7:0.423572 8:-0.14117 9:0.736842 10:0.772727 11:0.808511 12:0.815951 13:-0.0434783 14:0.184388 15:0.481994 16:-0.0150607 17:0.817814 18:0.81405 19:0.893617 20:0.815951 21:-0.304348 22:0.222671 23:0.468277 24:-0.0499117 
8 1:0.736842 2:0.772727 3:0.808511 4:0.815951 5:-0.0434783 6:0.184388 7:0.481994 8:-0.0150607 9:0.817814 10:0.81405 11:0.893617 12:0.815951 13:-0.304348 14:0.222671 15:0.468277 16:-0.0499117 17:0.838057 18:0.834711 19:0.87234 20:0.795501 21:-0.391304 22:0.211605 23:0.517373 24:-0.202701 
1.077978071358587 1:0.777328 2:0.793388 3:0.851064 4:0.815951 5:-0.130435 6:0.257664 7:0.52663 8:-0.0505181 9:0.817814 10:0.793388 11:0.829787 12:0.754601 13:-0.565217 14:0.188874 15:0.476946 16:-0.155829 17:0.797571 18:0.834711 19:0.893617 20:0.836401 21:0.0434783 22:0.25916 23:0.557075 24:-0.0827769 
8 1:0.898785 2:0.917355 3:0.914894 4:0.856851 5:-0.826087 6:0.289966 7:0.540189 8:-0.39733 9:0.838057 10:0.81405 11:0.808511 12:0.775051 13:-0.652174 14:0.187678 15:0.521356 16:-0.23687 17:0.696356 18:0.772727 19:0.787234 20:0.795501 21:-0.217391 22:0.165545 23:0.541275 24:-0.275905 
8 1:0.696356 2:0.772727 3:0.787234 4:0.795501 5:-0.217391 6:0.165545 7:0.541275 8:-0.275905 9:0.777328 10:0.752066 11:0.765957 12:0.693252 13:-0.73913 14:0.245102 15:0.515607 16:-0.262413 17:0.736842 18:0.731405 19:0.787234 20:0.754601 21:-0.0434783 22:0.333333 23:0.45327 24:-0.07403 
8 1:0.716599 2:0.731405 3:0.787234 4:0.734151 5:-0.391304 6:0.644684 7:0.519976 8:-0.344379 9:0.716599 10:0.731405 11:0.808511 12:0.775051 13:-0.130435 14:0.29505 15:0.543131 16:-0.140382 17:0.696356 18:0.731405 19:0.765957 20:0.754601 21:-0.391304 22:0.216988 23:0.515086 24:-0.207234 
8 1:0.716599 2:0.731405 3:0.808511 4:0.775051 5:-0.130435 6:0.29505 7:0.543131 8:-0.140382 9:0.696356 10:0.731405 11:0.765957 12:0.754601 13:-0.391304 14:0.216988 15:0.515086 16:-0.207234 17:0.696356 18:0.690083 19:0.765957 20:0.734151 21:-0.391304 22:0.239719 23:0.519998 24:-0.249134 
8 1:0.696356 2:0.731405 3:0.765957 4:0.754601 5:-0.391304 6:0.216988 7:0.515086 8:-0.207234 9:0.696356 10:0.690083 11:0.765957 12:0.734151 13:-0.391304 14:0.239719 15:0.519998 16:-0.249134 17:0.736842 18:0.731405 19:0.808511 20:0.734151 21:-0.304348 22:0.369224 23:0.544195 24:-0.197684 
8 1:0.736842 2:0.731405 3:0.808511 4:0.734151 5:-0.304348 6:0.369224 7:0.544195 8:-0.197684 9:0.736842 10:0.752066 11:0.808511 12:0.734151 13:-0.304348 14:0.226858 15:0.516014 16:-0.247861 17:0.716599 18:0.731405 19:0.808511 20:0.775051 21:-0.130435 22:0.0874832 23:0.549877 24:-0.229321 
8 1:0.736842 2:0.752066 3:0.808511 4:0.734151 5:-0.304348 6:0.226858 7:0.516014 8:-0.247861 9:0.716599 10:0.731405 11:0.808511 12:0.775051 13:-0.130435 14:0.0874832 15:0.549877 16:-0.229321 17:0.757085 18:0.752066 19:0.829787 20:0.775051 21:-0.304348 22:0.252879 23:0.552932 24:-0.146764 
4.781261044437305 1:0.716599 2:0.731405 3:0.808511 4:0.775051 5:-0.130435 6:0.0874832 7:0.549877 8:-0.229321 9:0.757085 10:0.752066 11:0.829787 12:0.775051 13:-0.304348 14:0.252879 15:0.552932 16:-0.146764 17:0.777328 18:0.752066 19:0.808511 20:0.754601 21:-0.391304 22:0.277404 23:0.539487 24:-0.190574 
1.070740345873749 1:0.757085 2:0.793388 3:0.851064 4:0.836401 5:0.0434783 6:0.306415 7:0.515381 8:-0.0808971 9:0.8583 10:0.855372 11:0.893617 12:0.836401 13:-0.304348 14:0.335427 15:0.537857 16:-0.158057 17:0.797571 18:0.81405 19:0.893617 20:0.836401 21:-0.304348 22:0.22297 23:0.519478 24:-0.138214 
8 1:0.8583 2:0.855372 3:0.893617 4:0.836401 5:-0.304348 6:0.335427 7:0.537857 8:-0.158057 9:0.797571 10:0.81405 11:0.893617 12:0.836401 13:-0.304348 14:0.22297 15:0.519478 16:-0.138214 17:0.777328 18:0.793388 19:0.851064 20:0.795501 21:-0.478261 22:0.267534 23:0.523212 24:-0.170822 
8 1:0.797571 2:0.81405 3:0.893617 4:0.836401 5:-0.304348 6:0.22297 7:0.519478 8:-0.138214 9:0.777328 10:0.793388 11:0.851064 12:0.795501 13:-0.478261 14:0.267534 15:0.523212 16:-0.170822 17:0.777328 18:0.772727 19:0.829787 20:0.795501 21:-0.304348 22:0.256169 23:0.505829 24:-0.158361 
8 1:0.777328 2:0.793388 3:0.851064 4:0.795501 5:-0.478261 6:0.267534 7:0.523212 8:-0.170822 9:0.777328 10:0.772727 11:0.829787 12:0.795501 13:-0.304348 14:0.256169 15:0.505829 16:-0.158361 17:0.757085 18:0.752066 19:0.808511 20:0.754601 21:-0.478261 22:0.132346 23:0.469363 24:-0.104015 
8 1:0.817814 2:0.81405 3:0.829787 4:0.775051 5:-0.478261 6:0.213997 7:0.520655 8:-0.190604 9:0.797571 10:0.793388 11:0.851064 12:0.815951 13:-0.130435 14:0.325557 15:0.517282 16:-0.118507 17:0.777328 18:0.793388 19:0.829787 20:0.754601 21:-0.565217 22:0.215194 23:0.50309 24:-0.302297 
8 1:0.777328 2:0.793388 3:0.829787 4:0.754601 5:-0.565217 6:0.215194 7:0.50309 8:-0.302297 9:0.736842 10:0.710744 11:0.765957 12:0.713701 13:-0.478261 14:0.0489009 15:0.515381 16:-0.242403 17:0.676113 18:0.690083 19:0.765957 20:0.734151 21:-0.217391 22:0.364738 23:0.48136 24:-0.263308 
8 1:0.736842 2:0.710744 3:0.765957 4:0.713701 5:-0.478261 6:0.0489009 7:0.515381 8:-0.242403 9:0.676113 10:0.690083 11:0.765957 12:0.734151 13:-0.217391 14:0.364738 15:0.48136 16:-0.263308 17:0.676113 18:0.690083 19:0.723404 20:0.693252 21:-0.478261 22:-0.0273665 23:0.543697 24:-0.341817 
8 1:0.676113 2:0.690083 3:0.765957 4:0.734151 5:-0.217391 6:0.364738 7:0.48136 8:-0.263308 9:0.676113 10:0.690083 11:0.723404 12:0.693252 13:-0.478261 14:-0.0273665 15:0.543697 16:-0.341817 17:0.65587 18:0.64876 19:0.595745 20:0.529652 21:-1 22:-0.795125 23:0.458159 24:-0.672076 
2.336649018520122 1:0.65587 2:0.64876 3:0.595745 4:0.529652 5:-1 6:-0.795125 7:0.458159 8:-0.672076 9:0.473684 10:0.483471 11:0.446809 12:0.386503 13:-0.913043 14:-1 15:0.493198 16:-0.405759 17:0.331984 18:0.566116 19:0.382979 20:0.570552 21:0.478261 22:-0.465829 23:0.539713 24:-0.272995 
4.103196997164326 1:0.473684 2:0.483471 3:0.446809 4:0.386503 5:-0.913043 6:-1 7:0.493198 8:-0.405759 9:0.331984 10:0.566116 11:0.382979 12:0.570552 13:0.478261 14:-0.465829 15:0.539713 16:-0.272995 17:0.473684 18:0.483471 19:0.510638 20:0.447853 21:-0.826087 22:-0.507402 23:0.437402 24:-0.329008 
8 1:0.331984 2:0.566116 3:0.382979 4:0.570552 5:0.478261 6:-0.465829 7:0.539713 8:-0.272995 9:0.473684 10:0.483471 11:0.510638 12:0.447853 13:-0.826087 14:-0.507402 15:0.437402 16:-0.329008 17:0.392713 18:0.359504 19:0.382979 20:0.325153 21:-0.826087 22:-0.664124 23:0.498744 24:-0.489059 
8 1:0.392713 2:0.359504 3:0.382979 4:0.325153 5:-0.826087 6:-0.664124 7:0.498744 8:-0.489059 9:0.271255 10:0.318182 11:0.297872 12:0.263804 13:-0.565217 14:0.214296 15:0.535503 16:-0.515011 17:0.311741 18:0.297521 19:0.361702 20:0.325153 21:-0.0434783 22:0.18349 23:0.544693 24:-0.224182 
-8 1:-0.801619 2:-0.818182 3:-0.808511 4:-0.766871 5:-0.426087 6:0.119486 7:0.535051 8:-0.284303 9:-0.813765 10:-0.826446 11:-0.8 12:-0.779141 13:-0.356522 14:-0.0940631 15:0.533579 16:-0.26302 17:-0.817814 18:-0.871901 19:-0.880851 20:-0.885481 21:-0.756522 22:-0.00912218 23:0.498042 24:-0.438473 
-8 1:-0.813765 2:-0.826446 3:-0.8 4:-0.779141 5:-0.356522 6:-0.0940631 7:0.533579 8:-0.26302 9:-0.817814 10:-0.871901 11:-0.880851 12:-0.885481 13:-0.756522 14:-0.00912218 15:0.498042 16:-0.438473 17:-0.862348 18:-0.900826 19:-0.876596 20:-0.848671 21:-0.147826 22:-0.208016 23:0.490482 24:-0.0876127 
-8 1:-0.890688 2:-0.921488 3:-0.910638 4:-0.860941 5:-0.408696 6:0.208913 7:0.509269 8:-0.204733 9:-0.850202 10:-0.896694 11:-0.923404 12:-0.889571 13:-0.426087 14:-0.135337 15:0.481745 16:-0.375744 17:-0.97166 18:-0.950413 19:-0.974468 20:-0.90593 21:-0.373913 22:0.0794078 23:0.524819 24:-0.191029 
-8 1:-0.882591 2:-0.933884 3:-0.906383 4:-0.889571 5:-0.234783 6:0.100344 7:0.525748 8:-0.193272 9:-0.906883 10:-0.966942 11:-0.974468 12:-0.97955 13:-0.686957 14:0.0168985 15:0.467349 16:-0.304859 17:-0.97166 18:-1 19:-0.991489 20:-0.99591 21:-0.373913 22:0.282488 23:0.473483 24:-0.11499 
-8 1:-0.906883 2:-0.966942 3:-0.974468 4:-0.97955 5:-0.686957 6:0.0168985 7:0.467349 8:-0.304859 9:-0.97166 10:-1 11:-0.991489 12:-0.99591 13:-0.373913 14:0.282488 15:0.473483 16:-0.11499 17:-0.963563 18:-0.971074 19:-0.961702 20:-0.91002 21:0.0608696 22:0.282189 23:0.486045 24:0.0132264 
-8 1:-0.890688 2:-0.929752 3:-0.893617 4:-0.881391 5:-0.391304 6:0.277703 7:0.499378 8:-0.141928 9:-0.862348 10:-0.921488 11:-0.889362 12:-0.889571 13:-0.33913 14:0.282488 15:0.513841 16:-0.0956774 17:-0.955466 18:-0.946281 19:-0.948936 20:-0.897751 21:-0.33913 22:0.508898 23:0.510559 24:-0.14684 
-8 1:-0.862348 2:-0.921488 3:-0.889362 4:-0.889571 5:-0.33913 6:0.282488 7:0.513841 8:-0.0956774 9:-0.955466 10:-0.946281 11:-0.948936 12:-0.897751 13:-0.33913 14:0.508898 15:0.510559 16:-0.14684 17:-0.923077 18:-0.847107 19:-0.914894 20:-0.787321 21:0.165217 22:0.123075 23:0.574617 24:0.0246261 
-8 1:-0.955466 2:-0.946281 3:-0.948936 4:-0.897751 5:-0.33913 6:0.508898 7:0.510559 8:-0.14684 9:-0.923077 10:-0.847107 11:-0.914894 12:-0.787321 13:0.165217 14:0.123075 15:0.574617 16:0.0246261 17:-0.777328 18:-0.809917 19:-0.761702 20:-0.770961 21:-0.234783 22:0.501122 23:0.501732 24:-0.0648587 
-4.022935637870542 1:-0.708502 2:-0.760331 3:-0.748936 4:-0.762781 5:-0.495652 6:0.291162 7:0.509858 8:-0.13356 9:-0.781377 10:-0.834711 11:-0.838298 12:-0.836401 13:-0.617391 14:0.294452 15:0.499355 16:-0.324718 17:-0.947368 18:-0.942149 19:-0.944681 20:-0.91411 21:-0.634783 22:-0.169433 23:0.552842 24:-0.431348 
-8 1:-0.781377 2:-0.834711 3:-0.838298 4:-0.836401 5:-0.617391 6:0.294452 7:0.499355 8:-0.324718 9:-0.947368 10:-0.942149 11:-0.944681 12:-0.91411 13:-0.634783 14:-0.169433 15:0.552842 16:-0.431348 17:-0.910931 18:-0.880165 19:-0.902128 20:-0.836401 21:0.026087 22:0.175714 23:0.526268 24:-0.100271 
-8 1:-0.947368 2:-0.942149 3:-0.944681 4:-0.91411 5:-0.634783 6:-0.169433 7:0.552842 8:-0.431348 9:-0.910931 10:-0.880165 11:-0.902128 12:-0.836401 13:0.026087 14:0.175714 15:0.526268 16:-0.100271 17:-0.821862 18:-0.880165 19:-0.868085 20:-0.832311 21:-0.286957 22:0.224166 23:0.536975 24:-0.159755 
-8 1:-0.821862 2:-0.847107 3:-0.817021 4:-0.791411 5:-0.130435 6:0.282488 7:0.50558 8:-0.0249293 9:-0.793522 10:-0.85124 11:-0.842553 12:-0.832311 13:-0.478261 14:0.268132 15:0.524865 16:-0.215784 17:-0.854251 18:-0.85124 19:-0.846809 20:-0.832311 21:-0.304348 22:0.282488 23:0.525317 24:-0.142277 
-8 1:-0.854251 2:-0.85124 3:-0.846809 4:-0.832311 5:-0.304348 6:0.282488 7:0.525317 8:-0.142277 9:-0.838057 10:-0.871901 11:-0.825532 12:-0.820041 13:-0.252174 14:0.2786 15:0.511193 16:-0.15019 17:-0.821862 18:-0.838843 19:-0.842553 20:-0.840491 21:-0.391304 22:0.285479 23:0.518844 24:-0.193257 
-8 1:-0.842105 2:-0.756198 3:-0.838298 4:-0.758691 5:0.0434783 6:0.330941 7:0.601145 8:-0.153267 9:-0.801619 10:-0.838843 11:-0.829787 12:-0.779141 13:-0.391304 14:-0.103335 15:0.451912 16:-0.0241714 17:-0.82996 18:-0.842975 19:-0.817021 20:-0.791411 21:-0.356522 22:0.292956 23:0.517735 24:-0.192226 
-8 1:-0.801619 2:-0.838843 3:-0.829787 4:-0.779141 5:-0.391304 6:-0.103335 7:0.451912 8:-0.0241714 9:-0.82996 10:-0.842975 11:-0.817021 12:-0.791411 13:-0.356522 14:0.292956 15:0.517735 16:-0.192226 17:-0.753036 18:-0.77686 19:-0.757447 20:-0.717791 21:0.00869565 22:0.204726 23:0.525363 24:0.0517308 
-8 1:-0.82996 2:-0.842975 3:-0.817021 4:-0.791411 5:-0.356522 6:0.292956 7:0.517735 8:-0.192226 9:-0.753036 10:-0.77686 11:-0.757447 12:-0.717791 13:0.00869565 14:0.204726 15:0.525363 16:0.0517308 17:-0.680162 18:-0.735537 19:-0.702128 20:-0.676892 21:-0.130435 22:0.282488 23:0.507526 24:0.104834 
-8 1:-0.680162 2:-0.735537 3:-0.702128 4:-0.676892 5:-0.130435 6:0.282488 7:0.507526 8:0.104834 9:-0.659919 10:-0.632231 11:-0.659574 12:-0.578732 13:0.113043 14:0.282488 15:0.612237 16:0.101999 17:-0.574899 18:-0.599174 19:-0.617021 20:-0.631902 21:-0.530435 22:0.177509 23:0.465153 24:-0.10306 
-8 1:-0.574899 2:-0.599174 3:-0.617021 4:-0.631902 5:-0.530435 6:0.177509 7:0.465153 8:-0.10306 9:-0.635628 10:-0.632231 11:-0.634043 12:-0.574642 13:-0.0608696 14:0.248392 15:0.546368 16:-0.0493205 17:-0.591093 18:-0.619835 19:-0.587234 20:-0.582822 21:-0.33913 22:0.413788 23:0.512506 24:-0.0694974 
-8 1:-0.635628 2:-0.632231 3:-0.634043 4:-0.574642 5:-0.0608696 6:0.248392 7:0.546368 8:-0.0493205 9:-0.591093 10:-0.619835 11:-0.587234 12:-0.582822 13:-0.33913 14:0.413788 15:0.512506 16:-0.0694974 17:-0.566802 18:-0.61157 19:-0.561702 20:-0.574642 21:-0.269565 22:0.366233 23:0.501732 24:-0.0264452 
-8 1:-0.591093 2:-0.619835 3:-0.587234 4:-0.582822 5:-0.33913 6:0.413788 7:0.512506 8:-0.0694974 9:-0.566802 10:-0.61157 11:-0.561702 12:-0.574642 13:-0.269565 14:0.366233 15:0.501732 16:-0.0264452 17:-0.578947 18:-0.623967 19:-0.582979 20:-0.566462 21:-0.269565 22:0.278002 23:0.522194 24:-0.0420895 
-8 1:-0.578947 2:-0.623967 3:-0.582979 4:-0.566462 5:-0.269565 6:0.278002 7:0.522194 8:-0.0420895 9:-0.546559 10:-0.590909 11:-0.53617 12:-0.533742 13:-0.165217 14:0.282488 15:0.516218 16:0.063176 17:-0.538462 18:-0.582645 19:-0.595745 20:-0.603272 21:-0.6 22:0.343801 23:0.511125 24:-0.105122 
-8 1:-0.538462 2:-0.582645 3:-0.595745 4:-0.603272 5:-0.6 6:0.343801 7:0.511125 8:-0.105122 9:-0.595142 10:-0.590909 11:-0.570213 12:-0.574642 13:-0.182609 14:0.415582 15:0.573893 16:-0.00896667 17:-0.54251 18:-0.586777 19:-0.574468 20:-0.595092 21:-0.391304 22:0.282488 23:0.481247 24:-0.00435827 
-8 1:-0.595142 2:-0.590909 3:-0.570213 4:-0.574642 5:-0.182609 6:0.415582 7:0.573893 8:-0.00896667 9:-0.54251 10:-0.586777 11:-0.574468 12:-0.595092 13:-0.391304 14:0.282488 15:0.481247 16:-0.00435827 17:-0.578947 18:-0.590909 19:-0.557447 20:-0.533742 21:-0.0434783 22:-0.254075 23:0.547862 24:0.200716 
-8 1:-0.522267 2:-0.566116 3:-0.531915 4:-0.513292 5:-0.217391 6:0.292956 7:0.482446 8:0.102317 9:-0.518219 10:-0.570248 11:-0.531915 12:-0.521472 13:-0.33913 14:0.311799 15:0.502909 16:-0.0198207 17:-0.538462 18:-0.570248 19:-0.52766 20:-0.525562 21:-0.321739 22:0.282488 23:0.527083 24:-0.0334336 
-8 1:-0.538462 2:-0.570248 3:-0.52766 4:-0.525562 5:-0.321739 6:0.282488 7:0.527083 8:-0.0334336 9:-0.534413 10:-0.553719 11:-0.531915 12:-0.513292 13:-0.252174 14:0.192762 15:0.544444 16:0.0254144 17:-0.506073 18:-0.557851 19:-0.519149 20:-0.541922 21:-0.426087 22:0.282488 23:0.513094 24:-0.0828527 
-8 1:-0.534413 2:-0.566116 3:-0.553191 4:-0.574642 5:-0.617391 6:0.260655 7:0.526132 8:-0.295718 9:-0.57085 10:-0.623967 11:-0.629787 12:-0.648262 13:-0.617391 14:0.27202 15:0.490097 16:-0.194894 17:-0.659919 18:-0.677686 19:-0.668085 20:-0.635992 21:-0.252174 22:0.154479 23:0.49648 24:-0.124116 
-8 1:-0.659919 2:-0.677686 3:-0.668085 4:-0.635992 5:-0.252174 6:0.154479 7:0.49648 8:-0.124116 9:-0.65587 10:-0.677686 11:-0.642553 12:-0.619632 13:-0.234783 14:0.27202 15:0.50558 16:-0.0429839 17:-0.62753 18:-0.677686 19:-0.651064 20:-0.648262 21:-0.426087 22:0.276208 23:0.504108 24:-0.115293 
-8 1:-0.65587 2:-0.677686 3:-0.642553 4:-0.619632 5:-0.234783 6:0.27202 7:0.50558 8:-0.0429839 9:-0.62753 10:-0.677686 11:-0.651064 12:-0.648262 13:-0.426087 14:0.276208 15:0.504108 16:-0.115293 17:-0.62753 18:-0.64876 19:-0.629787 20:-0.615542 21:-0.165217 22:0.280694 23:0.509699 24:-0.0353589 
-8 1:-0.62753 2:-0.64876 3:-0.629787 4:-0.615542 5:-0.165217 6:0.280694 7:0.509699 8:-0.0353589 9:-0.607287 10:-0.599174 11:-0.582979 12:-0.546012 13:-0.00869565 14:0.824136 15:0.5396 16:0.077744 17:-0.578947 18:-0.599174 19:-0.578723 20:-0.599182 21:-0.530435 22:0.278002 23:0.52276 24:-0.212403 
-3.678992898835219 1:-0.587045 2:-0.619835 3:-0.629787 4:-0.635992 5:-0.495652 6:0.262749 7:0.523575 8:-0.215723 9:-0.65587 10:-0.657025 11:-0.714894 12:-0.730061 13:-0.704348 14:0.282189 15:0.515426 16:-0.388508 17:-0.708502 18:-0.735537 19:-0.702128 20:-0.685072 21:-0.113043 22:0.280096 23:0.507232 24:0.000250127 
-8 1:-0.700405 2:-0.747934 3:-0.740426 4:-0.754601 5:-0.46087 6:0.259758 7:0.502795 8:-0.176127 9:-0.817814 10:-0.85124 11:-0.804255 12:-0.815951 13:-0.565217 14:0.250486 15:0.529822 16:-0.348306 17:-0.821862 18:-0.876033 19:-0.868085 20:-0.877301 21:-0.565217 22:0.281591 23:0.506168 24:-0.400772 
-8 1:-0.874494 2:-0.917355 3:-0.893617 4:-0.885481 5:-0.356522 6:0.20981 7:0.521945 8:-0.259685 9:-0.88664 10:-0.942149 11:-0.953191 12:-0.95092 13:-0.582609 14:0.192463 15:0.486838 16:-0.427876 17:-0.94332 18:-0.995868 19:-1 20:-1 21:-0.513043 22:-0.439509 23:0.514928 24:-0.393116 
-8 1:-1 2:-0.971074 3:-1 4:-0.91002 5:0.0782609 6:0.286377 7:0.50816 8:-0.106501 9:-0.910931 10:-0.942149 11:-0.961702 12:-0.94274 13:-0.443478 14:0.257066 15:0.526562 16:-0.334571 17:-0.947368 18:-1 19:-0.978723 20:-0.97137 21:-0.426087 22:0.282488 23:0.528735 24:-0.336527 
-8 1:-0.947368 2:-1 3:-0.978723 4:-0.97137 5:-0.426087 6:0.282488 7:0.528735 8:-0.336527 9:-0.902834 10:-0.946281 11:-0.957447 12:-0.92638 13:-0.113043 14:0.282488 15:0.503226 16:-0.736775 17:-0.939271 18:-0.987603 19:-0.957447 20:-0.94274 21:-0.373913 22:0.282488 23:0.521288 24:-0.329175 
-8 1:-0.902834 2:-0.946281 3:-0.957447 4:-0.92638 5:-0.113043 6:0.282488 7:0.503226 8:-0.736775 9:-0.939271 10:-0.987603 11:-0.957447 12:-0.94274 13:-0.373913 14:0.282488 15:0.521288 16:-0.329175 17:-0.935223 18:-0.975207 19:-0.93617 20:-0.93047 21:-0.252174 22:0.263646 23:0.559044 24:-0.355127 
-8 1:-0.931174 2:-0.983471 3:-0.957447 4:-0.92638 5:-0.286957 6:0.118887 7:0.506938 8:-0.279452 9:-0.927126 10:-0.975207 11:-0.944681 12:-0.93456 13:-0.33913 14:0.245102 15:0.507436 16:-0.296886 17:-0.931174 18:-0.971074 19:-0.93617 20:-0.94274 21:-0.33913 22:0.285778 23:0.50481 24:-0.235081 
-8 1:-0.931174 2:-0.971074 3:-0.93617 4:-0.94274 5:-0.33913 6:0.285778 7:0.50481 8:-0.235081 9:-0.927126 10:-0.85124 11:-0.92766 12:-0.803681 13:0.286957 14:0.275908 15:0.590348 16:0.0732266 17:-0.809717 18:-0.863636 19:-0.834043 20:-0.844581 21:-0.478261 22:0.282488 23:0.484484 24:-0.199867 
-8 1:-0.809717 2:-0.863636 3:-0.834043 4:-0.844581 5:-0.478261 6:0.282488 7:0.484484 8:-0.199867 9:-0.801619 10:-0.768595 11:-0.791489 12:-0.762781 13:0.0434783 14:0.587558 15:0.5396 16:-0.150448 17:-0.761134 18:-0.797521 19:-0.765957 20:-0.775051 21:-0.356522 22:0.308509 23:0.507934 24:-0.199457 
-8 1:-0.801619 2:-0.768595 3:-0.791489 4:-0.762781 5:0.0434783 6:0.587558 7:0.5396 8:-0.150448 9:-0.761134 10:-0.797521 11:-0.765957 12:-0.775051 13:-0.356522 14:0.308509 15:0.507934 16:-0.199457 17:-0.757085 18:-0.801653 19:-0.761702 20:-0.762781 21:-0.252174 22:0.311799 23:0.502682 24:-0.140321 
-8 1:-0.761134 2:-0.797521 3:-0.765957 4:-0.775051 5:-0.356522 6:0.308509 7:0.507934 8:-0.199457 9:-0.757085 10:-0.801653 11:-0.761702 12:-0.762781 13:-0.252174 14:0.311799 15:0.502682 16:-0.140321 17:-0.740891 18:-0.760331 19:-0.744681 20:-0.717791 21:-0.113043 22:0.282488 23:0.508296 24:0.0622058 
-8 1:-0.757085 2:-0.801653 3:-0.761702 4:-0.762781 5:-0.252174 6:0.311799 7:0.502682 8:-0.140321 9:-0.740891 10:-0.760331 11:-0.744681 12:-0.717791 13:-0.113043 14:0.282488 15:0.508296 16:0.0622058 17:-0.720648 18:-0.752066 19:-0.719149 20:-0.693252 21:-0.2 22:0.276507 23:0.503791 24:-0.0840654 
-8 1:-0.720648 2:-0.752066 3:-0.719149 4:-0.693252 5:-0.2 6:0.276507 7:0.503791 8:-0.0840654 9:-0.716599 10:-0.714876 11:-0.697872 12:-0.672802 13:-0.217391 14:0.298938 15:0.550556 16:-0.0386029 17:-0.672065 18:-0.72314 19:-0.714894 20:-0.725971 21:-0.530435 22:0.280694 23:0.509631 24:-0.17355 
-8 1:-0.716599 2:-0.714876 3:-0.697872 4:-0.672802 5:-0.217391 6:0.298938 7:0.550556 8:-0.0386029 9:-0.672065 10:-0.72314 11:-0.714894 12:-0.725971 13:-0.530435 14:0.280694 15:0.509631 16:-0.17355 17:-0.720648 18:-0.747934 19:-0.702128 20:-0.697342 21:-0.182609 22:0.282488 23:0.538853 24:-0.0145756 
-8 1:-0.720648 2:-0.747934 3:-0.702128 4:-0.697342 5:-0.182609 6:0.282488 7:0.538853 8:-0.0145756 9:-0.704453 10:-0.743802 11:-0.693617 12:-0.689162 13:-0.269565 14:0.282488 15:0.524752 16:-0.118052 17:-0.708502 18:-0.698347 19:-0.697872 20:-0.689162 21:-0.304348 22:0.276208 23:0.556712 24:-0.122737 
-8 1:-0.704453 2:-0.743802 3:-0.693617 4:-0.689162 5:-0.269565 6:0.282488 7:0.524752 8:-0.118052 9:-0.708502 10:-0.698347 11:-0.697872 12:-0.689162 13:-0.304348 14:0.276208 15:0.556712 16:-0.122737 17:-0.668016 18:-0.706612 19:-0.655319 20:-0.652352 21:-0.147826 22:0.287274 23:0.523846 24:-0.000219809 
-8 1:-0.668016 2:-0.706612 3:-0.655319 4:-0.652352 5:-0.147826 6:0.287274 7:0.523846 8:-0.000219809 9:-0.639676 10:-0.673554 11:-0.634043 12:-0.644172 13:-0.269565 14:0.282488 15:0.511623 16:-0.0170162 17:-0.704453 18:-0.756198 19:-0.740426 20:-0.754601 21:-0.773913 22:0.147899 23:0.502546 24:-0.375274 
-8 1:-0.781377 2:-0.760331 3:-0.765957 4:-0.701431 5:-0.0782609 6:0.248991 7:0.518119 8:-0.0877036 9:-0.728745 10:-0.743802 11:-0.714894 12:-0.689162 13:-0.252174 14:0.0411246 15:0.519704 16:-0.0502149 17:-0.720648 18:-0.772727 19:-0.740426 20:-0.746421 21:-0.547826 22:0.265141 23:0.50945 24:-0.312712 
-8 1:-0.728745 2:-0.743802 3:-0.714894 4:-0.689162 5:-0.252174 6:0.0411246 7:0.519704 8:-0.0502149 9:-0.720648 10:-0.772727 11:-0.740426 12:-0.746421 13:-0.547826 14:0.265141 15:0.50945 16:-0.312712 17:-0.732794 18:-0.752066 19:-0.723404 20:-0.725971 21:-0.217391 22:0.235532 23:0.539238 24:-0.129467 
-8 1:-0.720648 2:-0.772727 3:-0.740426 4:-0.746421 5:-0.547826 6:0.265141 7:0.50945 8:-0.312712 9:-0.732794 10:-0.752066 11:-0.723404 12:-0.725971 13:-0.217391 14:0.235532 15:0.539238 16:-0.129467 17:-0.684211 18:-0.72314 19:-0.676596 20:-0.676892 21:-0.0956522 22:0.274114 23:0.540053 24:-0.0138934 
-8 1:-0.732794 2:-0.752066 3:-0.723404 4:-0.725971 5:-0.217391 6:0.235532 7:0.539238 8:-0.129467 9:-0.684211 10:-0.72314 11:-0.676596 12:-0.676892 13:-0.0956522 14:0.274114 15:0.540053 16:-0.0138934 17:-0.688259 18:-0.714876 19:-0.676596 20:-0.668712 21:-0.269565 22:0.282488 23:0.525385 24:-0.117203 
-8 1:-0.684211 2:-0.72314 3:-0.676596 4:-0.676892 5:-0.0956522 6:0.274114 7:0.540053 8:-0.0138934 9:-0.688259 10:-0.714876 11:-0.676596 12:-0.668712 13:-0.269565 14:0.282488 15:0.525385 16:-0.117203 17:-0.672065 18:-0.694215 19:-0.651064 20:-0.635992 21:-0.165217 22:0.282488 23:0.515901 24:-0.0178348 
-8 1:-0.672065 2:-0.694215 3:-0.651064 4:-0.635992 5:-0.165217 6:0.282488 7:0.515901 8:-0.0178348 9:-0.619433 10:-0.632231 11:-0.595745 12:-0.578732 13:-0.0608696 14:0.25258 15:0.484212 16:0.0268849 17:-0.57085 18:-0.623967 19:-0.655319 20:-0.635992 21:-0.547826 22:0.266338 23:0.513298 24:-0.340165 
-7.616774576094613 1:-0.619433 2:-0.632231 3:-0.595745 4:-0.578732 5:-0.0608696 6:0.25258 7:0.484212 8:0.0268849 9:-0.57085 10:-0.623967 11:-0.655319 12:-0.635992 13:-0.547826 14:0.266338 15:0.513298 16:-0.340165 17:-0.659919 18:-0.669421 19:-0.646809 20:-0.615542 21:-0.217391 22:0.276507 23:0.534688 24:-0.109381 
-8 1:-0.651822 2:-0.652893 3:-0.646809 4:-0.595092 5:-0.217391 6:0.283685 7:0.533013 8:-0.110867 9:-0.619433 10:-0.636364 11:-0.595745 12:-0.595092 13:-0.304348 14:0.282488 15:0.506145 16:-0.0501997 17:-0.591093 18:-0.636364 19:-0.587234 20:-0.595092 21:-0.304348 22:0.282488 23:0.507504 24:-0.0542018 
-8 1:-0.619433 2:-0.636364 3:-0.595745 4:-0.595092 5:-0.304348 6:0.282488 7:0.506145 8:-0.0501997 9:-0.591093 10:-0.636364 11:-0.587234 12:-0.595092 13:-0.304348 14:0.282488 15:0.507504 16:-0.0542018 17:-0.59919 18:-0.615702 19:-0.574468 20:-0.586912 21:-0.269565 22:0.282488 23:0.540166 24:0.014333 
-8 1:-0.566802 2:-0.61157 3:-0.553191 4:-0.562372 5:-0.2 6:0.244205 7:0.566197 8:-0.0214579 9:-0.578947 10:-0.619835 11:-0.570213 12:-0.574642 13:-0.356522 14:0.248093 15:0.502977 16:-0.150311 17:-0.59919 18:-0.652893 19:-0.617021 20:-0.635992 21:-0.565217 22:0.218783 23:0.5274 24:-0.335693 
-8 1:-0.578947 2:-0.619835 3:-0.570213 4:-0.574642 5:-0.356522 6:0.248093 7:0.502977 8:-0.150311 9:-0.59919 10:-0.652893 11:-0.617021 12:-0.635992 13:-0.565217 14:0.218783 15:0.5274 16:-0.335693 17:-0.619433 18:-0.661157 19:-0.608511 20:-0.611452 21:-0.2 22:0.289966 23:0.50782 24:-0.102075 
-8 1:-0.59919 2:-0.652893 3:-0.617021 4:-0.635992 5:-0.565217 6:0.218783 7:0.5274 8:-0.335693 9:-0.619433 10:-0.661157 11:-0.608511 12:-0.611452 13:-0.2 14:0.289966 15:0.50782 16:-0.102075 17:-0.611336 18:-0.632231 19:-0.587234 20:-0.595092 21:-0.234783 22:0.282488 23:0.534462 24:-0.131332 
-8 1:-0.619433 2:-0.661157 3:-0.608511 4:-0.611452 5:-0.2 6:0.289966 7:0.50782 8:-0.102075 9:-0.611336 10:-0.632231 11:-0.587234 12:-0.595092 13:-0.234783 14:0.282488 15:0.534462 16:-0.131332 17:-0.595142 18:-0.61157 19:-0.570213 20:-0.562372 21:-0.165217 22:0.306415 23:0.522669 24:-0.00593483 
-8 1:-0.595142 2:-0.61157 3:-0.570213 4:-0.562372 5:-0.165217 6:0.306415 7:0.522669 8:-0.00593483 9:-0.54251 10:-0.595041 11:-0.553191 12:-0.554192 13:-0.269565 14:0.414087 15:0.505444 16:-0.108699 17:-0.558704 18:-0.607438 19:-0.553191 20:-0.554192 21:-0.304348 22:0.362345 23:0.513841 24:-0.0527768 
-8 1:-0.54251 2:-0.595041 3:-0.553191 4:-0.554192 5:-0.269565 6:0.414087 7:0.505444 8:-0.108699 9:-0.558704 10:-0.607438 11:-0.553191 12:-0.554192 13:-0.304348 14:0.362345 15:0.513841 16:-0.0527768 17:-0.550607 18:-0.557851 19:-0.523404 20:-0.513292 21:-0.130435 22:0.251682 23:0.552095 24:0.0494114 
-8 1:-0.558704 2:-0.607438 3:-0.553191 4:-0.554192 5:-0.304348 6:0.362345 7:0.513841 8:-0.0527768 9:-0.550607 10:-0.557851 11:-0.523404 12:-0.513292 13:-0.130435 14:0.251682 15:0.552095 16:0.0494114 17:-0.481781 18:-0.508264 19:-0.468085 20:-0.451943 21:-0.0434783 22:0.387169 23:0.539329 24:0.140746 
-8 1:-0.481781 2:-0.508264 3:-0.468085 4:-0.451943 5:-0.0434783 6:0.387169 7:0.539329 8:0.140746 9:-0.441296 10:-0.491736 11:-0.442553 12:-0.443763 13:-0.269565 14:0.307313 15:0.579461 16:0.0745303 17:-0.465587 18:-0.495868 19:-0.442553 20:-0.451943 21:-0.33913 22:0.318977 23:0.58478 24:-0.0382694 
-8 1:-0.441296 2:-0.491736 3:-0.442553 4:-0.443763 5:-0.269565 6:0.307313 7:0.579461 8:0.0745303 9:-0.465587 10:-0.495868 11:-0.442553 12:-0.451943 13:-0.33913 14:0.318977 15:0.58478 16:-0.0382694 17:-0.445344 18:-0.42562 19:-0.417021 20:-0.394683 21:-0.0608696 22:0.289068 23:0.572308 24:0.061175 
-8 1:-0.445344 2:-0.42562 3:-0.417021 4:-0.394683 5:-0.0608696 6:0.289068 7:0.572308 8:0.061175 9:-0.388664 10:-0.429752 11:-0.374468 12:-0.386503 13:-0.269565 14:0.332735 15:0.450644 16:0.0315236 17:-0.40081 18:-0.42562 19:-0.442553 20:-0.386503 21:-0.304348 22:0.450277 23:0.504561 24:-0.103105 
-8 1:-0.388664 2:-0.429752 3:-0.374468 4:-0.386503 5:-0.269565 6:0.332735 7:0.450644 8:0.0315236 9:-0.40081 10:-0.42562 11:-0.442553 12:-0.386503 13:-0.304348 14:0.450277 15:0.504561 16:-0.103105 17:-0.396761 18:-0.429752 19:-0.395745 20:-0.378323 21:-0.269565 22:0.339315 23:0.523733 24:0.0620542 
-0.4677639582601109 1:-0.360324 2:-0.363636 3:-0.32766 4:-0.329243 5:-0.0956522 6:0.26873 7:0.572421 8:0.159755 9:-0.319838 10:-0.367769 11:-0.319149 12:-0.329243 13:-0.304348 14:0.295947 15:0.505489 16:-0.020139 17:-0.336032 18:-0.384298 19:-0.344681 20:-0.374233 21:-0.495652 22:0.247495 23:0.529482 24:-0.251529 
-8 1:-0.34413 2:-0.384298 3:-0.319149 4:-0.349693 5:-0.356522 6:0.278301 7:0.529279 8:-0.127087 9:-0.396761 10:-0.413223 11:-0.365957 12:-0.390593 13:-0.478261 14:0.279797 15:0.524389 16:-0.229063 17:-0.376518 18:-0.42562 19:-0.361702 20:-0.370143 21:-0.217391 22:0.273217 23:0.506304 24:-0.0513215 
-8 1:-0.396761 2:-0.413223 3:-0.365957 4:-0.390593 5:-0.478261 6:0.279797 7:0.524389 8:-0.229063 9:-0.376518 10:-0.42562 11:-0.361702 12:-0.370143 13:-0.217391 14:0.273217 15:0.506304 16:-0.0513215 17:-0.376518 18:-0.392562 19:-0.348936 20:-0.353783 21:-0.234783 22:0.227157 23:0.529324 24:-0.0259147 
-8 1:-0.376518 2:-0.392562 3:-0.348936 4:-0.353783 5:-0.234783 6:0.227157 7:0.529324 8:-0.0259147 9:-0.327935 10:-0.342975 11:-0.297872 12:-0.288344 13:-0.026087 14:0.20981 15:0.597818 16:0.144914 17:-0.295547 18:-0.338843 19:-0.289362 20:-0.292434 21:-0.321739 22:0.497832 23:0.451278 24:0.00419152 
-8 1:-0.299595 2:-0.342975 3:-0.27234 4:-0.288344 5:-0.286957 6:0.253178 7:0.513343 8:-0.0669203 9:-0.319838 10:-0.355372 11:-0.323404 12:-0.308793 13:-0.391304 14:0.25258 15:0.490686 16:-0.0437116 17:-0.437247 18:-0.433884 19:-0.425532 20:-0.443763 21:-0.878261 22:-0.0656498 23:0.673057 24:-1 
-8 1:-0.465587 2:-0.458678 3:-0.446809 4:-0.402863 5:-0.130435 6:0.0874832 7:0.510582 8:-0.284667 9:-0.417004 10:-0.458678 11:-0.421277 12:-0.443763 13:-0.478261 14:0.0773142 15:0.521085 16:-0.295127 17:-0.45749 18:-0.504132 19:-0.476596 20:-0.492843 21:-0.513043 22:0.167639 23:0.544603 24:-0.603268 
-8 1:-0.45749 2:-0.504132 3:-0.476596 4:-0.492843 5:-0.513043 6:0.167639 7:0.544603 8:-0.603268 9:-0.502024 10:-0.508264 11:-0.489362 12:-0.464213 13:-0.182609 14:0.279797 15:0.60325 16:-0.431621 17:-0.45749 18:-0.479339 19:-0.459574 20:-0.480573 21:-0.373913 22:0.142515 23:0.488105 24:-0.310529 
-8 1:-0.502024 2:-0.508264 3:-0.489362 4:-0.464213 5:-0.182609 6:0.279797 7:0.60325 8:-0.431621 9:-0.45749 10:-0.479339 11:-0.459574 12:-0.480573 13:-0.373913 14:0.142515 15:0.488105 16:-0.310529 17:-0.489879 18:-0.524793 19:-0.468085 20:-0.476483 21:-0.286957 22:0.281591 23:0.538876 24:-0.258154 
-8 1:-0.45749 2:-0.479339 3:-0.459574 4:-0.480573 5:-0.373913 6:0.142515 7:0.488105 8:-0.310529 9:-0.489879 10:-0.524793 11:-0.468085 12:-0.476483 13:-0.286957 14:0.281591 15:0.538876 16:-0.258154 17:-0.489879 18:-0.512397 19:-0.459574 20:-0.460123 21:-0.234783 22:0.210109 23:0.572195 24:-0.358477 
-8 1:-0.489879 2:-0.524793 3:-0.468085 4:-0.476483 5:-0.286957 6:0.281591 7:0.538876 8:-0.258154 9:-0.489879 10:-0.512397 11:-0.459574 12:-0.460123 13:-0.234783 14:0.210109 15:0.572195 16:-0.358477 17:-0.449393 18:-0.46281 19:-0.421277 20:-0.423313 21:-0.147826 22:0.311201 23:0.610448 24:-0.287835 
-8 1:-0.449393 2:-0.46281 3:-0.421277 4:-0.423313 5:-0.147826 6:0.311201 7:0.610448 8:-0.287835 9:-0.421053 10:-0.404959 11:-0.387234 12:-0.349693 13:0.00869565 14:0.265141 15:0.597048 16:-0.149962 17:-0.340081 18:-0.384298 19:-0.33617 20:-0.349693 21:-0.304348 22:0.283685 23:0.706354 24:-0.25303 
-1.59372406736994 1:-0.408907 2:-0.433884 3:-0.391489 4:-0.394683 5:-0.408696 6:0.366831 7:1 8:-0.435016 9:-0.838057 10:-0.842975 11:-0.838298 12:-0.811861 13:-0.304348 14:0.292358 15:-1 16:-0.379018 17:-0.785425 18:-0.822314 19:-0.782979 20:-0.770961 21:-0.130435 22:0.270525 23:0.296159 24:-0.0900684 
-8 1:-0.684211 2:-0.72314 3:-0.702128 4:-0.717791 5:-0.356522 6:0.292358 7:0.53367 8:-0.265839 9:-0.716599 10:-0.768595 11:-0.744681 12:-0.758691 13:-0.478261 14:0.282488 15:0.528554 16:-0.48104 17:-0.789474 18:-0.842975 19:-0.787234 20:-0.791411 21:-0.443478 22:0.273217 23:0.491455 24:-0.407063 
-8 1:-0.82996 2:-0.826446 3:-0.821277 4:-0.779141 5:-0.252174 6:0.313893 7:0.482876 8:-0.174232 9:-0.781377 10:-0.830579 11:-0.787234 12:-0.799591 13:-0.391304 14:0.282488 15:0.528079 16:-0.430362 17:-0.769231 18:-0.818182 19:-0.817021 20:-0.811861 21:-0.356522 22:0.299237 23:0.506259 24:-0.307512 
-8 1:-0.781377 2:-0.830579 3:-0.787234 4:-0.799591 5:-0.391304 6:0.282488 7:0.528079 8:-0.430362 9:-0.769231 10:-0.818182 11:-0.817021 12:-0.811861 13:-0.356522 14:0.299237 15:0.506259 16:-0.307512 17:-0.813765 18:-0.830579 19:-0.8 20:-0.803681 21:-0.269565 22:0.548976 23:0.522805 24:-0.316865 
-8 1:-0.680162 2:-0.727273 3:-0.680851 4:-0.689162 5:-0.33913 6:0.650665 7:0.481881 8:0.0632973 9:-0.704453 10:-0.752066 11:-0.710638 12:-0.697342 13:-0.33913 14:0.333333 15:0.509903 16:-0.098027 17:-0.688259 18:-0.72314 19:-0.710638 20:-0.713701 21:-0.373913 22:0.334231 23:0.509767 24:-0.153479 
-8 1:-0.688259 2:-0.72314 3:-0.710638 4:-0.713701 5:-0.373913 6:0.334231 7:0.509767 8:-0.153479 9:-0.704453 10:-0.756198 11:-0.706383 12:-0.705521 13:-0.269565 14:0.312696 15:0.537133 16:-0.183692 17:-0.736842 18:-0.780992 19:-0.740426 20:-0.742331 21:-0.46087 22:0.379692 23:0.50945 24:-0.223939 
-8 1:-0.736842 2:-0.780992 3:-0.740426 4:-0.742331 5:-0.46087 6:0.379692 7:0.50945 8:-0.223939 9:-0.708502 10:-0.756198 11:-0.710638 12:-0.705521 13:-0.147826 14:0.314192 15:0.559157 16:-0.0113315 17:-0.732794 18:-0.77686 19:-0.723404 20:-0.738241 21:-0.443478 22:0.0949604 23:0.522035 24:-0.319124 
-8 1:-0.708502 2:-0.756198 3:-0.710638 4:-0.705521 5:-0.147826 6:0.314192 7:0.559157 8:-0.0113315 9:-0.732794 10:-0.77686 11:-0.723404 12:-0.738241 13:-0.443478 14:0.0949604 15:0.522035 16:-0.319124 17:-0.708502 18:-0.764463 19:-0.714894 20:-0.730061 21:-0.269565 22:0.33124 23:0.507866 24:-0.122327 
-8 1:-0.732794 2:-0.77686 3:-0.723404 4:-0.738241 5:-0.443478 6:0.0949604 7:0.522035 8:-0.319124 9:-0.708502 10:-0.764463 11:-0.714894 12:-0.730061 13:-0.269565 14:0.33124 15:0.507866 16:-0.122327 17:-0.740891 18:-0.77686 19:-0.72766 20:-0.717791 21:-0.252174 22:0.247495 23:0.528894 24:-0.106622 
-8 1:-0.708502 2:-0.764463 3:-0.714894 4:-0.730061 5:-0.269565 6:0.33124 7:0.507866 8:-0.122327 9:-0.740891 10:-0.77686 11:-0.72766 12:-0.717791 13:-0.252174 14:0.247495 15:0.528894 16:-0.106622 17:-0.736842 18:-0.764463 19:-0.719149 20:-0.713701 21:-0.286957 22:0.351578 23:0.48102 24:-0.0704221 
-8 1:-0.736842 2:-0.764463 3:-0.719149 4:-0.713701 5:-0.286957 6:0.351578 7:0.48102 8:-0.0704221 9:-0.692308 10:-0.743802 11:-0.680851 12:-0.689162 13:-0.2 14:0.343502 15:0.494217 16:-0.0273093 17:-0.680162 18:-0.735537 19:-0.680851 20:-0.697342 21:-0.33913 22:0.387468 23:0.50859 24:-0.068603 
-8 1:-0.692308 2:-0.743802 3:-0.680851 4:-0.689162 5:-0.2 6:0.343502 7:0.494217 8:-0.0273093 9:-0.680162 10:-0.735537 11:-0.680851 12:-0.697342 13:-0.33913 14:0.387468 15:0.50859 16:-0.068603 17:-0.659919 18:-0.677686 19:-0.659574 20:-0.652352 21:-0.113043 22:0.518768 23:0.552276 24:0.0869456 
-8 1:-0.680162 2:-0.735537 3:-0.680851 4:-0.697342 5:-0.33913 6:0.387468 7:0.50859 8:-0.068603 9:-0.659919 10:-0.677686 11:-0.659574 12:-0.652352 13:-0.113043 14:0.518768 15:0.552276 16:0.0869456 17:-0.639676 18:-0.68595 19:-0.642553 20:-0.631902 21:-0.217391 22:0.596531 23:0.502682 24:-0.0637975 
-8 1:-0.639676 2:-0.68595 3:-0.642553 4:-0.631902 5:-0.217391 6:0.596531 7:0.502682 8:-0.0637975 9:-0.615385 10:-0.657025 11:-0.612766 12:-0.623722 13:-0.269565 14:0.689846 15:0.506327 16:-0.110867 17:-0.635628 18:-0.68595 19:-0.651064 20:-0.648262 21:-0.408696 22:0.406012 23:0.521877 24:-0.0319026 
-8 1:-0.615385 2:-0.657025 3:-0.612766 4:-0.623722 5:-0.269565 6:0.689846 7:0.506327 8:-0.110867 9:-0.635628 10:-0.68595 11:-0.651064 12:-0.648262 13:-0.408696 14:0.406012 15:0.521877 16:-0.0319026 17:-0.668016 18:-0.673554 19:-0.66383 20:-0.619632 21:-0.182609 22:0.469418 23:0.522828 24:-0.00231178 
-8 1:-0.635628 2:-0.68595 3:-0.651064 4:-0.648262 5:-0.408696 6:0.406012 7:0.521877 8:-0.0319026 9:-0.668016 10:-0.673554 11:-0.66383 12:-0.619632 13:-0.182609 14:0.469418 15:0.522828 16:-0.00231178 17:-0.623482 18:-0.665289 19:-0.612766 20:-0.611452 21:-0.269565 22:0.477793 23:0.521696 24:0.108972 
-8 1:-0.668016 2:-0.673554 3:-0.66383 4:-0.619632 5:-0.182609 6:0.469418 7:0.522828 8:-0.00231178 9:-0.623482 10:-0.665289 11:-0.612766 12:-0.611452 13:-0.269565 14:0.477793 15:0.521696 16:0.108972 17:-0.611336 18:-0.652893 19:-0.587234 20:-0.599182 21:-0.252174 22:0.660236 23:0.469907 24:0.0751821 
-8 1:-0.623482 2:-0.665289 3:-0.612766 4:-0.611452 5:-0.269565 6:0.477793 7:0.521696 8:0.108972 9:-0.611336 10:-0.652893 11:-0.587234 12:-0.599182 13:-0.252174 14:0.660236 15:0.469907 16:0.0751821 17:-0.587045 18:-0.61157 19:-0.565957 20:-0.554192 21:-0.113043 22:0.673396 23:0.52276 24:0.0935702 
-8 1:-0.587045 2:-0.61157 3:-0.565957 4:-0.554192 5:-0.113043 6:0.673396 7:0.52276 8:0.0935702 9:-0.538462 10:-0.549587 11:-0.514894 12:-0.521472 13:-0.165217 14:1 15:0.551914 16:-0.0836561 17:-0.502024 18:-0.549587 19:-0.506383 20:-0.525562 21:-0.321739 22:0.367728 23:0.535571 24:-0.110003 
-3.719801993381917 1:-0.489879 2:-0.512397 3:-0.468085 4:-0.468303 5:-0.321739 6:0.453567 7:0.493606 8:0.00209955 9:-0.461538 10:-0.491736 11:-0.468085 12:-0.476483 13:-0.33913 14:0.436519 15:0.540777 16:-0.0422715 17:-0.461538 18:-0.512397 19:-0.485106 20:-0.501022 21:-0.408696 22:0.455062 23:0.51993 24:-0.0568849 
-8 1:-0.538462 2:-0.57438 3:-0.570213 4:-0.591002 5:-0.652174 6:0.333632 7:0.517938 8:-0.27395 9:-0.615385 10:-0.632231 11:-0.612766 12:-0.627812 13:-0.46087 14:0.307612 15:0.495846 16:-0.214238 17:-0.635628 18:-0.652893 19:-0.612766 20:-0.615542 21:-0.252174 22:0.409601 23:0.525815 24:-0.226835 
-8 1:-0.720648 2:-0.772727 3:-0.740426 4:-0.738241 5:-0.304348 6:0.329445 7:0.53745 8:-0.338937 9:-0.753036 10:-0.764463 11:-0.73617 12:-0.738241 13:-0.304348 14:0.291461 15:0.531723 16:-0.261701 17:-0.724696 18:-0.760331 19:-0.723404 20:-0.738241 21:-0.304348 22:0.251383 23:0.523891 24:-0.366421 
-8 1:-0.753036 2:-0.764463 3:-0.73617 4:-0.738241 5:-0.304348 6:0.291461 7:0.531723 8:-0.261701 9:-0.724696 10:-0.760331 11:-0.723404 12:-0.738241 13:-0.304348 14:0.251383 15:0.523891 16:-0.366421 17:-0.708502 18:-0.731405 19:-0.710638 20:-0.672802 21:-0.026087 22:0.297742 23:0.516829 24:-0.00867865 
-8 1:-0.708502 2:-0.731405 3:-0.710638 4:-0.672802 5:-0.026087 6:0.297742 7:0.516829 8:-0.00867865 9:-0.676113 10:-0.702479 11:-0.689362 12:-0.660532 13:-0.252174 14:0.454165 15:0.549696 16:-0.197471 17:-0.663968 18:-0.710744 19:-0.659574 20:-0.660532 21:-0.304348 22:0.303425 23:0.52233 24:-0.127527 
-8 1:-0.676113 2:-0.702479 3:-0.689362 4:-0.660532 5:-0.252174 6:0.454165 7:0.549696 8:-0.197471 9:-0.663968 10:-0.710744 11:-0.659574 12:-0.660532 13:-0.304348 14:0.303425 15:0.52233 16:-0.127527 17:-0.647773 18:-0.68595 19:-0.638298 20:-0.648262 21:-0.252174 22:0.438612 23:0.534485 24:0.0312507 
-8 1:-0.639676 2:-0.68595 3:-0.634043 4:-0.652352 5:-0.46087 6:0.310004 7:0.520972 8:-0.180993 9:-0.663968 10:-0.714876 11:-0.66383 12:-0.676892 13:-0.408696 14:0.333932 15:0.504833 16:-0.184662 17:-0.643725 18:-0.698347 19:-0.651064 20:-0.644172 21:-0.165217 22:0.324361 23:0.519251 24:-0.0474256 
-8 1:-0.643725 2:-0.698347 3:-0.651064 4:-0.644172 5:-0.165217 6:0.324361 7:0.519251 8:-0.0474256 9:-0.619433 10:-0.640496 11:-0.612766 12:-0.615542 13:-0.182609 14:0.274413 15:0.57018 16:0.151084 17:-0.611336 18:-0.636364 19:-0.625532 20:-0.615542 21:-0.304348 22:0.364438 23:0.473279 24:-0.113338 
-8 1:-0.639676 2:-0.677686 3:-0.625532 4:-0.627812 5:-0.426087 6:0.282488 7:0.442111 8:-0.138366 9:-0.635628 10:-0.677686 11:-0.634043 12:-0.644172 13:-0.373913 14:0.356064 15:0.496095 16:-0.0975723 17:-0.615385 18:-0.657025 19:-0.6 20:-0.603272 21:-0.130435 22:0.279198 23:0.485819 24:0.155541 
-8 1:-0.635628 2:-0.677686 3:-0.634043 4:-0.644172 5:-0.373913 6:0.356064 7:0.496095 8:-0.0975723 9:-0.615385 10:-0.657025 11:-0.6 12:-0.603272 13:-0.130435 14:0.279198 15:0.485819 16:0.155541 17:-0.57085 18:-0.615702 19:-0.561702 20:-0.570552 21:-0.165217 22:0.757141 23:0.515132 24:0.18636 
-8 1:-0.615385 2:-0.657025 3:-0.6 4:-0.603272 5:-0.130435 6:0.279198 7:0.485819 8:0.155541 9:-0.57085 10:-0.615702 11:-0.561702 12:-0.570552 13:-0.165217 14:0.757141 15:0.515132 16:0.18636 17:-0.538462 18:-0.557851 19:-0.523404 20:-0.501022 21:-0.00869565 22:0.379094 23:0.607506 24:0.532202 
-8 1:-0.518219 2:-0.553719 3:-0.540426 4:-0.558282 5:-0.582609 6:0.330342 7:0.484325 8:-0.0462583 9:-0.538462 10:-0.57438 11:-0.52766 12:-0.517382 13:-0.130435 14:0.34111 15:0.520089 16:0.220635 17:-0.502024 18:-0.549587 19:-0.523404 20:-0.546012 21:-0.426087 22:0.43921 23:0.524412 24:-0.0647374 
-8 1:-0.558704 2:-0.578512 3:-0.531915 4:-0.525562 5:-0.217391 6:0.290265 7:0.563073 8:-0.142383 9:-0.54251 10:-0.570248 11:-0.52766 12:-0.550102 13:-0.408696 14:0.291461 15:0.506349 16:-0.0629789 17:-0.558704 18:-0.603306 19:-0.561702 20:-0.582822 21:-0.443478 22:0.379393 23:0.532946 24:-0.12977 
-8 1:-0.534413 2:-0.582645 3:-0.540426 4:-0.562372 5:-0.373913 6:0.359653 7:0.503203 8:-0.0257934 9:-0.554656 10:-0.607438 11:-0.565957 12:-0.582822 13:-0.391304 14:0.583371 15:0.52611 16:-0.140533 17:-0.591093 18:-0.61157 19:-0.570213 20:-0.586912 21:-0.321739 22:0.295947 23:0.534643 24:-0.111883 
-8 1:-0.554656 2:-0.607438 3:-0.565957 4:-0.582822 5:-0.391304 6:0.583371 7:0.52611 8:-0.140533 9:-0.591093 10:-0.61157 11:-0.570213 12:-0.586912 13:-0.321739 14:0.295947 15:0.534643 16:-0.111883 17:-0.587045 18:-0.619835 19:-0.561702 20:-0.562372 21:-0.2 22:0.339315 23:0.506757 24:-0.101908 
-8 1:-0.591093 2:-0.61157 3:-0.570213 4:-0.586912 5:-0.321739 6:0.295947 7:0.534643 8:-0.111883 9:-0.587045 10:-0.619835 11:-0.561702 12:-0.562372 13:-0.2 14:0.339315 15:0.506757 16:-0.101908 17:-0.558704 18:-0.607438 19:-0.553191 20:-0.554192 21:-0.269565 22:0.410797 23:0.527264 24:-0.127557 
-8 1:-0.558704 2:-0.607438 3:-0.553191 4:-0.554192 5:-0.269565 6:0.410797 7:0.527264 8:-0.127557 9:-0.574899 10:-0.590909 11:-0.548936 12:-0.533742 13:-0.217391 14:0.379094 15:0.537971 16:-0.0952832 17:-0.574899 18:-0.578512 19:-0.548936 20:-0.550102 21:-0.373913 22:0.333034 23:0.522918 24:-0.171534 
-8 1:-0.574899 2:-0.590909 3:-0.548936 4:-0.533742 5:-0.217391 6:0.379094 7:0.537971 8:-0.0952832 9:-0.574899 10:-0.578512 11:-0.548936 12:-0.550102 13:-0.373913 14:0.333034 15:0.522918 16:-0.171534 17:-0.530364 18:-0.57438 19:-0.510638 20:-0.525562 21:-0.2 22:0.323164 23:0.494805 24:-0.0332517 
-8 1:-0.522267 2:-0.570248 3:-0.519149 4:-0.533742 5:-0.33913 6:0.349783 7:0.540913 8:-0.209614 9:-0.518219 10:-0.570248 11:-0.519149 12:-0.541922 13:-0.33913 14:0.418274 15:0.497838 16:-0.10738 17:-0.534413 18:-0.578512 19:-0.531915 20:-0.554192 21:-0.356522 22:0.0270674 23:0.528441 24:-0.127497 
-8 1:-0.518219 2:-0.570248 3:-0.519149 4:-0.541922 5:-0.33913 6:0.418274 7:0.497838 8:-0.10738 9:-0.534413 10:-0.578512 11:-0.531915 12:-0.554192 13:-0.356522 14:0.0270674 15:0.528441 16:-0.127497 17:-0.54251 18:-0.586777 19:-0.52766 20:-0.533742 21:-0.217391 22:0.33124 23:0.507006 24:-0.041938 
-8 1:-0.534413 2:-0.578512 3:-0.531915 4:-0.554192 5:-0.356522 6:0.0270674 7:0.528441 8:-0.127497 9:-0.54251 10:-0.586777 11:-0.52766 12:-0.533742 13:-0.217391 14:0.33124 15:0.507006 16:-0.041938 17:-0.522267 18:-0.57438 19:-0.53617 20:-0.525562 21:-0.269565 22:0.322566 23:0.505602 24:0.0467889 
-8 1:-0.530364 2:-0.57438 3:-0.52766 4:-0.521472 5:-0.286957 6:0.144609 7:0.481066 8:0.124298 9:-0.526316 10:-0.57438 11:-0.514894 12:-0.525562 13:-0.321739 14:0.323763 15:0.508545 16:-0.0561573 17:-0.538462 18:-0.590909 19:-0.531915 20:-0.554192 21:-0.426087 22:0.342306 23:0.525295 24:-0.174657 
-8 1:-0.538462 2:-0.590909 3:-0.531915 4:-0.554192 5:-0.426087 6:0.342306 7:0.525295 8:-0.174657 9:-0.546559 10:-0.590909 11:-0.531915 12:-0.533742 13:-0.217391 14:0.30492 15:0.507277 16:-0.137259 17:-0.538462 18:-0.586777 19:-0.540426 20:-0.562372 21:-0.426087 22:0.274413 23:0.486453 24:-0.10594 
-8 1:-0.538462 2:-0.586777 3:-0.540426 4:-0.562372 5:-0.426087 6:0.274413 7:0.486453 8:-0.10594 9:-0.566802 10:-0.599174 11:-0.553191 12:-0.554192 13:-0.269565 14:0.431733 15:0.43944 16:-0.16782 17:-0.538462 18:-0.590909 19:-0.53617 20:-0.558282 21:-0.321739 22:0.36055 23:0.428846 24:-0.0823221 
-8 1:-0.538462 2:-0.590909 3:-0.53617 4:-0.558282 5:-0.321739 6:0.36055 7:0.428846 8:-0.0823221 9:-0.558704 10:-0.590909 11:-0.53617 12:-0.533742 13:-0.2 14:0.313594 15:0.526494 16:-0.00197828 17:-0.554656 18:-0.590909 19:-0.52766 20:-0.546012 21:-0.356522 22:0.222073 23:0.503746 24:-0.106698 
-8 1:-0.554656 2:-0.590909 3:-0.52766 4:-0.546012 5:-0.356522 6:0.222073 7:0.503746 8:-0.106698 9:-0.469636 10:-0.520661 11:-0.544681 12:-0.529652 13:-0.234783 14:0.238523 15:0.526064 16:-0.047653 17:-0.546559 18:-0.586777 19:-0.531915 20:-0.546012 21:-0.373913 22:0.182294 23:0.651395 24:-0.326628 
-8 1:-0.469636 2:-0.520661 3:-0.544681 4:-0.529652 5:-0.234783 6:0.238523 7:0.526064 8:-0.047653 9:-0.546559 10:-0.586777 11:-0.531915 12:-0.546012 13:-0.373913 14:0.182294 15:0.651395 16:-0.326628 17:-0.530364 18:-0.549587 19:-0.510638 20:-0.492843 21:-0.0782609 22:0.298938 23:0.475927 24:0.172504 
-8 1:-0.546559 2:-0.586777 3:-0.531915 4:-0.546012 5:-0.373913 6:0.182294 7:0.651395 8:-0.326628 9:-0.530364 10:-0.549587 11:-0.510638 12:-0.492843 13:-0.0782609 14:0.298938 15:0.475927 16:0.172504 17:-0.477733 18:-0.516529 19:-0.485106 20:-0.460123 21:-0.165217 22:0.145805 23:0.473075 24:0.30016 
-8 1:-0.530364 2:-0.549587 3:-0.510638 4:-0.492843 5:-0.0782609 6:0.298938 7:0.475927 8:0.172504 9:-0.477733 10:-0.516529 11:-0.485106 12:-0.460123 13:-0.165217 14:0.145805 15:0.473075 16:0.30016 17:-0.45749 18:-0.446281 19:-0.434043 20:-0.390593 21:-0.00869565 22:0.666816 23:0.591254 24:0.29302 
-8 1:-0.477733 2:-0.516529 3:-0.485106 4:-0.460123 5:-0.165217 6:0.145805 7:0.473075 8:0.30016 9:-0.45749 10:-0.446281 11:-0.434043 12:-0.390593 13:-0.00869565 14:0.666816 15:0.591254 16:0.29302 17:-0.376518 18:-0.38843 19:-0.353191 20:-0.333333 21:-0.0608696 22:0.692239 23:0.548858 24:0.507932 
-8 1:-0.45749 2:-0.446281 3:-0.434043 4:-0.390593 5:-0.00869565 6:0.666816 7:0.591254 8:0.29302 9:-0.376518 10:-0.38843 11:-0.353191 12:-0.333333 13:-0.0608696 14:0.692239 15:0.548858 16:0.507932 17:-0.336032 18:-0.35124 19:-0.319149 20:-0.325153 21:-0.269565 22:0.613279 23:0.455194 24:0.257911 
-6.966792674586667 1:-0.376518 2:-0.38843 3:-0.353191 4:-0.333333 5:-0.0608696 6:0.692239 7:0.548858 8:0.507932 9:-0.336032 10:-0.35124 11:-0.319149 12:-0.325153 13:-0.269565 14:0.613279 15:0.455194 16:0.257911 17:-0.319838 18:-0.347107 19:-0.306383 20:-0.292434 21:-0.165217 22:0.618364 23:0.509224 24:0.187421 
-7.641451911458111 1:-0.319838 2:-0.347107 3:-0.306383 4:-0.292434 5:-0.165217 6:0.618364 7:0.509224 8:0.187421 9:-0.271255 10:-0.31405 11:-0.27234 12:-0.288344 13:-0.286957 14:0.419172 15:0.439711 16:0.390342 17:-0.275304 18:-0.301653 19:-0.251064 20:-0.251534 21:-0.147826 22:0.412592 23:0.537993 24:0.423404 
-8 1:-0.279352 2:-0.305785 3:-0.255319 4:-0.288344 5:-0.478261 6:0.349185 7:0.515471 8:-0.0352982 9:-0.295547 10:-0.330579 11:-0.27234 12:-0.292434 13:-0.321739 14:0.351578 15:0.52663 16:-0.124677 17:-0.295547 18:-0.334711 19:-0.26383 20:-0.284254 21:-0.269565 22:0.249888 23:0.497137 24:0.0944646 
-8 1:-0.303644 2:-0.31405 3:-0.26383 4:-0.276074 5:-0.33913 6:-0.0674443 7:0.572082 8:-0.0699522 9:-0.303644 10:-0.330579 11:-0.276596 12:-0.308793 13:-0.443478 14:0.214895 15:0.514362 16:-0.116233 17:-0.279352 18:-0.326446 19:-0.297872 20:-0.329243 21:-0.391304 22:0.388964 23:0.498744 24:-0.0562179 
-8 1:-0.279352 2:-0.326446 3:-0.297872 4:-0.329243 5:-0.391304 6:0.388964 7:0.498744 8:-0.0562179 9:-0.291498 10:-0.330579 11:-0.306383 12:-0.304703 13:-0.2 14:0.28847 15:0.525499 16:-0.0262633 17:-0.307692 18:-0.355372 19:-0.314894 20:-0.337423 21:-0.443478 22:0.195454 23:0.510559 24:-0.078699 
-8 1:-0.291498 2:-0.330579 3:-0.306383 4:-0.304703 5:-0.2 6:0.28847 7:0.525499 8:-0.0262633 9:-0.307692 10:-0.355372 11:-0.314894 12:-0.337423 13:-0.443478 14:0.195454 15:0.510559 16:-0.078699 17:-0.34413 18:-0.347107 19:-0.319149 20:-0.292434 21:-0.113043 22:0.397039 23:0.539578 24:-0.0645858 
-8 1:-0.307692 2:-0.355372 3:-0.314894 4:-0.337423 5:-0.443478 6:0.195454 7:0.510559 8:-0.078699 9:-0.34413 10:-0.347107 11:-0.319149 12:-0.292434 13:-0.113043 14:0.397039 15:0.539578 16:-0.0645858 17:-0.299595 18:-0.31405 19:-0.27234 20:-0.267894 21:-0.2 22:0.640796 23:0.526494 24:-0.0809274 
-8 1:-0.299595 2:-0.31405 3:-0.27234 4:-0.267894 5:-0.2 6:0.640796 7:0.526494 8:-0.0809274 9:-0.263158 10:-0.301653 11:-0.251064 12:-0.259714 13:-0.269565 14:0.278899 15:0.521424 16:0.0733933 17:-0.287449 18:-0.330579 19:-0.285106 20:-0.316973 21:-0.547826 22:0.334829 23:0.52663 24:-0.396527 
-8 1:-0.263158 2:-0.301653 3:-0.251064 4:-0.259714 5:-0.269565 6:0.278899 7:0.521424 8:0.0733933 9:-0.287449 10:-0.330579 11:-0.285106 12:-0.316973 13:-0.547826 14:0.334829 15:0.52663 16:-0.396527 17:-0.340081 18:-0.342975 19:-0.340426 20:-0.292434 21:-0.2 22:0.28189 23:0.504403 24:-0.214723 
-8 1:-0.340081 2:-0.342975 3:-0.340426 4:-0.292434 5:-0.2 6:0.28189 7:0.504403 8:-0.214723 9:-0.287449 10:-0.334711 11:-0.276596 12:-0.288344 13:-0.286957 14:0.086885 15:0.505534 16:-0.096026 17:-0.295547 18:-0.322314 19:-0.259574 20:-0.288344 21:-0.304348 22:0.273217 23:0.53625 24:-0.0200632 
-8 1:-0.287449 2:-0.334711 3:-0.276596 4:-0.288344 5:-0.286957 6:0.086885 7:0.505534 8:-0.096026 9:-0.295547 10:-0.322314 11:-0.259574 12:-0.288344 13:-0.304348 14:0.273217 15:0.53625 16:-0.0200632 17:-0.299595 18:-0.326446 19:-0.268085 20:-0.284254 21:-0.286957 22:0.368028 23:0.515969 24:-0.0251567 
-8 1:-0.295547 2:-0.322314 3:-0.259574 4:-0.288344 5:-0.304348 6:0.273217 7:0.53625 8:-0.0200632 9:-0.299595 10:-0.326446 11:-0.268085 12:-0.284254 13:-0.286957 14:0.368028 15:0.515969 16:-0.0251567 17:-0.275304 18:-0.285124 19:-0.238298 20:-0.251534 21:-0.165217 22:0.282488 23:0.609136 24:0.0592498 
-8 1:-0.275304 2:-0.285124 3:-0.238298 4:-0.251534 5:-0.165217 6:0.282488 7:0.609136 8:0.0592498 9:-0.242915 10:-0.285124 11:-0.212766 12:-0.231084 13:-0.217391 14:0.272918 15:0.488467 16:0.286168 17:-0.242915 18:-0.285124 19:-0.217021 20:-0.235174 21:-0.321739 22:0.279498 23:0.514453 24:-0.0885374 
