svm_type c_svc
kernel_type rbf
gamma 0.00012207
nr_class 2
total_sv 411
rho -18.1074
label 0 1
nr_sv 205 206
SV
2048 1:-0.997914 2:-0.651822 3:-0.706612 4:-0.740426 5:-0.738241 6:-0.617391 7:-0.6 8:0.213229 9:0.493402 10:-0.4159 11:-0.997914 12:-0.740891 13:-0.743802 14:-0.731915 15:-0.734151 16:-0.286957 17:-0.661538 18:0.439223 19:0.526404 20:-0.276815 21:-0.995829 22:-0.769231 23:-0.793388 24:-0.795745 25:-0.738241 26:-0.321739 27:-0.538462 28:0.264578 29:0.494986 30:-0.246921 
2048 1:-0.997914 2:-0.740891 3:-0.743802 4:-0.731915 5:-0.734151 6:-0.286957 7:-0.661538 8:0.439223 9:0.526404 10:-0.276815 11:-0.995829 12:-0.769231 13:-0.793388 14:-0.795745 15:-0.738241 16:-0.321739 17:-0.538462 18:0.264578 19:0.494986 20:-0.246921 21:-0.995829 22:-0.801619 23:-0.818182 24:-0.808511 25:-0.766871 26:-0.426087 27:-0.507692 28:0.145924 29:0.535051 30:-0.284303 
2048 1:-0.995829 2:-0.769231 3:-0.793388 4:-0.795745 5:-0.738241 6:-0.321739 7:-0.538462 8:0.264578 9:0.494986 10:-0.246921 11:-0.995829 12:-0.801619 13:-0.818182 14:-0.808511 15:-0.766871 16:-0.426087 17:-0.507692 18:0.145924 19:0.535051 20:-0.284303 21:-0.997914 22:-0.813765 23:-0.826446 24:-0.8 25:-0.779141 26:-0.356522 27:-0.753846 28:-0.0612126 29:0.533579 30:-0.26302 
2048 1:-0.995829 2:-0.817814 3:-0.871901 4:-0.880851 5:-0.885481 6:-0.756522 7:-0.446154 8:0.0211778 9:0.498042 10:-0.438473 11:-0.997914 12:-0.862348 13:-0.900826 14:-0.876596 15:-0.848671 16:-0.147826 17:-0.723077 18:-0.171744 19:0.490482 20:-0.0876127 21:-1 22:-0.821862 23:-0.867769 24:-0.838298 25:-0.836401 26:-0.252174 27:-0.784615 28:0.142733 29:0.514 30:-0.134121 
2048 1:-0.997914 2:-0.862348 3:-0.900826 4:-0.876596 5:-0.848671 6:-0.147826 7:-0.723077 8:-0.171744 9:0.490482 10:-0.0876127 11:-1 12:-0.821862 13:-0.867769 14:-0.838298 15:-0.836401 16:-0.252174 17:-0.784615 18:0.142733 19:0.514 20:-0.134121 21:-1 22:-0.890688 23:-0.921488 24:-0.910638 25:-0.860941 26:-0.408696 27:-0.784615 28:0.232666 29:0.509269 30:-0.204733 
2048 1:-1 2:-0.821862 3:-0.867769 4:-0.838298 5:-0.836401 6:-0.252174 7:-0.784615 8:0.142733 9:0.514 10:-0.134121 11:-1 12:-0.890688 13:-0.921488 14:-0.910638 15:-0.860941 16:-0.408696 17:-0.784615 18:0.232666 19:0.509269 20:-0.204733 21:-0.995829 22:-0.850202 23:-0.896694 24:-0.923404 25:-0.889571 26:-0.426087 27:-0.569231 28:-0.101247 29:0.481745 30:-0.375744 
2048 1:-0.995829 2:-0.850202 3:-0.896694 4:-0.923404 5:-0.889571 6:-0.426087 7:-0.569231 8:-0.101247 9:0.481745 10:-0.375744 11:-1 12:-0.97166 13:-0.950413 14:-0.974468 15:-0.90593 16:-0.373913 17:-0.723077 18:0.10705 19:0.524819 20:-0.191029 21:-1 22:-0.882591 23:-0.933884 24:-0.906383 25:-0.889571 26:-0.234783 27:-0.815385 28:0.127357 29:0.525748 30:-0.193272 
2048 1:-1 2:-0.97166 3:-0.950413 4:-0.974468 5:-0.90593 6:-0.373913 7:-0.723077 8:0.10705 9:0.524819 10:-0.191029 11:-1 12:-0.882591 13:-0.933884 14:-0.906383 15:-0.889571 16:-0.234783 17:-0.815385 18:0.127357 19:0.525748 20:-0.193272 21:-0.997914 22:-0.906883 23:-0.966942 24:-0.974468 25:-0.97955 26:-0.686957 27:-0.569231 28:0.0464172 29:0.467349 30:-0.304859 
2048 1:-0.997914 2:-0.97166 3:-1 4:-0.991489 5:-0.99591 6:-0.373913 7:-0.723077 8:0.304032 9:0.473483 10:-0.11499 11:-0.997914 12:-0.963563 13:-0.971074 14:-0.961702 15:-0.91002 16:0.0608696 17:-0.692308 18:0.303742 19:0.486045 20:0.0132264 21:-0.997914 22:-0.854251 23:-0.913223 24:-0.87234 25:-0.860941 26:-0.0956522 27:-0.753846 28:0.275892 29:0.515901 30:-0.10447 
2048 1:-0.997914 2:-0.963563 3:-0.971074 4:-0.961702 5:-0.91002 6:0.0608696 7:-0.692308 8:0.303742 9:0.486045 10:0.0132264 11:-0.997914 12:-0.854251 13:-0.913223 14:-0.87234 15:-0.860941 16:-0.0956522 17:-0.753846 18:0.275892 19:0.515901 20:-0.10447 21:-1 22:-0.890688 23:-0.929752 24:-0.893617 25:-0.881391 26:-0.391304 27:-0.876923 28:0.299391 29:0.499378 30:-0.141928 
2048 1:-0.997914 2:-0.854251 3:-0.913223 4:-0.87234 5:-0.860941 6:-0.0956522 7:-0.753846 8:0.275892 9:0.515901 10:-0.10447 11:-1 12:-0.890688 13:-0.929752 14:-0.893617 15:-0.881391 16:-0.391304 17:-0.876923 18:0.299391 19:0.499378 20:-0.141928 21:-1 22:-0.862348 23:-0.921488 24:-0.889362 25:-0.889571 26:-0.33913 27:-0.876923 28:0.304032 29:0.513841 30:-0.0956774 
2048 1:-0.995829 2:-0.923077 3:-0.847107 4:-0.914894 5:-0.787321 6:0.165217 7:-0.569231 8:0.149405 9:0.574617 10:0.0246261 11:-1 12:-0.777328 13:-0.809917 14:-0.761702 15:-0.770961 16:-0.234783 17:-0.907692 18:0.516101 19:0.501732 20:-0.0648587 21:-0.997914 22:-0.736842 23:-0.77686 24:-0.757447 25:-0.717791 26:-0.0782609 27:-0.723077 28:0.43226 29:0.507481 30:0.0214124 
2048 1:-1 2:-0.777328 3:-0.809917 4:-0.761702 5:-0.770961 6:-0.234783 7:-0.907692 8:0.516101 9:0.501732 10:-0.0648587 11:-0.997914 12:-0.736842 13:-0.77686 14:-0.757447 15:-0.717791 16:-0.0782609 17:-0.723077 18:0.43226 19:0.507481 20:0.0214124 21:-1 22:-0.708502 23:-0.760331 24:-0.748936 25:-0.762781 26:-0.495652 27:-0.846154 28:0.312446 29:0.509858 30:-0.13356 
2048 1:-0.997914 2:-0.736842 3:-0.77686 4:-0.757447 5:-0.717791 6:-0.0782609 7:-0.723077 8:0.43226 9:0.507481 10:0.0214124 11:-1 12:-0.708502 13:-0.760331 14:-0.748936 15:-0.762781 16:-0.495652 17:-0.846154 18:0.312446 19:0.509858 20:-0.13356 21:-0.997914 22:-0.781377 23:-0.834711 24:-0.838298 25:-0.836401 26:-0.617391 27:-0.661538 28:0.315637 29:0.499355 30:-0.324718 
2048 1:-0.997914 2:-0.910931 3:-0.880165 4:-0.902128 5:-0.836401 6:0.026087 7:-0.723077 8:0.200464 9:0.526268 10:-0.100271 11:-0.997914 12:-0.821862 13:-0.880165 14:-0.868085 15:-0.832311 16:-0.286957 17:-0.753846 18:0.247462 19:0.536975 20:-0.159755 21:-0.997914 22:-0.821862 23:-0.847107 24:-0.817021 25:-0.791411 26:-0.130435 27:-0.753846 28:0.304032 29:0.50558 30:-0.0249293 
2048 1:-0.997914 2:-0.821862 3:-0.880165 4:-0.868085 5:-0.832311 6:-0.286957 7:-0.753846 8:0.247462 9:0.536975 10:-0.159755 11:-0.997914 12:-0.821862 13:-0.847107 14:-0.817021 15:-0.791411 16:-0.130435 17:-0.753846 18:0.304032 19:0.50558 20:-0.0249293 21:-0.997914 22:-0.793522 23:-0.85124 24:-0.842553 25:-0.832311 26:-0.478261 27:-0.784615 28:0.290107 29:0.524865 30:-0.215784 
2048 1:-0.997914 2:-0.793522 3:-0.85124 4:-0.842553 5:-0.832311 6:-0.478261 7:-0.784615 8:0.290107 9:0.524865 10:-0.215784 11:-1 12:-0.854251 13:-0.85124 14:-0.846809 15:-0.832311 16:-0.304348 17:-0.815385 18:0.304032 19:0.525317 20:-0.142277 21:1 22:-0.838057 23:-0.871901 24:-0.825532 25:-0.820041 26:-0.252174 27:-0.907692 28:0.300261 29:0.511193 30:-0.15019 
2048 1:-1 2:-0.821862 3:-0.838843 4:-0.842553 5:-0.840491 6:-0.391304 7:-0.784615 8:0.306934 9:0.518844 10:-0.193257 11:-0.993743 12:-0.842105 13:-0.756198 14:-0.838298 15:-0.758691 16:0.0434783 17:-0.230769 18:0.35103 19:0.601145 20:-0.153267 21:-0.995829 22:-0.801619 23:-0.838843 24:-0.829787 25:-0.779141 26:-0.391304 27:-0.6 28:-0.070206 29:0.451912 30:-0.0241714 
2048 1:-0.997914 2:-0.753036 3:-0.77686 4:-0.757447 5:-0.717791 6:0.00869565 7:-0.630769 8:0.228605 9:0.525363 10:0.0517308 11:-0.995829 12:-0.680162 13:-0.735537 14:-0.702128 15:-0.676892 16:-0.130435 17:-0.476923 18:0.304032 19:0.507526 20:0.104834 21:-0.991658 22:-0.659919 23:-0.632231 24:-0.659574 25:-0.578732 26:0.113043 27:-0.261538 28:0.304032 29:0.612237 30:0.101999 
2048 1:-0.991658 2:-0.659919 3:-0.632231 4:-0.659574 5:-0.578732 6:0.113043 7:-0.261538 8:0.304032 9:0.612237 10:0.101999 11:-0.995829 12:-0.574899 13:-0.599174 14:-0.617021 15:-0.631902 16:-0.530435 17:-0.569231 18:0.202205 19:0.465153 20:-0.10306 21:-0.997914 22:-0.635628 23:-0.632231 24:-0.634043 25:-0.574642 26:-0.0608696 27:-0.630769 28:0.27096 29:0.546368 30:-0.0493205 
2048 1:-1 2:-0.566802 3:-0.61157 4:-0.561702 5:-0.574642 6:-0.269565 7:-0.815385 8:0.385263 9:0.501732 10:-0.0264452 11:-1 12:-0.578947 13:-0.623967 14:-0.582979 15:-0.566462 16:-0.269565 17:-0.846154 18:0.299681 19:0.522194 20:-0.0420895 21:-0.997914 22:-0.546559 23:-0.590909 24:-0.53617 25:-0.533742 26:-0.165217 27:-0.753846 28:0.304032 29:0.516218 30:0.063176 
2048 1:-0.997914 2:-0.546559 3:-0.590909 4:-0.53617 5:-0.533742 6:-0.165217 7:-0.753846 8:0.304032 9:0.516218 10:0.063176 11:-0.997914 12:-0.538462 13:-0.582645 14:-0.595745 15:-0.603272 16:-0.6 17:-0.661538 18:0.363504 19:0.511125 20:-0.105122 21:-0.997914 22:-0.595142 23:-0.590909 24:-0.570213 25:-0.574642 26:-0.182609 27:-0.784615 28:0.43313 29:0.573893 30:-0.00896667 
2048 1:-0.997914 2:-0.54251 3:-0.586777 4:-0.574468 5:-0.595092 6:-0.391304 7:-0.784615 8:0.304032 9:0.481247 10:-0.00435827 11:-0.991658 12:-0.578947 13:-0.590909 14:-0.557447 15:-0.533742 16:-0.0434783 17:-0.630769 18:-0.21642 19:0.547862 20:0.200716 21:-0.997914 22:-0.522267 23:-0.566116 24:-0.531915 25:-0.513292 26:-0.217391 27:-0.784615 28:0.314186 29:0.482446 30:0.102317 
2048 1:-0.991658 2:-0.578947 3:-0.590909 4:-0.557447 5:-0.533742 6:-0.0434783 7:-0.630769 8:-0.21642 9:0.547862 10:0.200716 11:-0.997914 12:-0.522267 13:-0.566116 14:-0.531915 15:-0.513292 16:-0.217391 17:-0.784615 18:0.314186 19:0.482446 20:0.102317 21:-1 22:-0.518219 23:-0.570248 24:-0.531915 25:-0.521472 26:-0.33913 27:-0.876923 28:0.332463 29:0.502909 30:-0.0198207 
2048 1:-1 2:-0.518219 3:-0.570248 4:-0.531915 5:-0.521472 6:-0.33913 7:-0.876923 8:0.332463 9:0.502909 10:-0.0198207 11:-1 12:-0.538462 13:-0.570248 14:-0.52766 15:-0.525562 16:-0.321739 17:-0.907692 18:0.304032 19:0.527083 20:-0.0334336 21:-1 22:-0.534413 23:-0.553719 24:-0.531915 25:-0.513292 26:-0.252174 27:-0.846154 28:0.217 29:0.544444 30:0.0254144 
2048 1:-1 2:-0.534413 3:-0.553719 4:-0.531915 5:-0.513292 6:-0.252174 7:-0.846154 8:0.217 9:0.544444 10:0.0254144 11:0.67049 12:-0.506073 13:-0.557851 14:-0.519149 15:-0.541922 16:-0.426087 17:-0.969231 18:0.304032 19:0.513094 20:-0.0828527 21:-0.997914 22:-0.510121 23:-0.549587 24:-0.497872 25:-0.513292 26:-0.182609 27:-0.784615 28:0.304032 29:0.529052 30:0.0161673 
2048 1:0.67049 2:-0.506073 3:-0.557851 4:-0.519149 5:-0.541922 6:-0.426087 7:-0.969231 8:0.304032 9:0.513094 10:-0.0828527 11:-0.997914 12:-0.510121 13:-0.549587 14:-0.497872 15:-0.513292 16:-0.182609 17:-0.784615 18:0.304032 19:0.529052 20:0.0161673 21:-0.997914 22:-0.497976 23:-0.549587 24:-0.544681 25:-0.546012 26:-0.443478 27:-0.784615 28:0.303452 29:0.495213 30:-0.0707708 
2048 1:-0.997914 2:-0.510121 3:-0.549587 4:-0.497872 5:-0.513292 6:-0.182609 7:-0.784615 8:0.304032 9:0.529052 10:0.0161673 11:-0.997914 12:-0.497976 13:-0.549587 14:-0.544681 15:-0.546012 16:-0.443478 17:-0.784615 18:0.303452 19:0.495213 20:-0.0707708 21:-0.987487 22:-0.453441 23:-0.475207 24:-0.510638 25:-0.501022 26:-0.304348 27:-0.2 28:0.211198 29:0.534394 30:0.0556722 
2048 1:-0.997914 2:-0.497976 3:-0.549587 4:-0.544681 5:-0.546012 6:-0.443478 7:-0.784615 8:0.303452 9:0.495213 10:-0.0707708 11:-0.987487 12:-0.453441 13:-0.475207 14:-0.510638 15:-0.501022 16:-0.304348 17:-0.2 18:0.211198 19:0.534394 20:0.0556722 21:-0.997914 22:-0.534413 23:-0.566116 24:-0.553191 25:-0.574642 26:-0.617391 27:-0.692308 28:0.282855 29:0.526132 30:-0.295718 
2048 1:-0.995829 2:-0.57085 3:-0.623967 4:-0.629787 5:-0.648262 6:-0.617391 7:-0.569231 8:0.293879 9:0.490097 10:-0.194894 11:-0.997914 12:-0.659919 13:-0.677686 14:-0.668085 15:-0.635992 16:-0.252174 17:-0.753846 18:0.179867 19:0.49648 20:-0.124116 21:-1 22:-0.65587 23:-0.677686 24:-0.642553 25:-0.619632 26:-0.234783 27:-0.907692 28:0.293879 29:0.50558 30:-0.0429839 
1058.79848623049 1:0.891554 2:-0.62753 3:-0.677686 4:-0.651064 5:-0.648262 6:-0.426087 7:-0.938462 8:0.29794 9:0.504108 10:-0.115293 11:-1 12:-0.62753 13:-0.64876 14:-0.629787 15:-0.615542 16:-0.165217 17:-0.846154 18:0.302292 19:0.509699 20:-0.0353589 21:-0.997914 22:-0.607287 23:-0.599174 24:-0.582979 25:-0.546012 26:-0.00869565 27:-0.723077 28:0.829417 29:0.5396 30:0.077744 
2048 1:-0.997914 2:-0.607287 3:-0.599174 4:-0.582979 5:-0.546012 6:-0.00869565 7:-0.723077 8:0.829417 9:0.5396 10:0.077744 11:-1 12:-0.578947 13:-0.599174 14:-0.578723 15:-0.599182 16:-0.530435 17:-0.815385 18:0.299681 19:0.52276 20:-0.212403 21:-1 22:-0.611336 23:-0.623967 24:-0.608511 25:-0.578732 26:-0.217391 27:-0.876923 28:0.268639 29:0.504652 30:-0.0453791 
2048 1:-1 2:-0.578947 3:-0.599174 4:-0.578723 5:-0.599182 6:-0.530435 7:-0.815385 8:0.299681 9:0.52276 10:-0.212403 11:-1 12:-0.611336 13:-0.623967 14:-0.608511 15:-0.578732 16:-0.217391 17:-0.876923 18:0.268639 19:0.504652 20:-0.0453791 21:-1 22:-0.57085 23:-0.623967 24:-0.574468 25:-0.591002 26:-0.356522 27:-0.907692 28:0.301131 29:0.508703 30:-0.0611295 
2048 1:-1 2:-0.611336 3:-0.623967 4:-0.608511 5:-0.578732 6:-0.217391 7:-0.876923 8:0.268639 9:0.504652 10:-0.0453791 11:-1 12:-0.57085 13:-0.623967 14:-0.574468 15:-0.591002 16:-0.356522 17:-0.907692 18:0.301131 19:0.508703 20:-0.0611295 21:-1 22:-0.587045 23:-0.619835 24:-0.629787 25:-0.635992 26:-0.495652 27:-0.846154 28:0.284885 29:0.523575 30:-0.215723 
2048 1:-0.993743 2:-0.65587 3:-0.657025 4:-0.714894 5:-0.730061 6:-0.704348 7:-0.353846 8:0.303742 9:0.515426 10:-0.388508 11:-1 12:-0.708502 13:-0.735537 14:-0.702128 15:-0.685072 16:-0.113043 17:-0.784615 18:0.301712 19:0.507232 20:0.000250127 21:-1 22:-0.65587 23:-0.710744 24:-0.668085 25:-0.656442 26:-0.182609 27:-0.876923 28:0.32434 29:0.49356 30:0.0159551 
2048 1:-1 2:-0.708502 3:-0.735537 4:-0.702128 5:-0.685072 6:-0.113043 7:-0.784615 8:0.301712 9:0.507232 10:0.000250127 11:-1 12:-0.65587 13:-0.710744 14:-0.668085 15:-0.656442 16:-0.182609 17:-0.876923 18:0.32434 19:0.49356 20:0.0159551 21:-1 22:-0.65587 23:-0.698347 24:-0.67234 25:-0.685072 26:-0.426087 27:-0.938462 28:0.303452 29:0.527174 30:-0.150205 
2048 1:-1 2:-0.65587 3:-0.710744 4:-0.668085 5:-0.656442 6:-0.182609 7:-0.876923 8:0.32434 9:0.49356 10:0.0159551 11:-1 12:-0.65587 13:-0.698347 14:-0.67234 15:-0.685072 16:-0.426087 17:-0.938462 18:0.303452 19:0.527174 20:-0.150205 21:-1 22:-0.700405 23:-0.706612 24:-0.680851 25:-0.689162 26:-0.321739 27:-0.907692 28:0.256745 29:0.518844 30:-0.100119 
2048 1:-1 2:-0.65587 3:-0.698347 4:-0.67234 5:-0.685072 6:-0.426087 7:-0.938462 8:0.303452 9:0.527174 10:-0.150205 11:-1 12:-0.700405 13:-0.706612 14:-0.680851 15:-0.689162 16:-0.321739 17:-0.907692 18:0.256745 19:0.518844 20:-0.100119 21:-1 22:-0.704453 23:-0.747934 24:-0.710638 25:-0.717791 26:-0.426087 27:-0.846154 28:0.261387 29:0.516716 30:-0.185071 
2048 1:-1 2:-0.700405 3:-0.706612 4:-0.680851 5:-0.689162 6:-0.321739 7:-0.907692 8:0.256745 9:0.518844 10:-0.100119 11:-1 12:-0.704453 13:-0.747934 14:-0.710638 15:-0.717791 16:-0.426087 17:-0.846154 18:0.261387 19:0.516716 20:-0.185071 21:-0.997914 22:-0.700405 23:-0.747934 24:-0.740426 25:-0.754601 26:-0.46087 27:-0.753846 28:0.281984 29:0.502795 30:-0.176127 
2048 1:-1 2:-0.704453 3:-0.747934 4:-0.710638 5:-0.717791 6:-0.426087 7:-0.846154 8:0.261387 9:0.516716 10:-0.185071 11:-0.997914 12:-0.700405 13:-0.747934 14:-0.740426 15:-0.754601 16:-0.46087 17:-0.753846 18:0.281984 19:0.502795 20:-0.176127 21:-0.997914 22:-0.817814 23:-0.85124 24:-0.804255 25:-0.815951 26:-0.565217 27:-0.6 28:0.272991 29:0.529822 30:-0.348306 
2048 1:-0.997914 2:-0.817814 3:-0.85124 4:-0.804255 5:-0.815951 6:-0.565217 7:-0.6 8:0.272991 9:0.529822 10:-0.348306 11:-0.997914 12:-0.821862 13:-0.876033 14:-0.868085 15:-0.877301 16:-0.565217 17:-0.630769 18:0.303162 19:0.506168 20:-0.400772 21:-0.997914 22:-0.878543 23:-0.904959 24:-0.897872 25:-0.873211 26:-0.286957 27:-0.630769 28:0.196693 29:0.545689 30:-0.304344 
2048 1:-0.997914 2:-0.821862 3:-0.876033 4:-0.868085 5:-0.877301 6:-0.565217 7:-0.630769 8:0.303162 9:0.506168 10:-0.400772 11:-0.997914 12:-0.878543 13:-0.904959 14:-0.897872 15:-0.873211 16:-0.286957 17:-0.630769 18:0.196693 19:0.545689 20:-0.304344 21:-1 22:-0.874494 23:-0.917355 24:-0.893617 25:-0.885481 26:-0.356522 27:-0.784615 28:0.233536 29:0.521945 30:-0.259685 
2048 1:-0.997914 2:-0.878543 3:-0.904959 4:-0.897872 5:-0.873211 6:-0.286957 7:-0.630769 8:0.196693 9:0.545689 10:-0.304344 11:-1 12:-0.874494 13:-0.917355 14:-0.893617 15:-0.885481 16:-0.356522 17:-0.784615 18:0.233536 19:0.521945 20:-0.259685 21:-0.995829 22:-0.88664 23:-0.942149 24:-0.953191 25:-0.95092 26:-0.582609 27:-0.507692 28:0.21671 29:0.486838 30:-0.427876 
2048 1:-0.995829 2:-0.88664 3:-0.942149 4:-0.953191 5:-0.95092 6:-0.582609 7:-0.507692 8:0.21671 9:0.486838 10:-0.427876 11:-0.997914 12:-0.94332 13:-0.995868 14:-1 15:-1 16:-0.513043 17:-0.569231 18:-0.396287 19:0.514928 20:-0.393116 21:-0.997914 22:-1 23:-0.971074 24:-1 25:-0.91002 26:0.0782609 27:-0.692308 28:0.307804 29:0.50816 30:-0.106501 
2048 1:-0.997914 2:-0.94332 3:-0.995868 4:-1 5:-1 6:-0.513043 7:-0.569231 8:-0.396287 9:0.514928 10:-0.393116 11:-0.997914 12:-1 13:-0.971074 14:-1 15:-0.91002 16:0.0782609 17:-0.692308 18:0.307804 19:0.50816 20:-0.106501 21:-0.997914 22:-0.910931 23:-0.942149 24:-0.961702 25:-0.94274 26:-0.443478 27:-0.753846 28:0.279373 29:0.526562 30:-0.334571 
2048 1:-0.997914 2:-0.910931 3:-0.942149 4:-0.961702 5:-0.94274 6:-0.443478 7:-0.753846 8:0.279373 9:0.526562 10:-0.334571 11:-1 12:-0.947368 13:-1 14:-0.978723 15:-0.97137 16:-0.426087 17:-0.815385 18:0.304032 19:0.528735 20:-0.336527 21:-0.993743 22:-0.902834 23:-0.946281 24:-0.957447 25:-0.92638 26:-0.113043 27:-0.261538 28:0.304032 29:0.503226 30:-0.736775 
2048 1:-1 2:-0.939271 3:-0.987603 4:-0.957447 5:-0.94274 6:-0.373913 7:-0.692308 8:0.304032 9:0.521288 10:-0.329175 11:-0.997914 12:-0.935223 13:-0.975207 14:-0.93617 15:-0.93047 16:-0.252174 17:-0.753846 18:0.285756 19:0.559044 20:-0.355127 21:-0.997914 22:-0.931174 23:-0.983471 24:-0.957447 25:-0.92638 26:-0.286957 27:-0.784615 28:0.145344 29:0.506938 30:-0.279452 
2048 1:-0.997914 2:-0.935223 3:-0.975207 4:-0.93617 5:-0.93047 6:-0.252174 7:-0.753846 8:0.285756 9:0.559044 10:-0.355127 11:-0.997914 12:-0.931174 13:-0.983471 14:-0.957447 15:-0.92638 16:-0.286957 17:-0.784615 18:0.145344 19:0.506938 20:-0.279452 21:-1 22:-0.927126 23:-0.975207 24:-0.944681 25:-0.93456 26:-0.33913 27:-0.815385 28:0.267769 29:0.507436 30:-0.296886 
2048 1:-1 2:-0.927126 3:-0.975207 4:-0.944681 5:-0.93456 6:-0.33913 7:-0.815385 8:0.267769 9:0.507436 10:-0.296886 11:-1 12:-0.931174 13:-0.971074 14:-0.93617 15:-0.94274 16:-0.33913 17:-0.846154 18:0.307224 19:0.50481 20:-0.235081 21:-0.993743 22:-0.927126 23:-0.85124 24:-0.92766 25:-0.803681 26:0.286957 27:-0.446154 28:0.29765 29:0.590348 30:0.0732266 
2048 1:-0.993743 2:-0.927126 3:-0.85124 4:-0.92766 5:-0.803681 6:0.286957 7:-0.446154 8:0.29765 9:0.590348 10:0.0732266 11:-0.997914 12:-0.809717 13:-0.863636 14:-0.834043 15:-0.844581 16:-0.478261 17:-0.692308 18:0.304032 19:0.484484 20:-0.199867 21:-0.995829 22:-0.801619 23:-0.768595 24:-0.791489 25:-0.762781 26:0.0434783 27:-0.476923 28:0.599942 29:0.5396 30:-0.150448 
2048 1:-0.997914 2:-0.740891 3:-0.760331 4:-0.744681 5:-0.717791 6:-0.113043 7:-0.753846 8:0.304032 9:0.508296 10:0.0622058 11:-0.991658 12:-0.720648 13:-0.752066 14:-0.719149 15:-0.693252 16:-0.2 17:-0.753846 18:0.29823 19:0.503791 20:-0.0840654 21:-0.997914 22:-0.716599 23:-0.714876 24:-0.697872 25:-0.672802 26:-0.217391 27:-0.692308 28:0.319988 29:0.550556 30:-0.0386029 
2048 1:-0.997914 2:-0.672065 3:-0.72314 4:-0.714894 5:-0.725971 6:-0.530435 7:-0.753846 8:0.302292 9:0.509631 10:-0.17355 11:-1 12:-0.720648 13:-0.747934 14:-0.702128 15:-0.697342 16:-0.182609 17:-0.876923 18:0.304032 19:0.538853 20:-0.0145756 21:-0.0782065 22:-0.704453 23:-0.743802 24:-0.693617 25:-0.689162 26:-0.269565 27:-1 28:0.304032 29:0.524752 30:-0.118052 
2048 1:-1 2:-0.708502 3:-0.698347 4:-0.697872 5:-0.689162 6:-0.304348 7:-0.815385 8:0.29794 9:0.556712 10:-0.122737 11:-0.997914 12:-0.668016 13:-0.706612 14:-0.655319 15:-0.652352 16:-0.147826 17:-0.753846 18:0.308674 19:0.523846 20:-0.000219809 21:-0.995829 22:-0.639676 23:-0.673554 24:-0.634043 25:-0.644172 26:-0.269565 27:-0.630769 28:0.304032 29:0.511623 30:-0.0170162 
2048 1:-0.995829 2:-0.704453 3:-0.756198 4:-0.740426 5:-0.754601 6:-0.773913 7:-0.476923 8:0.173484 9:0.502546 10:-0.375274 11:-0.997914 12:-0.781377 13:-0.760331 14:-0.765957 15:-0.701431 16:-0.0782609 17:-0.784615 18:0.27154 19:0.518119 20:-0.0877036 21:-1 22:-0.728745 23:-0.743802 24:-0.714894 25:-0.689162 26:-0.252174 27:-0.846154 28:0.0699159 29:0.519704 30:-0.0502149 
2048 1:-0.997914 2:-0.688259 3:-0.714876 4:-0.676596 5:-0.668712 6:-0.269565 7:-0.815385 8:0.304032 9:0.525385 10:-0.117203 11:-0.997914 12:-0.672065 13:-0.694215 14:-0.651064 15:-0.635992 16:-0.165217 17:-0.723077 18:0.304032 19:0.515901 20:-0.0178348 21:-0.993743 22:-0.619433 23:-0.632231 24:-0.595745 25:-0.578732 26:-0.0608696 27:-0.415385 28:0.275022 29:0.484212 30:0.0268849 
2048 1:-0.991658 2:-0.57085 3:-0.623967 4:-0.655319 5:-0.635992 6:-0.547826 7:-0.261538 8:0.288367 9:0.513298 10:-0.340165 11:-1 12:-0.659919 13:-0.669421 14:-0.646809 15:-0.615542 16:-0.217391 17:-0.815385 18:0.29823 19:0.534688 20:-0.109381 21:-0.997914 22:-0.651822 23:-0.652893 24:-0.646809 25:-0.595092 26:-0.217391 27:-0.723077 28:0.305193 29:0.533013 30:-0.110867 
2048 1:-1 2:-0.659919 3:-0.669421 4:-0.646809 5:-0.615542 6:-0.217391 7:-0.815385 8:0.29823 9:0.534688 10:-0.109381 11:-0.997914 12:-0.651822 13:-0.652893 14:-0.646809 15:-0.595092 16:-0.217391 17:-0.723077 18:0.305193 19:0.533013 20:-0.110867 21:-1 22:-0.619433 23:-0.636364 24:-0.595745 25:-0.595092 26:-0.304348 27:-0.815385 28:0.304032 29:0.506145 30:-0.0501997 
2048 1:-0.997914 2:-0.591093 3:-0.636364 4:-0.587234 5:-0.595092 6:-0.304348 7:-0.815385 8:0.304032 9:0.507504 10:-0.0542018 11:-0.997914 12:-0.59919 13:-0.615702 14:-0.574468 15:-0.586912 16:-0.269565 17:-0.784615 18:0.304032 19:0.540166 20:0.014333 21:-0.997914 22:-0.566802 23:-0.61157 24:-0.553191 25:-0.562372 26:-0.2 27:-0.815385 28:0.266899 29:0.566197 30:-0.0214579 
2048 1:-0.997914 2:-0.59919 3:-0.615702 4:-0.574468 5:-0.586912 6:-0.269565 7:-0.784615 8:0.304032 9:0.540166 10:0.014333 11:-0.997914 12:-0.566802 13:-0.61157 14:-0.553191 15:-0.562372 16:-0.2 17:-0.815385 18:0.266899 19:0.566197 20:-0.0214579 21:-1 22:-0.578947 23:-0.619835 24:-0.570213 25:-0.574642 26:-0.356522 27:-0.846154 28:0.27067 29:0.502977 30:-0.150311 
2048 1:-0.997914 2:-0.611336 3:-0.632231 4:-0.587234 5:-0.595092 6:-0.234783 7:-0.723077 8:0.304032 9:0.534462 10:-0.131332 11:-0.997914 12:-0.595142 13:-0.61157 14:-0.570213 15:-0.562372 16:-0.165217 17:-0.723077 18:0.327241 19:0.522669 20:-0.00593483 21:-0.997914 22:-0.54251 23:-0.595041 24:-0.553191 25:-0.554192 26:-0.269565 27:-0.692308 28:0.43168 29:0.505444 30:-0.108699 
2048 1:-0.997914 2:-0.550607 3:-0.557851 4:-0.523404 5:-0.513292 6:-0.130435 7:-0.6 8:0.274151 9:0.552095 10:0.0494114 11:-0.995829 12:-0.481781 13:-0.508264 14:-0.468085 15:-0.451943 16:-0.0434783 17:-0.538462 18:0.40557 19:0.539329 20:0.140746 21:-0.995829 22:-0.441296 23:-0.491736 24:-0.442553 25:-0.443763 26:-0.269565 27:-0.692308 28:0.328111 29:0.579461 30:0.0745303 
2048 1:-0.997914 2:-0.465587 3:-0.495868 4:-0.442553 5:-0.451943 6:-0.33913 7:-0.753846 8:0.339426 9:0.58478 10:-0.0382694 11:-0.993743 12:-0.445344 13:-0.42562 14:-0.417021 15:-0.394683 16:-0.0608696 17:-0.476923 18:0.310415 19:0.572308 20:0.061175 21:-0.995829 22:-0.388664 23:-0.429752 24:-0.374468 25:-0.386503 26:-0.269565 27:-0.661538 28:0.352771 29:0.450644 30:0.0315236 
2048 1:-0.997914 2:-0.40081 3:-0.42562 4:-0.442553 5:-0.386503 6:-0.304348 7:-0.630769 8:0.466783 9:0.504561 10:-0.103105 11:-0.997914 12:-0.396761 13:-0.429752 14:-0.395745 15:-0.378323 16:-0.269565 17:-0.753846 18:0.359153 19:0.523733 20:0.0620542 21:-0.993743 22:-0.360324 23:-0.363636 24:-0.32766 25:-0.329243 26:-0.0956522 27:-0.507692 28:0.290688 29:0.572421 30:0.159755 
2048 1:-0.997914 2:-0.396761 3:-0.429752 4:-0.395745 5:-0.378323 6:-0.269565 7:-0.753846 8:0.359153 9:0.523733 10:0.0620542 11:-0.993743 12:-0.360324 13:-0.363636 14:-0.32766 15:-0.329243 16:-0.0956522 17:-0.507692 18:0.290688 19:0.572421 20:0.159755 21:-0.997914 22:-0.319838 23:-0.367769 24:-0.319149 25:-0.329243 26:-0.304348 27:-0.753846 28:0.317087 29:0.505489 30:-0.020139 
2048 1:-0.997914 2:-0.319838 3:-0.367769 4:-0.319149 5:-0.329243 6:-0.304348 7:-0.753846 8:0.317087 9:0.505489 10:-0.020139 11:-0.997914 12:-0.336032 13:-0.384298 14:-0.344681 15:-0.374233 16:-0.495652 17:-0.692308 18:0.27009 19:0.529482 20:-0.251529 21:-0.995829 22:-0.384615 23:-0.384298 24:-0.348936 25:-0.337423 26:-0.147826 27:-0.692308 28:0.437772 29:0.511261 30:0.173111 
2048 1:-0.997914 2:-0.336032 3:-0.384298 4:-0.344681 5:-0.374233 6:-0.495652 7:-0.692308 8:0.27009 9:0.529482 10:-0.251529 11:-0.995829 12:-0.384615 13:-0.384298 14:-0.348936 15:-0.337423 16:-0.147826 17:-0.692308 18:0.437772 19:0.511261 20:0.173111 21:-1 22:-0.34413 23:-0.384298 24:-0.319149 25:-0.349693 26:-0.356522 27:-0.846154 28:0.299971 29:0.529279 30:-0.127087 
2048 1:-1 2:-0.376518 3:-0.42562 4:-0.361702 5:-0.370143 6:-0.217391 7:-0.907692 8:0.295039 9:0.506304 10:-0.0513215 11:-1 12:-0.376518 13:-0.392562 14:-0.348936 15:-0.353783 16:-0.234783 17:-0.815385 18:0.250363 19:0.529324 20:-0.0259147 21:-0.995829 22:-0.327935 23:-0.342975 24:-0.297872 25:-0.288344 26:-0.026087 27:-0.630769 28:0.233536 29:0.597818 30:0.144914 
2048 1:-0.995829 2:-0.327935 3:-0.342975 4:-0.297872 5:-0.288344 6:-0.026087 7:-0.630769 8:0.233536 9:0.597818 10:0.144914 11:-0.997914 12:-0.295547 13:-0.338843 14:-0.289362 15:-0.292434 16:-0.321739 17:-0.815385 18:0.51291 19:0.451278 20:0.00419152 21:-1 22:-0.299595 23:-0.342975 24:-0.27234 25:-0.288344 26:-0.286957 27:-0.815385 28:0.275602 29:0.513343 30:-0.0669203 
2048 1:-0.997914 2:-0.295547 3:-0.338843 4:-0.289362 5:-0.292434 6:-0.321739 7:-0.815385 8:0.51291 9:0.451278 10:0.00419152 11:-1 12:-0.299595 13:-0.342975 14:-0.27234 15:-0.288344 16:-0.286957 17:-0.815385 18:0.275602 19:0.513343 20:-0.0669203 21:-0.997914 22:-0.319838 23:-0.355372 24:-0.323404 25:-0.308793 26:-0.391304 27:-0.723077 28:0.275022 29:0.490686 30:-0.0437116 
2048 1:-0.997914 2:-0.319838 3:-0.355372 4:-0.323404 5:-0.308793 6:-0.391304 7:-0.723077 8:0.275022 9:0.490686 10:-0.0437116 11:-0.98123 12:-0.437247 13:-0.433884 14:-0.425532 15:-0.443763 16:-0.878261 17:0.446154 18:-0.0336525 19:0.673057 20:-1 21:-0.995829 22:-0.465587 23:-0.458678 24:-0.446809 25:-0.402863 26:-0.130435 27:-0.446154 28:0.114883 29:0.510582 30:-0.284667 
2048 1:-0.98123 2:-0.437247 3:-0.433884 4:-0.425532 5:-0.443763 6:-0.878261 7:0.446154 8:-0.0336525 9:0.673057 10:-1 11:-0.995829 12:-0.465587 13:-0.458678 14:-0.446809 15:-0.402863 16:-0.130435 17:-0.446154 18:0.114883 19:0.510582 20:-0.284667 21:-0.995829 22:-0.417004 23:-0.458678 24:-0.421277 25:-0.443763 26:-0.478261 27:-0.630769 28:0.105019 29:0.521085 30:-0.295127 
2048 1:-0.995829 2:-0.417004 3:-0.458678 4:-0.421277 5:-0.443763 6:-0.478261 7:-0.630769 8:0.105019 9:0.521085 10:-0.295127 11:-0.989572 12:-0.45749 13:-0.504132 14:-0.476596 15:-0.492843 16:-0.513043 17:-0.169231 18:0.192631 19:0.544603 20:-0.603268 21:-0.995829 22:-0.502024 23:-0.508264 24:-0.489362 25:-0.464213 26:-0.182609 27:-0.569231 28:0.301422 29:0.60325 30:-0.431621 
2048 1:-0.997914 2:-0.489879 3:-0.512397 4:-0.459574 5:-0.460123 6:-0.234783 7:-0.723077 8:0.233827 9:0.572195 10:-0.358477 11:-0.995829 12:-0.449393 13:-0.46281 14:-0.421277 15:-0.423313 16:-0.147826 17:-0.507692 18:0.331883 19:0.610448 20:-0.287835 21:-0.991658 22:-0.421053 23:-0.404959 24:-0.387234 25:-0.349693 26:0.00869565 27:-0.384615 28:0.287206 29:0.597048 30:-0.149962 
2048 1:-0.991658 2:-0.421053 3:-0.404959 4:-0.387234 5:-0.349693 6:0.00869565 7:-0.384615 8:0.287206 9:0.597048 10:-0.149962 11:-0.995829 12:-0.340081 13:-0.384298 14:-0.33617 15:-0.349693 16:-0.304348 17:-0.630769 18:0.305193 19:0.706354 20:-0.25303 21:-0.991658 22:-0.336032 23:-0.355372 24:-0.323404 25:-0.316973 26:-0.165217 27:-0.384615 28:0.303162 29:0.912492 30:-0.204051 
2048 1:-0.995829 2:-0.340081 3:-0.384298 4:-0.33617 5:-0.349693 6:-0.304348 7:-0.630769 8:0.305193 9:0.706354 10:-0.25303 11:-0.991658 12:-0.336032 13:-0.355372 14:-0.323404 15:-0.316973 16:-0.165217 17:-0.384615 18:0.303162 19:0.912492 20:-0.204051 21:-0.993743 22:-0.323887 23:-0.363636 24:-0.310638 25:-0.329243 26:-0.356522 27:-0.538462 28:0.349869 29:0.790873 30:-0.233732 
2048 1:-0.991658 2:-0.336032 3:-0.355372 4:-0.323404 5:-0.316973 6:-0.165217 7:-0.384615 8:0.303162 9:0.912492 10:-0.204051 11:-0.993743 12:-0.323887 13:-0.363636 14:-0.310638 15:-0.329243 16:-0.356522 17:-0.538462 18:0.349869 19:0.790873 20:-0.233732 21:-0.989572 22:-0.348178 23:-0.38843 24:-0.340426 25:-0.370143 26:-0.478261 27:-0.323077 28:0.319698 29:0.709568 30:-0.355855 
2048 1:-0.993743 2:-0.323887 3:-0.363636 4:-0.310638 5:-0.329243 6:-0.356522 7:-0.538462 8:0.349869 9:0.790873 10:-0.233732 11:-0.989572 12:-0.348178 13:-0.38843 14:-0.340426 15:-0.370143 16:-0.478261 17:-0.323077 18:0.319698 19:0.709568 20:-0.355855 21:-0.983316 22:-0.408907 23:-0.433884 24:-0.391489 25:-0.394683 26:-0.408696 27:0.0461538 28:0.385843 29:1 30:-0.435016 
2048 1:-0.977059 2:-0.838057 3:-0.842975 4:-0.838298 5:-0.811861 6:-0.304348 7:1 8:0.313606 9:-1 10:-0.379018 11:-0.995829 12:-0.785425 13:-0.822314 14:-0.782979 15:-0.770961 16:-0.130435 17:-0.476923 18:0.292428 19:0.296159 20:-0.0900684 21:-0.993743 22:-0.748988 23:-0.760331 24:-0.740426 25:-0.705521 26:-0.026087 27:-0.384615 28:0.436902 29:0.461848 30:0.00739011 
2048 1:-0.995829 2:-0.785425 3:-0.822314 4:-0.782979 5:-0.770961 6:-0.130435 7:-0.476923 8:0.292428 9:0.296159 10:-0.0900684 11:-0.993743 12:-0.748988 13:-0.760331 14:-0.740426 15:-0.705521 16:-0.026087 17:-0.384615 18:0.436902 19:0.461848 20:0.00739011 21:-0.993743 22:-0.684211 23:-0.72314 24:-0.702128 25:-0.717791 26:-0.356522 27:-0.2 28:0.313606 29:0.53367 30:-0.265839 
2048 1:-0.993743 2:-0.748988 3:-0.760331 4:-0.740426 5:-0.705521 6:-0.026087 7:-0.384615 8:0.436902 9:0.461848 10:0.00739011 11:-0.993743 12:-0.684211 13:-0.72314 14:-0.702128 15:-0.717791 16:-0.356522 17:-0.2 18:0.313606 19:0.53367 20:-0.265839 21:-0.995829 22:-0.716599 23:-0.768595 24:-0.744681 25:-0.758691 26:-0.478261 27:-0.446154 28:0.304032 29:0.528554 30:-0.48104 
2048 1:-0.995829 2:-0.716599 3:-0.768595 4:-0.744681 5:-0.758691 6:-0.478261 7:-0.446154 8:0.304032 9:0.528554 10:-0.48104 11:-0.997914 12:-0.789474 13:-0.842975 14:-0.787234 15:-0.791411 16:-0.443478 17:-0.538462 18:0.295039 19:0.491455 20:-0.407063 21:-1 22:-0.82996 23:-0.826446 24:-0.821277 25:-0.779141 26:-0.252174 27:-0.723077 28:0.334494 29:0.482876 30:-0.174232 
2048 1:-0.997914 2:-0.789474 3:-0.842975 4:-0.787234 5:-0.791411 6:-0.443478 7:-0.538462 8:0.295039 9:0.491455 10:-0.407063 11:-1 12:-0.82996 13:-0.826446 14:-0.821277 15:-0.779141 16:-0.252174 17:-0.723077 18:0.334494 19:0.482876 20:-0.174232 21:-0.997914 22:-0.781377 23:-0.830579 24:-0.787234 25:-0.799591 26:-0.391304 27:-0.661538 28:0.304032 29:0.528079 30:-0.430362 
2048 1:-0.997914 2:-0.769231 3:-0.818182 4:-0.817021 5:-0.811861 6:-0.356522 7:-0.6 8:0.320279 9:0.506259 10:-0.307512 11:-0.995829 12:-0.813765 13:-0.830579 14:-0.8 15:-0.803681 16:-0.269565 17:-0.661538 18:0.562518 19:0.522805 20:-0.316865 21:-0.989572 22:-0.704453 23:-0.735537 24:-0.714894 25:-0.680982 26:0.217391 27:-0.138462 28:0.464462 29:0.586817 30:0.216375 
2048 1:-0.995829 2:-0.813765 3:-0.830579 4:-0.8 5:-0.803681 6:-0.269565 7:-0.661538 8:0.562518 9:0.522805 10:-0.316865 11:-0.989572 12:-0.704453 13:-0.735537 14:-0.714894 15:-0.680982 16:0.217391 17:-0.138462 18:0.464462 19:0.586817 20:0.216375 21:-0.995829 22:-0.680162 23:-0.727273 24:-0.680851 25:-0.689162 26:-0.33913 27:-0.538462 28:0.661155 29:0.481881 30:0.0632973 
2048 1:-0.989572 2:-0.704453 3:-0.735537 4:-0.714894 5:-0.680982 6:0.217391 7:-0.138462 8:0.464462 9:0.586817 10:0.216375 11:-0.995829 12:-0.680162 13:-0.727273 14:-0.680851 15:-0.689162 16:-0.33913 17:-0.538462 18:0.661155 19:0.481881 20:0.0632973 21:-0.997914 22:-0.704453 23:-0.752066 24:-0.710638 25:-0.697342 26:-0.33913 27:-0.630769 28:0.353351 29:0.509903 30:-0.098027 
2048 1:-0.997914 2:-0.704453 3:-0.752066 4:-0.710638 5:-0.697342 6:-0.33913 7:-0.630769 8:0.353351 9:0.509903 10:-0.098027 11:-0.997914 12:-0.688259 13:-0.72314 14:-0.710638 15:-0.713701 16:-0.373913 17:-0.6 18:0.354221 19:0.509767 20:-0.153479 21:-0.997914 22:-0.704453 23:-0.756198 24:-0.706383 25:-0.705521 26:-0.269565 27:-0.723077 28:0.333333 29:0.537133 30:-0.183692 
2048 1:-0.997914 2:-0.704453 3:-0.756198 4:-0.706383 5:-0.705521 6:-0.269565 7:-0.723077 8:0.333333 9:0.537133 10:-0.183692 11:-0.997914 12:-0.736842 13:-0.780992 14:-0.740426 15:-0.742331 16:-0.46087 17:-0.692308 18:0.398317 19:0.50945 20:-0.223939 21:-0.995829 22:-0.708502 23:-0.756198 24:-0.710638 25:-0.705521 26:-0.147826 27:-0.6 28:0.334784 29:0.559157 30:-0.0113315 
2048 1:-1 2:-0.740891 3:-0.77686 4:-0.72766 5:-0.717791 6:-0.252174 7:-0.846154 8:0.27009 9:0.528894 10:-0.106622 11:-1 12:-0.736842 13:-0.764463 14:-0.719149 15:-0.713701 16:-0.286957 17:-0.907692 18:0.371047 19:0.48102 20:-0.0704221 21:-1 22:-0.692308 23:-0.743802 24:-0.680851 25:-0.689162 26:-0.2 27:-0.723077 28:0.363214 29:0.494217 30:-0.0273093 
2048 1:-0.993743 2:-0.659919 3:-0.677686 4:-0.659574 5:-0.652352 6:-0.113043 7:-0.415385 8:0.533217 9:0.552276 10:0.0869456 11:-0.995829 12:-0.639676 13:-0.68595 14:-0.642553 15:-0.631902 16:-0.217391 17:-0.569231 18:0.608645 19:0.502682 20:-0.0637975 21:-0.997914 22:-0.615385 23:-0.657025 24:-0.612766 25:-0.623722 26:-0.269565 27:-0.6 28:0.699159 29:0.506327 30:-0.110867 
2048 1:-0.995829 2:-0.611336 3:-0.652893 4:-0.587234 5:-0.599182 6:-0.252174 7:-0.569231 8:0.670438 9:0.469907 10:0.0751821 11:-0.995829 12:-0.587045 13:-0.61157 14:-0.565957 15:-0.554192 16:-0.113043 17:-0.507692 18:0.683203 19:0.52276 20:0.0935702 21:-0.991658 22:-0.538462 23:-0.549587 24:-0.514894 25:-0.521472 26:-0.165217 27:-0.446154 28:1 29:0.551914 30:-0.0836561 
2048 1:-0.991658 2:-0.538462 3:-0.549587 4:-0.514894 5:-0.521472 6:-0.165217 7:-0.446154 8:1 9:0.551914 10:-0.0836561 11:-0.997914 12:-0.502024 13:-0.549587 14:-0.506383 15:-0.525562 16:-0.321739 17:-0.723077 18:0.386713 19:0.535571 20:-0.110003 21:-0.993743 22:-0.51417 23:-0.512397 24:-0.489362 25:-0.464213 26:-0.0434783 27:-0.415385 28:0.538729 29:0.578759 30:0.013757 
2048 1:-0.997914 2:-0.502024 3:-0.549587 4:-0.506383 5:-0.525562 6:-0.321739 7:-0.723077 8:0.386713 9:0.535571 10:-0.110003 11:-0.993743 12:-0.51417 13:-0.512397 14:-0.489362 15:-0.464213 16:-0.0434783 17:-0.415385 18:0.538729 19:0.578759 20:0.013757 21:-0.995829 22:-0.489879 23:-0.512397 24:-0.468085 25:-0.468303 26:-0.321739 27:-0.630769 28:0.469974 29:0.493606 30:0.00209955 
2048 1:-0.993743 2:-0.51417 3:-0.512397 4:-0.489362 5:-0.464213 6:-0.0434783 7:-0.415385 8:0.538729 9:0.578759 10:0.013757 11:-0.995829 12:-0.489879 13:-0.512397 14:-0.468085 15:-0.468303 16:-0.321739 17:-0.630769 18:0.469974 19:0.493606 20:0.00209955 21:-0.995829 22:-0.461538 23:-0.491736 24:-0.468085 25:-0.476483 26:-0.33913 27:-0.661538 28:0.453438 29:0.540777 30:-0.0422715 
2048 1:-0.995829 2:-0.461538 3:-0.491736 4:-0.468085 5:-0.476483 6:-0.33913 7:-0.661538 8:0.453438 9:0.540777 10:-0.0422715 11:-0.997914 12:-0.461538 13:-0.512397 14:-0.485106 15:-0.501022 16:-0.408696 17:-0.753846 18:0.471424 19:0.51993 20:-0.0568849 21:-0.997914 22:-0.510121 23:-0.53719 24:-0.52766 25:-0.480573 26:-0.217391 27:-0.692308 28:0.368726 29:0.543833 30:-0.0495176 
2048 1:-0.997914 2:-0.461538 3:-0.512397 4:-0.485106 5:-0.501022 6:-0.408696 7:-0.753846 8:0.471424 9:0.51993 10:-0.0568849 11:-0.997914 12:-0.510121 13:-0.53719 14:-0.52766 15:-0.480573 16:-0.217391 17:-0.692308 18:0.368726 19:0.543833 20:-0.0495176 21:-1 22:-0.48583 23:-0.533058 24:-0.493617 25:-0.509202 26:-0.426087 27:-0.784615 28:0.388744 29:0.519681 30:-0.119932 
2048 1:-0.997914 2:-0.510121 3:-0.53719 4:-0.52766 5:-0.480573 6:-0.217391 7:-0.692308 8:0.368726 9:0.543833 10:-0.0495176 11:-1 12:-0.48583 13:-0.533058 14:-0.493617 15:-0.509202 16:-0.426087 17:-0.784615 18:0.388744 19:0.519681 20:-0.119932 21:-0.993743 22:-0.538462 23:-0.57438 24:-0.570213 25:-0.591002 26:-0.652174 27:-0.415385 28:0.353641 29:0.517938 30:-0.27395 
2048 1:-0.995829 2:-0.615385 3:-0.632231 4:-0.612766 5:-0.627812 6:-0.46087 7:-0.507692 8:0.328402 9:0.495846 10:-0.214238 11:-0.997914 12:-0.635628 13:-0.652893 14:-0.612766 15:-0.615542 16:-0.252174 17:-0.723077 18:0.427328 19:0.525815 20:-0.226835 21:-0.997914 22:-0.59919 23:-0.607438 24:-0.582979 25:-0.554192 26:-0.0434783 27:-0.723077 28:0.474616 29:0.614772 30:-0.169912 
2048 1:-0.997914 2:-0.635628 3:-0.652893 4:-0.612766 5:-0.615542 6:-0.252174 7:-0.723077 8:0.427328 9:0.525815 10:-0.226835 11:-0.997914 12:-0.59919 13:-0.607438 14:-0.582979 15:-0.554192 16:-0.0434783 17:-0.723077 18:0.474616 19:0.614772 20:-0.169912 21:-1 22:-0.54251 23:-0.590909 24:-0.570213 25:-0.574642 26:-0.391304 27:-0.815385 28:0.456629 29:0.446049 30:-0.0807152 
2048 1:-1 2:-0.54251 3:-0.590909 4:-0.570213 5:-0.574642 6:-0.391304 7:-0.815385 8:0.456629 9:0.446049 10:-0.0807152 11:-0.991658 12:-0.538462 13:-0.582645 14:-0.676596 15:-0.680982 16:-0.756522 17:-0.0461538 18:0.303452 19:0.373911 20:-0.281029 21:-0.995829 22:-0.603239 23:-0.657025 24:-0.617021 25:-0.635992 26:-0.113043 27:-0.476923 28:0.307514 29:0.467168 30:-0.23067 
2048 1:-0.991658 2:-0.538462 3:-0.582645 4:-0.676596 5:-0.680982 6:-0.756522 7:-0.0461538 8:0.303452 9:0.373911 10:-0.281029 11:-0.995829 12:-0.603239 13:-0.657025 14:-0.617021 15:-0.635992 16:-0.113043 17:-0.476923 18:0.307514 19:0.467168 20:-0.23067 21:-0.991658 22:-0.720648 23:-0.743802 24:-0.723404 25:-0.738241 26:-0.73913 27:0.0153846 28:0.24195 29:0.46289 30:-0.574769 
2048 1:-0.995829 2:-0.603239 3:-0.657025 4:-0.617021 5:-0.635992 6:-0.113043 7:-0.476923 8:0.307514 9:0.467168 10:-0.23067 11:-0.991658 12:-0.720648 13:-0.743802 14:-0.723404 15:-0.738241 16:-0.73913 17:0.0153846 18:0.24195 19:0.46289 20:-0.574769 21:-0.995829 22:-0.720648 23:-0.772727 24:-0.740426 25:-0.738241 26:-0.304348 27:-0.476923 28:0.349579 29:0.53745 30:-0.338937 
2048 1:-0.991658 2:-0.720648 3:-0.743802 4:-0.723404 5:-0.738241 6:-0.73913 7:0.0153846 8:0.24195 9:0.46289 10:-0.574769 11:-0.995829 12:-0.720648 13:-0.772727 14:-0.740426 15:-0.738241 16:-0.304348 17:-0.476923 18:0.349579 19:0.53745 20:-0.338937 21:-0.997914 22:-0.753036 23:-0.764463 24:-0.73617 25:-0.738241 26:-0.304348 27:-0.692308 28:0.312736 29:0.531723 30:-0.261701 
2048 1:-0.995829 2:-0.724696 3:-0.760331 4:-0.723404 5:-0.738241 6:-0.304348 7:-0.630769 8:0.273861 9:0.523891 10:-0.366421 11:-0.997914 12:-0.708502 13:-0.731405 14:-0.710638 15:-0.672802 16:-0.026087 17:-0.661538 18:0.318828 19:0.516829 20:-0.00867865 21:-0.997914 22:-0.676113 23:-0.702479 24:-0.689362 25:-0.660532 26:-0.252174 27:-0.723077 28:0.470554 29:0.549696 30:-0.197471 
2048 1:-1 2:-0.663968 3:-0.710744 4:-0.659574 5:-0.660532 6:-0.304348 7:-0.876923 8:0.32434 9:0.52233 10:-0.127527 11:-0.997914 12:-0.647773 13:-0.68595 14:-0.638298 15:-0.648262 16:-0.252174 17:-0.6 18:0.455469 19:0.534485 20:0.0312507 21:-0.997914 22:-0.62753 23:-0.661157 24:-0.608511 25:-0.615542 26:-0.165217 27:-0.630769 28:0.326661 29:0.533127 30:-0.0313113 
2048 1:-0.997914 2:-0.647773 3:-0.68595 4:-0.638298 5:-0.648262 6:-0.252174 7:-0.6 8:0.455469 9:0.534485 10:0.0312507 11:-0.997914 12:-0.62753 13:-0.661157 14:-0.608511 15:-0.615542 16:-0.165217 17:-0.630769 18:0.326661 19:0.533127 20:-0.0313113 21:-1 22:-0.639676 23:-0.68595 24:-0.634043 25:-0.652352 26:-0.46087 27:-0.753846 28:0.330722 29:0.520972 30:-0.180993 
2048 1:-1 2:-0.663968 3:-0.714876 4:-0.66383 5:-0.676892 6:-0.408696 7:-0.784615 8:0.353931 9:0.504833 10:-0.184662 11:-1 12:-0.643725 13:-0.698347 14:-0.651064 15:-0.644172 16:-0.165217 17:-0.846154 18:0.344648 19:0.519251 20:-0.0474256 21:-0.995829 22:-0.619433 23:-0.640496 24:-0.612766 25:-0.615542 26:-0.182609 27:-0.569231 28:0.2962 29:0.57018 30:0.151084 
2048 1:-0.995829 2:-0.619433 3:-0.640496 4:-0.612766 5:-0.615542 6:-0.182609 7:-0.569231 8:0.2962 9:0.57018 10:0.151084 11:-0.993743 12:-0.611336 13:-0.636364 14:-0.625532 15:-0.615542 16:-0.304348 17:-0.6 18:0.383522 19:0.473279 20:-0.113338 21:-0.997914 22:-0.591093 23:-0.644628 24:-0.608511 25:-0.599182 26:-0.234783 27:-0.661538 28:0.305773 29:0.51314 30:0.0181683 
2048 1:-0.993743 2:-0.611336 3:-0.636364 4:-0.625532 5:-0.615542 6:-0.304348 7:-0.6 8:0.383522 9:0.473279 10:-0.113338 11:-0.997914 12:-0.591093 13:-0.644628 14:-0.608511 15:-0.599182 16:-0.234783 17:-0.661538 18:0.305773 19:0.51314 20:0.0181683 21:-0.997914 22:-0.639676 23:-0.677686 24:-0.625532 25:-0.627812 26:-0.426087 27:-0.692308 28:0.304032 29:0.442111 30:-0.138366 
2048 1:-0.995829 2:-0.57085 3:-0.615702 4:-0.561702 5:-0.570552 6:-0.165217 7:-0.6 8:0.764433 9:0.515132 10:0.18636 11:-0.987487 12:-0.538462 13:-0.557851 14:-0.523404 15:-0.501022 16:-0.00869565 17:0.0461538 18:0.397737 19:0.607506 20:0.532202 21:-0.993743 22:-0.477733 23:-0.524793 24:-0.480851 25:-0.492843 26:-0.269565 27:-0.446154 28:0.493763 29:0.486543 30:0.281984 
2048 1:-0.993743 2:-0.477733 3:-0.524793 4:-0.480851 5:-0.492843 6:-0.269565 7:-0.446154 8:0.493763 9:0.486543 10:0.281984 11:-0.997914 12:-0.518219 13:-0.553719 14:-0.540426 15:-0.558282 16:-0.582609 17:-0.507692 18:0.35045 19:0.484325 20:-0.0462583 21:-0.995829 22:-0.538462 23:-0.57438 24:-0.52766 25:-0.517382 26:-0.130435 27:-0.569231 28:0.360894 29:0.520089 30:0.220635 
2048 1:-0.995829 2:-0.538462 3:-0.57438 4:-0.52766 5:-0.517382 6:-0.130435 7:-0.569231 8:0.360894 9:0.520089 10:0.220635 11:-0.997914 12:-0.502024 13:-0.549587 14:-0.523404 15:-0.546012 16:-0.426087 17:-0.661538 18:0.456049 19:0.524412 20:-0.0647374 21:-0.997914 22:-0.558704 23:-0.578512 24:-0.531915 25:-0.525562 26:-0.217391 27:-0.661538 28:0.311575 29:0.563073 30:-0.142383 
2048 1:-0.997914 2:-0.502024 3:-0.549587 4:-0.523404 5:-0.546012 6:-0.426087 7:-0.661538 8:0.456049 9:0.524412 10:-0.0647374 11:-0.997914 12:-0.558704 13:-0.578512 14:-0.531915 15:-0.525562 16:-0.217391 17:-0.661538 18:0.311575 19:0.563073 20:-0.142383 21:-0.995829 22:-0.54251 23:-0.570248 24:-0.52766 25:-0.550102 26:-0.408696 27:-0.692308 28:0.312736 29:0.506349 30:-0.0629789 
2048 1:-0.995829 2:-0.54251 3:-0.570248 4:-0.52766 5:-0.550102 6:-0.408696 7:-0.692308 8:0.312736 9:0.506349 10:-0.0629789 11:-0.997914 12:-0.558704 13:-0.603306 14:-0.561702 15:-0.582822 16:-0.443478 17:-0.661538 18:0.398027 19:0.532946 20:-0.12977 21:-1 22:-0.558704 23:-0.599174 24:-0.553191 25:-0.546012 26:-0.147826 27:-0.753846 28:0.740644 29:0.525046 30:0.0399066 
2048 1:-0.997914 2:-0.558704 3:-0.603306 4:-0.561702 5:-0.582822 6:-0.443478 7:-0.661538 8:0.398027 9:0.532946 10:-0.12977 11:-1 12:-0.558704 13:-0.599174 14:-0.553191 15:-0.546012 16:-0.147826 17:-0.753846 18:0.740644 19:0.525046 20:0.0399066 21:-0.997914 22:-0.534413 23:-0.582645 24:-0.540426 25:-0.562372 26:-0.373913 27:-0.661538 28:0.37888 29:0.503203 30:-0.0257934 
2048 1:-1 2:-0.558704 3:-0.599174 4:-0.553191 5:-0.546012 6:-0.147826 7:-0.753846 8:0.740644 9:0.525046 10:0.0399066 11:-0.997914 12:-0.534413 13:-0.582645 14:-0.540426 15:-0.562372 16:-0.373913 17:-0.661538 18:0.37888 19:0.503203 20:-0.0257934 21:-0.997914 22:-0.554656 23:-0.607438 24:-0.565957 25:-0.582822 26:-0.391304 27:-0.692308 28:0.59588 29:0.52611 30:-0.140533 
2048 1:0.411887 2:-0.587045 3:-0.619835 4:-0.561702 5:-0.562372 6:-0.2 7:-0.969231 8:0.359153 9:0.506757 10:-0.101908 11:0.48488 12:-0.558704 13:-0.607438 14:-0.553191 15:-0.554192 16:-0.269565 17:-0.969231 18:0.428489 19:0.527264 20:-0.127557 21:-1 22:-0.574899 23:-0.590909 24:-0.548936 25:-0.533742 26:-0.217391 27:-0.876923 28:0.397737 29:0.537971 30:-0.0952832 
2048 1:-1 2:-0.574899 3:-0.578512 4:-0.548936 5:-0.550102 6:-0.373913 7:-0.784615 8:0.353061 9:0.522918 10:-0.171534 11:-1 12:-0.530364 13:-0.57438 14:-0.510638 15:-0.525562 16:-0.2 17:-0.815385 18:0.343487 19:0.494805 20:-0.0332517 21:-1 22:-0.550607 23:-0.578512 24:-0.523404 25:-0.521472 26:-0.286957 27:-0.846154 28:0.338845 29:0.524865 30:-0.139927 
2048 1:-1 2:-0.530364 3:-0.57438 4:-0.510638 5:-0.525562 6:-0.2 7:-0.815385 8:0.343487 9:0.494805 10:-0.0332517 11:-1 12:-0.550607 13:-0.578512 14:-0.523404 15:-0.521472 16:-0.286957 17:-0.846154 18:0.338845 19:0.524865 20:-0.139927 21:-0.997914 22:-0.526316 23:-0.566116 24:-0.502128 25:-0.525562 26:-0.321739 27:-0.753846 28:0.373368 29:0.505625 30:-0.0368293 
2048 1:-1 2:-0.550607 3:-0.578512 4:-0.523404 5:-0.521472 6:-0.286957 7:-0.846154 8:0.338845 9:0.524865 10:-0.139927 11:-0.997914 12:-0.526316 13:-0.566116 14:-0.502128 15:-0.525562 16:-0.321739 17:-0.753846 18:0.373368 19:0.505625 20:-0.0368293 21:-0.997914 22:-0.522267 23:-0.570248 24:-0.519149 25:-0.533742 26:-0.33913 27:-0.784615 28:0.369307 29:0.540913 30:-0.209614 
2048 1:-0.997914 2:-0.526316 3:-0.566116 4:-0.502128 5:-0.525562 6:-0.321739 7:-0.753846 8:0.373368 9:0.505625 10:-0.0368293 11:-0.997914 12:-0.522267 13:-0.570248 14:-0.519149 15:-0.533742 16:-0.33913 17:-0.784615 18:0.369307 19:0.540913 20:-0.209614 21:-1 22:-0.518219 23:-0.570248 24:-0.519149 25:-0.541922 26:-0.33913 27:-0.846154 28:0.435741 29:0.497838 30:-0.10738 
2048 1:-1 2:-0.54251 3:-0.586777 4:-0.52766 5:-0.533742 6:-0.217391 7:-0.907692 8:0.35132 9:0.507006 10:-0.041938 11:-0.997914 12:-0.522267 13:-0.57438 14:-0.53617 15:-0.525562 16:-0.269565 17:-0.723077 18:0.342907 19:0.505602 20:0.0467889 21:-0.997914 22:-0.530364 23:-0.57438 24:-0.52766 25:-0.521472 26:-0.286957 27:-0.723077 28:0.170293 29:0.481066 30:0.124298 
2048 1:-0.997914 2:-0.522267 3:-0.57438 4:-0.53617 5:-0.525562 6:-0.269565 7:-0.723077 8:0.342907 9:0.505602 10:0.0467889 11:-0.997914 12:-0.530364 13:-0.57438 14:-0.52766 15:-0.521472 16:-0.286957 17:-0.723077 18:0.170293 19:0.481066 20:0.124298 21:-1 22:-0.526316 23:-0.57438 24:-0.514894 25:-0.525562 26:-0.321739 27:-0.846154 28:0.344067 29:0.508545 30:-0.0561573 
2048 1:-1 2:-0.526316 3:-0.57438 4:-0.514894 5:-0.525562 6:-0.321739 7:-0.846154 8:0.344067 9:0.508545 10:-0.0561573 11:-1 12:-0.538462 13:-0.590909 14:-0.531915 15:-0.554192 16:-0.426087 17:-0.876923 18:0.362054 19:0.525295 20:-0.174657 21:-1 22:-0.546559 23:-0.590909 24:-0.531915 25:-0.533742 26:-0.217391 27:-0.846154 28:0.325791 29:0.507277 30:-0.137259 
2048 1:-1 2:-0.546559 3:-0.590909 4:-0.531915 5:-0.533742 6:-0.217391 7:-0.846154 8:0.325791 9:0.507277 10:-0.137259 11:-1 12:-0.538462 13:-0.586777 14:-0.540426 15:-0.562372 16:-0.426087 17:-0.846154 18:0.2962 19:0.486453 20:-0.10594 21:-0.997914 22:-0.566802 23:-0.599174 24:-0.553191 25:-0.554192 26:-0.269565 27:-0.876923 28:0.448796 29:0.43944 30:-0.16782 
2048 1:-0.997914 2:-0.566802 3:-0.599174 4:-0.553191 5:-0.554192 6:-0.269565 7:-0.876923 8:0.448796 9:0.43944 10:-0.16782 11:-1 12:-0.538462 13:-0.590909 14:-0.53617 15:-0.558282 16:-0.321739 17:-0.876923 18:0.379751 19:0.428846 20:-0.0823221 21:-0.997914 22:-0.558704 23:-0.590909 24:-0.53617 25:-0.533742 26:-0.2 27:-0.784615 28:0.334204 29:0.526494 30:-0.00197828 
2048 1:-0.997914 2:-0.558704 3:-0.590909 4:-0.53617 5:-0.533742 6:-0.2 7:-0.784615 8:0.334204 9:0.526494 10:-0.00197828 11:-0.997914 12:-0.554656 13:-0.590909 14:-0.52766 15:-0.546012 16:-0.356522 17:-0.815385 18:0.245431 19:0.503746 20:-0.106698 21:-0.989572 22:-0.469636 23:-0.520661 24:-0.544681 25:-0.529652 26:-0.234783 27:-0.353846 28:0.261387 29:0.526064 30:-0.047653 
2048 1:-0.989572 2:-0.271255 3:-0.31405 4:-0.27234 5:-0.288344 6:-0.286957 7:-0.261538 8:0.436612 9:0.439711 10:0.390342 11:-0.989572 12:-0.275304 13:-0.301653 14:-0.251064 15:-0.251534 16:-0.147826 17:-0.0461538 18:0.430229 19:0.537993 20:0.423404 21:-0.993743 22:-0.234818 23:-0.268595 24:-0.255319 25:-0.247444 26:-0.286957 27:-0.415385 28:0.407021 29:0.483918 30:0.16447 
2048 1:-0.989572 2:-0.275304 3:-0.301653 4:-0.251064 5:-0.251534 6:-0.147826 7:-0.0461538 8:0.430229 9:0.537993 10:0.423404 11:-0.993743 12:-0.234818 13:-0.268595 14:-0.255319 15:-0.247444 16:-0.286957 17:-0.415385 18:0.407021 19:0.483918 20:0.16447 21:-0.997914 22:-0.279352 23:-0.305785 24:-0.255319 25:-0.288344 26:-0.478261 27:-0.692308 28:0.368726 29:0.515471 30:-0.0352982 
2048 1:-1 2:-0.295547 3:-0.330579 4:-0.27234 5:-0.292434 6:-0.321739 7:-0.907692 8:0.371047 9:0.52663 10:-0.124677 11:-0.997914 12:-0.295547 13:-0.334711 14:-0.26383 15:-0.284254 16:-0.269565 17:-0.753846 18:0.272411 19:0.497137 20:0.0944646 21:-0.995829 22:-0.255061 23:-0.301653 24:-0.26383 25:-0.267894 26:-0.234783 27:-0.661538 28:0.43313 29:0.524774 30:0.0441664 
2048 1:-0.997914 2:-0.295547 3:-0.334711 4:-0.26383 5:-0.284254 6:-0.269565 7:-0.753846 8:0.272411 9:0.497137 10:0.0944646 11:-0.995829 12:-0.255061 13:-0.301653 14:-0.26383 15:-0.267894 16:-0.234783 17:-0.661538 18:0.43313 19:0.524774 20:0.0441664 21:-0.997914 22:-0.267206 23:-0.305785 24:-0.255319 25:-0.267894 26:-0.304348 27:-0.723077 28:0.317377 29:0.540823 30:0.00670795 
2048 1:-0.995829 2:-0.255061 3:-0.301653 4:-0.26383 5:-0.267894 6:-0.234783 7:-0.661538 8:0.43313 9:0.524774 10:0.0441664 11:-0.997914 12:-0.267206 13:-0.305785 14:-0.255319 15:-0.267894 16:-0.304348 17:-0.723077 18:0.317377 19:0.540823 20:0.00670795 21:-0.995829 22:-0.303644 23:-0.31405 24:-0.26383 25:-0.276074 26:-0.33913 27:-0.630769 28:-0.0353931 29:0.572082 30:-0.0699522 
2048 1:-0.997914 2:-0.267206 3:-0.305785 4:-0.255319 5:-0.267894 6:-0.304348 7:-0.723077 8:0.317377 9:0.540823 10:0.00670795 11:-0.995829 12:-0.303644 13:-0.31405 14:-0.26383 15:-0.276074 16:-0.33913 17:-0.630769 18:-0.0353931 19:0.572082 20:-0.0699522 21:-0.997914 22:-0.303644 23:-0.330579 24:-0.276596 25:-0.308793 26:-0.443478 27:-0.753846 28:0.238468 29:0.514362 30:-0.116233 
2048 1:-0.997914 2:-0.303644 3:-0.330579 4:-0.276596 5:-0.308793 6:-0.443478 7:-0.753846 8:0.238468 9:0.514362 10:-0.116233 11:-0.997914 12:-0.279352 13:-0.326446 14:-0.297872 15:-0.329243 16:-0.391304 17:-0.723077 18:0.407311 19:0.498744 20:-0.0562179 21:-0.995829 22:-0.291498 23:-0.330579 24:-0.306383 25:-0.304703 26:-0.2 27:-0.661538 28:0.309835 29:0.525499 30:-0.0262633 
2048 1:-1 2:-0.34413 3:-0.347107 4:-0.319149 5:-0.292434 6:-0.113043 7:-0.815385 8:0.415144 9:0.539578 10:-0.0645858 11:-0.997914 12:-0.299595 13:-0.31405 14:-0.27234 15:-0.267894 16:-0.2 17:-0.723077 18:0.651581 19:0.526494 20:-0.0809274 21:-0.995829 22:-0.263158 23:-0.301653 24:-0.251064 25:-0.259714 26:-0.269565 27:-0.6 28:0.300551 29:0.521424 30:0.0733933 
2048 1:-0.995829 2:-0.287449 3:-0.330579 4:-0.285106 5:-0.316973 6:-0.547826 7:-0.6 8:0.354801 9:0.52663 10:-0.396527 11:-0.995829 12:-0.340081 13:-0.342975 14:-0.340426 15:-0.292434 16:-0.2 17:-0.538462 18:0.303452 19:0.504403 20:-0.214723 21:-1 22:-0.287449 23:-0.334711 24:-0.276596 25:-0.288344 26:-0.286957 27:-0.846154 28:0.114302 29:0.505534 30:-0.096026 
2048 1:-1 2:-0.299595 3:-0.326446 4:-0.268085 5:-0.284254 6:-0.286957 7:-0.876923 8:0.387003 9:0.515969 10:-0.0251567 11:-0.995829 12:-0.275304 13:-0.285124 14:-0.238298 15:-0.251534 16:-0.165217 17:-0.6 18:0.304032 19:0.609136 20:0.0592498 21:-0.993743 22:-0.242915 23:-0.285124 24:-0.212766 25:-0.231084 26:-0.217391 27:-0.630769 28:0.294749 29:0.488467 30:0.286168 
2048 1:-0.993743 2:-0.242915 3:-0.285124 4:-0.212766 5:-0.231084 6:-0.217391 7:-0.630769 8:0.294749 9:0.488467 10:0.286168 11:-1 12:-0.242915 13:-0.285124 14:-0.217021 15:-0.235174 16:-0.321739 17:-0.876923 18:0.301131 19:0.514453 20:-0.0885374 21:-0.997914 22:-0.242915 23:-0.268595 24:-0.2 25:-0.226994 26:-0.269565 27:-0.692308 28:0.312155 29:0.544467 30:0.0115286 
2048 1:-1 2:-0.242915 3:-0.285124 4:-0.217021 5:-0.235174 6:-0.321739 7:-0.876923 8:0.301131 9:0.514453 10:-0.0885374 11:-0.997914 12:-0.242915 13:-0.268595 14:-0.2 15:-0.226994 16:-0.269565 17:-0.692308 18:0.312155 19:0.544467 20:0.0115286 21:-0.997914 22:-0.263158 23:-0.280992 24:-0.234043 25:-0.226994 26:-0.304348 27:-0.753846 28:0.150566 29:0.489871 30:-0.103833 
2048 1:-0.997914 2:-0.242915 3:-0.268595 4:-0.2 5:-0.226994 6:-0.269565 7:-0.692308 8:0.312155 9:0.544467 10:0.0115286 11:-0.997914 12:-0.263158 13:-0.280992 14:-0.234043 15:-0.226994 16:-0.304348 17:-0.753846 18:0.150566 19:0.489871 20:-0.103833 21:-1 22:-0.226721 23:-0.272727 24:-0.221277 25:-0.235174 26:-0.33913 27:-0.876923 28:0.304032 29:0.513434 30:-0.114611 
2048 1:-0.997914 2:-0.263158 3:-0.280992 4:-0.234043 5:-0.226994 6:-0.304348 7:-0.753846 8:0.150566 9:0.489871 10:-0.103833 11:-1 12:-0.226721 13:-0.272727 14:-0.221277 15:-0.235174 16:-0.33913 17:-0.876923 18:0.304032 19:0.513434 20:-0.114611 21:-1 22:-0.275304 23:-0.301653 24:-0.234043 25:-0.263804 26:-0.426087 27:-0.846154 28:0.263417 29:0.509428 30:-0.185966 
2048 1:-0.997914 2:-0.295547 3:-0.301653 4:-0.26383 5:-0.267894 6:-0.321739 7:-0.815385 8:0.295909 9:0.492655 10:-0.0665868 11:-0.997914 12:-0.259109 13:-0.289256 14:-0.229787 15:-0.239264 16:-0.182609 17:-0.784615 18:0.218161 19:0.491116 20:0.0555812 21:-0.997914 22:-0.226721 23:-0.268595 24:-0.212766 25:-0.226994 26:-0.252174 27:-0.815385 28:0.291268 29:0.522601 30:-0.0521098 
2048 1:-0.997914 2:-0.259109 3:-0.289256 4:-0.229787 5:-0.239264 6:-0.182609 7:-0.784615 8:0.218161 9:0.491116 10:0.0555812 11:-0.997914 12:-0.226721 13:-0.268595 14:-0.212766 15:-0.226994 16:-0.252174 17:-0.815385 18:0.291268 19:0.522601 20:-0.0521098 21:-1 22:-0.234818 23:-0.27686 24:-0.204255 25:-0.231084 26:-0.321739 27:-0.846154 28:0.29823 29:0.512166 30:-0.0936915 
2048 1:-1 2:-0.234818 3:-0.27686 4:-0.204255 5:-0.231084 6:-0.321739 7:-0.846154 8:0.29823 9:0.512166 10:-0.0936915 11:-0.997914 12:-0.238866 13:-0.27686 14:-0.212766 15:-0.247444 16:-0.373913 17:-0.784615 18:0.384682 19:0.534349 20:-0.109442 21:-0.968717 22:-0.0526316 23:0.00413223 24:-0.0170213 25:0.0388548 26:0.913043 27:0.907692 28:0.564259 29:0.681546 30:1 
2048 1:-0.993743 2:-0.0161943 3:-0.0289256 4:0.0212766 5:-0.00613497 6:-0.234783 7:-0.569231 8:0.391935 9:0.469069 10:0.157375 11:-0.995829 12:0.00404858 13:-0.0371901 14:0.0255319 15:0.0102249 16:-0.234783 17:-0.723077 18:0.467943 19:0.488581 20:0.169442 21:-0.989572 22:0.0161943 23:0.0413223 24:0.0638298 25:0.0593047 26:-0.0956522 27:-0.353846 28:0.533798 29:0.584871 30:0.0840957 
2048 1:-0.989572 2:0.0161943 3:0.0413223 4:0.0638298 5:0.0593047 6:-0.0956522 7:-0.353846 8:0.533798 9:0.584871 10:0.0840957 11:-0.995829 12:0.0161943 13:-0.0206612 14:0.0297872 15:-0.0143149 16:-0.617391 17:-0.507692 18:0.413113 19:0.516286 20:-0.242312 21:-0.997914 22:-0.0242915 23:-0.0413223 24:-0.0170213 25:0.0102249 26:-0.2 27:-0.723077 28:0.375689 29:0.502184 30:-0.0196994 
2048 1:-0.995829 2:0.0161943 3:-0.0206612 4:0.0297872 5:-0.0143149 6:-0.617391 7:-0.507692 8:0.413113 9:0.516286 10:-0.242312 11:-0.997914 12:-0.0242915 13:-0.0413223 14:-0.0170213 15:0.0102249 16:-0.2 17:-0.723077 18:0.375689 19:0.502184 20:-0.0196994 21:-1 22:0.0242915 23:-0.0123967 24:0.0340426 25:-0.00204499 26:-0.356522 27:-0.876923 28:0.385553 29:0.503497 30:-0.151706 
2048 1:-0.993743 2:0.048583 3:0.0495868 4:0.0851064 5:0.0715746 6:-0.217391 7:-0.538462 8:0.373368 9:0.601802 10:-0.0894621 11:-0.972888 12:0.101215 13:0.0909091 14:0.161702 15:0.120654 16:-0.0956522 17:-0.323077 18:0.420656 19:0.531474 20:0.0471679 21:-0.993743 22:0.109312 23:0.132231 24:0.170213 25:0.141104 26:-0.217391 27:-0.476923 28:0.535248 29:0.517599 30:0.0054649 
2048 1:-0.972888 2:0.101215 3:0.0909091 4:0.161702 5:0.120654 6:-0.0956522 7:-0.323077 8:0.420656 9:0.531474 10:0.0471679 11:-0.993743 12:0.109312 13:0.132231 14:0.170213 15:0.141104 16:-0.217391 17:-0.476923 18:0.535248 19:0.517599 20:0.0054649 21:-0.997914 22:0.129555 23:0.11157 24:0.170213 25:0.141104 26:-0.304348 27:-0.630769 28:0.97331 29:0.514928 30:-0.129528 
2048 1:-0.997914 2:0.109312 3:0.11157 4:0.170213 5:0.120654 6:-0.391304 7:-0.753846 8:0.29649 9:0.509246 10:-0.16735 11:-0.997914 12:0.149798 13:0.132231 14:0.170213 15:0.161554 16:-0.130435 17:-0.784615 18:0.304032 19:0.504652 20:-0.0830649 21:-0.979145 22:0.190283 23:0.297521 24:0.234043 25:0.284254 26:0.217391 27:0.169231 28:0.682913 29:0.440005 30:0.0400279 
2048 1:-0.997914 2:0.149798 3:0.132231 4:0.170213 5:0.161554 6:-0.130435 7:-0.784615 8:0.304032 9:0.504652 10:-0.0830649 11:-0.979145 12:0.190283 13:0.297521 14:0.234043 15:0.284254 16:0.217391 17:0.169231 18:0.682913 19:0.440005 20:0.0400279 21:-0.993743 22:0.331984 23:0.297521 24:0.297872 25:0.284254 26:-0.304348 27:-0.415385 28:0.330722 29:0.521945 30:0.0266272 
2048 1:-0.979145 2:0.190283 3:0.297521 4:0.234043 5:0.284254 6:0.217391 7:0.169231 8:0.682913 9:0.440005 10:0.0400279 11:-0.993743 12:0.331984 13:0.297521 14:0.297872 15:0.284254 16:-0.304348 17:-0.415385 18:0.330722 19:0.521945 20:0.0266272 21:-0.993743 22:0.271255 23:0.235537 24:0.297872 25:0.284254 26:-0.304348 27:-0.569231 28:0.32405 29:0.542611 30:-0.0828678 
2048 1:-0.993743 2:0.271255 3:0.235537 4:0.297872 5:0.284254 6:-0.304348 7:-0.569231 8:0.32405 9:0.542611 10:-0.0828678 11:-0.989572 12:0.271255 13:0.27686 14:0.255319 15:0.222904 16:-0.565217 17:-0.353846 18:0.369887 19:0.558818 20:-0.166183 21:-0.995829 22:0.230769 23:0.256198 24:0.276596 25:0.284254 26:-0.0434783 27:-0.661538 28:0.477227 29:0.533579 30:0.000492674 
2048 1:-0.989572 2:0.271255 3:0.27686 4:0.255319 5:0.222904 6:-0.565217 7:-0.353846 8:0.369887 9:0.558818 10:-0.166183 11:-0.995829 12:0.230769 13:0.256198 14:0.276596 15:0.284254 16:-0.0434783 17:-0.661538 18:0.477227 19:0.533579 20:0.000492674 21:-0.995829 22:0.271255 23:0.235537 24:0.276596 25:0.263804 26:-0.391304 27:-0.723077 28:0.94633 29:0.525861 30:-0.128497 
2048 1:-0.995829 2:0.230769 3:0.256198 4:0.276596 5:0.284254 6:-0.0434783 7:-0.661538 8:0.477227 9:0.533579 10:0.000492674 11:-0.995829 12:0.271255 13:0.235537 14:0.276596 15:0.263804 16:-0.391304 17:-0.723077 18:0.94633 19:0.525861 20:-0.128497 21:-0.997914 22:0.230769 23:0.214876 24:0.255319 25:0.243354 26:-0.391304 27:-0.815385 28:0.337975 29:0.509677 30:-0.111701 
2048 1:-0.995829 2:0.271255 3:0.235537 4:0.276596 5:0.263804 6:-0.391304 7:-0.723077 8:0.94633 9:0.525861 10:-0.128497 11:-0.997914 12:0.230769 13:0.214876 14:0.255319 15:0.243354 16:-0.391304 17:-0.815385 18:0.337975 19:0.509677 20:-0.111701 21:-0.993743 22:0.149798 23:0.152893 24:0.191489 25:0.202454 26:-0.478261 27:-0.507692 28:0.273571 29:0.499061 30:-0.257805 
2048 1:-1 2:0.190283 3:0.173554 4:0.234043 5:0.182004 6:-0.391304 7:-0.784615 8:0.282274 9:0.503972 10:-0.153858 11:-0.997914 12:0.210526 13:0.173554 14:0.255319 15:0.222904 16:-0.130435 17:-0.846154 18:0.385843 19:0.525001 20:-0.109215 21:-0.993743 22:0.230769 23:0.256198 24:0.276596 25:0.284254 26:-0.0434783 27:-0.6 28:0.334784 29:0.559361 30:0.031281 
2048 1:-0.993743 2:0.230769 3:0.256198 4:0.276596 5:0.284254 6:-0.0434783 7:-0.6 8:0.334784 9:0.559361 10:0.031281 11:-0.997914 12:0.251012 13:0.256198 14:0.319149 15:0.284254 16:-0.304348 17:-0.784615 18:0.285756 19:0.512302 20:-0.104849 21:-0.995829 22:0.291498 23:0.27686 24:0.340426 25:0.325153 26:-0.130435 27:-0.692308 28:0.299391 29:0.51366 30:-0.0118318 
2048 1:-0.997914 2:0.251012 3:0.256198 4:0.319149 5:0.284254 6:-0.304348 7:-0.784615 8:0.285756 9:0.512302 10:-0.104849 11:-0.995829 12:0.291498 13:0.27686 14:0.340426 15:0.325153 16:-0.130435 17:-0.692308 18:0.299391 19:0.51366 20:-0.0118318 21:-0.995829 22:0.271255 23:0.256198 24:0.340426 25:0.304703 26:-0.391304 27:-0.753846 28:0.511169 29:0.511736 30:-0.163818 
2048 1:-0.993743 2:0.251012 3:0.235537 4:0.297872 5:0.243354 6:-0.565217 7:-0.723077 8:0.293879 9:0.502841 10:-0.319245 11:-0.997914 12:0.251012 13:0.256198 14:0.297872 15:0.304703 16:-0.0434783 17:-0.784615 18:0.234697 19:0.521334 20:0.00181153 21:-0.993743 22:0.311741 23:0.297521 24:0.361702 25:0.345603 26:-0.130435 27:-0.723077 28:0.284015 29:0.514837 30:0.0945707 
2048 1:-0.993743 2:0.311741 3:0.297521 4:0.361702 5:0.345603 6:-0.130435 7:-0.723077 8:0.284015 9:0.514837 10:0.0945707 11:-1 12:0.311741 13:0.297521 14:0.361702 15:0.325153 16:-0.391304 17:-0.969231 18:0.0519292 19:0.52036 20:-0.125223 21:-0.995829 22:0.311741 23:0.318182 24:0.382979 25:0.345603 26:-0.217391 27:-0.692308 28:0.300551 29:0.544625 30:-0.030235 
2048 1:-1 2:0.311741 3:0.297521 4:0.361702 5:0.325153 6:-0.391304 7:-0.969231 8:0.0519292 9:0.52036 10:-0.125223 11:-0.995829 12:0.311741 13:0.318182 14:0.382979 15:0.345603 16:-0.217391 17:-0.692308 18:0.300551 19:0.544625 20:-0.030235 21:-0.997914 22:0.331984 23:0.297521 24:0.382979 25:0.325153 26:-0.391304 27:-0.815385 28:0.159559 29:0.508273 30:-0.181039 
2048 1:-0.995829 2:0.311741 3:0.318182 4:0.382979 5:0.345603 6:-0.217391 7:-0.692308 8:0.300551 9:0.544625 10:-0.030235 11:-0.997914 12:0.331984 13:0.297521 14:0.382979 15:0.325153 16:-0.391304 17:-0.815385 18:0.159559 19:0.508273 20:-0.181039 21:-0.997914 22:0.311741 23:0.297521 24:0.361702 25:0.325153 26:-0.304348 27:-0.846154 28:0.311865 29:0.508658 30:-0.155147 
2048 1:-0.997914 2:0.331984 3:0.297521 4:0.382979 5:0.325153 6:-0.391304 7:-0.815385 8:0.159559 9:0.508273 10:-0.181039 11:-0.997914 12:0.311741 13:0.297521 14:0.361702 15:0.325153 16:-0.304348 17:-0.846154 18:0.311865 19:0.508658 20:-0.155147 21:-1 22:0.311741 23:0.297521 24:0.361702 25:0.325153 26:-0.304348 27:-0.907692 28:0.299971 29:0.503022 30:-0.143141 
2048 1:-0.997914 2:0.311741 3:0.297521 4:0.361702 5:0.325153 6:-0.304348 7:-0.846154 8:0.311865 9:0.508658 10:-0.155147 11:-1 12:0.311741 13:0.297521 14:0.361702 15:0.325153 16:-0.304348 17:-0.907692 18:0.299971 19:0.503022 20:-0.143141 21:-0.995829 22:0.311741 23:0.318182 24:0.382979 25:0.325153 26:-0.304348 27:-0.784615 28:0.484769 29:0.500373 30:-0.261549 
2048 1:-1 2:0.311741 3:0.297521 4:0.361702 5:0.325153 6:-0.304348 7:-0.907692 8:0.299971 9:0.503022 10:-0.143141 11:-0.995829 12:0.311741 13:0.318182 14:0.382979 15:0.325153 16:-0.304348 17:-0.784615 18:0.484769 19:0.500373 20:-0.261549 21:-0.991658 22:0.230769 23:0.214876 24:0.255319 25:0.202454 26:-0.826087 27:-0.569231 28:0.284015 29:0.522737 30:-0.337573 
2048 1:-0.995829 2:0.311741 3:0.318182 4:0.382979 5:0.325153 6:-0.304348 7:-0.784615 8:0.484769 9:0.500373 10:-0.261549 11:-0.991658 12:0.230769 13:0.214876 14:0.255319 15:0.202454 16:-0.826087 17:-0.569231 18:0.284015 19:0.522737 20:-0.337573 21:-0.993743 22:0.149798 23:0.173554 24:0.212766 25:0.202454 26:-0.304348 27:-0.661538 28:0.24195 29:0.540279 30:-0.274526 
493.02436053036 1:-0.98123 2:0.574899 3:0.690083 4:0.659574 5:0.713701 6:0.565217 7:0.169231 8:0.996809 9:0.517621 10:-0.0428475 11:-0.987487 12:0.65587 13:0.64876 14:0.680851 15:0.652352 16:-0.565217 17:-0.169231 18:0.818103 19:0.561737 20:-0.318336 21:-0.989572 22:0.635628 23:0.669421 24:0.680851 25:0.631902 26:-0.391304 27:-0.323077 28:0.345808 29:0.563254 30:-0.224379 
2048 1:-0.991658 2:0.898785 3:0.896694 4:0.957447 5:0.897751 6:-0.130435 7:-0.569231 8:0.24427 9:0.535164 10:-0.185708 11:-0.987487 12:0.817814 13:0.81405 14:0.851064 15:0.815951 16:-0.652174 17:-0.323077 18:0.381491 19:0.562281 20:-0.350458 21:-0.991658 22:0.757085 23:0.81405 24:0.851064 25:0.795501 26:-0.391304 27:-0.538462 28:0.231216 29:0.604224 30:-0.187436 
2048 1:-0.985401 2:0.797571 3:0.834711 4:0.87234 5:0.877301 6:0.217391 7:-0.261538 8:0.498404 9:0.710337 10:0.00269076 11:-0.98123 12:0.8583 13:0.876033 14:0.93617 15:0.877301 16:-0.304348 17:-0.0153846 18:0.496954 19:0.793024 20:-0.0838077 21:-0.983316 22:0.736842 23:0.731405 24:0.808511 25:0.754601 26:-0.304348 27:-0.0153846 28:0.363214 29:0.0842482 30:-0.125677 
2048 1:-0.98123 2:0.8583 3:0.876033 4:0.93617 5:0.877301 6:-0.304348 7:-0.0153846 8:0.496954 9:0.793024 10:-0.0838077 11:-0.983316 12:0.736842 13:0.731405 14:0.808511 15:0.754601 16:-0.304348 17:-0.0153846 18:0.363214 19:0.0842482 20:-0.125677 21:-0.993743 22:0.757085 23:0.731405 24:0.808511 25:0.754601 26:-0.304348 27:-0.569231 28:0.321729 29:0.410557 30:-0.132272 
2048 1:-0.993743 2:0.757085 3:0.731405 4:0.808511 5:0.754601 6:-0.304348 7:-0.569231 8:0.321729 9:0.410557 10:-0.132272 11:-0.993743 12:0.757085 13:0.731405 14:0.808511 15:0.754601 16:-0.304348 17:-0.692308 18:0.16217 19:0.423572 20:-0.14117 21:-0.993743 22:0.736842 23:0.772727 24:0.808511 25:0.815951 26:-0.0434783 27:-0.692308 28:0.208877 29:0.481994 30:-0.0150607 
2048 1:-0.993743 2:0.757085 3:0.731405 4:0.808511 5:0.754601 6:-0.304348 7:-0.692308 8:0.16217 9:0.423572 10:-0.14117 11:-0.993743 12:0.736842 13:0.772727 14:0.808511 15:0.815951 16:-0.0434783 17:-0.692308 18:0.208877 19:0.481994 20:-0.0150607 21:-0.995829 22:0.817814 23:0.81405 24:0.893617 25:0.815951 26:-0.304348 27:-0.692308 28:0.246011 29:0.468277 30:-0.0499117 
2048 1:-0.993743 2:0.736842 3:0.772727 4:0.808511 5:0.815951 6:-0.0434783 7:-0.692308 8:0.208877 9:0.481994 10:-0.0150607 11:-0.995829 12:0.817814 13:0.81405 14:0.893617 15:0.815951 16:-0.304348 17:-0.692308 18:0.246011 19:0.468277 20:-0.0499117 21:-0.993743 22:0.838057 23:0.834711 24:0.87234 25:0.795501 26:-0.391304 27:-0.723077 28:0.235277 29:0.517373 30:-0.202701 
2048 1:-0.993743 2:0.777328 3:0.793388 4:0.851064 5:0.815951 6:-0.130435 7:-0.661538 8:0.279954 9:0.52663 10:-0.0505181 11:-0.995829 12:0.817814 13:0.793388 14:0.829787 15:0.754601 16:-0.565217 17:-0.723077 18:0.213229 19:0.476946 20:-0.155829 21:-0.991658 22:0.797571 23:0.834711 24:0.893617 25:0.836401 26:0.0434783 27:-0.476923 28:0.281404 29:0.557075 30:-0.0827769 
2048 1:-0.991658 2:0.797571 3:0.834711 4:0.893617 5:0.836401 6:0.0434783 7:-0.476923 8:0.281404 9:0.557075 10:-0.0827769 11:-0.995829 12:0.817814 13:0.81405 14:0.87234 15:0.836401 16:-0.304348 17:-0.692308 18:0.275602 19:0.485502 20:-0.170761 21:-0.995829 22:0.777328 23:0.793388 24:0.87234 25:0.836401 26:-0.304348 27:-0.846154 28:0.37714 29:0.525589 30:-0.120629 
942.9703230500043 1:-0.989572 2:0.898785 3:0.979339 4:1 5:1 6:0.0434783 7:-0.415385 8:0.157238 9:0.577446 10:-0.148401 11:-0.993743 12:1 13:1 14:1 15:0.97955 16:-0.391304 17:-0.630769 18:0.408471 19:0.453383 20:-0.139108 21:-0.991658 22:0.898785 23:0.917355 24:0.914894 25:0.856851 26:-0.826087 27:-0.507692 28:0.311285 29:0.540189 30:-0.39733 
2048 1:-0.991658 2:0.898785 3:0.917355 4:0.914894 5:0.856851 6:-0.826087 7:-0.507692 8:0.311285 9:0.540189 10:-0.39733 11:-0.991658 12:0.838057 13:0.81405 14:0.808511 15:0.775051 16:-0.652174 17:-0.415385 18:0.212068 19:0.521356 20:-0.23687 21:-0.991658 22:0.696356 23:0.772727 24:0.787234 25:0.795501 26:-0.217391 27:-0.630769 28:0.190601 29:0.541275 30:-0.275905 
2048 1:-0.991658 2:0.696356 3:0.772727 4:0.787234 5:0.795501 6:-0.217391 7:-0.630769 8:0.190601 9:0.541275 10:-0.275905 11:-0.991658 12:0.777328 13:0.752066 14:0.765957 15:0.693252 16:-0.73913 17:-0.476923 18:0.267769 19:0.515607 20:-0.262413 21:-0.997914 22:0.736842 23:0.731405 24:0.787234 25:0.754601 26:-0.0434783 27:-0.753846 28:0.353351 29:0.45327 30:-0.07403 
1802.861036862852 1:-0.997914 2:0.736842 3:0.731405 4:0.787234 5:0.754601 6:-0.0434783 7:-0.753846 8:0.353351 9:0.45327 10:-0.07403 11:-0.995829 12:0.716599 13:0.731405 14:0.787234 15:0.734151 16:-0.391304 17:-0.815385 18:0.655352 19:0.519976 20:-0.344379 21:-0.997914 22:0.716599 23:0.731405 24:0.808511 25:0.775051 26:-0.130435 27:-0.876923 28:0.316217 29:0.543131 30:-0.140382 
2048 1:-0.995829 2:0.716599 3:0.731405 4:0.787234 5:0.734151 6:-0.391304 7:-0.815385 8:0.655352 9:0.519976 10:-0.344379 11:-0.997914 12:0.716599 13:0.731405 14:0.808511 15:0.775051 16:-0.130435 17:-0.876923 18:0.316217 19:0.543131 20:-0.140382 21:-0.995829 22:0.696356 23:0.731405 24:0.765957 25:0.754601 26:-0.391304 27:-0.815385 28:0.240499 29:0.515086 30:-0.207234 
2048 1:-0.997914 2:0.716599 3:0.731405 4:0.808511 5:0.775051 6:-0.130435 7:-0.876923 8:0.316217 9:0.543131 10:-0.140382 11:-0.995829 12:0.696356 13:0.731405 14:0.765957 15:0.754601 16:-0.391304 17:-0.815385 18:0.240499 19:0.515086 20:-0.207234 21:-0.997914 22:0.696356 23:0.690083 24:0.765957 25:0.734151 26:-0.391304 27:-0.815385 28:0.262547 29:0.519998 30:-0.249134 
2048 1:-0.995829 2:0.696356 3:0.731405 4:0.765957 5:0.754601 6:-0.391304 7:-0.815385 8:0.240499 9:0.515086 10:-0.207234 11:-0.997914 12:0.696356 13:0.690083 14:0.765957 15:0.734151 16:-0.391304 17:-0.815385 18:0.262547 19:0.519998 20:-0.249134 21:-0.997914 22:0.736842 23:0.731405 24:0.808511 25:0.734151 26:-0.304348 27:-0.815385 28:0.388164 29:0.544195 30:-0.197684 
2048 1:-0.995829 2:0.736842 3:0.752066 4:0.808511 5:0.734151 6:-0.304348 7:-0.723077 8:0.250073 9:0.516014 10:-0.247861 11:-0.995829 12:0.716599 13:0.731405 14:0.808511 15:0.775051 16:-0.130435 17:-0.784615 18:0.114883 19:0.549877 20:-0.229321 21:-0.997914 22:0.757085 23:0.752066 24:0.829787 25:0.775051 26:-0.304348 27:-0.846154 28:0.275312 29:0.552932 30:-0.146764 
2048 1:-0.995829 2:0.716599 3:0.731405 4:0.808511 5:0.775051 6:-0.130435 7:-0.784615 8:0.114883 9:0.549877 10:-0.229321 11:-0.997914 12:0.757085 13:0.752066 14:0.829787 15:0.775051 16:-0.304348 17:-0.846154 18:0.275312 19:0.552932 20:-0.146764 21:-0.997914 22:0.777328 23:0.752066 24:0.808511 25:0.754601 26:-0.391304 27:-0.846154 28:0.299101 29:0.539487 30:-0.190574 
2048 1:-0.997914 2:0.777328 3:0.752066 4:0.808511 5:0.754601 6:-0.391304 7:-0.846154 8:0.299101 9:0.539487 10:-0.190574 11:-1 12:0.716599 13:0.710744 14:0.808511 15:0.754601 16:-0.304348 17:-0.846154 18:0.156658 19:0.520496 20:-0.198866 21:-0.993743 22:0.757085 23:0.793388 24:0.851064 25:0.836401 26:0.0434783 27:-0.661538 28:0.327241 29:0.515381 30:-0.0808971 
1431.636055521213 1:-0.993743 2:0.757085 3:0.793388 4:0.851064 5:0.836401 6:0.0434783 7:-0.661538 8:0.327241 9:0.515381 10:-0.0808971 11:-0.993743 12:0.8583 13:0.855372 14:0.893617 15:0.836401 16:-0.304348 17:-0.753846 18:0.355381 19:0.537857 20:-0.158057 21:-0.997914 22:0.797571 23:0.81405 24:0.893617 25:0.836401 26:-0.304348 27:-0.846154 28:0.246301 29:0.519478 30:-0.138214 
2048 1:-0.993743 2:0.8583 3:0.855372 4:0.893617 5:0.836401 6:-0.304348 7:-0.753846 8:0.355381 9:0.537857 10:-0.158057 11:-0.997914 12:0.797571 13:0.81405 14:0.893617 15:0.836401 16:-0.304348 17:-0.846154 18:0.246301 19:0.519478 20:-0.138214 21:-0.997914 22:0.777328 23:0.793388 24:0.851064 25:0.795501 26:-0.478261 27:-0.876923 28:0.289527 29:0.523212 30:-0.170822 
2048 1:-0.997914 2:0.797571 3:0.81405 4:0.893617 5:0.836401 6:-0.304348 7:-0.846154 8:0.246301 9:0.519478 10:-0.138214 11:-0.997914 12:0.777328 13:0.793388 14:0.851064 15:0.795501 16:-0.478261 17:-0.876923 18:0.289527 19:0.523212 20:-0.170822 21:-0.995829 22:0.777328 23:0.772727 24:0.829787 25:0.795501 26:-0.304348 27:-0.846154 28:0.278503 29:0.505829 30:-0.158361 
2048 1:-0.997914 2:0.777328 3:0.793388 4:0.851064 5:0.795501 6:-0.478261 7:-0.876923 8:0.289527 9:0.523212 10:-0.170822 11:-0.995829 12:0.777328 13:0.772727 14:0.829787 15:0.795501 16:-0.304348 17:-0.846154 18:0.278503 19:0.505829 20:-0.158361 21:-0.995829 22:0.757085 23:0.752066 24:0.808511 25:0.754601 26:-0.478261 27:-0.784615 28:0.158399 29:0.469363 30:-0.104015 
2048 1:-0.995829 2:0.757085 3:0.752066 4:0.808511 5:0.754601 6:-0.478261 7:-0.784615 8:0.158399 9:0.469363 10:-0.104015 11:-0.997914 12:0.736842 13:0.752066 14:0.808511 15:0.754601 16:-0.304348 17:-0.753846 18:0.174064 19:0.521402 20:-0.224379 21:-0.993743 22:0.757085 23:0.793388 24:0.829787 25:0.815951 26:-0.0434783 27:-0.630769 28:0.27154 29:0.525182 30:-0.143323 
2048 1:-0.993743 2:0.757085 3:0.793388 4:0.829787 5:0.815951 6:-0.0434783 7:-0.630769 8:0.27154 9:0.525182 10:-0.143323 11:-0.997914 12:0.817814 13:0.81405 14:0.829787 15:0.775051 16:-0.478261 17:-0.784615 18:0.237598 19:0.520655 20:-0.190604 21:-0.997914 22:0.797571 23:0.793388 24:0.851064 25:0.815951 26:-0.130435 27:-0.815385 28:0.345808 29:0.517282 30:-0.118507 
2048 1:-0.997914 2:0.817814 3:0.81405 4:0.829787 5:0.775051 6:-0.478261 7:-0.784615 8:0.237598 9:0.520655 10:-0.190604 11:-0.997914 12:0.797571 13:0.793388 14:0.851064 15:0.815951 16:-0.130435 17:-0.815385 18:0.345808 19:0.517282 20:-0.118507 21:-0.997914 22:0.777328 23:0.793388 24:0.829787 25:0.754601 26:-0.565217 27:-0.723077 28:0.238758 29:0.50309 30:-0.302297 
2048 1:-0.997914 2:0.777328 3:0.793388 4:0.829787 5:0.754601 6:-0.565217 7:-0.723077 8:0.238758 9:0.50309 10:-0.302297 11:-0.995829 12:0.736842 13:0.710744 14:0.765957 15:0.713701 16:-0.478261 17:-0.661538 18:0.0774587 19:0.515381 20:-0.242403 21:-0.989572 22:0.676113 23:0.690083 24:0.765957 25:0.734151 26:-0.217391 27:-0.661538 28:0.383812 29:0.48136 30:-0.263308 
2048 1:-0.989572 2:0.676113 3:0.690083 4:0.765957 5:0.734151 6:-0.217391 7:-0.661538 8:0.383812 9:0.48136 10:-0.263308 11:-0.991658 12:0.676113 13:0.690083 14:0.723404 15:0.693252 16:-0.478261 17:-0.538462 18:0.00348129 19:0.543697 20:-0.341817 21:-0.98123 22:0.65587 23:0.64876 24:0.595745 25:0.529652 26:-1 27:0.446154 28:-0.741224 29:0.458159 30:-0.672076 
2048 1:-0.979145 2:0.331984 3:0.566116 4:0.382979 5:0.570552 6:0.478261 7:0.2 8:-0.421816 9:0.539713 10:-0.272995 11:-0.989572 12:0.473684 13:0.483471 14:0.510638 15:0.447853 16:-0.826087 17:-0.323077 18:-0.462141 19:0.437402 20:-0.329008 21:-0.987487 22:0.392713 23:0.359504 24:0.382979 25:0.325153 26:-0.826087 27:-0.2 28:-0.614157 29:0.498744 30:-0.489059 
271.8033778941224 1:-0.987487 2:0.392713 3:0.359504 4:0.382979 5:0.325153 6:-0.826087 7:-0.2 8:-0.614157 9:0.498744 10:-0.489059 11:-0.987487 12:0.271255 13:0.318182 14:0.297872 15:0.263804 16:-0.565217 17:-0.138462 18:0.237888 19:0.535503 20:-0.515011 21:-0.995829 22:0.311741 23:0.297521 24:0.361702 25:0.325153 26:-0.0434783 27:-0.661538 28:0.208007 29:0.544693 30:-0.224182 
2048 1:-0.995829 2:0.352227 3:0.318182 4:0.340426 5:0.304703 6:-0.391304 7:-0.753846 8:0.0571511 9:0.513887 10:-0.217497 11:-0.995829 12:0.291498 13:0.297521 14:0.319149 15:0.325153 16:-0.217391 17:-0.753846 18:0.0913838 19:0.515471 20:-0.0575671 21:-1 22:0.352227 23:0.359504 24:0.404255 25:0.406953 26:0.0434783 27:-0.846154 28:0.333043 29:0.534847 30:-0.116764 
2048 1:-0.995829 2:0.291498 3:0.297521 4:0.319149 5:0.325153 6:-0.217391 7:-0.753846 8:0.0913838 9:0.515471 10:-0.0575671 11:-1 12:0.352227 13:0.359504 14:0.404255 15:0.406953 16:0.0434783 17:-0.846154 18:0.333043 19:0.534847 20:-0.116764 21:-0.997914 22:0.433198 23:0.400826 24:0.468085 25:0.406953 26:-0.304348 27:-0.753846 28:-0.0261097 29:0.536024 30:-0.122191 
2048 1:-1 2:0.352227 3:0.359504 4:0.404255 5:0.406953 6:0.0434783 7:-0.846154 8:0.333043 9:0.534847 10:-0.116764 11:-0.997914 12:0.433198 13:0.400826 14:0.468085 15:0.406953 16:-0.304348 17:-0.753846 18:-0.0261097 19:0.536024 20:-0.122191 21:-0.997914 22:0.412955 23:0.400826 24:0.425532 25:0.366053 26:-0.478261 27:-0.815385 28:0.0800696 29:0.50902 30:-0.200185 
2048 1:-0.997914 2:0.37247 3:0.359504 4:0.425532 5:0.386503 6:-0.217391 7:-0.876923 8:0.263998 9:0.515833 10:-0.155723 11:-0.993743 12:0.412955 13:0.442149 14:0.468085 15:0.406953 16:-0.217391 17:-0.630769 18:0.254714 19:0.506757 20:-0.0801998 21:-0.993743 22:0.453441 23:0.442149 24:0.489362 25:0.447853 26:-0.130435 27:-0.661538 28:0.355381 29:0.542792 30:-0.239478 
2048 1:-0.993743 2:0.554656 3:0.524793 4:0.574468 5:0.550102 6:-0.130435 7:-0.630769 8:0.250943 9:0.522194 10:0.0219278 11:-0.993743 12:0.574899 13:0.566116 14:0.595745 15:0.591002 16:-0.130435 17:-0.661538 18:0.266899 19:0.476131 20:0.0666475 21:-0.991658 22:0.595142 23:0.628099 24:0.659574 25:0.652352 26:-0.0434783 27:-0.569231 28:0.224833 29:0.586274 30:0.0905535 
2048 1:-0.993743 2:0.574899 3:0.566116 4:0.595745 5:0.591002 6:-0.130435 7:-0.661538 8:0.266899 9:0.476131 10:0.0666475 11:-0.991658 12:0.595142 13:0.628099 14:0.659574 15:0.652352 16:-0.0434783 17:-0.569231 18:0.224833 19:0.586274 20:0.0905535 21:-0.995829 22:0.595142 23:0.607438 24:0.638298 25:0.611452 26:-0.478261 27:-0.784615 28:0.306934 29:0.520383 30:-0.0998916 
2048 1:-0.991658 2:0.595142 3:0.628099 4:0.659574 5:0.652352 6:-0.0434783 7:-0.569231 8:0.224833 9:0.586274 10:0.0905535 11:-0.995829 12:0.595142 13:0.607438 14:0.638298 15:0.611452 16:-0.478261 17:-0.784615 18:0.306934 19:0.520383 20:-0.0998916 21:-0.995829 22:0.615385 23:0.607438 24:0.553191 25:0.509202 26:-0.73913 27:-0.723077 28:-1 29:0.492429 30:-0.127042 
136.3042784594862 1:-0.995829 2:0.615385 3:0.607438 4:0.553191 5:0.509202 6:-0.73913 7:-0.723077 8:-1 9:0.492429 10:-0.127042 11:-0.995829 12:0.51417 13:0.545455 14:0.553191 15:0.509202 16:-0.304348 17:-0.815385 18:0.144764 19:0.502071 20:-0.13873 21:-0.995829 22:0.554656 23:0.545455 24:0.595745 25:0.570552 26:-0.0434783 27:-0.784615 28:0.264578 29:0.511352 30:-0.0900684 
2048 1:-0.995829 2:0.51417 3:0.545455 4:0.553191 5:0.509202 6:-0.304348 7:-0.815385 8:0.144764 9:0.502071 10:-0.13873 11:-0.995829 12:0.554656 13:0.545455 14:0.595745 15:0.570552 16:-0.0434783 17:-0.784615 18:0.264578 19:0.511352 20:-0.0900684 21:-0.997914 22:0.51417 23:0.545455 24:0.595745 25:0.550102 26:-0.391304 27:-0.876923 28:0.24456 29:0.522443 30:-0.154389 
-2048 1:-0.995829 2:-0.801619 3:-0.818182 4:-0.808511 5:-0.766871 6:-0.426087 7:-0.507692 8:0.145924 9:0.535051 10:-0.284303 11:-0.997914 12:-0.813765 13:-0.826446 14:-0.8 15:-0.779141 16:-0.356522 17:-0.753846 18:-0.0612126 19:0.533579 20:-0.26302 21:-0.995829 22:-0.817814 23:-0.871901 24:-0.880851 25:-0.885481 26:-0.756522 27:-0.446154 28:0.0211778 29:0.498042 30:-0.438473 
-2048 1:-0.997914 2:-0.813765 3:-0.826446 4:-0.8 5:-0.779141 6:-0.356522 7:-0.753846 8:-0.0612126 9:0.533579 10:-0.26302 11:-0.995829 12:-0.817814 13:-0.871901 14:-0.880851 15:-0.885481 16:-0.756522 17:-0.446154 18:0.0211778 19:0.498042 20:-0.438473 21:-0.997914 22:-0.862348 23:-0.900826 24:-0.876596 25:-0.848671 26:-0.147826 27:-0.723077 28:-0.171744 29:0.490482 30:-0.0876127 
-2048 1:-0.997914 2:-0.906883 3:-0.966942 4:-0.974468 5:-0.97955 6:-0.686957 7:-0.569231 8:0.0464172 9:0.467349 10:-0.304859 11:-0.997914 12:-0.97166 13:-1 14:-0.991489 15:-0.99591 16:-0.373913 17:-0.723077 18:0.304032 19:0.473483 20:-0.11499 21:-0.997914 22:-0.963563 23:-0.971074 24:-0.961702 25:-0.91002 26:0.0608696 27:-0.692308 28:0.303742 29:0.486045 30:0.0132264 
-2048 1:-1 2:-0.862348 3:-0.921488 4:-0.889362 5:-0.889571 6:-0.33913 7:-0.876923 8:0.304032 9:0.513841 10:-0.0956774 11:-0.997914 12:-0.955466 13:-0.946281 14:-0.948936 15:-0.897751 16:-0.33913 17:-0.784615 18:0.523644 19:0.510559 20:-0.14684 21:-0.995829 22:-0.923077 23:-0.847107 24:-0.914894 25:-0.787321 26:0.165217 27:-0.569231 28:0.149405 29:0.574617 30:0.0246261 
-2048 1:-0.997914 2:-0.955466 3:-0.946281 4:-0.948936 5:-0.897751 6:-0.33913 7:-0.784615 8:0.523644 9:0.510559 10:-0.14684 11:-0.995829 12:-0.923077 13:-0.847107 14:-0.914894 15:-0.787321 16:0.165217 17:-0.569231 18:0.149405 19:0.574617 20:0.0246261 21:-1 22:-0.777328 23:-0.809917 24:-0.761702 25:-0.770961 26:-0.234783 27:-0.907692 28:0.516101 29:0.501732 30:-0.0648587 
-2048 1:-0.997914 2:-0.781377 3:-0.834711 4:-0.838298 5:-0.836401 6:-0.617391 7:-0.661538 8:0.315637 9:0.499355 10:-0.324718 11:-0.993743 12:-0.947368 13:-0.942149 14:-0.944681 15:-0.91411 16:-0.634783 17:-0.476923 18:-0.13432 19:0.552842 20:-0.431348 21:-0.997914 22:-0.910931 23:-0.880165 24:-0.902128 25:-0.836401 26:0.026087 27:-0.723077 28:0.200464 29:0.526268 30:-0.100271 
-2048 1:-0.993743 2:-0.947368 3:-0.942149 4:-0.944681 5:-0.91411 6:-0.634783 7:-0.476923 8:-0.13432 9:0.552842 10:-0.431348 11:-0.997914 12:-0.910931 13:-0.880165 14:-0.902128 15:-0.836401 16:0.026087 17:-0.723077 18:0.200464 19:0.526268 20:-0.100271 21:-0.997914 22:-0.821862 23:-0.880165 24:-0.868085 25:-0.832311 26:-0.286957 27:-0.753846 28:0.247462 29:0.536975 30:-0.159755 
-2048 1:-0.997914 2:-0.821862 3:-0.847107 4:-0.817021 5:-0.791411 6:-0.130435 7:-0.753846 8:0.304032 9:0.50558 10:-0.0249293 11:-0.997914 12:-0.793522 13:-0.85124 14:-0.842553 15:-0.832311 16:-0.478261 17:-0.784615 18:0.290107 19:0.524865 20:-0.215784 21:-1 22:-0.854251 23:-0.85124 24:-0.846809 25:-0.832311 26:-0.304348 27:-0.815385 28:0.304032 29:0.525317 30:-0.142277 
-2048 1:-0.993743 2:-0.842105 3:-0.756198 4:-0.838298 5:-0.758691 6:0.0434783 7:-0.230769 8:0.35103 9:0.601145 10:-0.153267 11:-0.995829 12:-0.801619 13:-0.838843 14:-0.829787 15:-0.779141 16:-0.391304 17:-0.6 18:-0.070206 19:0.451912 20:-0.0241714 21:-0.997914 22:-0.82996 23:-0.842975 24:-0.817021 25:-0.791411 26:-0.356522 27:-0.723077 28:0.314186 29:0.517735 30:-0.192226 
-2048 1:-0.995829 2:-0.801619 3:-0.838843 4:-0.829787 5:-0.779141 6:-0.391304 7:-0.6 8:-0.070206 9:0.451912 10:-0.0241714 11:-0.997914 12:-0.82996 13:-0.842975 14:-0.817021 15:-0.791411 16:-0.356522 17:-0.723077 18:0.314186 19:0.517735 20:-0.192226 21:-0.997914 22:-0.753036 23:-0.77686 24:-0.757447 25:-0.717791 26:0.00869565 27:-0.630769 28:0.228605 29:0.525363 30:0.0517308 
-2048 1:-0.997914 2:-0.82996 3:-0.842975 4:-0.817021 5:-0.791411 6:-0.356522 7:-0.723077 8:0.314186 9:0.517735 10:-0.192226 11:-0.997914 12:-0.753036 13:-0.77686 14:-0.757447 15:-0.717791 16:0.00869565 17:-0.630769 18:0.228605 19:0.525363 20:0.0517308 21:-0.995829 22:-0.680162 23:-0.735537 24:-0.702128 25:-0.676892 26:-0.130435 27:-0.476923 28:0.304032 29:0.507526 30:0.104834 
-2048 1:-0.995829 2:-0.680162 3:-0.735537 4:-0.702128 5:-0.676892 6:-0.130435 7:-0.476923 8:0.304032 9:0.507526 10:0.104834 11:-0.991658 12:-0.659919 13:-0.632231 14:-0.659574 15:-0.578732 16:0.113043 17:-0.261538 18:0.304032 19:0.612237 20:0.101999 21:-0.995829 22:-0.574899 23:-0.599174 24:-0.617021 25:-0.631902 26:-0.530435 27:-0.569231 28:0.202205 29:0.465153 30:-0.10306 
-2048 1:-0.995829 2:-0.574899 3:-0.599174 4:-0.617021 5:-0.631902 6:-0.530435 7:-0.569231 8:0.202205 9:0.465153 10:-0.10306 11:-0.997914 12:-0.635628 13:-0.632231 14:-0.634043 15:-0.574642 16:-0.0608696 17:-0.630769 18:0.27096 19:0.546368 20:-0.0493205 21:-1 22:-0.591093 23:-0.619835 24:-0.587234 25:-0.582822 26:-0.33913 27:-0.815385 28:0.43139 29:0.512506 30:-0.0694974 
-2048 1:-0.997914 2:-0.635628 3:-0.632231 4:-0.634043 5:-0.574642 6:-0.0608696 7:-0.630769 8:0.27096 9:0.546368 10:-0.0493205 11:-1 12:-0.591093 13:-0.619835 14:-0.587234 15:-0.582822 16:-0.33913 17:-0.815385 18:0.43139 19:0.512506 20:-0.0694974 21:-1 22:-0.566802 23:-0.61157 24:-0.561702 25:-0.574642 26:-0.269565 27:-0.815385 28:0.385263 29:0.501732 30:-0.0264452 
-2048 1:-1 2:-0.591093 3:-0.619835 4:-0.587234 5:-0.582822 6:-0.33913 7:-0.815385 8:0.43139 9:0.512506 10:-0.0694974 11:-1 12:-0.566802 13:-0.61157 14:-0.561702 15:-0.574642 16:-0.269565 17:-0.815385 18:0.385263 19:0.501732 20:-0.0264452 21:-1 22:-0.578947 23:-0.623967 24:-0.582979 25:-0.566462 26:-0.269565 27:-0.846154 28:0.299681 29:0.522194 30:-0.0420895 
-2048 1:-1 2:-0.578947 3:-0.623967 4:-0.582979 5:-0.566462 6:-0.269565 7:-0.846154 8:0.299681 9:0.522194 10:-0.0420895 11:-0.997914 12:-0.546559 13:-0.590909 14:-0.53617 15:-0.533742 16:-0.165217 17:-0.753846 18:0.304032 19:0.516218 20:0.063176 21:-0.997914 22:-0.538462 23:-0.582645 24:-0.595745 25:-0.603272 26:-0.6 27:-0.661538 28:0.363504 29:0.511125 30:-0.105122 
-2048 1:-0.997914 2:-0.538462 3:-0.582645 4:-0.595745 5:-0.603272 6:-0.6 7:-0.661538 8:0.363504 9:0.511125 10:-0.105122 11:-0.997914 12:-0.595142 13:-0.590909 14:-0.570213 15:-0.574642 16:-0.182609 17:-0.784615 18:0.43313 19:0.573893 20:-0.00896667 21:-0.997914 22:-0.54251 23:-0.586777 24:-0.574468 25:-0.595092 26:-0.391304 27:-0.784615 28:0.304032 29:0.481247 30:-0.00435827 
-2048 1:-0.997914 2:-0.595142 3:-0.590909 4:-0.570213 5:-0.574642 6:-0.182609 7:-0.784615 8:0.43313 9:0.573893 10:-0.00896667 11:-0.997914 12:-0.54251 13:-0.586777 14:-0.574468 15:-0.595092 16:-0.391304 17:-0.784615 18:0.304032 19:0.481247 20:-0.00435827 21:-0.991658 22:-0.578947 23:-0.590909 24:-0.557447 25:-0.533742 26:-0.0434783 27:-0.630769 28:-0.21642 29:0.547862 30:0.200716 
-2048 1:-0.997914 2:-0.522267 3:-0.566116 4:-0.531915 5:-0.513292 6:-0.217391 7:-0.784615 8:0.314186 9:0.482446 10:0.102317 11:-1 12:-0.518219 13:-0.570248 14:-0.531915 15:-0.521472 16:-0.33913 17:-0.876923 18:0.332463 19:0.502909 20:-0.0198207 21:-1 22:-0.538462 23:-0.570248 24:-0.52766 25:-0.525562 26:-0.321739 27:-0.907692 28:0.304032 29:0.527083 30:-0.0334336 
-2048 1:-0.997914 2:-0.534413 3:-0.566116 4:-0.553191 5:-0.574642 6:-0.617391 7:-0.692308 8:0.282855 9:0.526132 10:-0.295718 11:-0.995829 12:-0.57085 13:-0.623967 14:-0.629787 15:-0.648262 16:-0.617391 17:-0.569231 18:0.293879 19:0.490097 20:-0.194894 21:-0.997914 22:-0.659919 23:-0.677686 24:-0.668085 25:-0.635992 26:-0.252174 27:-0.753846 28:0.179867 29:0.49648 30:-0.124116 
-367.7497040366026 1:-0.997914 2:-0.659919 3:-0.677686 4:-0.668085 5:-0.635992 6:-0.252174 7:-0.753846 8:0.179867 9:0.49648 10:-0.124116 11:-1 12:-0.65587 13:-0.677686 14:-0.642553 15:-0.619632 16:-0.234783 17:-0.907692 18:0.293879 19:0.50558 20:-0.0429839 21:0.891554 22:-0.62753 23:-0.677686 24:-0.651064 25:-0.648262 26:-0.426087 27:-0.938462 28:0.29794 29:0.504108 30:-0.115293 
-1123.234747355668 1:-1 2:-0.65587 3:-0.677686 4:-0.642553 5:-0.619632 6:-0.234783 7:-0.907692 8:0.293879 9:0.50558 10:-0.0429839 11:0.891554 12:-0.62753 13:-0.677686 14:-0.651064 15:-0.648262 16:-0.426087 17:-0.938462 18:0.29794 19:0.504108 20:-0.115293 21:-1 22:-0.62753 23:-0.64876 24:-0.629787 25:-0.615542 26:-0.165217 27:-0.846154 28:0.302292 29:0.509699 30:-0.0353589 
-2048 1:-1 2:-0.62753 3:-0.64876 4:-0.629787 5:-0.615542 6:-0.165217 7:-0.846154 8:0.302292 9:0.509699 10:-0.0353589 11:-0.997914 12:-0.607287 13:-0.599174 14:-0.582979 15:-0.546012 16:-0.00869565 17:-0.723077 18:0.829417 19:0.5396 20:0.077744 21:-1 22:-0.578947 23:-0.599174 24:-0.578723 25:-0.599182 26:-0.530435 27:-0.815385 28:0.299681 29:0.52276 30:-0.212403 
-1623.482372233671 1:-1 2:-0.587045 3:-0.619835 4:-0.629787 5:-0.635992 6:-0.495652 7:-0.846154 8:0.284885 9:0.523575 10:-0.215723 11:-0.993743 12:-0.65587 13:-0.657025 14:-0.714894 15:-0.730061 16:-0.704348 17:-0.353846 18:0.303742 19:0.515426 20:-0.388508 21:-1 22:-0.708502 23:-0.735537 24:-0.702128 25:-0.685072 26:-0.113043 27:-0.784615 28:0.301712 29:0.507232 30:0.000250127 
-2048 1:-1 2:-0.874494 3:-0.917355 4:-0.893617 5:-0.885481 6:-0.356522 7:-0.784615 8:0.233536 9:0.521945 10:-0.259685 11:-0.995829 12:-0.88664 13:-0.942149 14:-0.953191 15:-0.95092 16:-0.582609 17:-0.507692 18:0.21671 19:0.486838 20:-0.427876 21:-0.997914 22:-0.94332 23:-0.995868 24:-1 25:-1 26:-0.513043 27:-0.569231 28:-0.396287 29:0.514928 30:-0.393116 
-2048 1:-0.997914 2:-1 3:-0.971074 4:-1 5:-0.91002 6:0.0782609 7:-0.692308 8:0.307804 9:0.50816 10:-0.106501 11:-0.997914 12:-0.910931 13:-0.942149 14:-0.961702 15:-0.94274 16:-0.443478 17:-0.753846 18:0.279373 19:0.526562 20:-0.334571 21:-1 22:-0.947368 23:-1 24:-0.978723 25:-0.97137 26:-0.426087 27:-0.815385 28:0.304032 29:0.528735 30:-0.336527 
-2048 1:-1 2:-0.947368 3:-1 4:-0.978723 5:-0.97137 6:-0.426087 7:-0.815385 8:0.304032 9:0.528735 10:-0.336527 11:-0.993743 12:-0.902834 13:-0.946281 14:-0.957447 15:-0.92638 16:-0.113043 17:-0.261538 18:0.304032 19:0.503226 20:-0.736775 21:-1 22:-0.939271 23:-0.987603 24:-0.957447 25:-0.94274 26:-0.373913 27:-0.692308 28:0.304032 29:0.521288 30:-0.329175 
-2048 1:-0.993743 2:-0.902834 3:-0.946281 4:-0.957447 5:-0.92638 6:-0.113043 7:-0.261538 8:0.304032 9:0.503226 10:-0.736775 11:-1 12:-0.939271 13:-0.987603 14:-0.957447 15:-0.94274 16:-0.373913 17:-0.692308 18:0.304032 19:0.521288 20:-0.329175 21:-0.997914 22:-0.935223 23:-0.975207 24:-0.93617 25:-0.93047 26:-0.252174 27:-0.753846 28:0.285756 29:0.559044 30:-0.355127 
-2048 1:-0.997914 2:-0.931174 3:-0.983471 4:-0.957447 5:-0.92638 6:-0.286957 7:-0.784615 8:0.145344 9:0.506938 10:-0.279452 11:-1 12:-0.927126 13:-0.975207 14:-0.944681 15:-0.93456 16:-0.33913 17:-0.815385 18:0.267769 19:0.507436 20:-0.296886 21:-1 22:-0.931174 23:-0.971074 24:-0.93617 25:-0.94274 26:-0.33913 27:-0.846154 28:0.307224 29:0.50481 30:-0.235081 
-2048 1:-1 2:-0.931174 3:-0.971074 4:-0.93617 5:-0.94274 6:-0.33913 7:-0.846154 8:0.307224 9:0.50481 10:-0.235081 11:-0.993743 12:-0.927126 13:-0.85124 14:-0.92766 15:-0.803681 16:0.286957 17:-0.446154 18:0.29765 19:0.590348 20:0.0732266 21:-0.997914 22:-0.809717 23:-0.863636 24:-0.834043 25:-0.844581 26:-0.478261 27:-0.692308 28:0.304032 29:0.484484 30:-0.199867 
-2048 1:-0.997914 2:-0.809717 3:-0.863636 4:-0.834043 5:-0.844581 6:-0.478261 7:-0.692308 8:0.304032 9:0.484484 10:-0.199867 11:-0.995829 12:-0.801619 13:-0.768595 14:-0.791489 15:-0.762781 16:0.0434783 17:-0.476923 18:0.599942 19:0.5396 20:-0.150448 21:-1 22:-0.761134 23:-0.797521 24:-0.765957 25:-0.775051 26:-0.356522 27:-0.846154 28:0.329272 29:0.507934 30:-0.199457 
-2048 1:-0.995829 2:-0.801619 3:-0.768595 4:-0.791489 5:-0.762781 6:0.0434783 7:-0.476923 8:0.599942 9:0.5396 10:-0.150448 11:-1 12:-0.761134 13:-0.797521 14:-0.765957 15:-0.775051 16:-0.356522 17:-0.846154 18:0.329272 19:0.507934 20:-0.199457 21:-1 22:-0.757085 23:-0.801653 24:-0.761702 25:-0.762781 26:-0.252174 27:-0.846154 28:0.332463 29:0.502682 30:-0.140321 
-2048 1:-1 2:-0.761134 3:-0.797521 4:-0.765957 5:-0.775051 6:-0.356522 7:-0.846154 8:0.329272 9:0.507934 10:-0.199457 11:-1 12:-0.757085 13:-0.801653 14:-0.761702 15:-0.762781 16:-0.252174 17:-0.846154 18:0.332463 19:0.502682 20:-0.140321 21:-0.997914 22:-0.740891 23:-0.760331 24:-0.744681 25:-0.717791 26:-0.113043 27:-0.753846 28:0.304032 29:0.508296 30:0.0622058 
-2048 1:-1 2:-0.757085 3:-0.801653 4:-0.761702 5:-0.762781 6:-0.252174 7:-0.846154 8:0.332463 9:0.502682 10:-0.140321 11:-0.997914 12:-0.740891 13:-0.760331 14:-0.744681 15:-0.717791 16:-0.113043 17:-0.753846 18:0.304032 19:0.508296 20:0.0622058 21:-0.991658 22:-0.720648 23:-0.752066 24:-0.719149 25:-0.693252 26:-0.2 27:-0.753846 28:0.29823 29:0.503791 30:-0.0840654 
-2048 1:-0.991658 2:-0.720648 3:-0.752066 4:-0.719149 5:-0.693252 6:-0.2 7:-0.753846 8:0.29823 9:0.503791 10:-0.0840654 11:-0.997914 12:-0.716599 13:-0.714876 14:-0.697872 15:-0.672802 16:-0.217391 17:-0.692308 18:0.319988 19:0.550556 20:-0.0386029 21:-0.997914 22:-0.672065 23:-0.72314 24:-0.714894 25:-0.725971 26:-0.530435 27:-0.753846 28:0.302292 29:0.509631 30:-0.17355 
-2048 1:-0.997914 2:-0.716599 3:-0.714876 4:-0.697872 5:-0.672802 6:-0.217391 7:-0.692308 8:0.319988 9:0.550556 10:-0.0386029 11:-0.997914 12:-0.672065 13:-0.72314 14:-0.714894 15:-0.725971 16:-0.530435 17:-0.753846 18:0.302292 19:0.509631 20:-0.17355 21:-1 22:-0.720648 23:-0.747934 24:-0.702128 25:-0.697342 26:-0.182609 27:-0.876923 28:0.304032 29:0.538853 30:-0.0145756 
-2048 1:-1 2:-0.720648 3:-0.747934 4:-0.702128 5:-0.697342 6:-0.182609 7:-0.876923 8:0.304032 9:0.538853 10:-0.0145756 11:-0.0782065 12:-0.704453 13:-0.743802 14:-0.693617 15:-0.689162 16:-0.269565 17:-1 18:0.304032 19:0.524752 20:-0.118052 21:-1 22:-0.708502 23:-0.698347 24:-0.697872 25:-0.689162 26:-0.304348 27:-0.815385 28:0.29794 29:0.556712 30:-0.122737 
-2048 1:-0.0782065 2:-0.704453 3:-0.743802 4:-0.693617 5:-0.689162 6:-0.269565 7:-1 8:0.304032 9:0.524752 10:-0.118052 11:-1 12:-0.708502 13:-0.698347 14:-0.697872 15:-0.689162 16:-0.304348 17:-0.815385 18:0.29794 19:0.556712 20:-0.122737 21:-0.997914 22:-0.668016 23:-0.706612 24:-0.655319 25:-0.652352 26:-0.147826 27:-0.753846 28:0.308674 29:0.523846 30:-0.000219809 
-2048 1:-0.997914 2:-0.668016 3:-0.706612 4:-0.655319 5:-0.652352 6:-0.147826 7:-0.753846 8:0.308674 9:0.523846 10:-0.000219809 11:-0.995829 12:-0.639676 13:-0.673554 14:-0.634043 15:-0.644172 16:-0.269565 17:-0.630769 18:0.304032 19:0.511623 20:-0.0170162 21:-0.995829 22:-0.704453 23:-0.756198 24:-0.740426 25:-0.754601 26:-0.773913 27:-0.476923 28:0.173484 29:0.502546 30:-0.375274 
-320.3634607744149 1:-0.995829 2:-0.639676 3:-0.673554 4:-0.634043 5:-0.644172 6:-0.269565 7:-0.630769 8:0.304032 9:0.511623 10:-0.0170162 11:-0.995829 12:-0.704453 13:-0.756198 14:-0.740426 15:-0.754601 16:-0.773913 17:-0.476923 18:0.173484 19:0.502546 20:-0.375274 21:-0.997914 22:-0.781377 23:-0.760331 24:-0.765957 25:-0.701431 26:-0.0782609 27:-0.784615 28:0.27154 29:0.518119 30:-0.0877036 
-2048 1:-0.997914 2:-0.781377 3:-0.760331 4:-0.765957 5:-0.701431 6:-0.0782609 7:-0.784615 8:0.27154 9:0.518119 10:-0.0877036 11:-1 12:-0.728745 13:-0.743802 14:-0.714894 15:-0.689162 16:-0.252174 17:-0.846154 18:0.0699159 19:0.519704 20:-0.0502149 21:-0.997914 22:-0.720648 23:-0.772727 24:-0.740426 25:-0.746421 26:-0.547826 27:-0.784615 28:0.287206 29:0.50945 30:-0.312712 
-2048 1:-1 2:-0.728745 3:-0.743802 4:-0.714894 5:-0.689162 6:-0.252174 7:-0.846154 8:0.0699159 9:0.519704 10:-0.0502149 11:-0.997914 12:-0.720648 13:-0.772727 14:-0.740426 15:-0.746421 16:-0.547826 17:-0.784615 18:0.287206 19:0.50945 20:-0.312712 21:-0.997914 22:-0.732794 23:-0.752066 24:-0.723404 25:-0.725971 26:-0.217391 27:-0.784615 28:0.258486 29:0.539238 30:-0.129467 
-2048 1:-0.997914 2:-0.720648 3:-0.772727 4:-0.740426 5:-0.746421 6:-0.547826 7:-0.784615 8:0.287206 9:0.50945 10:-0.312712 11:-0.997914 12:-0.732794 13:-0.752066 14:-0.723404 15:-0.725971 16:-0.217391 17:-0.784615 18:0.258486 19:0.539238 20:-0.129467 21:-0.997914 22:-0.684211 23:-0.72314 24:-0.676596 25:-0.676892 26:-0.0956522 27:-0.784615 28:0.295909 29:0.540053 30:-0.0138934 
-2048 1:-0.997914 2:-0.732794 3:-0.752066 4:-0.723404 5:-0.725971 6:-0.217391 7:-0.784615 8:0.258486 9:0.539238 10:-0.129467 11:-0.997914 12:-0.684211 13:-0.72314 14:-0.676596 15:-0.676892 16:-0.0956522 17:-0.784615 18:0.295909 19:0.540053 20:-0.0138934 21:-0.997914 22:-0.688259 23:-0.714876 24:-0.676596 25:-0.668712 26:-0.269565 27:-0.815385 28:0.304032 29:0.525385 30:-0.117203 
-2048 1:-0.997914 2:-0.684211 3:-0.72314 4:-0.676596 5:-0.676892 6:-0.0956522 7:-0.784615 8:0.295909 9:0.540053 10:-0.0138934 11:-0.997914 12:-0.688259 13:-0.714876 14:-0.676596 15:-0.668712 16:-0.269565 17:-0.815385 18:0.304032 19:0.525385 20:-0.117203 21:-0.997914 22:-0.672065 23:-0.694215 24:-0.651064 25:-0.635992 26:-0.165217 27:-0.723077 28:0.304032 29:0.515901 30:-0.0178348 
-2048 1:-0.997914 2:-0.672065 3:-0.694215 4:-0.651064 5:-0.635992 6:-0.165217 7:-0.723077 8:0.304032 9:0.515901 10:-0.0178348 11:-0.993743 12:-0.619433 13:-0.632231 14:-0.595745 15:-0.578732 16:-0.0608696 17:-0.415385 18:0.275022 19:0.484212 20:0.0268849 21:-0.991658 22:-0.57085 23:-0.623967 24:-0.655319 25:-0.635992 26:-0.547826 27:-0.261538 28:0.288367 29:0.513298 30:-0.340165 
-2048 1:-0.993743 2:-0.619433 3:-0.632231 4:-0.595745 5:-0.578732 6:-0.0608696 7:-0.415385 8:0.275022 9:0.484212 10:0.0268849 11:-0.991658 12:-0.57085 13:-0.623967 14:-0.655319 15:-0.635992 16:-0.547826 17:-0.261538 18:0.288367 19:0.513298 20:-0.340165 21:-1 22:-0.659919 23:-0.669421 24:-0.646809 25:-0.615542 26:-0.217391 27:-0.815385 28:0.29823 29:0.534688 30:-0.109381 
-2048 1:-0.997914 2:-0.651822 3:-0.652893 4:-0.646809 5:-0.595092 6:-0.217391 7:-0.723077 8:0.305193 9:0.533013 10:-0.110867 11:-1 12:-0.619433 13:-0.636364 14:-0.595745 15:-0.595092 16:-0.304348 17:-0.815385 18:0.304032 19:0.506145 20:-0.0501997 21:-0.997914 22:-0.591093 23:-0.636364 24:-0.587234 25:-0.595092 26:-0.304348 27:-0.815385 28:0.304032 29:0.507504 30:-0.0542018 
-2048 1:-1 2:-0.619433 3:-0.636364 4:-0.595745 5:-0.595092 6:-0.304348 7:-0.815385 8:0.304032 9:0.506145 10:-0.0501997 11:-0.997914 12:-0.591093 13:-0.636364 14:-0.587234 15:-0.595092 16:-0.304348 17:-0.815385 18:0.304032 19:0.507504 20:-0.0542018 21:-0.997914 22:-0.59919 23:-0.615702 24:-0.574468 25:-0.586912 26:-0.269565 27:-0.784615 28:0.304032 29:0.540166 30:0.014333 
-2048 1:-0.997914 2:-0.566802 3:-0.61157 4:-0.553191 5:-0.562372 6:-0.2 7:-0.815385 8:0.266899 9:0.566197 10:-0.0214579 11:-1 12:-0.578947 13:-0.619835 14:-0.570213 15:-0.574642 16:-0.356522 17:-0.846154 18:0.27067 19:0.502977 20:-0.150311 21:-0.997914 22:-0.59919 23:-0.652893 24:-0.617021 25:-0.635992 26:-0.565217 27:-0.692308 28:0.24224 29:0.5274 30:-0.335693 
-2048 1:-1 2:-0.578947 3:-0.619835 4:-0.570213 5:-0.574642 6:-0.356522 7:-0.846154 8:0.27067 9:0.502977 10:-0.150311 11:-0.997914 12:-0.59919 13:-0.652893 14:-0.617021 15:-0.635992 16:-0.565217 17:-0.692308 18:0.24224 19:0.5274 20:-0.335693 21:-1 22:-0.619433 23:-0.661157 24:-0.608511 25:-0.611452 26:-0.2 27:-0.876923 28:0.311285 29:0.50782 30:-0.102075 
-2048 1:-0.997914 2:-0.59919 3:-0.652893 4:-0.617021 5:-0.635992 6:-0.565217 7:-0.692308 8:0.24224 9:0.5274 10:-0.335693 11:-1 12:-0.619433 13:-0.661157 14:-0.608511 15:-0.611452 16:-0.2 17:-0.876923 18:0.311285 19:0.50782 20:-0.102075 21:-0.997914 22:-0.611336 23:-0.632231 24:-0.587234 25:-0.595092 26:-0.234783 27:-0.723077 28:0.304032 29:0.534462 30:-0.131332 
-2048 1:-1 2:-0.619433 3:-0.661157 4:-0.608511 5:-0.611452 6:-0.2 7:-0.876923 8:0.311285 9:0.50782 10:-0.102075 11:-0.997914 12:-0.611336 13:-0.632231 14:-0.587234 15:-0.595092 16:-0.234783 17:-0.723077 18:0.304032 19:0.534462 20:-0.131332 21:-0.997914 22:-0.595142 23:-0.61157 24:-0.570213 25:-0.562372 26:-0.165217 27:-0.723077 28:0.327241 29:0.522669 30:-0.00593483 
-2048 1:-0.997914 2:-0.595142 3:-0.61157 4:-0.570213 5:-0.562372 6:-0.165217 7:-0.723077 8:0.327241 9:0.522669 10:-0.00593483 11:-0.997914 12:-0.54251 13:-0.595041 14:-0.553191 15:-0.554192 16:-0.269565 17:-0.692308 18:0.43168 19:0.505444 20:-0.108699 21:-1 22:-0.558704 23:-0.607438 24:-0.553191 25:-0.554192 26:-0.304348 27:-0.846154 28:0.381491 29:0.513841 30:-0.0527768 
-2048 1:-0.997914 2:-0.54251 3:-0.595041 4:-0.553191 5:-0.554192 6:-0.269565 7:-0.692308 8:0.43168 9:0.505444 10:-0.108699 11:-1 12:-0.558704 13:-0.607438 14:-0.553191 15:-0.554192 16:-0.304348 17:-0.846154 18:0.381491 19:0.513841 20:-0.0527768 21:-0.997914 22:-0.550607 23:-0.557851 24:-0.523404 25:-0.513292 26:-0.130435 27:-0.6 28:0.274151 29:0.552095 30:0.0494114 
-2048 1:-1 2:-0.558704 3:-0.607438 4:-0.553191 5:-0.554192 6:-0.304348 7:-0.846154 8:0.381491 9:0.513841 10:-0.0527768 11:-0.997914 12:-0.550607 13:-0.557851 14:-0.523404 15:-0.513292 16:-0.130435 17:-0.6 18:0.274151 19:0.552095 20:0.0494114 21:-0.995829 22:-0.481781 23:-0.508264 24:-0.468085 25:-0.451943 26:-0.0434783 27:-0.538462 28:0.40557 29:0.539329 30:0.140746 
-2048 1:-0.995829 2:-0.481781 3:-0.508264 4:-0.468085 5:-0.451943 6:-0.0434783 7:-0.538462 8:0.40557 9:0.539329 10:0.140746 11:-0.995829 12:-0.441296 13:-0.491736 14:-0.442553 15:-0.443763 16:-0.269565 17:-0.692308 18:0.328111 19:0.579461 20:0.0745303 21:-0.997914 22:-0.465587 23:-0.495868 24:-0.442553 25:-0.451943 26:-0.33913 27:-0.753846 28:0.339426 29:0.58478 30:-0.0382694 
-2048 1:-0.995829 2:-0.441296 3:-0.491736 4:-0.442553 5:-0.443763 6:-0.269565 7:-0.692308 8:0.328111 9:0.579461 10:0.0745303 11:-0.997914 12:-0.465587 13:-0.495868 14:-0.442553 15:-0.451943 16:-0.33913 17:-0.753846 18:0.339426 19:0.58478 20:-0.0382694 21:-0.993743 22:-0.445344 23:-0.42562 24:-0.417021 25:-0.394683 26:-0.0608696 27:-0.476923 28:0.310415 29:0.572308 30:0.061175 
-2048 1:-0.993743 2:-0.445344 3:-0.42562 4:-0.417021 5:-0.394683 6:-0.0608696 7:-0.476923 8:0.310415 9:0.572308 10:0.061175 11:-0.995829 12:-0.388664 13:-0.429752 14:-0.374468 15:-0.386503 16:-0.269565 17:-0.661538 18:0.352771 19:0.450644 20:0.0315236 21:-0.997914 22:-0.40081 23:-0.42562 24:-0.442553 25:-0.386503 26:-0.304348 27:-0.630769 28:0.466783 29:0.504561 30:-0.103105 
-2048 1:-0.995829 2:-0.388664 3:-0.429752 4:-0.374468 5:-0.386503 6:-0.269565 7:-0.661538 8:0.352771 9:0.450644 10:0.0315236 11:-0.997914 12:-0.40081 13:-0.42562 14:-0.442553 15:-0.386503 16:-0.304348 17:-0.630769 18:0.466783 19:0.504561 20:-0.103105 21:-0.997914 22:-0.396761 23:-0.429752 24:-0.395745 25:-0.378323 26:-0.269565 27:-0.753846 28:0.359153 29:0.523733 30:0.0620542 
-2048 1:-0.993743 2:-0.360324 3:-0.363636 4:-0.32766 5:-0.329243 6:-0.0956522 7:-0.507692 8:0.290688 9:0.572421 10:0.159755 11:-0.997914 12:-0.319838 13:-0.367769 14:-0.319149 15:-0.329243 16:-0.304348 17:-0.753846 18:0.317087 19:0.505489 20:-0.020139 21:-0.997914 22:-0.336032 23:-0.384298 24:-0.344681 25:-0.374233 26:-0.495652 27:-0.692308 28:0.27009 29:0.529482 30:-0.251529 
-2048 1:-0.995829 2:-0.384615 3:-0.384298 4:-0.348936 5:-0.337423 6:-0.147826 7:-0.692308 8:0.437772 9:0.511261 10:0.173111 11:-1 12:-0.34413 13:-0.384298 14:-0.319149 15:-0.349693 16:-0.356522 17:-0.846154 18:0.299971 19:0.529279 20:-0.127087 21:-0.997914 22:-0.396761 23:-0.413223 24:-0.365957 25:-0.390593 26:-0.478261 27:-0.753846 28:0.301422 29:0.524389 30:-0.229063 
-2048 1:-1 2:-0.34413 3:-0.384298 4:-0.319149 5:-0.349693 6:-0.356522 7:-0.846154 8:0.299971 9:0.529279 10:-0.127087 11:-0.997914 12:-0.396761 13:-0.413223 14:-0.365957 15:-0.390593 16:-0.478261 17:-0.753846 18:0.301422 19:0.524389 20:-0.229063 21:-1 22:-0.376518 23:-0.42562 24:-0.361702 25:-0.370143 26:-0.217391 27:-0.907692 28:0.295039 29:0.506304 30:-0.0513215 
