svm_type c_svc
kernel_type rbf
gamma 0.0078125
nr_class 2
total_sv 346
rho -10.5754
label 0 1
nr_sv 180 166
SV
5550.800110039683 1:0.102564 2:0.038961 3:-0.0187668 4:-0.0182768 5:-0.684211 6:-0.253356 7:0.0760747 8:-0.811163 9:-0.0769231 10:-0.116883 11:-0.152815 12:-0.122715 13:-0.473684 14:-0.199658 15:0.116541 16:-0.789809 17:-0.179487 18:-0.194805 19:-0.179625 20:-0.148825 21:-0.157895 22:-0.199414 23:0.106022 24:-0.742153 
8113.875785864447 1:-0.205128 2:-0.246753 3:-0.394102 4:-0.383812 5:-1 6:-0.303637 7:0.159417 8:-0.827021 9:-0.435897 10:-0.428571 11:-0.394102 12:-0.357702 13:0.0526316 14:-0.199658 15:0.327344 16:-0.819074 17:-0.461538 18:-0.506494 19:-0.581769 20:-0.56658 21:-0.894737 22:-0.199658 23:-0.0125269 24:-0.805038 
8192 1:-0.435897 2:-0.428571 3:-0.394102 4:-0.357702 5:0.0526316 6:-0.199658 7:0.327344 8:-0.819074 9:-0.461538 10:-0.506494 11:-0.581769 12:-0.56658 13:-0.894737 14:-0.199658 15:-0.0125269 16:-0.805038 17:-0.564103 18:-0.636364 19:-0.608579 20:-0.592689 21:-0.157895 22:-0.200391 23:0.0475877 24:-0.825602 
8192 1:-0.461538 2:-0.506494 3:-0.581769 4:-0.56658 5:-0.894737 6:-0.199658 7:-0.0125269 8:-0.805038 9:-0.564103 10:-0.636364 11:-0.608579 12:-0.592689 13:-0.157895 14:-0.200391 15:0.0475877 16:-0.825602 17:-0.589744 18:-0.636364 19:-0.635389 20:-0.592689 21:-0.0526316 22:-0.228216 23:0.158541 24:-0.765235 
8192 1:-0.769231 2:-0.792208 3:-0.903485 4:-0.906005 5:-0.578947 6:-0.217232 7:0.0840364 8:-0.890418 9:-1 10:-0.896104 11:-0.983914 12:-0.853786 13:0.157895 14:-0.199658 15:0.0879807 16:-0.783969 17:-0.846154 18:-0.922078 19:-0.876676 20:-0.853786 21:-0.0526316 22:-0.199658 23:0.159928 24:-0.788074 
8192 1:-0.948718 2:-1 3:-1 4:-1 5:-0.221053 6:-0.199658 7:0.0149374 8:-0.799052 9:-0.948718 10:-0.974026 11:-0.957105 12:-0.879896 13:0.431579 14:-0.199658 15:0.0693547 16:-0.726792 17:-0.871795 18:-0.896104 19:-0.876676 20:-0.827676 21:0.157895 22:-0.201367 23:0.147584 24:-0.824753 
7103.154912966045 1:-0.948718 2:-0.974026 3:-0.957105 4:-0.879896 5:0.431579 6:-0.199658 7:0.0693547 8:-0.726792 9:-0.871795 10:-0.896104 11:-0.876676 12:-0.827676 13:0.157895 14:-0.201367 15:0.147584 16:-0.824753 17:-0.897436 18:-0.974026 19:-0.957105 20:-0.958225 21:-0.578947 22:-0.19917 23:0.0624886 24:-0.783515 
8192 1:-0.871795 2:-0.896104 3:-0.876676 4:-0.827676 5:0.157895 6:-0.201367 7:0.147584 8:-0.824753 9:-0.897436 10:-0.974026 11:-0.957105 12:-0.958225 13:-0.578947 14:-0.19917 15:0.0624886 16:-0.783515 17:-0.948718 18:-1 19:-0.957105 20:-0.958225 21:-0.0526316 22:-0.199658 23:0.106095 24:-0.770796 
8192 1:-1 2:-0.974026 3:-0.983914 4:-0.958225 5:-0.0526316 6:-0.200391 7:0.137212 8:-0.797742 9:-0.923077 10:-0.792208 11:-0.930295 12:-0.827676 13:0.473684 14:-0.198682 15:0.292575 16:-0.871647 17:-0.769231 18:-0.662338 19:-0.742627 20:-0.56658 21:1 22:-0.184281 23:0.245973 24:-0.707846 
7971.416763696226 1:-0.769231 2:-0.662338 3:-0.742627 4:-0.56658 5:1 6:-0.184281 7:0.245973 8:-0.707846 9:-0.589744 10:-0.636364 11:-0.689008 12:-0.56658 13:-0.0526316 14:-0.199658 15:0.00785216 16:-0.698698 17:-0.641026 18:-0.61039 19:-0.662198 20:-0.56658 21:-0.0526316 22:-0.199658 23:0.0979146 24:-0.728563 
8192 1:-0.589744 2:-0.636364 3:-0.689008 4:-0.56658 5:-0.0526316 6:-0.199658 7:0.00785216 8:-0.698698 9:-0.641026 10:-0.61039 11:-0.662198 12:-0.56658 13:-0.0526316 14:-0.199658 15:0.0979146 16:-0.728563 17:-0.666667 18:-0.714286 19:-0.715818 20:-0.697128 21:-0.578947 22:-0.199658 23:0.0163982 24:-0.815334 
8192 1:-0.717949 2:-0.584416 3:-0.715818 4:-0.54047 5:0.789474 6:-0.199658 7:0.306673 8:-0.693956 9:-0.564103 10:-0.61039 11:-0.608579 12:-0.592689 13:-0.263158 14:-0.198926 15:0.105438 16:-0.754843 17:-0.564103 18:-0.584416 19:-0.581769 20:-0.54047 21:0.157895 22:-0.199658 23:0.181549 24:-0.698801 
8192 1:-0.564103 2:-0.61039 3:-0.608579 4:-0.592689 5:-0.263158 6:-0.198926 7:0.105438 8:-0.754843 9:-0.564103 10:-0.584416 11:-0.581769 12:-0.54047 13:0.157895 14:-0.199658 15:0.181549 16:-0.698801 17:-0.589744 18:-0.636364 19:-0.608579 20:-0.56658 21:-0.157895 22:-0.197217 23:0.125963 24:-0.763683 
8192 1:-0.589744 2:-0.636364 3:-0.608579 4:-0.56658 5:-0.157895 6:-0.197217 7:0.125963 8:-0.763683 9:-0.589744 10:-0.61039 11:-0.608579 12:-0.592689 13:-0.157895 14:-0.199658 15:0.128082 16:-0.741451 17:-0.564103 18:-0.636364 19:-0.608579 20:-0.56658 21:0.0526316 22:-0.199658 23:0.129104 24:-0.750086 
8192 1:-0.564103 2:-0.636364 3:-0.608579 4:-0.56658 5:0.0526316 6:-0.199658 7:0.129104 8:-0.750086 9:-0.615385 10:-0.662338 11:-0.662198 12:-0.618799 13:-0.263158 14:-0.199658 15:0.0870312 16:-0.757228 17:-0.641026 18:-0.662338 19:-0.662198 20:-0.56658 21:0.157895 22:-0.199658 23:0.0945546 24:-0.750884 
3745.63985465511 1:-0.512821 2:-0.480519 3:-0.50134 4:-0.409922 5:0.473684 6:-0.211374 7:0.125963 8:-0.723463 9:-0.435897 10:-0.246753 11:-0.394102 12:-0.148825 13:1 14:-0.199658 15:0.151894 16:-0.627968 17:-0.153846 18:0.038961 19:-0.152815 20:0.0078329 21:0.578947 22:-0.199658 23:0.22669 24:-0.806611 
8192 1:-0.102564 2:-0.038961 3:-0.0723861 4:0.0339426 5:0.368421 6:-0.197706 7:0.160513 8:-0.706382 9:-0.0512821 10:-0.0909091 11:-0.0455764 12:0.0078329 13:-0.157895 14:-0.199658 15:0.120339 16:-0.749252 17:-4.44089e-016 18:-0.012987 19:-0.0187668 20:-0.0182768 21:-0.157895 22:-0.199658 23:0.125963 24:-0.786552 
8192 1:-0.205128 2:-0.246753 3:-0.179625 4:-0.148825 5:0.263158 6:-0.199658 7:0.0325408 8:-0.681208 9:-0.102564 10:-0.0909091 11:-0.0991957 12:-0.0704961 13:0.263158 14:-0.199658 15:0.163654 16:-0.685782 17:-0.0769231 18:-0.116883 19:-0.0723861 20:-0.0443864 21:0.0526316 22:-0.199414 23:0.056426 24:-0.699693 
7237.218971919419 1:-0.0512821 2:-0.116883 3:-0.126005 4:-0.0443864 5:-0.0526316 6:-0.175494 7:0.144078 8:-0.746581 9:-0.128205 10:-0.168831 11:-0.179625 12:-0.174935 13:-0.578947 14:-0.199658 15:0.765239 16:-0.791924 17:-0.230769 18:-0.194805 19:-0.179625 20:-0.148825 21:0.0526316 22:-0.181108 23:0.177386 24:-0.677754 
8192 1:-0.205128 2:-0.246753 3:-0.233244 4:-0.148825 5:-0.0526316 6:-0.199658 7:0.102005 8:-0.707963 9:-0.153846 10:-0.220779 11:-0.206434 12:-0.201044 13:-0.263158 14:-0.199658 15:0.149337 16:-0.767649 17:-0.230769 18:-0.246753 19:-0.206434 20:-0.174935 21:0.0526316 22:-0.288992 23:0.162777 24:-0.697886 
8192 1:-0.282051 2:-0.246753 3:-0.260054 4:-0.148825 5:0.368421 6:-0.199658 7:0.14532 8:-0.637401 9:-0.153846 10:-0.220779 11:-0.233244 12:-0.201044 13:-0.263158 14:-0.199658 15:0.204047 16:-0.746142 17:-0.282051 18:-0.324675 19:-0.286863 20:-0.279373 21:-0.368421 22:-0.199658 23:0.0586903 24:-0.761297 
8192 1:-0.282051 2:-0.324675 3:-0.286863 4:-0.279373 5:-0.368421 6:-0.199658 7:0.0586903 8:-0.761297 9:-0.358974 10:-0.402597 11:-0.367292 12:-0.305483 13:-0.157895 14:-0.199658 15:0.164457 16:-0.71572 17:-0.410256 18:-0.480519 19:-0.52815 20:-0.488251 21:-0.789474 22:-0.200146 23:0.0526277 24:-0.900978 
8192 1:-0.358974 2:-0.402597 3:-0.367292 4:-0.305483 5:-0.157895 6:-0.199658 7:0.164457 8:-0.71572 9:-0.410256 10:-0.480519 11:-0.52815 12:-0.488251 13:-0.789474 14:-0.200146 15:0.0526277 16:-0.900978 17:-0.589744 18:-0.558442 19:-0.581769 20:-0.54047 21:-0.263158 22:-0.199658 23:0.197473 24:-0.892087 
7.169438995781703 1:-0.410256 2:-0.480519 3:-0.52815 4:-0.488251 5:-0.789474 6:-0.200146 7:0.0526277 8:-0.900978 9:-0.589744 10:-0.558442 11:-0.581769 12:-0.54047 13:-0.263158 14:-0.199658 15:0.197473 16:-0.892087 17:-0.564103 18:-0.61039 19:-0.55496 20:-0.54047 21:-0.0526316 22:-0.199658 23:0.0843285 24:-0.776987 
8192 1:-0.641026 2:-0.662338 3:-0.635389 4:-0.592689 5:0.157895 6:-0.209666 7:0.170885 8:-0.8106 9:-0.564103 10:-0.584416 11:-0.55496 12:-0.54047 13:0.157895 14:-0.199658 15:0.196888 16:-0.71662 17:-0.538462 18:-0.558442 19:-0.55496 20:-0.488251 21:0.157895 22:-0.18599 23:0.118148 24:-0.676466 
8192 1:-0.564103 2:-0.584416 3:-0.55496 4:-0.54047 5:0.157895 6:-0.199658 7:0.196888 8:-0.71662 9:-0.538462 10:-0.558442 11:-0.55496 12:-0.488251 13:0.157895 14:-0.18599 15:0.118148 16:-0.676466 17:-0.538462 18:-0.584416 19:-0.52815 20:-0.51436 21:-0.157895 22:-0.199658 23:0.119828 24:-0.73995 
8192 1:-0.538462 2:-0.558442 3:-0.55496 4:-0.488251 5:0.157895 6:-0.18599 7:0.118148 8:-0.676466 9:-0.538462 10:-0.584416 11:-0.52815 12:-0.51436 13:-0.157895 14:-0.199658 15:0.119828 16:-0.73995 17:-0.512821 18:-0.558442 19:-0.608579 20:-0.592689 21:-0.368421 22:-0.199658 23:0.129104 24:-0.821818 
8192 1:-0.589744 2:-0.61039 3:-0.662198 4:-0.671018 5:-0.368421 6:-0.19917 7:0.074979 8:-0.758838 9:-0.641026 10:-0.714286 11:-0.662198 12:-0.644909 13:0.0526316 14:-0.199658 15:0.303678 16:-0.738033 17:-0.666667 18:-0.662338 19:-0.662198 20:-0.592689 21:0.157895 22:-0.199658 23:0.101202 24:-0.719701 
3685.772539171152 1:-0.692308 2:-0.688312 3:-0.662198 4:-0.592689 5:-0.0526316 6:-0.199902 7:0.705635 8:-0.734872 9:-0.589744 10:-0.584416 11:-0.581769 12:-0.51436 13:0.263158 14:-0.199658 15:0.480881 16:-0.710341 17:-0.564103 18:-0.584416 19:-0.55496 20:-0.488251 21:0.0526316 22:-0.199658 23:0.153135 24:-0.74743 
8192 1:-0.589744 2:-0.584416 3:-0.581769 4:-0.51436 5:0.263158 6:-0.199658 7:0.480881 8:-0.710341 9:-0.564103 10:-0.584416 11:-0.55496 12:-0.488251 13:0.0526316 14:-0.199658 15:0.153135 16:-0.74743 17:-0.512821 18:-0.584416 19:-0.635389 20:-0.644909 21:-0.684211 22:-0.199658 23:0.0954311 24:-0.796263 
8192 1:-0.564103 2:-0.584416 3:-0.55496 4:-0.488251 5:0.0526316 6:-0.199658 7:0.153135 8:-0.74743 9:-0.512821 10:-0.584416 11:-0.635389 12:-0.644909 13:-0.684211 14:-0.199658 15:0.0954311 16:-0.796263 17:-0.692308 18:-0.688312 19:-0.689008 20:-0.644909 21:-0.0526316 22:-0.199658 23:0.146488 24:-0.839975 
8192 1:-0.512821 2:-0.584416 3:-0.635389 4:-0.644909 5:-0.684211 6:-0.199658 7:0.0954311 8:-0.796263 9:-0.692308 10:-0.688312 11:-0.689008 12:-0.644909 13:-0.0526316 14:-0.199658 15:0.146488 16:-0.839975 17:-0.641026 18:-0.688312 19:-0.715818 20:-0.644909 21:-0.0526316 22:-0.199658 23:0.12852 24:-0.766449 
8192 1:-0.641026 2:-0.688312 3:-0.715818 4:-0.644909 5:-0.0526316 6:-0.199658 7:0.12852 8:-0.766449 9:-0.692308 10:-0.766234 11:-0.903485 12:-0.827676 13:-0.789474 14:-0.199658 15:0.138235 16:-0.877026 17:-0.846154 18:-0.896104 19:-0.876676 20:-0.853786 21:-0.157895 22:-0.198682 23:0.139988 24:-0.903854 
8192 1:-0.846154 2:-0.896104 3:-0.876676 4:-0.853786 5:-0.157895 6:-0.198682 7:0.139988 8:-0.903854 9:-0.871795 10:-0.948052 11:-0.930295 12:-0.906005 13:-0.263158 14:-0.199658 15:0.0629999 16:-0.899149 17:-0.897436 18:-0.922078 19:-0.903485 20:-0.879896 21:0.0526316 22:-0.199658 23:0.14437 24:-0.8825 
800.0629232474061 1:-0.871795 2:-0.948052 3:-0.930295 4:-0.906005 5:-0.263158 6:-0.199658 7:0.0629999 8:-0.899149 9:-0.897436 10:-0.922078 11:-0.903485 12:-0.879896 13:0.0526316 14:-0.199658 15:0.14437 16:-0.8825 17:-0.923077 18:-0.922078 19:-0.930295 20:-0.879896 21:-0.0526316 22:-0.196973 23:0.176728 24:-0.925787 
3455.843686630931 1:-0.923077 2:-0.922078 3:-0.930295 4:-0.879896 5:-0.0526316 6:-0.196973 7:0.176728 8:-0.925787 9:-0.846154 10:-0.922078 11:-0.930295 12:-0.879896 13:-0.0526316 14:-0.199658 15:0.00902085 16:-0.985971 17:-0.923077 18:-0.922078 19:-0.930295 20:-0.879896 21:-0.0526316 22:-0.199658 23:0.122603 24:-0.908399 
8192 1:-0.923077 2:-0.922078 3:-0.930295 4:-0.879896 5:-0.0526316 6:-0.199658 7:0.122603 8:-0.908399 9:-0.897436 10:-0.974026 11:-0.930295 12:-0.906005 13:-0.157895 14:-0.19917 15:0.13597 16:-0.855613 17:-0.923077 18:-0.948052 19:-0.930295 20:-0.879896 21:0.0526316 22:-0.199658 23:0.103685 24:-0.8118 
8192 1:-0.897436 2:-0.974026 3:-0.930295 4:-0.906005 5:-0.157895 6:-0.19917 7:0.13597 8:-0.855613 9:-0.923077 10:-0.948052 11:-0.930295 12:-0.879896 13:0.0526316 14:-0.199658 15:0.103685 16:-0.8118 17:-0.923077 18:-0.948052 19:-0.930295 20:-0.879896 21:-0.0526316 22:-0.199658 23:0.134582 24:-0.849034 
8192 1:-0.923077 2:-0.948052 3:-0.930295 4:-0.879896 5:-0.0526316 6:-0.199658 7:0.134582 8:-0.849034 9:-0.923077 10:-0.974026 11:-0.930295 12:-0.906005 13:-0.157895 14:-0.199658 15:0.152697 16:-0.842426 17:-0.923077 18:-0.948052 19:-0.930295 20:-0.879896 21:0.0526316 22:-0.199658 23:0.129762 24:-0.75305 
642.6171848325525 1:-0.923077 2:-0.818182 3:-0.930295 4:-0.723238 5:0.684211 6:-0.199658 7:0.190461 8:-0.689924 9:-0.74359 10:-0.792208 11:-0.796247 12:-0.801567 13:-0.368421 14:-0.199658 15:0.126255 16:-0.73856 17:-0.769231 18:-0.792208 19:-0.769437 20:-0.697128 21:0.368421 22:-0.199658 23:0.121946 24:-0.714425 
8192 1:-0.641026 2:-0.636364 3:-0.635389 4:-0.56658 5:0.157895 6:-0.199658 7:0.100106 8:-0.670026 9:-0.589744 10:-0.558442 11:-0.608579 12:-0.462141 13:0.368421 14:-0.212351 15:0.148534 16:-0.662371 17:-0.487179 18:-0.506494 19:-0.50134 20:-0.488251 21:-0.157895 22:-0.199658 23:0.183887 24:-0.687706 
1878.897864824508 1:-0.589744 2:-0.558442 3:-0.608579 4:-0.462141 5:0.368421 6:-0.212351 7:0.148534 8:-0.662371 9:-0.487179 10:-0.506494 11:-0.50134 12:-0.488251 13:-0.157895 14:-0.199658 15:0.183887 16:-0.687706 17:-0.564103 18:-0.636364 19:-0.662198 20:-0.592689 21:-0.473684 22:-0.199658 23:0.108141 24:1 
1403.502581408425 1:-0.564103 2:-0.636364 3:-0.662198 4:-0.592689 5:-0.473684 6:-0.199658 7:0.108141 8:1 9:-0.615385 10:-0.688312 11:-0.715818 12:-0.671018 13:-0.368421 14:-0.197217 15:0.162193 16:-0.981727 17:-0.692308 18:-0.714286 19:-0.689008 20:-0.644909 21:0.0526316 22:-0.199658 23:0.142909 24:-0.728 
8192 1:-0.666667 2:-0.714286 3:-0.662198 4:-0.644909 5:-0.0526316 6:-0.199658 7:0.111574 8:-0.702174 9:-0.641026 10:-0.688312 11:-0.635389 12:-0.618799 13:0.0526316 14:-0.199658 15:0.155765 16:-0.736591 17:-0.615385 18:-0.662338 19:-0.635389 20:-0.592689 21:0.0526316 22:-0.199658 23:0.154596 24:-0.724114 
6082.478551782092 1:-0.641026 2:-0.688312 3:-0.635389 4:-0.618799 5:0.0526316 6:-0.199658 7:0.155765 8:-0.736591 9:-0.615385 10:-0.662338 11:-0.635389 12:-0.592689 13:0.0526316 14:-0.199658 15:0.154596 16:-0.724114 17:-0.666667 18:-0.74026 19:-0.849866 20:-0.827676 21:-1 22:-0.199658 23:0.0768051 24:-1 
8192 1:-0.666667 2:-0.74026 3:-0.849866 4:-0.827676 5:-1 6:-0.199658 7:0.0768051 8:-1 9:-0.820513 10:-0.87013 11:-0.823056 12:-0.827676 13:-0.0526316 14:-0.199658 15:0.159928 16:-0.784291 17:-0.820513 18:-0.87013 19:-0.823056 20:-0.801567 21:0.0526316 22:-0.199658 23:0.149118 24:-0.791638 
2415.840639859583 1:-0.820513 2:-0.896104 3:-0.876676 4:-0.853786 5:-0.263158 6:-0.0224555 7:0.105365 8:-0.859924 9:-0.846154 10:-0.896104 11:-0.849866 12:-0.827676 13:0.0526316 14:0.261899 15:0.131368 16:-0.750576 17:-0.846154 18:-0.87013 19:-0.823056 20:-0.775457 21:0.157895 22:-0.102758 23:0.141302 24:-0.733196 
8192 1:-0.846154 2:-0.87013 3:-0.823056 4:-0.775457 5:0.157895 6:-0.102758 7:0.141302 8:-0.733196 9:-0.794872 10:-0.844156 11:-0.796247 12:-0.775457 13:-0.0526316 14:-0.118623 15:0.115445 16:-0.687414 17:-0.794872 18:-0.844156 19:-0.823056 20:-0.749347 21:0.0526316 22:-0.199658 23:0.128958 24:-0.7128 
8192 1:-0.794872 2:-0.844156 3:-0.796247 4:-0.775457 5:-0.0526316 6:-0.118623 7:0.115445 8:-0.687414 9:-0.794872 10:-0.844156 11:-0.823056 12:-0.749347 13:0.0526316 14:-0.199658 15:0.128958 16:-0.7128 17:-0.794872 18:-0.844156 19:-0.796247 20:-0.775457 21:-0.157895 22:-0.199658 23:0.129542 24:-0.713488 
8192 1:-0.794872 2:-0.844156 3:-0.823056 4:-0.749347 5:0.0526316 6:-0.199658 7:0.128958 8:-0.7128 9:-0.794872 10:-0.844156 11:-0.796247 12:-0.775457 13:-0.157895 14:-0.199658 15:0.129542 16:-0.713488 17:-0.794872 18:-0.844156 19:-0.930295 20:-0.879896 21:-0.473684 22:-0.210398 23:0.0646068 24:-0.811997 
8192 1:-0.923077 2:-0.948052 3:-0.930295 4:-0.853786 5:0.0526316 6:-0.200146 7:0.126255 8:-0.740433 9:-0.871795 10:-0.896104 11:-0.876676 12:-0.801567 13:0.157895 14:-0.199658 15:0.144735 16:-0.705416 17:-0.820513 18:-0.844156 19:-0.823056 20:-0.775457 21:0.0526316 22:-0.19917 23:0.118586 24:-0.714066 
6415.568361100618 1:-0.794872 2:-0.844156 3:-0.796247 4:-0.775457 5:-0.0526316 6:-0.199658 7:0.171542 8:-0.698061 9:-0.794872 10:-0.792208 11:-0.769437 12:-0.749347 13:0.0526316 14:-0.199658 15:0.151967 16:-0.72044 17:-0.74359 18:-0.558442 19:-0.715818 20:-0.488251 21:1 22:-0.223578 23:0.3047 24:-0.382548 
6422.146425089997 1:-0.794872 2:-0.792208 3:-0.769437 4:-0.749347 5:0.0526316 6:-0.199658 7:0.151967 8:-0.72044 9:-0.74359 10:-0.558442 11:-0.715818 12:-0.488251 13:1 14:-0.223578 15:0.3047 16:-0.382548 17:-0.538462 18:-0.61039 19:-0.608579 20:-0.592689 21:-0.473684 22:-0.224555 23:-0.0144261 24:-0.745498 
8192 1:-0.538462 2:-0.61039 3:-0.608579 4:-0.592689 5:-0.473684 6:-0.224555 7:-0.0144261 8:-0.745498 9:-0.589744 10:-0.636364 11:-0.608579 12:-0.592689 13:-0.0526316 14:-0.199658 15:0.115664 16:-0.725402 17:-0.564103 18:-0.584416 19:-0.55496 20:-0.51436 21:0.263158 22:-0.199658 23:0.205873 24:-0.611005 
8192 1:-0.589744 2:-0.636364 3:-0.608579 4:-0.592689 5:-0.0526316 6:-0.199658 7:0.115664 8:-0.725402 9:-0.564103 10:-0.584416 11:-0.55496 12:-0.51436 13:0.263158 14:-0.199658 15:0.205873 16:-0.611005 17:-0.512821 18:-0.558442 19:-0.52815 20:-0.51436 21:-0.0526316 22:-0.199658 23:0.119755 24:-0.571333 
8192 1:-0.512821 2:-0.558442 3:-0.52815 4:-0.51436 5:-0.0526316 6:-0.199658 7:0.119755 8:-0.571333 9:-0.487179 10:-0.558442 11:-0.52815 12:-0.51436 13:-0.0526316 14:-0.199658 15:0.356488 16:-0.641324 17:-0.538462 18:-0.532468 19:-0.50134 20:-0.488251 21:0.0526316 22:-0.190139 23:1 24:-0.628803 
8192 1:-0.410256 2:-0.428571 3:-0.420912 4:-0.357702 5:0.0526316 6:-0.195265 7:0.138673 8:-0.607353 9:-0.384615 10:-0.454545 11:-0.447721 12:-0.409922 13:-0.263158 14:-0.180376 15:0.0469304 16:-0.701098 17:-0.410256 18:-0.454545 19:-0.394102 20:-0.357702 21:0.157895 22:-0.206004 23:0.174829 24:-0.652338 
8192 1:-0.384615 2:-0.454545 3:-0.447721 4:-0.409922 5:-0.263158 6:-0.180376 7:0.0469304 8:-0.701098 9:-0.410256 10:-0.454545 11:-0.394102 12:-0.357702 13:0.157895 14:-0.206004 15:0.174829 16:-0.652338 17:-0.384615 18:-0.454545 19:-0.474531 20:-0.436031 21:-0.368421 22:-0.173542 23:0.0592016 24:-0.739592 
2173.172557895791 1:-0.384615 2:-0.454545 3:-0.474531 4:-0.436031 5:-0.368421 6:-0.173542 7:0.0592016 8:-0.739592 9:-0.435897 10:-0.506494 11:-0.52815 12:-0.462141 13:-0.157895 14:-0.0837198 15:0.11676 16:-0.727253 17:-0.487179 18:-0.350649 19:-0.50134 20:-0.279373 21:0.684211 22:0.599219 23:0.226252 24:-0.524929 
1580.025883468531 1:-0.487179 2:-0.350649 3:-0.50134 4:-0.279373 5:0.684211 6:0.599219 7:0.226252 8:-0.524929 9:-0.282051 10:-0.324675 11:-0.313673 12:-0.305483 13:-0.157895 14:-0.200146 15:0.0722034 16:-0.707216 17:-0.333333 18:-0.376623 19:-0.367292 20:-0.305483 21:-0.0526316 22:-0.171589 23:0.165114 24:-0.615286 
8192 1:-0.384615 2:-0.402597 3:-0.367292 4:-0.331593 5:0.0526316 6:-0.199414 7:0.16044 8:-0.633889 9:-0.358974 10:-0.376623 11:-0.340483 12:-0.279373 13:0.157895 14:-0.202099 15:0.116614 16:-0.655653 17:-0.358974 18:-0.402597 19:-0.367292 20:-0.357702 21:-0.368421 22:-0.195021 23:0.128885 24:-0.799864 
8192 1:-0.102564 2:-0.0649351 3:-0.0723861 4:0.0339426 5:0.368421 6:-0.201367 7:0.335086 8:-0.6099 9:-4.44089e-016 10:-0.0649351 11:-0.0187668 12:0.0078329 13:-0.157895 14:-0.1938 15:-0.0753442 16:-0.71422 17:-0.025641 18:-0.0909091 19:-0.0455764 20:-0.0182768 21:-0.157895 22:-0.20332 23:0.0275739 24:-0.70587 
8192 1:-0.179487 2:-0.168831 3:-0.152815 4:-0.0966057 5:-0.0526316 6:-0.198926 7:0.127935 8:-0.733269 9:-0.179487 10:-0.246753 11:-0.233244 12:-0.253264 13:-0.684211 14:-0.200146 15:0.101129 16:-0.853798 17:-0.230769 18:-0.272727 19:-0.206434 20:-0.201044 21:0.157895 22:-0.181108 23:0.0915598 24:-0.732303 
8192 1:-0.179487 2:-0.246753 3:-0.233244 4:-0.253264 5:-0.684211 6:-0.200146 7:0.101129 8:-0.853798 9:-0.230769 10:-0.272727 11:-0.206434 12:-0.201044 13:0.157895 14:-0.181108 15:0.0915598 16:-0.732303 17:-0.25641 18:-0.298701 19:-0.313673 20:-0.331593 21:-0.578947 22:-0.201123 23:0.103612 24:-0.814595 
8192 1:-0.230769 2:-0.272727 3:-0.206434 4:-0.201044 5:0.157895 6:-0.181108 7:0.0915598 8:-0.732303 9:-0.25641 10:-0.298701 11:-0.313673 12:-0.331593 13:-0.578947 14:-0.201123 15:0.103612 16:-0.814595 17:-0.358974 18:-0.402597 19:-0.420912 20:-0.409922 21:-0.368421 22:-0.141323 23:0.152697 24:-0.804313 
8192 1:-0.358974 2:-0.350649 3:-0.313673 4:-0.253264 5:0.0526316 6:-0.199658 7:0.155254 8:-0.734842 9:-0.307692 10:-0.298701 11:-0.260054 12:-0.227154 13:0.0526316 14:-0.193556 15:0.152405 16:-0.727795 17:-0.25641 18:-0.272727 19:-0.233244 20:-0.201044 21:0.0526316 22:-0.202343 23:0.11413 24:-0.765608 
8192 1:-0.307692 2:-0.298701 3:-0.260054 4:-0.227154 5:0.0526316 6:-0.193556 7:0.152405 8:-0.727795 9:-0.25641 10:-0.272727 11:-0.233244 12:-0.201044 13:0.0526316 14:-0.202343 15:0.11413 16:-0.765608 17:-0.282051 18:-0.324675 19:-0.340483 20:-0.357702 21:-0.684211 22:-0.19917 23:0.0746868 24:-0.852123 
8192 1:-0.461538 2:-0.454545 3:-0.447721 4:-0.383812 5:-0.157895 6:-0.199658 7:0.0978416 8:-0.753152 9:-0.435897 10:-0.428571 11:-0.420912 12:-0.357702 13:0.0526316 14:-0.199658 15:0.158029 16:-0.76219 17:-0.384615 18:-0.428571 19:-0.420912 20:-0.409922 21:-0.263158 22:-0.197706 23:0.0787773 24:-0.807599 
8192 1:-0.384615 2:-0.428571 3:-0.420912 4:-0.409922 5:-0.263158 6:-0.197706 7:0.0787773 8:-0.807599 9:-0.435897 10:-0.480519 11:-0.420912 12:-0.436031 13:-0.157895 14:-0.162558 15:0.123042 16:-0.785272 17:-0.435897 18:-0.402597 19:-0.394102 20:-0.357702 21:0.263158 22:-0.199658 23:0.210474 24:-0.775524 
8192 1:-0.435897 2:-0.480519 3:-0.420912 4:-0.436031 5:-0.157895 6:-0.162558 7:0.123042 8:-0.785272 9:-0.435897 10:-0.402597 11:-0.394102 12:-0.357702 13:0.263158 14:-0.199658 15:0.210474 16:-0.775524 17:-0.384615 18:-0.402597 19:-0.367292 20:-0.357702 21:-0.0526316 22:-0.153771 23:0.131588 24:-0.772655 
8192 1:-0.333333 2:-0.376623 3:-0.313673 4:-0.279373 5:0.0526316 6:-0.199658 7:0.155473 8:-0.70587 9:-0.333333 10:-0.376623 11:-0.340483 12:-0.357702 13:-0.368421 14:-0.199658 15:0.105 16:-0.751403 17:-0.333333 18:-0.376623 19:-0.313673 20:-0.305483 21:0.157895 22:-0.199658 23:0.133998 24:-0.688804 
616.9814134324063 1:-0.333333 2:-0.402597 3:-0.340483 4:-0.357702 5:-0.263158 6:-0.162558 7:0.0748329 8:-0.72568 9:-0.358974 10:-0.402597 11:-0.340483 12:-0.331593 13:0.0526316 14:-0.199658 15:0.169205 16:-0.725958 17:-0.333333 18:-0.376623 19:-0.340483 20:-0.279373 21:0.157895 22:-0.199658 23:0.143494 24:-0.698874 
8192 1:-0.358974 2:-0.402597 3:-0.340483 4:-0.331593 5:0.0526316 6:-0.199658 7:0.169205 8:-0.725958 9:-0.333333 10:-0.376623 11:-0.340483 12:-0.279373 13:0.157895 14:-0.199658 15:0.143494 16:-0.698874 17:-0.358974 18:-0.376623 19:-0.313673 20:-0.305483 21:-0.157895 22:-0.199658 23:0.115153 24:-0.717374 
8192 1:-0.333333 2:-0.376623 3:-0.340483 4:-0.279373 5:0.157895 6:-0.199658 7:0.143494 8:-0.698874 9:-0.358974 10:-0.376623 11:-0.313673 12:-0.305483 13:-0.157895 14:-0.199658 15:0.115153 16:-0.717374 17:-0.333333 18:-0.376623 19:-0.313673 20:-0.305483 21:-0.0526316 22:-0.199658 23:0.115372 24:-0.741875 
8192 1:-0.358974 2:-0.376623 3:-0.313673 4:-0.305483 5:-0.157895 6:-0.199658 7:0.115153 8:-0.717374 9:-0.333333 10:-0.376623 11:-0.313673 12:-0.305483 13:-0.0526316 14:-0.199658 15:0.115372 16:-0.741875 17:-0.307692 18:-0.376623 19:-0.340483 20:-0.305483 21:-0.0526316 22:-0.199658 23:0.149702 24:-0.718728 
8192 1:-0.307692 2:-0.376623 3:-0.340483 4:-0.305483 5:-0.0526316 6:-0.199658 7:0.149702 8:-0.718728 9:-0.307692 10:-0.376623 11:-0.340483 12:-0.331593 13:-0.157895 14:-0.198926 15:0.12589 16:-0.716598 17:-0.384615 18:-0.402597 19:-0.340483 20:-0.305483 21:0.0526316 22:-0.200146 23:0.135094 24:-0.714359 
8192 1:-0.384615 2:-0.402597 3:-0.340483 4:-0.305483 5:0.0526316 6:-0.200146 7:0.135094 8:-0.714359 9:-0.333333 10:-0.402597 11:-0.394102 12:-0.409922 13:-0.473684 14:-0.198682 15:0.116468 16:-0.803699 17:-0.410256 18:-0.428571 19:-0.394102 20:-0.331593 21:0.263158 22:-0.199658 23:0.096965 24:-0.690897 
8192 1:-0.410256 2:-0.428571 3:-0.394102 4:-0.331593 5:0.263158 6:-0.199658 7:0.096965 8:-0.690897 9:-0.358974 10:-0.428571 11:-0.394102 12:-0.383812 13:-0.263158 14:-0.199658 15:0.119828 16:-0.727385 17:-0.410256 18:-0.402597 19:-0.367292 20:-0.305483 21:0.263158 22:-0.199658 23:0.121142 24:-0.682869 
8192 1:-0.333333 2:-0.376623 3:-0.313673 4:-0.305483 5:-0.0526316 6:-0.199658 7:0.177386 8:-0.681947 9:-0.25641 10:-0.168831 11:-0.206434 12:-0.0966057 13:0.789474 14:-0.194777 15:0.348088 16:-0.509115 17:-0.128205 18:-0.142857 19:-0.126005 20:-0.0966057 21:-0.0526316 22:-0.201123 23:0.0139878 24:-0.706433 
1317.070874195229 1:-0.128205 2:-0.142857 3:-0.126005 4:-0.0966057 5:-0.0526316 6:-0.201123 7:0.0139878 8:-0.706433 9:-0.128205 10:-0.142857 11:-0.0991957 12:-0.0966057 13:-0.0526316 14:-0.199658 15:0.129104 16:-0.704362 17:-0.102564 18:-0.168831 19:-0.0991957 20:-0.0704961 21:0.0526316 22:-0.199658 23:0.139622 24:-0.668906 
8192 1:-0.128205 2:-0.142857 3:-0.0991957 4:-0.0966057 5:-0.0526316 6:-0.199658 7:0.129104 8:-0.704362 9:-0.102564 10:-0.168831 11:-0.0991957 12:-0.0704961 13:0.0526316 14:-0.199658 15:0.139622 16:-0.668906 17:-0.102564 18:-0.168831 19:-0.126005 20:-0.122715 21:-0.263158 22:-0.199658 23:0.175925 24:-0.708775 
8192 1:-0.128205 2:-0.168831 3:-0.126005 4:-0.0704961 5:0.157895 6:-0.199658 7:0.123772 8:-0.665642 9:-0.153846 10:-0.142857 11:-0.126005 12:-0.0443864 13:0.0526316 14:-0.199658 15:0.0695007 16:-0.731103 17:-0.102564 18:-0.142857 19:-0.0991957 20:-0.0704961 21:-0.157895 22:-0.200635 23:0.0856433 24:-0.693612 
8192 1:-0.153846 2:-0.142857 3:-0.126005 4:-0.0443864 5:0.0526316 6:-0.199658 7:0.0695007 8:-0.731103 9:-0.102564 10:-0.142857 11:-0.0991957 12:-0.0704961 13:-0.157895 14:-0.200635 15:0.0856433 16:-0.693612 17:-0.153846 18:-0.168831 19:-0.126005 20:-0.122715 21:-0.263158 22:-0.199658 23:0.136701 24:-0.721487 
8192 1:-0.179487 2:-0.220779 3:-0.260054 4:-0.279373 5:-0.684211 6:-0.199658 7:0.168474 8:-0.762022 9:-0.307692 10:-0.246753 11:-0.260054 12:-0.148825 13:0.473684 14:-0.333415 15:0.00785216 16:-0.685525 17:-0.205128 18:-0.168831 19:-0.152815 20:-0.0966057 21:0.157895 22:-0.199658 23:0.169643 24:-0.705665 
8192 1:-0.307692 2:-0.246753 3:-0.260054 4:-0.148825 5:0.473684 6:-0.333415 7:0.00785216 8:-0.685525 9:-0.205128 10:-0.168831 11:-0.152815 12:-0.0966057 13:0.157895 14:-0.199658 15:0.169643 16:-0.705665 17:-0.102564 18:-0.168831 19:-0.126005 20:-0.0966057 21:-0.0526316 22:-0.199658 23:0.121581 24:-0.703404 
8192 1:-0.179487 2:-0.194805 3:-0.152815 4:-0.0966057 5:0.789474 6:-0.199658 7:0.19236 8:-0.66464 9:-0.153846 10:-0.194805 11:-0.179625 12:-0.201044 13:-0.473684 14:-0.199658 15:0.0920711 16:-0.784635 17:-0.25641 18:-0.194805 19:-0.233244 20:-0.148825 21:0.157895 22:-0.199658 23:0.173076 24:-0.766742 
8192 1:-0.153846 2:-0.194805 3:-0.179625 4:-0.201044 5:-0.473684 6:-0.199658 7:0.0920711 8:-0.784635 9:-0.25641 10:-0.194805 11:-0.233244 12:-0.148825 13:0.157895 14:-0.199658 15:0.173076 16:-0.766742 17:-0.153846 18:-0.194805 19:-0.179625 20:-0.201044 21:-0.263158 22:-0.199658 23:0.104781 24:-0.752925 
8192 1:-0.153846 2:-0.194805 3:-0.179625 4:-0.201044 5:-0.263158 6:-0.199658 7:0.104781 8:-0.752925 9:-0.205128 10:-0.246753 11:-0.179625 12:-0.201044 13:-0.0526316 14:-0.199658 15:0.121069 16:-0.745271 17:-0.230769 18:-0.246753 19:-0.206434 20:-0.174935 21:0.0526316 22:-0.199658 23:0.124064 24:-0.744927 
8192 1:-0.153846 2:-0.0909091 3:-0.126005 4:-0.0443864 5:0.263158 6:-0.199658 7:0.526679 8:-0.7265 9:-0.102564 10:-0.038961 11:-0.0991957 12:-0.122715 13:-0.368421 14:-0.199658 15:0.0204887 16:-0.733869 17:-0.102564 18:-0.0909091 19:-0.0723861 20:-0.0704961 21:0.157895 22:-0.206004 23:0.0883459 24:-0.653318 
8192 1:-0.102564 2:-0.038961 3:-0.0991957 4:-0.122715 5:-0.368421 6:-0.199658 7:0.0204887 8:-0.733869 9:-0.102564 10:-0.0909091 11:-0.0723861 12:-0.0704961 13:0.157895 14:-0.206004 15:0.0883459 16:-0.653318 17:-0.102564 18:-0.142857 19:-0.126005 20:-0.122715 21:-0.263158 22:-0.230168 23:0.186151 24:-0.730956 
8192 1:-0.102564 2:-0.142857 3:-0.126005 4:-0.122715 5:-0.263158 6:-0.230168 7:0.186151 8:-0.730956 9:-0.153846 10:-0.194805 11:-0.179625 12:-0.174935 13:-0.263158 14:-0.199658 15:0.199591 16:-0.763237 17:-0.205128 18:-0.194805 19:-0.152815 20:-0.148825 21:0.0526316 22:-0.199658 23:0.169278 24:-0.71291 
8192 1:-0.153846 2:-0.194805 3:-0.179625 4:-0.174935 5:-0.263158 6:-0.199658 7:0.199591 8:-0.763237 9:-0.205128 10:-0.194805 11:-0.152815 12:-0.148825 13:0.0526316 14:-0.199658 15:0.169278 16:-0.71291 17:-0.205128 18:-0.220779 19:-0.179625 20:-0.174935 21:-0.157895 22:-0.199658 23:0.0843285 24:-0.6976 
8192 1:-0.205128 2:-0.220779 3:-0.179625 4:-0.174935 5:-0.157895 6:-0.199658 7:0.0843285 8:-0.6976 9:-0.179487 10:-0.246753 11:-0.206434 12:-0.227154 13:-0.263158 14:-0.199658 15:0.121727 16:-0.783801 17:-0.205128 18:-0.246753 19:-0.179625 20:-0.174935 21:0.157895 22:-0.199658 23:0.141156 24:-0.711937 
1160.975039496094 1:-0.205128 2:-0.246753 3:-0.206434 4:-0.201044 5:-0.157895 6:-0.199658 7:0.128228 8:-0.736782 9:-0.179487 10:-0.142857 11:-0.126005 12:-0.0443864 13:0.578947 14:-0.199658 15:0.0387495 16:-0.632286 17:-0.0769231 18:-0.012987 19:-0.0455764 20:0.0600522 21:0.368421 22:-0.199658 23:0.0461999 24:-0.661171 
8192 1:0.0512821 2:0.038961 3:0.0080429 4:0.0078329 5:-0.263158 6:-0.102026 7:-0.0603703 8:-0.720916 9:-0.025641 10:0.012987 11:0.0080429 12:0.0861619 13:0.263158 14:-0.199658 15:0.162047 16:-0.688475 17:0.0769231 18:0.0649351 19:0.0348525 20:0.0600522 21:-0.157895 22:-0.354162 23:-0.161097 24:-0.725812 
8192 1:0.0769231 2:0.0649351 3:0.0348525 4:0.0600522 5:-0.157895 6:-0.354162 7:-0.161097 8:-0.725812 9:-4.44089e-016 10:-0.012987 11:0.0348525 12:0.0339426 13:-0.157895 14:-0.199658 15:0.196669 16:-0.707934 17:0.0512821 18:0.012987 19:0.0616622 20:0.0600522 21:0.0526316 22:-0.199658 23:0.0830138 24:-0.674753 
8192 1:-4.44089e-016 2:-0.012987 3:0.0348525 4:0.0339426 5:-0.157895 6:-0.199658 7:0.196669 8:-0.707934 9:0.0512821 10:0.012987 11:0.0616622 12:0.0600522 13:0.0526316 14:-0.199658 15:0.0830138 16:-0.674753 17:0.0512821 18:-0.012987 19:0.0080429 20:0.0078329 21:-0.263158 22:-0.199658 23:0.0607355 24:-0.737806 
8192 1:0.0512821 2:0.012987 3:0.0616622 4:0.0600522 5:0.0526316 6:-0.199658 7:0.0830138 8:-0.674753 9:0.0512821 10:-0.012987 11:0.0080429 12:0.0078329 13:-0.263158 14:-0.199658 15:0.0607355 16:-0.737806 17:-0.025641 18:-0.0649351 19:0.0080429 20:0.0078329 21:-0.0526316 22:-0.199658 23:0.170228 24:-0.738904 
8192 1:0.0512821 2:-0.012987 3:0.0080429 4:0.0078329 5:-0.263158 6:-0.199658 7:0.0607355 8:-0.737806 9:-0.025641 10:-0.0649351 11:0.0080429 12:0.0078329 13:-0.0526316 14:-0.199658 15:0.170228 16:-0.738904 17:-0.025641 18:-0.0649351 19:-0.0187668 20:-0.0443864 21:-0.263158 22:-0.199658 23:0.301633 24:-0.780581 
8192 1:-0.025641 2:-0.0649351 3:0.0080429 4:0.0078329 5:-0.0526316 6:-0.199658 7:0.170228 8:-0.738904 9:-0.025641 10:-0.0649351 11:-0.0187668 12:-0.0443864 13:-0.263158 14:-0.199658 15:0.301633 16:-0.780581 17:-0.0769231 18:-0.142857 19:-0.0723861 20:-0.0966057 21:-0.263158 22:-0.199658 23:0.172565 24:-0.756292 
8192 1:-0.0769231 2:-0.142857 3:-0.0723861 4:-0.0966057 5:-0.263158 6:-0.199658 7:0.172565 8:-0.756292 9:-0.153846 10:-0.168831 11:-0.126005 12:-0.0966057 13:-0.0526316 14:-0.199658 15:0.0594938 16:-0.771887 17:-0.128205 18:-0.142857 19:-0.0723861 20:-0.0704961 21:0.0526316 22:-0.199658 23:0.128593 24:-0.737352 
8192 1:-0.128205 2:-0.142857 3:-0.0723861 4:-0.0704961 5:0.0526316 6:-0.199658 7:0.128593 8:-0.737352 9:-0.102564 10:-0.142857 11:-0.0991957 12:-0.0966057 13:-0.157895 14:-0.199658 15:0.137285 16:-0.740836 17:-0.102564 18:-0.0649351 19:-0.0723861 20:-0.0182768 21:0.263158 22:-0.199658 23:0.234287 24:-0.721165 
8192 1:-0.0769231 2:-0.0909091 3:-0.0455764 4:-0.0443864 5:-0.157895 6:-0.199658 7:0.172346 8:-0.745541 9:-0.0512821 10:-0.038961 11:-0.0187668 12:0.0600522 13:0.368421 14:-0.199658 15:0.146927 16:-0.691043 17:0.025641 18:-0.038961 19:0.0080429 20:0.0339426 21:-0.157895 22:-0.199658 23:0.121946 24:-0.757287 
8192 1:0.025641 2:-0.038961 3:0.0080429 4:0.0339426 5:-0.157895 6:-0.199658 7:0.121946 8:-0.757287 9:-4.44089e-016 10:-0.038961 11:0.0080429 12:0.0339426 13:-0.0526316 14:-0.199658 15:0.106972 16:-0.74339 17:-0.025641 18:-0.012987 19:0.0348525 20:0.0861619 21:0.157895 22:-0.195997 23:0.176144 24:-0.749369 
8192 1:-4.44089e-016 2:-0.038961 3:0.0080429 4:0.0339426 5:-0.0526316 6:-0.199658 7:0.106972 8:-0.74339 9:-0.025641 10:-0.012987 11:0.0348525 12:0.0861619 13:0.157895 14:-0.195997 15:0.176144 16:-0.749369 17:0.025641 18:-0.012987 19:0.0616622 20:0.0861619 21:-0.0526316 22:-0.199902 23:0.0892955 24:-0.743514 
8192 1:0.0512821 2:0.038961 3:0.0616622 4:0.138381 5:0.157895 6:-0.199658 7:0.12684 8:-0.692097 9:0.102564 10:0.220779 11:0.168901 12:0.295039 13:0.578947 14:-0.199658 15:0.392571 16:-0.646417 17:0.25641 18:0.194805 19:0.276139 20:0.295039 21:-0.0526316 22:-0.199658 23:-0.234214 24:-0.727224 
8192 1:0.25641 2:0.194805 3:0.276139 4:0.295039 5:-0.0526316 6:-0.199658 7:-0.234214 8:-0.727224 9:0.205128 10:0.142857 11:0.22252 12:0.21671 13:-0.368421 14:-0.199658 15:-0.0155948 16:-0.767701 17:0.153846 18:0.168831 19:0.22252 20:0.24282 21:0.0526316 22:-0.199658 23:0.0676747 24:-0.740441 
8192 1:0.205128 2:0.142857 3:0.22252 4:0.21671 5:-0.368421 6:-0.199658 7:-0.0155948 8:-0.767701 9:0.153846 10:0.168831 11:0.22252 12:0.24282 13:0.0526316 14:-0.199658 15:0.0676747 16:-0.740441 17:0.205128 18:0.142857 19:0.22252 20:0.24282 21:-0.0526316 22:-0.199658 23:0.0163252 24:-0.739321 
4961.192038496749 1:0.153846 2:0.168831 3:0.22252 4:0.24282 5:0.0526316 6:-0.199658 7:0.0676747 8:-0.740441 9:0.205128 10:0.142857 11:0.22252 12:0.24282 13:-0.0526316 14:-0.199658 15:0.0163252 16:-0.739321 17:0.179487 18:0.142857 19:0.19571 20:0.24282 21:-0.0526316 22:-0.199658 23:0.255761 24:-0.769838 
8192 1:0.179487 2:0.142857 3:0.19571 4:0.24282 5:-0.0526316 6:-0.199658 7:0.255761 8:-0.769838 9:0.153846 10:0.116883 11:0.19571 12:0.164491 13:-0.368421 14:-0.0556505 15:0.184252 16:-0.837091 17:0.205128 18:0.168831 19:0.22252 20:0.26893 21:0.368421 22:-0.116427 23:0.170593 24:-0.692178 
8192 1:0.153846 2:0.116883 3:0.19571 4:0.164491 5:-0.368421 6:-0.0556505 7:0.184252 8:-0.837091 9:0.205128 10:0.168831 11:0.22252 12:0.26893 13:0.368421 14:-0.116427 15:0.170593 16:-0.692178 17:0.205128 18:0.194805 19:0.24933 20:0.26893 21:-0.0526316 22:-0.109348 23:0.106242 24:-0.729903 
8192 1:0.205128 2:0.168831 3:0.22252 4:0.26893 5:0.368421 6:-0.116427 7:0.170593 8:-0.692178 9:0.205128 10:0.194805 11:0.24933 12:0.26893 13:-0.0526316 14:-0.109348 15:0.106242 16:-0.729903 17:0.25641 18:0.220779 19:0.22252 20:0.190601 21:-0.368421 22:-0.0312424 23:0.158687 24:-0.798173 
1288.586674932304 1:0.538462 2:0.480519 3:0.517426 4:0.530026 5:-0.157895 6:-0.199658 7:0.0940433 8:-0.749735 9:0.461538 10:0.428571 11:0.517426 12:0.530026 13:-0.0526316 14:-0.198682 15:0.14868 16:-0.690319 17:0.487179 18:0.480519 19:0.571046 20:0.582245 21:0.157895 22:0.166463 23:0.155327 24:-0.673612 
8192 1:0.461538 2:0.428571 3:0.517426 4:0.530026 5:-0.0526316 6:-0.198682 7:0.14868 8:-0.690319 9:0.487179 10:0.480519 11:0.571046 12:0.582245 13:0.157895 14:0.166463 15:0.155327 16:-0.673612 17:0.564103 18:0.584416 19:0.597855 20:0.582245 21:-0.0526316 22:-0.199658 23:0.359337 24:-0.728358 
8192 1:0.564103 2:0.584416 3:0.597855 4:0.582245 5:-0.0526316 6:-0.199658 7:0.359337 8:-0.728358 9:0.538462 10:0.506494 11:0.544236 12:0.582245 13:-0.0526316 14:-0.198438 15:0.0965268 16:-0.74762 17:0.538462 18:0.532468 19:0.571046 20:0.582245 21:-0.0526316 22:-0.199658 23:0.141448 24:-0.727056 
8192 1:0.538462 2:0.506494 3:0.571046 4:0.530026 5:-0.263158 6:-0.199658 7:0.0779738 8:-0.777785 9:0.487179 10:0.506494 11:0.544236 12:0.608355 13:0.263158 14:-0.199658 15:0.179431 16:-0.675727 17:0.589744 18:0.532468 19:0.571046 20:0.582245 21:-0.157895 22:-0.199658 23:0.0923633 24:-0.777229 
5240.575009020851 1:0.589744 2:0.532468 3:0.571046 4:0.582245 5:-0.157895 6:-0.199658 7:0.0923633 8:-0.777229 9:0.487179 10:0.480519 11:0.517426 12:0.477807 13:-0.473684 14:-0.198926 15:0.132245 16:-0.827036 17:0.461538 18:0.480519 19:0.517426 20:0.582245 21:0.368421 22:-0.199414 23:0.144224 24:-0.693802 
8192 1:0.461538 2:0.480519 3:0.517426 4:0.582245 5:0.368421 6:-0.199414 7:0.144224 8:-0.693802 9:0.487179 10:0.454545 11:0.517426 12:0.477807 13:-0.473684 14:-0.199658 15:0.0559877 16:-0.78604 17:0.487179 18:0.480519 19:0.544236 20:0.556136 21:0.263158 22:-0.199658 23:0.189657 24:-0.679693 
8192 1:0.487179 2:0.480519 3:0.544236 4:0.556136 5:0.263158 6:-0.199658 7:0.189657 8:-0.679693 9:0.487179 10:0.454545 11:0.517426 12:0.503916 13:-0.263158 14:-0.20332 15:-0.17556 16:-0.701076 17:0.487179 18:0.454545 19:0.544236 20:0.530026 21:0.0526316 22:-0.171345 23:0.123115 24:-0.703382 
8192 1:0.487179 2:0.454545 3:0.517426 4:0.503916 5:-0.263158 6:-0.20332 7:-0.17556 8:-0.701076 9:0.487179 10:0.454545 11:0.544236 12:0.530026 13:0.0526316 14:-0.171345 15:0.123115 16:-0.703382 17:0.435897 18:0.428571 19:0.517426 20:0.503916 21:-0.157895 22:-0.0327069 23:0.15876 24:-0.698837 
6467.223490169467 1:0.692308 2:0.636364 3:0.651475 4:0.660574 5:-0.368421 6:-0.199658 7:-0.0129652 8:-0.765081 9:0.641026 10:0.584416 11:0.678284 12:0.660574 13:-0.0526316 14:-0.199658 15:-0.0592747 16:-0.676283 17:0.615385 18:0.636364 19:0.705094 20:0.738903 21:0.263158 22:-0.195021 23:0.0667251 24:-0.590302 
4501.114401861186 1:0.615385 2:0.636364 3:0.705094 4:0.738903 5:0.263158 6:-0.195021 7:0.0667251 8:-0.590302 9:0.692308 10:0.636364 11:0.705094 12:0.686684 13:-0.263158 14:-0.201611 15:0.0879077 16:-0.718581 17:0.641026 18:0.61039 19:0.705094 20:0.686684 21:-0.0526316 22:-0.199902 23:0.115372 24:-0.649476 
8192 1:0.615385 2:0.584416 3:0.651475 4:0.660574 5:0.0526316 6:-0.199658 7:0.124429 8:-0.703587 9:0.641026 10:0.61039 11:0.678284 12:0.660574 13:-0.0526316 14:-0.198682 15:0.120631 16:-0.660234 17:0.564103 18:0.558442 19:0.624665 20:0.608355 21:-0.263158 22:-0.186722 23:0.195135 24:-0.657102 
6043.177818181861 1:0.512821 2:0.480519 3:0.490617 4:0.530026 5:-0.368421 6:-0.199658 7:0.0315182 8:-0.659949 9:0.487179 10:0.454545 11:0.517426 12:0.530026 13:-0.0526316 14:-0.200146 15:0.143128 16:-0.662891 17:0.461538 18:0.454545 19:0.544236 20:0.556136 21:0.0526316 22:-0.199658 23:0.149629 24:-0.72235 
8192 1:0.564103 2:0.558442 3:0.624665 4:0.660574 5:0.157895 6:-0.199658 7:0.049633 8:-0.615937 9:0.641026 10:0.584416 11:0.571046 12:0.660574 13:-0.0526316 14:-0.31999 15:0.0573756 16:-0.66903 17:0.564103 18:0.532468 19:0.597855 20:0.556136 21:-0.473684 22:-0.442275 23:0.142252 24:-0.723382 
8192 1:0.564103 2:0.532468 3:0.597855 4:0.556136 5:-0.473684 6:-0.442275 7:0.142252 8:-0.723382 9:0.512821 10:0.480519 11:0.517426 12:0.503916 13:-0.263158 14:-0.199658 15:0.164749 16:-0.755604 17:0.461538 18:0.428571 19:0.517426 20:0.530026 21:0.0526316 22:-0.199658 23:0.148534 24:-0.694651 
8192 1:0.512821 2:0.480519 3:0.517426 4:0.503916 5:-0.263158 6:-0.199658 7:0.164749 8:-0.755604 9:0.461538 10:0.428571 11:0.517426 12:0.530026 13:0.0526316 14:-0.199658 15:0.148534 16:-0.694651 17:0.487179 18:0.428571 19:0.517426 20:0.503916 21:-0.157895 22:-0.200146 23:0.143786 24:-0.742131 
8192 1:0.461538 2:0.428571 3:0.517426 4:0.530026 5:0.0526316 6:-0.199658 7:0.148534 8:-0.694651 9:0.487179 10:0.428571 11:0.517426 12:0.503916 13:-0.157895 14:-0.200146 15:0.143786 16:-0.742131 17:0.435897 18:0.402597 19:0.436997 20:0.399478 21:-0.473684 22:-0.206737 23:0.168036 24:-0.712529 
1604.044502845638 1:0.435897 2:0.402597 3:0.436997 4:0.399478 5:-0.473684 6:-0.206737 7:0.168036 8:-0.712529 9:0.358974 10:0.324675 11:0.383378 12:0.399478 13:-0.0526316 14:-0.282646 15:0.115883 16:-0.714117 17:0.410256 18:0.350649 19:0.410188 20:0.451697 21:0.157895 22:-0.267513 23:0.116102 24:-0.69801 
8192 1:0.358974 2:0.324675 3:0.383378 4:0.399478 5:-0.0526316 6:-0.282646 7:0.115883 8:-0.714117 9:0.410256 10:0.350649 11:0.410188 12:0.451697 13:0.157895 14:-0.267513 15:0.116102 16:-0.69801 17:0.333333 18:0.324675 19:0.356568 20:0.347258 21:-0.473684 22:-0.300464 23:0.0597129 24:-0.743609 
8192 1:0.487179 2:0.454545 3:0.517426 4:0.530026 5:-0.157895 6:-0.205516 7:0.119243 8:-0.70063 9:0.512821 10:0.480519 11:0.544236 12:0.582245 13:0.157895 14:-0.200146 15:0.220554 16:-0.664925 17:0.538462 18:0.480519 19:0.571046 20:0.582245 21:-0.0526316 22:-0.199658 23:0.115153 24:-0.703338 
8192 1:0.512821 2:0.480519 3:0.544236 4:0.582245 5:0.157895 6:-0.200146 7:0.220554 8:-0.664925 9:0.538462 10:0.480519 11:0.571046 12:0.582245 13:-0.0526316 14:-0.199658 15:0.115153 16:-0.703338 17:0.538462 18:0.506494 19:0.597855 20:0.582245 21:-0.0526316 22:-0.199658 23:0.0375808 24:-0.657482 
8192 1:0.538462 2:0.506494 3:0.597855 4:0.582245 5:-0.0526316 6:-0.199658 7:0.0375808 8:-0.657482 9:0.538462 10:0.506494 11:0.597855 12:0.582245 13:-0.0526316 14:-0.199658 15:0.0234104 16:-0.676495 17:0.538462 18:0.506494 19:0.624665 20:0.608355 21:0.0526316 22:-0.199658 23:0.0647529 24:-0.657914 
6025.080012614204 1:0.538462 2:0.506494 3:0.624665 4:0.608355 5:0.0526316 6:-0.199658 7:0.0647529 8:-0.657914 9:0.538462 10:0.532468 11:0.597855 12:0.556136 13:-0.263158 14:-0.20576 15:0.0594208 16:-0.666206 17:0.538462 18:0.506494 19:0.597855 20:0.608355 21:0.157895 22:-0.199658 23:-0.027866 24:-0.629161 
8192 1:0.538462 2:0.532468 3:0.597855 4:0.556136 5:-0.263158 6:-0.20576 7:0.0594208 8:-0.666206 9:0.538462 10:0.506494 11:0.597855 12:0.608355 13:0.157895 14:-0.199658 15:-0.027866 16:-0.629161 17:0.564103 18:0.506494 19:0.597855 20:0.582245 21:-0.157895 22:-0.199658 23:0.0407217 24:-0.670831 
8192 1:0.538462 2:0.506494 3:0.597855 4:0.608355 5:0.157895 6:-0.199658 7:-0.027866 8:-0.629161 9:0.564103 10:0.506494 11:0.597855 12:0.582245 13:-0.157895 14:-0.199658 15:0.0407217 16:-0.670831 17:0.538462 18:0.506494 19:0.597855 20:0.582245 21:-0.0526316 22:-0.199658 23:0.121215 24:-0.705314 
3862.4201388037 1:0.538462 2:0.506494 3:0.597855 4:0.582245 5:-0.0526316 6:-0.199658 7:0.121215 8:-0.705314 9:0.538462 10:0.480519 11:0.571046 12:0.582245 13:-0.0526316 14:-0.0839639 15:0.124722 16:-0.709836 17:0.564103 18:0.532468 19:0.624665 20:0.634465 21:0.157895 22:0.136441 23:-0.0423286 24:-0.51606 
8192 1:0.589744 2:0.532468 3:0.571046 4:0.582245 5:-0.263158 6:-0.199658 7:0.0416712 8:-0.685145 9:0.487179 10:0.454545 11:0.544236 12:0.530026 13:-0.263158 14:-0.202587 15:0.0688434 16:-0.655199 17:0.487179 18:0.454545 19:0.544236 20:0.530026 21:-0.0526316 22:-0.199658 23:0.0393338 24:-0.685723 
7042.249821107846 1:0.487179 2:0.454545 3:0.544236 4:0.530026 5:-0.0526316 6:-0.199658 7:0.0393338 8:-0.685723 9:0.487179 10:0.454545 11:0.544236 12:0.530026 13:-0.0526316 14:-0.732243 15:0.0657755 16:-0.667713 17:0.487179 18:0.506494 19:0.571046 20:0.582245 21:0.157895 22:-1 23:0.0488295 24:-0.608927 
8192 1:0.615385 2:0.584416 3:0.678284 4:0.686684 5:0.0526316 6:-0.21113 7:0.0998137 8:-0.679283 9:0.641026 10:0.584416 11:0.678284 12:0.660574 13:-0.157895 14:-0.203808 15:0.155035 16:-0.729449 17:0.615385 18:0.61039 19:0.678284 20:0.712794 21:0.157895 22:-0.205272 23:0.152332 24:-0.676963 
8192 1:0.615385 2:0.61039 3:0.678284 4:0.712794 5:0.157895 6:-0.205272 7:0.152332 8:-0.676963 9:0.641026 10:0.61039 11:0.705094 12:0.660574 13:-0.263158 14:-0.200635 15:0.105584 16:-0.724524 17:0.615385 18:0.584416 19:0.678284 20:0.686684 21:0.0526316 22:-0.203808 23:0.0611738 24:-0.69763 
8192 1:0.641026 2:0.61039 3:0.705094 4:0.660574 5:-0.263158 6:-0.200635 7:0.105584 8:-0.724524 9:0.615385 10:0.584416 11:0.678284 12:0.686684 13:0.0526316 14:-0.203808 15:0.0611738 16:-0.69763 17:0.641026 18:0.584416 19:0.678284 20:0.660574 21:-0.157895 22:-0.201611 23:0.124429 24:-0.733196 
8192 1:0.615385 2:0.584416 3:0.678284 4:0.686684 5:0.0526316 6:-0.203808 7:0.0611738 8:-0.69763 9:0.641026 10:0.584416 11:0.678284 12:0.660574 13:-0.157895 14:-0.201611 15:0.124429 16:-0.733196 17:0.589744 18:0.558442 19:0.571046 20:0.556136 21:-0.473684 22:-0.203808 23:0.133195 24:-0.762176 
8192 1:0.589744 2:0.558442 3:0.571046 4:0.556136 5:-0.473684 6:-0.203808 7:0.133195 8:-0.762176 9:0.487179 10:0.480519 11:0.544236 12:0.503916 13:-0.263158 14:-0.199658 15:0.128008 16:-0.764049 17:0.487179 18:0.454545 19:0.544236 20:0.530026 21:0.0526316 22:-0.199658 23:0.0671634 24:-0.714827 
8192 1:0.487179 2:0.454545 3:0.544236 4:0.530026 5:0.0526316 6:-0.199658 7:0.0671634 8:-0.714827 9:0.487179 10:0.454545 11:0.544236 12:0.530026 13:-0.0526316 14:-0.200879 15:0.0320295 16:-0.724224 17:0.487179 18:0.454545 19:0.544236 20:0.556136 21:0.0526316 22:-0.199658 23:0.123772 24:-0.729222 
8192 1:0.564103 2:0.61039 3:0.624665 4:0.686684 5:0.368421 6:-0.207713 7:0.363792 8:-0.730276 9:0.615385 10:0.584416 11:0.624665 12:0.660574 13:-0.157895 14:-0.199658 15:-0.00507651 16:-0.715083 17:0.615385 18:0.558442 19:0.624665 20:0.634465 21:-0.157895 22:-0.199658 23:0.121654 24:-0.730905 
6224.308062863443 1:1 2:1 3:1 4:1 5:-0.0526316 6:-0.199658 7:-0.0940433 8:-0.711812 9:0.948718 10:0.922078 11:0.97319 12:0.97389 13:-0.157895 14:-0.199658 15:0.0859355 16:-0.730832 17:0.897436 18:0.844156 19:0.865952 20:0.817232 21:-0.684211 22:-0.199658 23:0.116322 24:-0.742036 
282.6203771055013 1:0.794872 2:0.87013 3:0.892761 4:0.895561 5:0.157895 6:-0.205272 7:0.426756 8:-0.736401 9:0.871795 10:0.844156 11:0.946381 12:0.947781 13:0.157895 14:-0.205028 15:0.961579 16:-0.740133 17:0.666667 18:0.636364 19:0.705094 20:0.712794 21:-0.0526316 22:-0.205272 23:-0.436909 24:-0.767225 
8192 1:0.666667 2:0.61039 3:0.678284 4:0.634465 5:-0.368421 6:-0.200391 7:-0.10405 8:-0.756372 9:0.564103 10:0.532468 11:0.597855 12:0.582245 13:-0.263158 14:-0.190139 15:0.105219 16:-0.753547 17:0.538462 18:0.61039 19:0.624665 20:0.686684 21:0.368421 22:-0.199658 23:0.0321756 24:-0.671182 
537.9558620408116 1:0.564103 2:0.532468 3:0.597855 4:0.582245 5:-0.263158 6:-0.190139 7:0.105219 8:-0.753547 9:0.538462 10:0.61039 11:0.624665 12:0.686684 13:0.368421 14:-0.199658 15:0.0321756 16:-0.671182 17:0.641026 18:0.61039 19:0.651475 20:0.660574 21:-0.157895 22:-0.197706 23:0.112158 24:-0.71692 
8192 1:0.538462 2:0.61039 3:0.624665 4:0.686684 5:0.368421 6:-0.199658 7:0.0321756 8:-0.671182 9:0.641026 10:0.61039 11:0.651475 12:0.660574 13:-0.157895 14:-0.197706 15:0.112158 16:-0.71692 17:0.589744 18:0.558442 19:0.597855 20:0.582245 21:-0.368421 22:-0.200146 23:0.0117965 24:-0.717784 
8192 1:0.589744 2:0.558442 3:0.597855 4:0.582245 5:-0.368421 6:-0.200146 7:0.0117965 8:-0.717784 9:0.512821 10:0.480519 11:0.544236 12:0.582245 13:-0.0526316 14:-0.199658 15:0.111062 16:-0.715691 17:0.538462 18:0.506494 19:0.571046 20:0.556136 21:-0.157895 22:-0.198438 23:0.118951 24:-0.712939 
8192 1:0.512821 2:0.506494 3:0.571046 4:0.556136 5:-0.0526316 6:-0.205272 7:0.141229 8:-0.72205 9:0.538462 10:0.558442 11:0.597855 12:0.660574 13:0.368421 14:-0.199658 15:0.129542 16:-0.564542 17:0.615385 18:0.558442 19:0.571046 20:0.556136 21:-0.473684 22:-0.1794 23:-0.0802381 24:-0.730737 
8192 1:0.538462 2:0.558442 3:0.597855 4:0.660574 5:0.368421 6:-0.199658 7:0.129542 8:-0.564542 9:0.615385 10:0.558442 11:0.571046 12:0.556136 13:-0.473684 14:-0.1794 15:-0.0802381 16:-0.730737 17:0.512821 18:0.480519 19:0.544236 20:0.556136 21:-0.0526316 22:-0.194533 23:0.142617 24:-0.754294 
8192 1:0.512821 2:0.480519 3:0.544236 4:0.556136 5:-0.0526316 6:-0.194533 7:0.142617 8:-0.754294 9:0.512821 10:0.480519 11:0.571046 12:0.530026 13:-0.157895 14:-0.205516 15:0.121727 16:-0.700001 17:0.512821 18:0.480519 19:0.571046 20:0.582245 21:0.157895 22:-0.200391 23:0.1638 24:-0.695976 
2009.396070412149 1:0.512821 2:0.480519 3:0.571046 4:0.530026 5:-0.157895 6:-0.205516 7:0.121727 8:-0.700001 9:0.512821 10:0.480519 11:0.571046 12:0.582245 13:0.157895 14:-0.200391 15:0.1638 16:-0.695976 17:0.487179 18:0.454545 19:0.490617 20:0.530026 21:-0.263158 22:-0.193556 23:0.0926555 24:-0.748513 
8192 1:0.487179 2:0.454545 3:0.490617 4:0.530026 5:-0.263158 6:-0.193556 7:0.0926555 8:-0.748513 9:0.461538 10:0.454545 11:0.544236 12:0.530026 13:-0.0526316 14:-0.19258 15:0.126913 16:-0.752128 17:0.512821 18:0.480519 19:0.571046 20:0.556136 21:0.0526316 22:-0.194044 23:0.182864 24:-0.729127 
8192 1:0.512821 2:0.480519 3:0.571046 4:0.556136 5:0.0526316 6:-0.194044 7:0.182864 8:-0.729127 9:0.538462 10:0.506494 11:0.544236 12:0.556136 13:-0.0526316 14:-0.193312 15:0.144297 16:-0.724795 17:0.512821 18:0.506494 19:0.571046 20:0.582245 21:0.0526316 22:-0.189407 23:0.083452 24:-0.693693 
8192 1:0.538462 2:0.480519 3:0.517426 4:0.530026 5:-0.263158 6:-0.194289 7:0.0875425 8:-0.680535 9:0.461538 10:0.454545 11:0.517426 12:0.556136 13:0.0526316 14:-0.198194 15:0.139476 16:-0.681801 17:0.512821 18:0.480519 19:0.517426 20:0.503916 21:-0.263158 22:-0.194289 23:0.0722764 24:-0.729617 
8192 1:0.461538 2:0.454545 3:0.517426 4:0.530026 5:0.0526316 6:-0.192092 7:0.129469 8:-0.721472 9:0.512821 10:0.506494 11:0.571046 12:0.608355 13:0.263158 14:-0.199414 15:0.16957 16:-0.680535 17:0.512821 18:0.480519 19:0.544236 20:0.530026 21:-0.368421 22:-0.199658 23:0.0990833 24:-0.763961 
622.9729018510973 1:0.461538 2:0.454545 3:0.517426 4:0.530026 5:0.157895 6:-0.199658 7:0.115153 8:-0.707085 9:0.512821 10:0.506494 11:0.597855 12:0.582245 13:0.157895 14:-0.200146 15:0.138673 16:-0.694146 17:0.538462 18:0.506494 19:0.597855 20:0.608355 21:0.0526316 22:-0.419087 23:0.130711 24:-0.703162 
8192 1:0.512821 2:0.506494 3:0.597855 4:0.582245 5:0.157895 6:-0.200146 7:0.138673 8:-0.694146 9:0.538462 10:0.506494 11:0.597855 12:0.608355 13:0.0526316 14:-0.419087 15:0.130711 16:-0.703162 17:0.564103 18:0.532468 19:0.597855 20:0.608355 21:-0.0526316 22:-0.201611 23:0.107337 24:-0.742636 
8192 1:0.538462 2:0.506494 3:0.597855 4:0.608355 5:0.0526316 6:-0.419087 7:0.130711 8:-0.703162 9:0.564103 10:0.532468 11:0.597855 12:0.608355 13:-0.0526316 14:-0.201611 15:0.107337 16:-0.742636 17:0.564103 18:0.506494 19:0.597855 20:0.582245 21:-0.157895 22:-0.337808 23:0.116395 24:-0.728937 
8192 1:0.538462 2:0.506494 3:0.597855 4:0.608355 5:0.0526316 6:-0.220161 7:0.172492 8:-0.726361 9:0.564103 10:0.532468 11:0.624665 12:0.634465 13:0.0526316 14:-0.199414 15:0.166429 16:-0.69632 17:0.589744 18:0.636364 19:0.651475 20:0.686684 21:0.157895 22:-0.201855 23:0.237573 24:-0.729376 
8192 1:0.564103 2:0.532468 3:0.624665 4:0.634465 5:0.0526316 6:-0.199414 7:0.166429 8:-0.69632 9:0.589744 10:0.636364 11:0.651475 12:0.686684 13:0.157895 14:-0.201855 15:0.237573 16:-0.729376 17:0.641026 18:0.584416 19:0.624665 20:0.608355 21:-0.368421 22:-0.199658 23:0.111209 24:-0.73635 
8192 1:0.589744 2:0.636364 3:0.651475 4:0.686684 5:0.157895 6:-0.201855 7:0.237573 8:-0.729376 9:0.641026 10:0.584416 11:0.624665 12:0.608355 13:-0.368421 14:-0.199658 15:0.111209 16:-0.73635 17:0.564103 18:0.532468 19:0.624665 20:0.608355 21:-0.0526316 22:-0.19917 23:0.133414 24:-0.759951 
8192 1:0.641026 2:0.584416 3:0.624665 4:0.608355 5:-0.368421 6:-0.199658 7:0.111209 8:-0.73635 9:0.564103 10:0.532468 11:0.624665 12:0.608355 13:-0.0526316 14:-0.19917 15:0.133414 16:-0.759951 17:0.538462 18:0.506494 19:0.597855 20:0.608355 21:-0.0526316 22:-0.200879 23:0.0846207 24:-0.706492 
8192 1:0.641026 2:0.61039 3:0.678284 4:0.686684 5:0.0526316 6:-0.199658 7:0.0607355 8:-0.712251 9:0.666667 10:0.636364 11:0.731903 12:0.738903 13:0.157895 14:-0.145716 15:0.145028 16:-0.687597 17:0.692308 18:0.636364 19:0.705094 20:0.660574 21:-0.368421 22:-0.186234 23:0.114422 24:-0.770225 
3849.302896433536 1:0.589744 2:0.636364 3:0.651475 4:0.738903 5:0.263158 6:-0.186722 7:0.106242 8:-0.713422 9:0.666667 10:0.792208 11:0.731903 12:0.869452 13:0.473684 14:-0.160605 15:0.418794 16:-0.732662 17:0.820513 18:0.792208 19:0.812332 20:0.765013 21:-0.473684 22:-0.165975 23:0.0583251 24:-0.739775 
8192 1:0.820513 2:0.792208 3:0.812332 4:0.765013 5:-0.473684 6:-0.165975 7:0.0583251 8:-0.739775 9:0.717949 10:0.688312 11:0.705094 12:0.686684 13:-0.368421 14:-0.199658 15:-0.0591286 16:-0.758853 17:0.615385 18:0.688312 19:0.705094 20:0.738903 21:0.157895 22:-0.199658 23:0.19572 24:-0.746603 
8192 1:0.615385 2:0.688312 3:0.705094 4:0.738903 5:0.157895 6:-0.199658 7:0.19572 8:-0.746603 9:0.666667 10:0.61039 11:0.678284 12:0.686684 13:-0.263158 14:-0.199658 15:0.0142069 16:-0.716415 17:0.641026 18:0.584416 19:0.624665 20:0.634465 21:-0.263158 22:-0.199658 23:0.0976955 24:-0.710678 
8192 1:0.666667 2:0.61039 3:0.678284 4:0.686684 5:-0.263158 6:-0.199658 7:0.0142069 8:-0.716415 9:0.641026 10:0.584416 11:0.624665 12:0.634465 13:-0.263158 14:-0.199658 15:0.0976955 16:-0.710678 17:0.564103 18:0.558442 19:0.651475 20:0.608355 21:-0.157895 22:-0.199658 23:0.0937511 24:-0.732479 
8192 1:0.641026 2:0.584416 3:0.624665 4:0.634465 5:-0.263158 6:-0.199658 7:0.0976955 8:-0.710678 9:0.564103 10:0.558442 11:0.651475 12:0.608355 13:-0.157895 14:-0.199658 15:0.0937511 16:-0.732479 17:0.564103 18:0.558442 19:0.651475 20:0.608355 21:-0.0526316 22:-0.199658 23:0.085059 24:-0.738311 
8192 1:0.615385 2:0.558442 3:0.597855 4:0.556136 5:-0.263158 6:-0.197462 7:0.0999598 8:-0.756101 9:0.538462 10:0.532468 11:0.597855 12:0.608355 13:0.157895 14:-0.200879 15:0.147949 16:-0.710583 17:0.564103 18:0.532468 19:0.624665 20:0.634465 21:0.0526316 22:-0.199658 23:0.0974033 24:-0.729456 
8192 1:0.564103 2:0.532468 3:0.624665 4:0.634465 5:0.0526316 6:-0.199658 7:0.0974033 8:-0.729456 9:0.589744 10:0.558442 11:0.651475 12:0.634465 13:-0.0526316 14:-0.199658 15:0.130638 16:-0.736474 17:0.615385 18:0.584416 19:0.651475 20:0.660574 21:0.0526316 22:-0.199414 23:0.115664 24:-0.723814 
8192 1:0.692308 2:0.688312 3:0.758713 4:0.791123 5:0.157895 6:-0.199658 7:0.132829 8:-0.677124 9:0.717949 10:0.714286 11:0.812332 12:0.791123 13:-0.0526316 14:-0.198194 15:0.145831 16:-0.722292 17:0.769231 18:0.714286 19:0.758713 20:0.765013 21:-0.157895 22:-0.201611 23:0.131588 24:-0.714176 
8192 1:0.717949 2:0.714286 3:0.812332 4:0.791123 5:-0.0526316 6:-0.198194 7:0.145831 8:-0.722292 9:0.769231 10:0.714286 11:0.758713 12:0.765013 13:-0.157895 14:-0.201611 15:0.131588 16:-0.714176 17:0.717949 18:0.688312 19:0.785523 20:0.765013 21:-0.0526316 22:-0.201123 23:0.106972 24:-0.719504 
8192 1:0.717949 2:0.688312 3:0.785523 4:0.765013 5:-0.0526316 6:-0.201123 7:0.106972 8:-0.719504 9:0.717949 10:0.688312 11:0.705094 12:0.660574 13:-0.473684 14:-0.201123 15:0.227201 16:-0.785996 17:0.641026 18:0.636364 19:0.731903 20:0.738903 21:0.263158 22:-0.212106 23:0.0866659 24:-0.70699 
7694.00567048825 1:0.666667 2:0.636364 3:0.731903 4:0.686684 5:-0.263158 6:-0.199658 7:0.104269 8:-0.727649 9:0.641026 10:0.688312 11:0.731903 12:0.765013 13:0.263158 14:0.559678 15:0.129688 16:-0.737126 17:0.692308 18:0.662338 19:0.758713 20:0.738903 21:-0.157895 22:-0.201367 23:0.0919981 24:-0.740126 
8192 1:0.666667 2:0.662338 3:0.758713 4:0.738903 5:-0.0526316 6:-0.1196 7:0.233483 8:-0.792187 9:0.692308 10:0.688312 11:0.758713 12:0.738903 13:-0.0526316 14:-0.201123 15:0.122749 16:-0.740331 17:0.717949 18:0.714286 19:0.785523 20:0.765013 21:0.0526316 22:0.0856724 23:0.0323217 24:-0.728841 
-8192 1:-0.0769231 2:-0.116883 3:-0.152815 4:-0.122715 5:-0.473684 6:-0.199658 7:0.116541 8:-0.789809 9:-0.179487 10:-0.194805 11:-0.179625 12:-0.148825 13:-0.157895 14:-0.199414 15:0.106022 16:-0.742153 17:-0.205128 18:-0.246753 19:-0.394102 20:-0.383812 21:-1 22:-0.303637 23:0.159417 24:-0.827021 
-5641.167118845451 1:-0.589744 2:-0.636364 3:-0.635389 4:-0.592689 5:-0.0526316 6:-0.228216 7:0.158541 8:-0.765235 9:-0.692308 10:-0.766234 11:-0.849866 12:-0.775457 13:-0.789474 14:-0.199658 15:0.126109 16:-0.80034 17:-0.769231 18:-0.792208 19:-0.903485 20:-0.906005 21:-0.578947 22:-0.217232 23:0.0840364 24:-0.890418 
-4634.054144410177 1:-0.846154 2:-0.922078 3:-0.876676 4:-0.853786 5:-0.0526316 6:-0.199658 7:0.159928 8:-0.788074 9:-0.897436 10:-0.948052 11:-0.983914 12:-0.958225 13:-0.473684 14:-0.212839 15:0.0559147 16:-0.790526 17:-0.948718 18:-1 19:-1 20:-1 21:-0.221053 22:-0.199658 23:0.0149374 24:-0.799052 
-8192 1:-0.897436 2:-0.948052 3:-0.983914 4:-0.958225 5:-0.473684 6:-0.212839 7:0.0559147 8:-0.790526 9:-0.948718 10:-1 11:-1 12:-1 13:-0.221053 14:-0.199658 15:0.0149374 16:-0.799052 17:-0.948718 18:-0.974026 19:-0.957105 20:-0.879896 21:0.431579 22:-0.199658 23:0.0693547 24:-0.726792 
-3722.72937325826 1:-0.897436 2:-0.974026 3:-0.957105 4:-0.958225 5:-0.578947 6:-0.19917 7:0.0624886 8:-0.783515 9:-0.948718 10:-1 11:-0.957105 12:-0.958225 13:-0.0526316 14:-0.199658 15:0.106095 16:-0.770796 17:-1 18:-0.974026 19:-0.983914 20:-0.958225 21:-0.0526316 22:-0.200391 23:0.137212 24:-0.797742 
-8192 1:-0.948718 2:-1 3:-0.957105 4:-0.958225 5:-0.0526316 6:-0.199658 7:0.106095 8:-0.770796 9:-1 10:-0.974026 11:-0.983914 12:-0.958225 13:-0.0526316 14:-0.200391 15:0.137212 16:-0.797742 17:-0.923077 18:-0.792208 19:-0.930295 20:-0.827676 21:0.473684 22:-0.198682 23:0.292575 24:-0.871647 
-8192 1:-0.641026 2:-0.61039 3:-0.662198 4:-0.56658 5:-0.0526316 6:-0.199658 7:0.0979146 8:-0.728563 9:-0.666667 10:-0.714286 11:-0.715818 12:-0.697128 13:-0.578947 14:-0.199658 15:0.0163982 16:-0.815334 17:-0.794872 18:-0.792208 19:-0.796247 20:-0.749347 21:-0.263158 22:-0.201123 23:0.137212 24:-0.77177 
-8192 1:-0.794872 2:-0.792208 3:-0.796247 4:-0.749347 5:-0.263158 6:-0.201123 7:0.137212 8:-0.77177 9:-0.717949 10:-0.584416 11:-0.715818 12:-0.54047 13:0.789474 14:-0.199658 15:0.306673 16:-0.693956 17:-0.564103 18:-0.61039 19:-0.608579 20:-0.592689 21:-0.263158 22:-0.198926 23:0.105438 24:-0.754843 
-8192 1:-0.564103 2:-0.584416 3:-0.581769 4:-0.54047 5:0.157895 6:-0.199658 7:0.181549 8:-0.698801 9:-0.589744 10:-0.636364 11:-0.608579 12:-0.56658 13:-0.157895 14:-0.197217 15:0.125963 16:-0.763683 17:-0.589744 18:-0.61039 19:-0.608579 20:-0.592689 21:-0.157895 22:-0.199658 23:0.128082 24:-0.741451 
-8192 1:-0.589744 2:-0.61039 3:-0.608579 4:-0.592689 5:-0.157895 6:-0.199658 7:0.128082 8:-0.741451 9:-0.564103 10:-0.636364 11:-0.608579 12:-0.56658 13:0.0526316 14:-0.199658 15:0.129104 16:-0.750086 17:-0.615385 18:-0.662338 19:-0.662198 20:-0.618799 21:-0.263158 22:-0.199658 23:0.0870312 24:-0.757228 
-8192 1:-0.615385 2:-0.662338 3:-0.662198 4:-0.618799 5:-0.263158 6:-0.199658 7:0.0870312 8:-0.757228 9:-0.641026 10:-0.662338 11:-0.662198 12:-0.56658 13:0.157895 14:-0.199658 15:0.0945546 16:-0.750884 17:-0.589744 18:-0.636364 19:-0.608579 20:-0.618799 21:-0.263158 22:-0.169636 23:0.128593 24:-0.763032 
-8192 1:-0.641026 2:-0.662338 3:-0.662198 4:-0.56658 5:0.157895 6:-0.199658 7:0.0945546 8:-0.750884 9:-0.589744 10:-0.636364 11:-0.608579 12:-0.618799 13:-0.263158 14:-0.169636 15:0.128593 16:-0.763032 17:-0.615385 18:-0.636364 19:-0.608579 20:-0.54047 21:0.263158 22:-0.199658 23:0.147803 24:-0.720477 
-8192 1:-0.589744 2:-0.636364 3:-0.608579 4:-0.618799 5:-0.263158 6:-0.169636 7:0.128593 8:-0.763032 9:-0.615385 10:-0.636364 11:-0.608579 12:-0.54047 13:0.263158 14:-0.199658 15:0.147803 16:-0.720477 17:-0.512821 18:-0.480519 19:-0.50134 20:-0.409922 21:0.473684 22:-0.211374 23:0.125963 24:-0.723463 
-8192 1:-0.615385 2:-0.636364 3:-0.608579 4:-0.54047 5:0.263158 6:-0.199658 7:0.147803 8:-0.720477 9:-0.512821 10:-0.480519 11:-0.50134 12:-0.409922 13:0.473684 14:-0.211374 15:0.125963 16:-0.723463 17:-0.435897 18:-0.246753 19:-0.394102 20:-0.148825 21:1 22:-0.199658 23:0.151894 24:-0.627968 
-8192 1:-0.435897 2:-0.246753 3:-0.394102 4:-0.148825 5:1 6:-0.199658 7:0.151894 8:-0.627968 9:-0.153846 10:0.038961 11:-0.152815 12:0.0078329 13:0.578947 14:-0.199658 15:0.22669 16:-0.806611 17:0.025641 18:0.012987 19:-0.0187668 20:0.0078329 21:-0.0526316 22:-0.199658 23:0.0307147 24:-0.739636 
-2254.840113797759 1:-0.0512821 2:-0.0909091 3:-0.0455764 4:0.0078329 5:-0.157895 6:-0.199658 7:0.120339 8:-0.749252 9:-4.44089e-016 10:-0.012987 11:-0.0187668 12:-0.0182768 13:-0.157895 14:-0.199658 15:0.125963 16:-0.786552 17:-0.0512821 18:-0.116883 19:-0.260054 20:-0.227154 21:-0.894737 22:-0.199658 23:0.021 24:-0.758048 
-8192 1:-4.44089e-016 2:-0.012987 3:-0.0187668 4:-0.0182768 5:-0.157895 6:-0.199658 7:0.125963 8:-0.786552 9:-0.0512821 10:-0.116883 11:-0.260054 12:-0.227154 13:-0.894737 14:-0.199658 15:0.021 16:-0.758048 17:-0.205128 18:-0.246753 19:-0.179625 20:-0.148825 21:0.263158 22:-0.199658 23:0.0325408 24:-0.681208 
-8192 1:-0.0512821 2:-0.116883 3:-0.260054 4:-0.227154 5:-0.894737 6:-0.199658 7:0.021 8:-0.758048 9:-0.205128 10:-0.246753 11:-0.179625 12:-0.148825 13:0.263158 14:-0.199658 15:0.0325408 16:-0.681208 17:-0.102564 18:-0.0909091 19:-0.0991957 20:-0.0704961 21:0.263158 22:-0.199658 23:0.163654 24:-0.685782 
-8192 1:-0.0769231 2:-0.116883 3:-0.0723861 4:-0.0443864 5:0.0526316 6:-0.199414 7:0.056426 8:-0.699693 9:-0.0512821 10:-0.116883 11:-0.126005 12:-0.0443864 13:-0.0526316 14:-0.175494 15:0.144078 16:-0.746581 17:-0.128205 18:-0.168831 19:-0.179625 20:-0.174935 21:-0.578947 22:-0.199658 23:0.765239 24:-0.791924 
-8192 1:-0.230769 2:-0.194805 3:-0.179625 4:-0.148825 5:0.0526316 6:-0.181108 7:0.177386 8:-0.677754 9:-0.205128 10:-0.246753 11:-0.233244 12:-0.148825 13:-0.0526316 14:-0.199658 15:0.102005 16:-0.707963 17:-0.153846 18:-0.220779 19:-0.206434 20:-0.201044 21:-0.263158 22:-0.199658 23:0.149337 24:-0.767649 
-8192 1:-0.153846 2:-0.220779 3:-0.206434 4:-0.201044 5:-0.263158 6:-0.199658 7:0.149337 8:-0.767649 9:-0.230769 10:-0.246753 11:-0.206434 12:-0.174935 13:0.0526316 14:-0.288992 15:0.162777 16:-0.697886 17:-0.25641 18:-0.298701 19:-0.313673 20:-0.253264 21:-0.368421 22:-0.199658 23:-0.0779738 24:-0.687684 
-8091.722383451624 1:-0.589744 2:-0.558442 3:-0.581769 4:-0.54047 5:-0.263158 6:-0.199658 7:0.197473 8:-0.892087 9:-0.564103 10:-0.61039 11:-0.55496 12:-0.54047 13:-0.0526316 14:-0.199658 15:0.0843285 16:-0.776987 17:-0.589744 18:-0.584416 19:-0.635389 20:-0.644909 21:-0.473684 22:-0.198438 23:0.0757825 24:-0.852108 
-8192 1:-0.564103 2:-0.61039 3:-0.55496 4:-0.54047 5:-0.0526316 6:-0.199658 7:0.0843285 8:-0.776987 9:-0.589744 10:-0.584416 11:-0.635389 12:-0.644909 13:-0.473684 14:-0.198438 15:0.0757825 16:-0.852108 17:-0.641026 18:-0.662338 19:-0.635389 20:-0.592689 21:0.157895 22:-0.209666 23:0.170885 24:-0.8106 
-8192 1:-0.589744 2:-0.584416 3:-0.635389 4:-0.644909 5:-0.473684 6:-0.198438 7:0.0757825 8:-0.852108 9:-0.641026 10:-0.662338 11:-0.635389 12:-0.592689 13:0.157895 14:-0.209666 15:0.170885 16:-0.8106 17:-0.564103 18:-0.584416 19:-0.55496 20:-0.54047 21:0.157895 22:-0.199658 23:0.196888 24:-0.71662 
-8192 1:-0.512821 2:-0.558442 3:-0.608579 4:-0.592689 5:-0.368421 6:-0.199658 7:0.129104 8:-0.821818 9:-0.589744 10:-0.61039 11:-0.662198 12:-0.671018 13:-0.368421 14:-0.19917 15:0.074979 16:-0.758838 17:-0.641026 18:-0.714286 19:-0.662198 20:-0.644909 21:0.0526316 22:-0.199658 23:0.303678 24:-0.738033 
-8192 1:-0.641026 2:-0.714286 3:-0.662198 4:-0.644909 5:0.0526316 6:-0.199658 7:0.303678 8:-0.738033 9:-0.666667 10:-0.662338 11:-0.662198 12:-0.592689 13:0.157895 14:-0.199658 15:0.101202 16:-0.719701 17:-0.692308 18:-0.688312 19:-0.662198 20:-0.592689 21:-0.0526316 22:-0.199902 23:0.705635 24:-0.734872 
-8192 1:-0.666667 2:-0.662338 3:-0.662198 4:-0.592689 5:0.157895 6:-0.199658 7:0.101202 8:-0.719701 9:-0.692308 10:-0.688312 11:-0.662198 12:-0.592689 13:-0.0526316 14:-0.199902 15:0.705635 16:-0.734872 17:-0.589744 18:-0.584416 19:-0.581769 20:-0.51436 21:0.263158 22:-0.199658 23:0.480881 24:-0.710341 
-8192 1:-0.692308 2:-0.766234 3:-0.903485 4:-0.827676 5:-0.789474 6:-0.199658 7:0.138235 8:-0.877026 9:-0.846154 10:-0.896104 11:-0.876676 12:-0.853786 13:-0.157895 14:-0.198682 15:0.139988 16:-0.903854 17:-0.871795 18:-0.948052 19:-0.930295 20:-0.906005 21:-0.263158 22:-0.199658 23:0.0629999 24:-0.899149 
-8192 1:-0.846154 2:-0.922078 3:-0.930295 4:-0.879896 5:-0.0526316 6:-0.199658 7:0.00902085 8:-0.985971 9:-0.923077 10:-0.922078 11:-0.930295 12:-0.879896 13:-0.0526316 14:-0.199658 15:0.122603 16:-0.908399 17:-0.897436 18:-0.974026 19:-0.930295 20:-0.906005 21:-0.157895 22:-0.19917 23:0.13597 24:-0.855613 
-8192 1:-0.923077 2:-0.948052 3:-0.930295 4:-0.879896 5:0.0526316 6:-0.199658 7:0.103685 8:-0.8118 9:-0.923077 10:-0.948052 11:-0.930295 12:-0.879896 13:-0.0526316 14:-0.199658 15:0.134582 16:-0.849034 17:-0.923077 18:-0.974026 19:-0.930295 20:-0.906005 21:-0.157895 22:-0.199658 23:0.152697 24:-0.842426 
-8192 1:-0.871795 2:-0.922078 3:-0.903485 4:-0.906005 5:-0.157895 6:-0.199658 7:0.0773164 8:-0.736277 9:-0.923077 10:-0.818182 11:-0.930295 12:-0.723238 13:0.684211 14:-0.199658 15:0.190461 16:-0.689924 17:-0.74359 18:-0.792208 19:-0.796247 20:-0.801567 21:-0.368421 22:-0.199658 23:0.126255 24:-0.73856 
-8192 1:-0.74359 2:-0.792208 3:-0.796247 4:-0.801567 5:-0.368421 6:-0.199658 7:0.126255 8:-0.73856 9:-0.769231 10:-0.792208 11:-0.769437 12:-0.697128 13:0.368421 14:-0.199658 15:0.121946 16:-0.714425 17:-0.74359 18:-0.792208 19:-0.742627 20:-0.723238 21:-0.157895 22:-0.202831 23:0.166064 24:-0.743346 
-8192 1:-0.769231 2:-0.792208 3:-0.769437 4:-0.697128 5:0.368421 6:-0.199658 7:0.121946 8:-0.714425 9:-0.74359 10:-0.792208 11:-0.742627 12:-0.723238 13:-0.157895 14:-0.202831 15:0.166064 16:-0.743346 17:-0.717949 18:-0.688312 19:-0.715818 20:-0.618799 21:0.368421 22:-0.199658 23:0.152989 24:-0.683696 
-8192 1:-0.74359 2:-0.792208 3:-0.742627 4:-0.723238 5:-0.157895 6:-0.202831 7:0.166064 8:-0.743346 9:-0.717949 10:-0.688312 11:-0.715818 12:-0.618799 13:0.368421 14:-0.199658 15:0.152989 16:-0.683696 17:-0.641026 18:-0.636364 19:-0.635389 20:-0.56658 21:0.157895 22:-0.199658 23:0.100106 24:-0.670026 
-813.8675830191863 1:-0.487179 2:-0.506494 3:-0.50134 4:-0.488251 5:-0.157895 6:-0.199658 7:0.183887 8:-0.687706 9:-0.564103 10:-0.636364 11:-0.662198 12:-0.592689 13:-0.473684 14:-0.199658 15:0.108141 16:1 17:-0.615385 18:-0.688312 19:-0.715818 20:-0.671018 21:-0.368421 22:-0.197217 23:0.162193 24:-0.981727 
-8192 1:-0.615385 2:-0.688312 3:-0.715818 4:-0.671018 5:-0.368421 6:-0.197217 7:0.162193 8:-0.981727 9:-0.692308 10:-0.714286 11:-0.689008 12:-0.644909 13:0.0526316 14:-0.199658 15:0.142909 16:-0.728 17:-0.666667 18:-0.714286 19:-0.662198 20:-0.644909 21:-0.0526316 22:-0.199658 23:0.111574 24:-0.702174 
-8192 1:-0.692308 2:-0.714286 3:-0.689008 4:-0.644909 5:0.0526316 6:-0.199658 7:0.142909 8:-0.728 9:-0.666667 10:-0.714286 11:-0.662198 12:-0.644909 13:-0.0526316 14:-0.199658 15:0.111574 16:-0.702174 17:-0.641026 18:-0.688312 19:-0.635389 20:-0.618799 21:0.0526316 22:-0.199658 23:0.155765 24:-0.736591 
-8192 1:-0.615385 2:-0.662338 3:-0.635389 4:-0.592689 5:0.0526316 6:-0.199658 7:0.154596 8:-0.724114 9:-0.666667 10:-0.74026 11:-0.849866 12:-0.827676 13:-1 14:-0.199658 15:0.0768051 16:-1 17:-0.820513 18:-0.87013 19:-0.823056 20:-0.827676 21:-0.0526316 22:-0.199658 23:0.159928 24:-0.784291 
-8192 1:-0.820513 2:-0.87013 3:-0.823056 4:-0.827676 5:-0.0526316 6:-0.199658 7:0.159928 8:-0.784291 9:-0.820513 10:-0.87013 11:-0.823056 12:-0.801567 13:0.0526316 14:-0.199658 15:0.149118 16:-0.791638 17:-0.820513 18:-0.896104 19:-0.876676 20:-0.853786 21:-0.263158 22:-0.0224555 23:0.105365 24:-0.859924 
-3824.02319895562 1:-0.846154 2:-0.896104 3:-0.849866 4:-0.827676 5:0.0526316 6:0.261899 7:0.131368 8:-0.750576 9:-0.846154 10:-0.87013 11:-0.823056 12:-0.775457 13:0.157895 14:-0.102758 15:0.141302 16:-0.733196 17:-0.794872 18:-0.844156 19:-0.796247 20:-0.775457 21:-0.0526316 22:-0.118623 23:0.115445 24:-0.687414 
-8192 1:-0.794872 2:-0.844156 3:-0.796247 4:-0.775457 5:-0.157895 6:-0.199658 7:0.129542 8:-0.713488 9:-0.794872 10:-0.844156 11:-0.930295 12:-0.879896 13:-0.473684 14:-0.210398 15:0.0646068 16:-0.811997 17:-0.897436 18:-0.948052 19:-0.930295 20:-0.879896 21:-0.0526316 22:-0.163778 23:0.125379 24:-0.73485 
-8192 1:-0.794872 2:-0.844156 3:-0.930295 4:-0.879896 5:-0.473684 6:-0.210398 7:0.0646068 8:-0.811997 9:-0.897436 10:-0.948052 11:-0.930295 12:-0.879896 13:-0.0526316 14:-0.163778 15:0.125379 16:-0.73485 17:-0.923077 18:-0.948052 19:-0.930295 20:-0.853786 21:0.0526316 22:-0.200146 23:0.126255 24:-0.740433 
-8192 1:-0.897436 2:-0.948052 3:-0.930295 4:-0.879896 5:-0.0526316 6:-0.163778 7:0.125379 8:-0.73485 9:-0.923077 10:-0.948052 11:-0.930295 12:-0.853786 13:0.0526316 14:-0.200146 15:0.126255 16:-0.740433 17:-0.871795 18:-0.896104 19:-0.876676 20:-0.801567 21:0.157895 22:-0.199658 23:0.144735 24:-0.705416 
-8192 1:-0.871795 2:-0.896104 3:-0.876676 4:-0.801567 5:0.157895 6:-0.199658 7:0.144735 8:-0.705416 9:-0.820513 10:-0.844156 11:-0.823056 12:-0.775457 13:0.0526316 14:-0.19917 15:0.118586 16:-0.714066 17:-0.794872 18:-0.844156 19:-0.796247 20:-0.775457 21:-0.0526316 22:-0.199658 23:0.171542 24:-0.698061 
-8192 1:-0.820513 2:-0.844156 3:-0.823056 4:-0.775457 5:0.0526316 6:-0.19917 7:0.118586 8:-0.714066 9:-0.794872 10:-0.844156 11:-0.796247 12:-0.775457 13:-0.0526316 14:-0.199658 15:0.171542 16:-0.698061 17:-0.794872 18:-0.792208 19:-0.769437 20:-0.749347 21:0.0526316 22:-0.199658 23:0.151967 24:-0.72044 
-7280.064541172425 1:-0.74359 2:-0.558442 3:-0.715818 4:-0.488251 5:1 6:-0.223578 7:0.3047 8:-0.382548 9:-0.538462 10:-0.61039 11:-0.608579 12:-0.592689 13:-0.473684 14:-0.224555 15:-0.0144261 16:-0.745498 17:-0.589744 18:-0.636364 19:-0.608579 20:-0.592689 21:-0.0526316 22:-0.199658 23:0.115664 24:-0.725402 
-8192 1:-0.564103 2:-0.584416 3:-0.55496 4:-0.51436 5:0.263158 6:-0.199658 7:0.205873 8:-0.611005 9:-0.512821 10:-0.558442 11:-0.52815 12:-0.51436 13:-0.0526316 14:-0.199658 15:0.119755 16:-0.571333 17:-0.487179 18:-0.558442 19:-0.52815 20:-0.51436 21:-0.0526316 22:-0.199658 23:0.356488 24:-0.641324 
-7071.59497874986 1:-0.487179 2:-0.558442 3:-0.52815 4:-0.51436 5:-0.0526316 6:-0.199658 7:0.356488 8:-0.641324 9:-0.538462 10:-0.532468 11:-0.50134 12:-0.488251 13:0.0526316 14:-0.190139 15:1 16:-0.628803 17:-0.641026 18:-0.558442 19:-0.608579 20:-0.462141 21:-0.0526316 22:-0.199658 23:-0.803294 24:-0.510161 
-8192 1:-0.461538 2:-0.454545 3:-0.420912 4:-0.383812 5:0.263158 6:-0.199658 7:0.0258208 8:-0.65656 9:-0.410256 10:-0.428571 11:-0.420912 12:-0.357702 13:0.0526316 14:-0.195265 15:0.138673 16:-0.607353 17:-0.384615 18:-0.454545 19:-0.447721 20:-0.409922 21:-0.263158 22:-0.180376 23:0.0469304 24:-0.701098 
-8192 1:-0.410256 2:-0.454545 3:-0.394102 4:-0.357702 5:0.157895 6:-0.206004 7:0.174829 8:-0.652338 9:-0.384615 10:-0.454545 11:-0.474531 12:-0.436031 13:-0.368421 14:-0.173542 15:0.0592016 16:-0.739592 17:-0.435897 18:-0.506494 19:-0.52815 20:-0.462141 21:-0.157895 22:-0.0837198 23:0.11676 24:-0.727253 
-8192 1:-0.282051 2:-0.324675 3:-0.313673 4:-0.305483 5:-0.157895 6:-0.200146 7:0.0722034 8:-0.707216 9:-0.333333 10:-0.376623 11:-0.367292 12:-0.305483 13:-0.0526316 14:-0.171589 15:0.165114 16:-0.615286 17:-0.333333 18:-0.376623 19:-0.340483 20:-0.357702 21:-0.263158 22:-0.204784 23:0.0695007 24:-0.730005 
-8192 1:-0.333333 2:-0.376623 3:-0.367292 4:-0.305483 5:-0.0526316 6:-0.171589 7:0.165114 8:-0.615286 9:-0.333333 10:-0.376623 11:-0.340483 12:-0.357702 13:-0.263158 14:-0.204784 15:0.0695007 16:-0.730005 17:-0.384615 18:-0.402597 19:-0.367292 20:-0.331593 21:0.0526316 22:-0.199414 23:0.16044 24:-0.633889 
-8192 1:-0.358974 2:-0.376623 3:-0.340483 4:-0.279373 5:0.157895 6:-0.202099 7:0.116614 8:-0.655653 9:-0.358974 10:-0.402597 11:-0.367292 12:-0.357702 13:-0.368421 14:-0.195021 15:0.128885 16:-0.799864 17:-0.384615 18:-0.428571 19:-0.420912 20:-0.383812 21:-0.157895 22:-0.186234 23:0.0678938 24:-0.74429 
-8192 1:-0.358974 2:-0.402597 3:-0.367292 4:-0.357702 5:-0.368421 6:-0.195021 7:0.128885 8:-0.799864 9:-0.384615 10:-0.428571 11:-0.420912 12:-0.383812 13:-0.157895 14:-0.186234 15:0.0678938 16:-0.74429 17:-0.410256 18:-0.402597 19:-0.367292 20:-0.331593 21:0.157895 22:-0.201123 23:0.250064 24:-0.692924 
-8192 1:-0.384615 2:-0.428571 3:-0.420912 4:-0.383812 5:-0.157895 6:-0.186234 7:0.0678938 8:-0.74429 9:-0.410256 10:-0.402597 11:-0.367292 12:-0.331593 13:0.157895 14:-0.201123 15:0.250064 16:-0.692924 17:-0.307692 18:-0.324675 19:-0.286863 20:-0.227154 21:0.368421 22:-0.201611 23:0.0760747 24:-0.673568 
-8192 1:-0.410256 2:-0.402597 3:-0.367292 4:-0.331593 5:0.157895 6:-0.201123 7:0.250064 8:-0.692924 9:-0.307692 10:-0.324675 11:-0.286863 12:-0.227154 13:0.368421 14:-0.201611 15:0.0760747 16:-0.673568 17:-0.282051 18:-0.246753 19:-0.260054 20:-0.174935 21:0.157895 22:-0.199902 23:0.169132 24:-0.70849 
-8192 1:-0.282051 2:-0.246753 3:-0.260054 4:-0.174935 5:0.157895 6:-0.199902 7:0.169132 8:-0.70849 9:-0.205128 10:-0.0909091 11:-0.179625 12:-0.0182768 13:0.578947 14:-0.19917 15:0.39133 16:-0.700264 17:-0.0769231 18:-0.142857 19:-0.206434 20:-0.0704961 21:-0.263158 22:-0.198194 23:-0.193528 24:-0.767335 
-8192 1:-4.44089e-016 2:-0.0649351 3:-0.0187668 4:0.0078329 5:-0.157895 6:-0.1938 7:-0.0753442 8:-0.71422 9:-0.025641 10:-0.0909091 11:-0.0455764 12:-0.0182768 13:-0.157895 14:-0.20332 15:0.0275739 16:-0.70587 17:-0.102564 18:-0.142857 19:-0.0723861 20:-0.0704961 21:-0.263158 22:-0.198194 23:0.100325 24:-0.754953 
-8192 1:-0.102564 2:-0.142857 3:-0.0723861 4:-0.0704961 5:-0.263158 6:-0.198194 7:0.100325 8:-0.754953 9:-0.128205 10:-0.0909091 11:-0.126005 12:-0.0182768 13:0.157895 14:-0.201123 15:0.102735 16:-0.725943 17:-0.0769231 18:-0.142857 19:-0.206434 20:-0.227154 21:-0.894737 22:-0.281425 23:0.0440817 24:-0.799403 
-8192 1:-0.282051 2:-0.246753 3:-0.313673 4:-0.148825 5:0.263158 6:-0.199658 7:0.116468 8:-0.747671 9:-0.205128 10:-0.194805 11:-0.206434 12:-0.148825 13:-0.0526316 14:-0.200146 15:0.218071 16:-0.75777 17:-0.205128 18:-0.246753 19:-0.233244 20:-0.227154 21:-0.368421 22:-0.202587 23:0.0881998 24:-0.767547 
-8192 1:-0.282051 2:-0.194805 3:-0.233244 4:-0.0966057 5:0.473684 6:-0.200146 7:0.161462 8:-0.715142 9:-0.179487 10:-0.168831 11:-0.152815 12:-0.0966057 13:-0.0526316 14:-0.198926 15:0.127935 16:-0.733269 17:-0.179487 18:-0.246753 19:-0.233244 20:-0.253264 21:-0.684211 22:-0.200146 23:0.101129 24:-0.853798 
-8192 1:-0.25641 2:-0.298701 3:-0.313673 4:-0.331593 5:-0.578947 6:-0.201123 7:0.103612 8:-0.814595 9:-0.358974 10:-0.402597 11:-0.420912 12:-0.409922 13:-0.368421 14:-0.141323 15:0.152697 16:-0.804313 17:-0.410256 18:-0.454545 19:-0.420912 20:-0.409922 21:-0.0526316 22:-0.199658 23:0.172492 24:-0.804321 
-8192 1:-0.358974 2:-0.402597 3:-0.420912 4:-0.409922 5:-0.368421 6:-0.141323 7:0.152697 8:-0.804313 9:-0.410256 10:-0.454545 11:-0.420912 12:-0.409922 13:-0.0526316 14:-0.199658 15:0.172492 16:-0.804321 17:-0.384615 18:-0.376623 19:-0.340483 20:-0.279373 21:0.473684 22:-0.201611 23:0.140572 24:-0.678339 
-8192 1:-0.410256 2:-0.454545 3:-0.420912 4:-0.409922 5:-0.0526316 6:-0.199658 7:0.172492 8:-0.804321 9:-0.384615 10:-0.376623 11:-0.340483 12:-0.279373 13:0.473684 14:-0.201611 15:0.140572 16:-0.678339 17:-0.358974 18:-0.350649 19:-0.313673 20:-0.253264 21:0.0526316 22:-0.199658 23:0.155254 24:-0.734842 
-8192 1:-0.384615 2:-0.376623 3:-0.340483 4:-0.279373 5:0.473684 6:-0.201611 7:0.140572 8:-0.678339 9:-0.358974 10:-0.350649 11:-0.313673 12:-0.253264 13:0.0526316 14:-0.199658 15:0.155254 16:-0.734842 17:-0.307692 18:-0.298701 19:-0.260054 20:-0.227154 21:0.0526316 22:-0.193556 23:0.152405 24:-0.727795 
-8192 1:-0.25641 2:-0.272727 3:-0.233244 4:-0.201044 5:0.0526316 6:-0.202343 7:0.11413 8:-0.765608 9:-0.282051 10:-0.324675 11:-0.340483 12:-0.357702 13:-0.684211 14:-0.19917 15:0.0746868 16:-0.852123 17:-0.461538 18:-0.454545 19:-0.447721 20:-0.383812 21:-0.157895 22:-0.199658 23:0.0978416 24:-0.753152 
-8192 1:-0.435897 2:-0.428571 3:-0.420912 4:-0.357702 5:0.0526316 6:-0.199658 7:0.158029 8:-0.76219 9:-0.384615 10:-0.428571 11:-0.420912 12:-0.409922 13:-0.263158 14:-0.197706 15:0.0787773 16:-0.807599 17:-0.435897 18:-0.480519 19:-0.420912 20:-0.436031 21:-0.157895 22:-0.162558 23:0.123042 24:-0.785272 
-8192 1:-0.358974 2:-0.402597 3:-0.340483 4:-0.305483 5:0.157895 6:-0.199658 7:0.129396 8:-0.699371 9:-0.333333 10:-0.376623 11:-0.313673 12:-0.279373 13:0.0526316 14:-0.199658 15:0.155473 16:-0.70587 17:-0.333333 18:-0.376623 19:-0.340483 20:-0.357702 21:-0.368421 22:-0.199658 23:0.105 24:-0.751403 
-8192 1:-0.333333 2:-0.376623 3:-0.340483 4:-0.357702 5:-0.368421 6:-0.199658 7:0.105 8:-0.751403 9:-0.333333 10:-0.376623 11:-0.313673 12:-0.305483 13:0.157895 14:-0.199658 15:0.133998 16:-0.688804 17:-0.333333 18:-0.402597 19:-0.340483 20:-0.357702 21:-0.263158 22:-0.162558 23:0.0748329 24:-0.72568 
-8192 1:-0.333333 2:-0.376623 3:-0.313673 4:-0.305483 5:0.157895 6:-0.199658 7:0.133998 8:-0.688804 9:-0.333333 10:-0.402597 11:-0.340483 12:-0.357702 13:-0.263158 14:-0.162558 15:0.0748329 16:-0.72568 17:-0.358974 18:-0.402597 19:-0.340483 20:-0.331593 21:0.0526316 22:-0.199658 23:0.169205 24:-0.725958 
-8192 1:-0.333333 2:-0.376623 3:-0.313673 4:-0.305483 5:-0.0526316 6:-0.199658 7:0.115372 8:-0.741875 9:-0.307692 10:-0.376623 11:-0.340483 12:-0.305483 13:-0.0526316 14:-0.199658 15:0.149702 16:-0.718728 17:-0.307692 18:-0.376623 19:-0.340483 20:-0.331593 21:-0.157895 22:-0.198926 23:0.12589 24:-0.716598 
-8192 1:-0.307692 2:-0.376623 3:-0.340483 4:-0.331593 5:-0.157895 6:-0.198926 7:0.12589 8:-0.716598 9:-0.384615 10:-0.402597 11:-0.340483 12:-0.305483 13:0.0526316 14:-0.200146 15:0.135094 16:-0.714359 17:-0.333333 18:-0.402597 19:-0.394102 20:-0.409922 21:-0.473684 22:-0.198682 23:0.116468 24:-0.803699 
-8192 1:-0.333333 2:-0.402597 3:-0.394102 4:-0.409922 5:-0.473684 6:-0.198682 7:0.116468 8:-0.803699 9:-0.410256 10:-0.428571 11:-0.394102 12:-0.331593 13:0.263158 14:-0.199658 15:0.096965 16:-0.690897 17:-0.358974 18:-0.428571 19:-0.394102 20:-0.383812 21:-0.263158 22:-0.199658 23:0.119828 24:-0.727385 
-8192 1:-0.358974 2:-0.428571 3:-0.394102 4:-0.383812 5:-0.263158 6:-0.199658 7:0.119828 8:-0.727385 9:-0.410256 10:-0.402597 11:-0.367292 12:-0.305483 13:0.263158 14:-0.199658 15:0.121142 16:-0.682869 17:-0.333333 18:-0.376623 19:-0.313673 20:-0.305483 21:-0.0526316 22:-0.199658 23:0.177386 24:-0.681947 
-8192 1:-0.25641 2:-0.168831 3:-0.206434 4:-0.0966057 5:0.789474 6:-0.194777 7:0.348088 8:-0.509115 9:-0.128205 10:-0.142857 11:-0.126005 12:-0.0966057 13:-0.0526316 14:-0.201123 15:0.0139878 16:-0.706433 17:-0.128205 18:-0.142857 19:-0.0991957 20:-0.0966057 21:-0.0526316 22:-0.199658 23:0.129104 24:-0.704362 
-8192 1:-0.102564 2:-0.168831 3:-0.0991957 4:-0.0704961 5:0.0526316 6:-0.199658 7:0.139622 8:-0.668906 9:-0.102564 10:-0.168831 11:-0.126005 12:-0.122715 13:-0.263158 14:-0.199658 15:0.175925 16:-0.708775 17:-0.128205 18:-0.168831 19:-0.126005 20:-0.122715 21:-0.0526316 22:-0.199658 23:0.169862 24:-0.708087 
-8192 1:-0.102564 2:-0.168831 3:-0.126005 4:-0.122715 5:-0.263158 6:-0.199658 7:0.175925 8:-0.708775 9:-0.128205 10:-0.168831 11:-0.126005 12:-0.122715 13:-0.0526316 14:-0.199658 15:0.169862 16:-0.708087 17:-0.128205 18:-0.168831 19:-0.126005 20:-0.0704961 21:0.157895 22:-0.199658 23:0.123772 24:-0.665642 
-8192 1:-0.102564 2:-0.142857 3:-0.0991957 4:-0.0704961 5:-0.157895 6:-0.200635 7:0.0856433 8:-0.693612 9:-0.153846 10:-0.168831 11:-0.126005 12:-0.122715 13:-0.263158 14:-0.199658 15:0.136701 16:-0.721487 17:-0.179487 18:-0.220779 19:-0.260054 20:-0.279373 21:-0.684211 22:-0.199658 23:0.168474 24:-0.762022 
-8192 1:-0.153846 2:-0.168831 3:-0.126005 4:-0.122715 5:-0.263158 6:-0.199658 7:0.136701 8:-0.721487 9:-0.179487 10:-0.220779 11:-0.260054 12:-0.279373 13:-0.684211 14:-0.199658 15:0.168474 16:-0.762022 17:-0.307692 18:-0.246753 19:-0.260054 20:-0.148825 21:0.473684 22:-0.333415 23:0.00785216 24:-0.685525 
-8192 1:-0.0769231 2:-0.116883 3:-0.313673 4:-0.305483 5:-0.894737 6:-0.199658 7:0.0490486 8:-0.745505 9:-0.179487 10:-0.194805 11:-0.152815 12:-0.0966057 13:0.789474 14:-0.199658 15:0.19236 16:-0.66464 17:-0.153846 18:-0.194805 19:-0.179625 20:-0.201044 21:-0.473684 22:-0.199658 23:0.0920711 24:-0.784635 
-8192 1:-0.25641 2:-0.194805 3:-0.233244 4:-0.148825 5:0.157895 6:-0.199658 7:0.173076 8:-0.766742 9:-0.153846 10:-0.194805 11:-0.179625 12:-0.201044 13:-0.263158 14:-0.199658 15:0.104781 16:-0.752925 17:-0.205128 18:-0.246753 19:-0.179625 20:-0.201044 21:-0.0526316 22:-0.199658 23:0.121069 24:-0.745271 
-8192 1:-0.205128 2:-0.246753 3:-0.179625 4:-0.201044 5:-0.0526316 6:-0.199658 7:0.121069 8:-0.745271 9:-0.230769 10:-0.246753 11:-0.206434 12:-0.174935 13:0.0526316 14:-0.199658 15:0.124064 16:-0.744927 17:-0.230769 18:-0.272727 19:-0.233244 20:-0.253264 21:-0.368421 22:-0.199658 23:0.256419 24:-0.780595 
-8192 1:-0.230769 2:-0.246753 3:-0.206434 4:-0.174935 5:0.0526316 6:-0.199658 7:0.124064 8:-0.744927 9:-0.230769 10:-0.272727 11:-0.233244 12:-0.253264 13:-0.368421 14:-0.199658 15:0.256419 16:-0.780595 17:-0.282051 18:-0.272727 19:-0.260054 20:-0.174935 21:0.263158 22:-0.199658 23:0.108871 24:-0.733518 
-8192 1:-0.282051 2:-0.272727 3:-0.260054 4:-0.174935 5:0.263158 6:-0.199658 7:0.108871 8:-0.733518 9:-0.205128 10:-0.220779 11:-0.206434 12:-0.122715 13:0.157895 14:-0.199658 15:0.108725 16:-0.691856 17:-0.128205 18:-0.194805 19:-0.152815 20:-0.122715 21:-0.0526316 22:-0.199658 23:0.132464 24:-0.726141 
-8192 1:-0.102564 2:-0.0909091 3:-0.0723861 4:-0.0704961 5:0.157895 6:-0.206004 7:0.0883459 8:-0.653318 9:-0.102564 10:-0.142857 11:-0.126005 12:-0.122715 13:-0.263158 14:-0.230168 15:0.186151 16:-0.730956 17:-0.153846 18:-0.194805 19:-0.179625 20:-0.174935 21:-0.263158 22:-0.199658 23:0.199591 24:-0.763237 
-8192 1:-0.205128 2:-0.194805 3:-0.152815 4:-0.148825 5:0.0526316 6:-0.199658 7:0.169278 8:-0.71291 9:-0.205128 10:-0.220779 11:-0.179625 12:-0.174935 13:-0.157895 14:-0.199658 15:0.0843285 16:-0.6976 17:-0.179487 18:-0.246753 19:-0.206434 20:-0.227154 21:-0.263158 22:-0.199658 23:0.121727 24:-0.783801 
-8192 1:-0.179487 2:-0.246753 3:-0.206434 4:-0.227154 5:-0.263158 6:-0.199658 7:0.121727 8:-0.783801 9:-0.205128 10:-0.246753 11:-0.179625 12:-0.174935 13:0.157895 14:-0.199658 15:0.141156 16:-0.711937 17:-0.205128 18:-0.246753 19:-0.206434 20:-0.201044 21:-0.157895 22:-0.199658 23:0.128228 24:-0.736782 
-8192 1:-0.205128 2:-0.246753 3:-0.179625 4:-0.174935 5:0.157895 6:-0.199658 7:0.141156 8:-0.711937 9:-0.205128 10:-0.246753 11:-0.206434 12:-0.201044 13:-0.157895 14:-0.199658 15:0.128228 16:-0.736782 17:-0.179487 18:-0.142857 19:-0.126005 20:-0.0443864 21:0.578947 22:-0.199658 23:0.0387495 24:-0.632286 
-5104.304208352299 1:-0.179487 2:-0.142857 3:-0.126005 4:-0.0443864 5:0.578947 6:-0.199658 7:0.0387495 8:-0.632286 9:-0.0769231 10:-0.012987 11:-0.0455764 12:0.0600522 13:0.368421 14:-0.199658 15:0.0461999 16:-0.661171 17:0.0512821 18:0.038961 19:0.0080429 20:0.0078329 21:-0.263158 22:-0.102026 23:-0.0603703 24:-0.720916 
-8192 1:-0.025641 2:0.012987 3:0.0080429 4:0.0861619 5:0.263158 6:-0.199658 7:0.162047 8:-0.688475 9:0.0769231 10:0.0649351 11:0.0348525 12:0.0600522 13:-0.157895 14:-0.354162 15:-0.161097 16:-0.725812 17:-4.44089e-016 18:-0.012987 19:0.0348525 20:0.0339426 21:-0.157895 22:-0.199658 23:0.196669 24:-0.707934 
-8192 1:-0.025641 2:-0.0649351 3:-0.0187668 4:-0.0443864 5:-0.263158 6:-0.199658 7:0.301633 8:-0.780581 9:-0.0769231 10:-0.142857 11:-0.0723861 12:-0.0966057 13:-0.263158 14:-0.199658 15:0.172565 16:-0.756292 17:-0.153846 18:-0.168831 19:-0.126005 20:-0.0966057 21:-0.0526316 22:-0.199658 23:0.0594938 24:-0.771887 
-8192 1:-0.153846 2:-0.168831 3:-0.126005 4:-0.0966057 5:-0.0526316 6:-0.199658 7:0.0594938 8:-0.771887 9:-0.128205 10:-0.142857 11:-0.0723861 12:-0.0704961 13:0.0526316 14:-0.199658 15:0.128593 16:-0.737352 17:-0.102564 18:-0.142857 19:-0.0991957 20:-0.0966057 21:-0.157895 22:-0.199658 23:0.137285 24:-0.740836 
-8192 1:-0.102564 2:-0.142857 3:-0.0991957 4:-0.0966057 5:-0.157895 6:-0.199658 7:0.137285 8:-0.740836 9:-0.102564 10:-0.0649351 11:-0.0723861 12:-0.0182768 13:0.263158 14:-0.199658 15:0.234287 16:-0.721165 17:-0.0769231 18:-0.0909091 19:-0.0455764 20:-0.0443864 21:-0.157895 22:-0.199658 23:0.172346 24:-0.745541 
-8192 1:-0.0512821 2:-0.038961 3:-0.0187668 4:0.0600522 5:0.368421 6:-0.199658 7:0.146927 8:-0.691043 9:0.025641 10:-0.038961 11:0.0080429 12:0.0339426 13:-0.157895 14:-0.199658 15:0.121946 16:-0.757287 17:-4.44089e-016 18:-0.038961 19:0.0080429 20:0.0339426 21:-0.0526316 22:-0.199658 23:0.106972 24:-0.74339 
-8192 1:-0.025641 2:-0.012987 3:0.0348525 4:0.0861619 5:0.157895 6:-0.195997 7:0.176144 8:-0.749369 9:0.025641 10:-0.012987 11:0.0616622 12:0.0861619 13:-0.0526316 14:-0.199902 15:0.0892955 16:-0.743514 17:0.0512821 18:0.012987 19:0.0348525 20:0.0600522 21:-0.157895 22:-0.199658 23:0.118002 24:-0.758582 
-8192 1:0.025641 2:-0.012987 3:0.0616622 4:0.0861619 5:-0.0526316 6:-0.199902 7:0.0892955 8:-0.743514 9:0.0512821 10:0.012987 11:0.0348525 12:0.0600522 13:-0.157895 14:-0.199658 15:0.118002 16:-0.758582 17:-4.44089e-016 18:-0.012987 19:0.0348525 20:0.0861619 21:0.0526316 22:-0.199658 23:0.107922 24:-0.72568 
-8192 1:0.0512821 2:0.012987 3:0.0348525 4:0.0600522 5:-0.157895 6:-0.199658 7:0.118002 8:-0.758582 9:-4.44089e-016 10:-0.012987 11:0.0348525 12:0.0861619 13:0.0526316 14:-0.199658 15:0.107922 16:-0.72568 17:0.0512821 18:0.038961 19:0.0616622 20:0.138381 21:0.157895 22:-0.199658 23:0.12684 24:-0.692097 
-5146.250858426643 1:0.102564 2:0.220779 3:0.168901 4:0.295039 5:0.578947 6:-0.199658 7:0.392571 8:-0.646417 9:0.25641 10:0.194805 11:0.276139 12:0.295039 13:-0.0526316 14:-0.199658 15:-0.234214 16:-0.727224 17:0.205128 18:0.142857 19:0.22252 20:0.21671 21:-0.368421 22:-0.199658 23:-0.0155948 24:-0.767701 
-8192 1:0.205128 2:0.142857 3:0.22252 4:0.24282 5:-0.0526316 6:-0.199658 7:0.0163252 8:-0.739321 9:0.179487 10:0.142857 11:0.19571 12:0.24282 13:-0.0526316 14:-0.199658 15:0.255761 16:-0.769838 17:0.153846 18:0.116883 19:0.19571 20:0.164491 21:-0.368421 22:-0.0556505 23:0.184252 24:-0.837091 
-4421.163322421537 1:0.205128 2:0.194805 3:0.24933 4:0.26893 5:-0.0526316 6:-0.109348 7:0.106242 8:-0.729903 9:0.25641 10:0.220779 11:0.22252 12:0.190601 13:-0.368421 14:-0.0312424 15:0.158687 16:-0.798173 17:0.179487 18:0.168831 19:0.22252 20:0.190601 21:-0.0526316 22:-0.183793 23:0.119901 24:-0.796746 
-8192 1:0.384615 2:0.376623 3:0.410188 4:0.451697 5:-0.0526316 6:-0.122529 7:-0.0625616 8:-0.762922 9:0.384615 10:0.376623 11:0.436997 12:0.425587 13:-0.157895 14:0.732487 15:0.101786 16:-0.77589 17:0.384615 18:0.428571 19:0.436997 20:0.451697 21:0.0526316 22:0.0929949 23:0.161024 24:-0.722658 
-8192 1:0.435897 2:0.480519 3:0.517426 4:0.556136 5:0.368421 6:0.009031 7:0.211205 8:-0.683096 9:0.538462 10:0.480519 11:0.517426 12:0.530026 13:-0.157895 14:-0.199658 15:0.0940433 16:-0.749735 17:0.461538 18:0.428571 19:0.517426 20:0.530026 21:-0.0526316 22:-0.198682 23:0.14868 24:-0.690319 
-8192 1:0.538462 2:0.506494 3:0.544236 4:0.582245 5:-0.0526316 6:-0.198438 7:0.0965268 8:-0.74762 9:0.538462 10:0.532468 11:0.571046 12:0.582245 13:-0.0526316 14:-0.199658 15:0.141448 16:-0.727056 17:0.538462 18:0.506494 19:0.571046 20:0.530026 21:-0.263158 22:-0.199658 23:0.0779738 24:-0.777785 
-8192 1:0.487179 2:0.480519 3:0.517426 4:0.477807 5:-0.473684 6:-0.198926 7:0.132245 8:-0.827036 9:0.461538 10:0.480519 11:0.517426 12:0.582245 13:0.368421 14:-0.199414 15:0.144224 16:-0.693802 17:0.487179 18:0.454545 19:0.517426 20:0.477807 21:-0.473684 22:-0.199658 23:0.0559877 24:-0.78604 
-8192 1:0.487179 2:0.454545 3:0.517426 4:0.477807 5:-0.473684 6:-0.199658 7:0.0559877 8:-0.78604 9:0.487179 10:0.480519 11:0.544236 12:0.556136 13:0.263158 14:-0.199658 15:0.189657 16:-0.679693 17:0.487179 18:0.454545 19:0.517426 20:0.503916 21:-0.263158 22:-0.20332 23:-0.17556 24:-0.701076 
-8192 1:0.435897 2:0.428571 3:0.517426 4:0.503916 5:-0.157895 6:-0.0327069 7:0.15876 8:-0.698837 9:0.461538 10:0.428571 11:0.490617 12:0.503916 13:-0.0526316 14:-0.199658 15:0.318871 16:-0.699415 17:0.461538 18:0.402597 19:0.490617 20:0.451697 21:-0.263158 22:-0.226507 23:0.147876 24:-0.718391 
-8192 1:0.461538 2:0.428571 3:0.490617 4:0.503916 5:-0.0526316 6:-0.199658 7:0.318871 8:-0.699415 9:0.461538 10:0.402597 11:0.490617 12:0.451697 13:-0.263158 14:-0.226507 15:0.147876 16:-0.718391 17:0.435897 18:0.402597 19:0.463807 20:0.477807 21:0.0526316 22:-0.199658 23:0.143348 24:-0.709178 
-8192 1:0.461538 2:0.402597 3:0.490617 4:0.451697 5:-0.263158 6:-0.226507 7:0.147876 8:-0.718391 9:0.435897 10:0.402597 11:0.463807 12:0.477807 13:0.0526316 14:-0.199658 15:0.143348 16:-0.709178 17:0.435897 18:0.454545 19:0.517426 20:0.530026 21:0.157895 22:-0.297291 23:0.125233 24:-0.681383 
-8192 1:0.538462 2:0.662338 3:0.624665 4:0.738903 5:0.789474 6:-0.211374 7:0.367883 8:-0.46405 9:0.692308 10:0.636364 11:0.651475 12:0.660574 13:-0.368421 14:-0.199658 15:-0.0129652 16:-0.765081 17:0.641026 18:0.584416 19:0.678284 20:0.660574 21:-0.0526316 22:-0.199658 23:-0.0592747 24:-0.676283 
-8192 1:0.692308 2:0.636364 3:0.705094 4:0.686684 5:-0.263158 6:-0.201611 7:0.0879077 8:-0.718581 9:0.641026 10:0.61039 11:0.705094 12:0.686684 13:-0.0526316 14:-0.199902 15:0.115372 16:-0.649476 17:0.589744 18:0.558442 19:0.624665 20:0.634465 21:-0.263158 22:-0.199658 23:-0.384683 24:-0.677014 
-8192 1:0.564103 2:0.558442 3:0.624665 4:0.608355 5:-0.263158 6:-0.186722 7:0.195135 8:-0.657102 9:0.512821 10:0.480519 11:0.490617 12:0.530026 13:-0.368421 14:-0.199658 15:0.0315182 16:-0.659949 17:0.487179 18:0.454545 19:0.517426 20:0.530026 21:-0.0526316 22:-0.200146 23:0.143128 24:-0.662891 
-8192 1:0.487179 2:0.454545 3:0.517426 4:0.530026 5:-0.0526316 6:-0.200146 7:0.143128 8:-0.662891 9:0.461538 10:0.454545 11:0.544236 12:0.556136 13:0.0526316 14:-0.199658 15:0.149629 16:-0.72235 17:0.487179 18:0.454545 19:0.517426 20:0.477807 21:-0.368421 22:-0.199658 23:0.15109 24:-0.782718 
-8192 1:0.461538 2:0.454545 3:0.544236 4:0.556136 5:0.0526316 6:-0.199658 7:0.149629 8:-0.72235 9:0.487179 10:0.454545 11:0.517426 12:0.477807 13:-0.368421 14:-0.199658 15:0.15109 16:-0.782718 17:0.487179 18:0.506494 19:0.544236 20:0.608355 21:0.473684 22:-0.199658 23:0.081772 24:-0.614042 
-8192 1:0.641026 2:0.584416 3:0.571046 4:0.660574 5:-0.0526316 6:-0.31999 7:0.0573756 8:-0.66903 9:0.564103 10:0.532468 11:0.597855 12:0.556136 13:-0.473684 14:-0.442275 15:0.142252 16:-0.723382 17:0.512821 18:0.480519 19:0.517426 20:0.503916 21:-0.263158 22:-0.199658 23:0.164749 24:-0.755604 
-8192 1:0.487179 2:0.428571 3:0.517426 4:0.503916 5:-0.157895 6:-0.200146 7:0.143786 8:-0.742131 9:0.435897 10:0.402597 11:0.436997 12:0.399478 13:-0.473684 14:-0.206737 15:0.168036 16:-0.712529 17:0.358974 18:0.324675 19:0.383378 20:0.399478 21:-0.0526316 22:-0.282646 23:0.115883 24:-0.714117 
-8192 1:0.410256 2:0.350649 3:0.410188 4:0.451697 5:0.157895 6:-0.267513 7:0.116102 8:-0.69801 9:0.333333 10:0.324675 11:0.356568 12:0.347258 13:-0.473684 14:-0.300464 15:0.0597129 16:-0.743609 17:0.307692 18:0.272727 19:0.356568 20:0.321149 21:-0.157895 22:-0.198438 23:0.178774 24:-0.719401 
-8192 1:0.333333 2:0.324675 3:0.356568 4:0.347258 5:-0.473684 6:-0.300464 7:0.0597129 8:-0.743609 9:0.307692 10:0.272727 11:0.356568 12:0.321149 13:-0.157895 14:-0.198438 15:0.178774 16:-0.719401 17:0.333333 18:0.324675 19:0.383378 20:0.425587 21:0.368421 22:-0.199658 23:0.0582521 24:-0.696078 
-8192 1:0.307692 2:0.272727 3:0.356568 4:0.321149 5:-0.157895 6:-0.198438 7:0.178774 8:-0.719401 9:0.333333 10:0.324675 11:0.383378 12:0.425587 13:0.368421 14:-0.199658 15:0.0582521 16:-0.696078 17:0.358974 18:0.350649 19:0.410188 20:0.451697 21:0.0526316 22:-0.199658 23:0.133414 24:-0.698332 
-8192 1:0.512821 2:0.480519 3:0.544236 4:0.556136 5:-0.0526316 6:-0.198438 7:0.115445 8:-0.637921 9:0.512821 10:0.454545 11:0.544236 12:0.556136 13:-0.0526316 14:-0.200879 15:0.150798 16:-0.656729 17:0.487179 18:0.454545 19:0.517426 20:0.530026 21:-0.157895 22:-0.205516 23:0.119243 24:-0.70063 
-8192 1:0.538462 2:0.480519 3:0.571046 4:0.582245 5:-0.0526316 6:-0.199658 7:0.115153 8:-0.703338 9:0.538462 10:0.506494 11:0.597855 12:0.582245 13:-0.0526316 14:-0.199658 15:0.0375808 16:-0.657482 17:0.538462 18:0.506494 19:0.597855 20:0.582245 21:-0.0526316 22:-0.199658 23:0.0234104 24:-0.676495 
-8192 1:0.538462 2:0.506494 3:0.597855 4:0.582245 5:-0.0526316 6:-0.199658 7:0.0234104 8:-0.676495 9:0.538462 10:0.506494 11:0.624665 12:0.608355 13:0.0526316 14:-0.199658 15:0.0647529 16:-0.657914 17:0.538462 18:0.532468 19:0.597855 20:0.556136 21:-0.263158 22:-0.20576 23:0.0594208 24:-0.666206 
-8192 1:0.564103 2:0.506494 3:0.597855 4:0.582245 5:-0.157895 6:-0.199658 7:0.0407217 8:-0.670831 9:0.538462 10:0.506494 11:0.597855 12:0.582245 13:-0.0526316 14:-0.199658 15:0.121215 16:-0.705314 17:0.538462 18:0.480519 19:0.571046 20:0.582245 21:-0.0526316 22:-0.0839639 23:0.124722 24:-0.709836 
-8192 1:0.487179 2:0.454545 3:0.544236 4:0.530026 5:-0.263158 6:-0.202587 7:0.0688434 8:-0.655199 9:0.487179 10:0.454545 11:0.544236 12:0.530026 13:-0.0526316 14:-0.199658 15:0.0393338 16:-0.685723 17:0.487179 18:0.454545 19:0.544236 20:0.530026 21:-0.0526316 22:-0.732243 23:0.0657755 24:-0.667713 
-4999.128934910252 1:0.487179 2:0.506494 3:0.571046 4:0.582245 5:0.157895 6:-1 7:0.0488295 8:-0.608927 9:0.538462 10:0.506494 11:0.597855 12:0.582245 13:-0.0526316 14:-0.199658 15:0.0889303 16:-0.6639 17:0.538462 18:0.532468 19:0.597855 20:0.634465 21:0.157895 22:-0.202343 23:0.0822103 24:-0.659085 
-8192 1:0.538462 2:0.532468 3:0.597855 4:0.634465 5:0.157895 6:-0.202343 7:0.0822103 8:-0.659085 9:0.589744 10:0.584416 11:0.651475 12:0.686684 13:0.157895 14:-0.215768 15:0.0944816 16:-0.619326 17:0.641026 18:0.61039 19:0.651475 20:0.608355 21:-0.368421 22:-0.15133 23:0.10069 24:-0.693532 
-8192 1:0.589744 2:0.584416 3:0.651475 4:0.686684 5:0.157895 6:-0.215768 7:0.0944816 8:-0.619326 9:0.641026 10:0.61039 11:0.651475 12:0.608355 13:-0.368421 14:-0.15133 15:0.10069 16:-0.693532 17:0.564103 18:0.558442 19:0.651475 20:0.660574 21:0.157895 22:-0.199658 23:0.0705964 24:-0.692602 
-8192 1:0.564103 2:0.558442 3:0.651475 4:0.660574 5:0.157895 6:-0.199658 7:0.0705964 8:-0.692602 9:0.615385 10:0.584416 11:0.678284 12:0.686684 13:0.0526316 14:-0.21113 15:0.0998137 16:-0.679283 17:0.641026 18:0.584416 19:0.678284 20:0.660574 21:-0.157895 22:-0.203808 23:0.155035 24:-0.729449 
-8192 1:0.641026 2:0.584416 3:0.678284 4:0.660574 5:-0.157895 6:-0.203808 7:0.155035 8:-0.729449 9:0.615385 10:0.61039 11:0.678284 12:0.712794 13:0.157895 14:-0.205272 15:0.152332 16:-0.676963 17:0.641026 18:0.61039 19:0.705094 20:0.660574 21:-0.263158 22:-0.200635 23:0.105584 24:-0.724524 
-8192 1:0.487179 2:0.480519 3:0.544236 4:0.503916 5:-0.263158 6:-0.199658 7:0.128008 8:-0.764049 9:0.487179 10:0.454545 11:0.544236 12:0.530026 13:0.0526316 14:-0.199658 15:0.0671634 16:-0.714827 17:0.487179 18:0.454545 19:0.544236 20:0.530026 21:-0.0526316 22:-0.200879 23:0.0320295 24:-0.724224 
-8192 1:0.487179 2:0.454545 3:0.544236 4:0.530026 5:-0.0526316 6:-0.200879 7:0.0320295 8:-0.724224 9:0.487179 10:0.454545 11:0.544236 12:0.556136 13:0.0526316 14:-0.199658 15:0.123772 16:-0.729222 17:0.487179 18:0.454545 19:0.544236 20:0.503916 21:-0.263158 22:-0.158653 23:0.127862 24:-0.742863 
-8192 1:0.487179 2:0.454545 3:0.544236 4:0.556136 5:0.0526316 6:-0.199658 7:0.123772 8:-0.729222 9:0.487179 10:0.454545 11:0.544236 12:0.503916 13:-0.263158 14:-0.158653 15:0.127862 16:-0.742863 17:0.461538 18:0.480519 19:0.544236 20:0.582245 21:0.263158 22:-0.202587 23:0.145466 24:-0.708285 
-8192 1:0.615385 2:0.584416 3:0.624665 4:0.660574 5:-0.157895 6:-0.199658 7:-0.00507651 8:-0.715083 9:0.615385 10:0.558442 11:0.624665 12:0.634465 13:-0.157895 14:-0.199658 15:0.121654 16:-0.730905 17:0.589744 18:0.558442 19:0.624665 20:0.634465 21:-0.0526316 22:-0.202587 23:0.071619 24:-0.717315 
-8192 1:0.589744 2:0.636364 3:0.651475 4:0.738903 5:0.368421 6:-0.203808 7:0.20821 8:-0.637028 9:0.692308 10:0.662338 11:0.758713 12:0.738903 13:-0.0526316 14:-0.200879 15:0.159928 16:-0.694044 17:0.666667 18:0.636364 19:0.705094 20:0.660574 21:-0.368421 22:-0.199658 23:0.0144991 24:-0.709968 
-1759.635091218289 1:0.692308 2:0.662338 3:0.758713 4:0.738903 5:-0.0526316 6:-0.200879 7:0.159928 8:-0.694044 9:0.666667 10:0.636364 11:0.705094 12:0.660574 13:-0.368421 14:-0.199658 15:0.0144991 16:-0.709968 17:0.666667 18:0.714286 19:0.758713 20:0.738903 21:0.263158 22:-0.201123 23:-0.0266973 24:-0.663052 
-8192 1:0.666667 2:0.714286 3:0.758713 4:0.738903 5:0.263158 6:-0.201123 7:-0.0266973 8:-0.663052 9:0.692308 10:0.688312 11:0.731903 12:0.791123 13:0.157895 14:-0.200146 15:0.0822103 16:-0.671863 17:0.74359 18:0.688312 19:0.758713 20:0.765013 21:-0.157895 22:-0.20991 23:0.0976224 24:-0.717718 
-3575.749007361223 1:0.948718 2:0.922078 3:0.97319 4:0.97389 5:-0.157895 6:-0.199658 7:0.0859355 8:-0.730832 9:0.897436 10:0.844156 11:0.865952 12:0.817232 13:-0.684211 14:-0.199658 15:0.116322 16:-0.742036 17:0.794872 18:0.792208 19:0.812332 20:0.791123 21:-0.157895 22:-0.202343 23:0.101786 24:-0.726448 
-7164.512345119377 1:0.897436 2:0.844156 3:0.865952 4:0.817232 5:-0.684211 6:-0.199658 7:0.116322 8:-0.742036 9:0.794872 10:0.792208 11:0.812332 12:0.791123 13:-0.157895 14:-0.202343 15:0.101786 16:-0.726448 17:0.769231 18:0.792208 19:0.865952 20:0.843342 21:0.157895 22:-0.199658 23:0.315584 24:-0.702547 
-8192 1:0.794872 2:0.792208 3:0.812332 4:0.791123 5:-0.157895 6:-0.202343 7:0.101786 8:-0.726448 9:0.769231 10:0.792208 11:0.865952 12:0.843342 13:0.157895 14:-0.199658 15:0.315584 16:-0.702547 17:0.794872 18:0.87013 19:0.892761 20:0.895561 21:0.157895 22:-0.205272 23:0.426756 24:-0.736401 
-8192 1:0.666667 2:0.636364 3:0.705094 4:0.712794 5:-0.0526316 6:-0.205272 7:-0.436909 8:-0.767225 9:0.666667 10:0.61039 11:0.678284 12:0.634465 13:-0.368421 14:-0.200391 15:-0.10405 16:-0.756372 17:0.564103 18:0.532468 19:0.597855 20:0.582245 21:-0.263158 22:-0.190139 23:0.105219 24:-0.753547 
-8192 1:0.512821 2:0.480519 3:0.544236 4:0.582245 5:-0.0526316 6:-0.199658 7:0.111062 8:-0.715691 9:0.538462 10:0.506494 11:0.571046 12:0.556136 13:-0.157895 14:-0.198438 15:0.118951 16:-0.712939 17:0.512821 18:0.506494 19:0.571046 20:0.556136 21:-0.0526316 22:-0.205272 23:0.141229 24:-0.72205 
-8192 1:0.615385 2:0.558442 3:0.571046 4:0.556136 5:-0.473684 6:-0.1794 7:-0.0802381 8:-0.730737 9:0.512821 10:0.480519 11:0.544236 12:0.556136 13:-0.0526316 14:-0.194533 15:0.142617 16:-0.754294 17:0.512821 18:0.480519 19:0.571046 20:0.530026 21:-0.157895 22:-0.205516 23:0.121727 24:-0.700001 
-8192 1:0.512821 2:0.480519 3:0.571046 4:0.582245 5:0.157895 6:-0.200391 7:0.1638 8:-0.695976 9:0.487179 10:0.454545 11:0.490617 12:0.530026 13:-0.263158 14:-0.193556 15:0.0926555 16:-0.748513 17:0.461538 18:0.454545 19:0.544236 20:0.530026 21:-0.0526316 22:-0.19258 23:0.126913 24:-0.752128 
-8192 1:0.461538 2:0.454545 3:0.544236 4:0.530026 5:-0.0526316 6:-0.19258 7:0.126913 8:-0.752128 9:0.512821 10:0.480519 11:0.571046 12:0.556136 13:0.0526316 14:-0.194044 15:0.182864 16:-0.729127 17:0.538462 18:0.506494 19:0.544236 20:0.556136 21:-0.0526316 22:-0.193312 23:0.144297 24:-0.724795 
-8192 1:0.538462 2:0.506494 3:0.544236 4:0.556136 5:-0.0526316 6:-0.193312 7:0.144297 8:-0.724795 9:0.512821 10:0.506494 11:0.571046 12:0.582245 13:0.0526316 14:-0.189407 15:0.083452 16:-0.693693 17:0.538462 18:0.480519 19:0.517426 20:0.530026 21:-0.263158 22:-0.194289 23:0.0875425 24:-0.680535 
-8192 1:0.461538 2:0.454545 3:0.517426 4:0.556136 5:0.0526316 6:-0.198194 7:0.139476 8:-0.681801 9:0.512821 10:0.480519 11:0.517426 12:0.503916 13:-0.263158 14:-0.194289 15:0.0722764 16:-0.729617 17:0.487179 18:0.454545 19:0.517426 20:0.503916 21:-0.0526316 22:-0.195509 23:0.113035 24:-0.720762 
-8192 1:0.512821 2:0.480519 3:0.517426 4:0.503916 5:-0.263158 6:-0.194289 7:0.0722764 8:-0.729617 9:0.487179 10:0.454545 11:0.517426 12:0.503916 13:-0.0526316 14:-0.195509 15:0.113035 16:-0.720762 17:0.461538 18:0.454545 19:0.517426 20:0.530026 21:0.0526316 22:-0.192092 23:0.129469 24:-0.721472 
-8192 1:0.512821 2:0.506494 3:0.571046 4:0.608355 5:0.263158 6:-0.199414 7:0.16957 8:-0.680535 9:0.512821 10:0.480519 11:0.544236 12:0.530026 13:-0.368421 14:-0.199658 15:0.0990833 16:-0.763961 17:0.461538 18:0.428571 19:0.517426 20:0.477807 21:-0.263158 22:-0.199658 23:0.113911 24:-0.735267 
-8192 1:0.512821 2:0.480519 3:0.544236 4:0.530026 5:-0.368421 6:-0.199658 7:0.0990833 8:-0.763961 9:0.461538 10:0.428571 11:0.517426 12:0.477807 13:-0.263158 14:-0.199658 15:0.113911 16:-0.735267 17:0.461538 18:0.454545 19:0.517426 20:0.530026 21:0.157895 22:-0.199658 23:0.115153 24:-0.707085 
