svm_type c_svc
kernel_type rbf
gamma 0.03125
nr_class 2
total_sv 373
rho -7.97166
label 0 1
nr_sv 187 186
SV
128 1:-0.736264 2:-0.747253 3:-0.810056 4:-0.822222 5:-0.612903 6:-0.151441 7:0.0635464 8:-0.352945 9:-0.813187 10:-0.824176 11:-0.854749 12:-0.855556 13:-0.354839 14:-0.596971 15:-0.00546055 16:-0.000652663 17:-0.835165 18:-0.868132 19:-0.899441 20:-0.911111 21:-0.483871 22:-0.688813 23:-0.130153 24:-0.245425 
128 1:-0.835165 2:-0.868132 3:-0.899441 4:-0.911111 5:-0.483871 6:-0.688813 7:-0.130153 8:-0.245425 9:-0.912088 10:-0.934066 11:-1 12:-0.966667 13:-0.483871 14:-0.830484 15:0.111791 16:-0.290507 17:-0.967033 18:-0.934066 19:-0.96648 20:-0.944444 21:-0.0322581 22:-0.481681 23:-0.159076 24:0.119848 
128 1:-0.912088 2:-0.934066 3:-1 4:-0.966667 5:-0.483871 6:-0.830484 7:0.111791 8:-0.290507 9:-0.967033 10:-0.934066 11:-0.96648 12:-0.944444 13:-0.0322581 14:-0.481681 15:-0.159076 16:0.119848 17:-0.945055 18:-0.945055 19:-1 20:-0.966667 21:-0.290323 22:-0.558378 23:-0.317612 24:0.0647586 
128 1:-0.945055 2:-0.945055 3:-1 4:-0.966667 5:-0.290323 6:-0.558378 7:-0.317612 8:0.0647586 9:-0.945055 10:-0.956044 11:-0.977654 12:-0.966667 13:-0.16129 14:-0.399121 15:-0.182118 16:-0.0370567 17:-0.934066 18:-0.923077 19:-0.944134 20:-0.955556 21:-0.0967742 22:-0.670249 23:-0.355056 24:0.303101 
105.3615508737315 1:-0.934066 2:-0.923077 3:-0.944134 4:-0.955556 5:-0.0967742 6:-0.670249 7:-0.355056 8:0.303101 9:-1 10:-1 11:-1 12:-1 13:-0.419355 14:-0.517831 15:-0.228683 16:0.0435592 17:-0.846154 18:-0.868132 19:-0.888268 20:-0.877778 21:0.548387 22:0.465559 23:-0.328773 24:0.742754 
61.7864543998306 1:-0.846154 2:-0.868132 3:-0.888268 4:-0.877778 5:0.548387 6:0.465559 7:-0.328773 8:0.742754 9:-0.901099 10:-0.868132 11:-0.910615 12:-0.877778 13:-0.16129 14:0.357108 15:-0.0237024 16:0.139259 17:-0.846154 18:-0.868132 19:-0.877095 20:-0.855556 21:-0.0322581 22:-0.44895 23:-0.10435 24:0.152796 
128 1:-0.923077 2:-0.901099 3:-0.921788 4:-0.922222 5:-0.0967742 6:-0.39619 7:-0.321812 8:0.155164 9:-0.868132 10:-0.857143 11:-0.877095 12:-0.844444 13:0.290323 14:-0.270151 15:-0.340414 16:0.398608 17:-0.791209 18:-0.824176 19:-0.810056 20:-0.822222 21:-0.0322581 22:-0.720078 23:-0.108311 24:0.316421 
93.54569000633725 1:-0.824176 2:-0.758242 3:-0.832402 4:-0.744444 5:0.225806 6:-0.554958 7:-0.0637864 8:0.623486 9:-0.736264 10:-0.758242 11:-0.765363 12:-0.766667 13:-0.290323 14:-0.31998 15:0.0372637 16:0.245885 17:-0.703297 18:-0.736264 19:-0.75419 20:-0.722222 21:0.0967742 22:-0.420127 23:-0.227483 24:0.800865 
128 1:-0.703297 2:-0.736264 3:-0.75419 4:-0.722222 5:0.0967742 6:-0.420127 7:-0.227483 8:0.800865 9:-0.703297 10:-0.725275 11:-0.75419 12:-0.755556 13:-0.354839 14:-0.420616 15:0.00690069 16:0.202446 17:-0.681319 18:-0.692308 19:-0.687151 20:-0.677778 21:0.290323 22:-0.416219 23:-0.30465 24:0.95209 
128 1:-0.593407 2:-0.626374 3:-0.631285 4:-0.633333 5:-0.0967742 6:-0.42257 7:0.0809481 8:0.483913 9:-0.571429 10:-0.582418 11:-0.575419 12:-0.566667 13:0.225806 14:-0.378114 15:-0.206721 16:1 17:-0.593407 18:-0.582418 19:-0.586592 20:-0.566667 21:-0.16129 22:-0.41915 23:-0.0343834 24:0.403321 
128 1:-0.571429 2:-0.582418 3:-0.575419 4:-0.566667 5:0.225806 6:-0.378114 7:-0.206721 8:1 9:-0.593407 10:-0.582418 11:-0.586592 12:-0.566667 13:-0.16129 14:-0.41915 15:-0.0343834 16:0.403321 17:-0.582418 18:-0.549451 19:-0.575419 20:-0.566667 21:-0.16129 22:-0.449438 23:-0.168917 24:0.498924 
128 1:-0.593407 2:-0.582418 3:-0.586592 4:-0.566667 5:-0.16129 6:-0.41915 7:-0.0343834 8:0.403321 9:-0.582418 10:-0.549451 11:-0.575419 12:-0.566667 13:-0.16129 14:-0.449438 15:-0.168917 16:0.498924 17:-0.56044 18:-0.582418 19:-0.586592 20:-0.6 21:-0.354839 22:-0.443576 23:-0.079868 24:0.186903 
128 1:-0.56044 2:-0.582418 3:-0.586592 4:-0.6 5:-0.354839 6:-0.443576 7:-0.079868 8:0.186903 9:-0.582418 10:-0.593407 11:-0.631285 12:-0.633333 13:-0.354839 14:-0.467025 15:-0.125353 16:0.171433 17:-0.593407 18:-0.582418 19:-0.597765 20:-0.577778 21:0.16129 22:-0.40596 23:-0.212601 24:0.496289 
128 1:-0.604396 2:-0.56044 3:-0.597765 4:-0.544444 5:0.225806 6:-0.377626 7:-0.173717 8:0.347458 9:-0.483516 10:-0.505495 11:-0.497207 12:-0.522222 13:-0.0322581 14:-0.024426 15:-0.134473 16:0.490923 17:-0.483516 18:-0.505495 19:-0.497207 20:-0.5 21:-0.0322581 22:-0.451392 23:-0.269487 24:0.538954 
128 1:-0.483516 2:-0.505495 3:-0.497207 4:-0.522222 5:-0.0322581 6:-0.024426 7:-0.134473 8:0.490923 9:-0.483516 10:-0.505495 11:-0.497207 12:-0.5 13:-0.0322581 14:-0.451392 15:-0.269487 16:0.538954 17:-0.505495 18:-0.527473 19:-0.530726 20:-0.533333 21:-0.354839 22:-0.616023 23:0.0333033 24:0.137156 
128 1:-0.483516 2:-0.505495 3:-0.497207 4:-0.5 5:-0.0322581 6:-0.451392 7:-0.269487 8:0.538954 9:-0.505495 10:-0.527473 11:-0.530726 12:-0.533333 13:-0.354839 14:-0.616023 15:0.0333033 16:0.137156 17:-0.516484 18:-0.527473 19:-0.541899 20:-0.544444 21:-0.225806 22:-0.349292 23:-0.118392 24:0.142981 
128 1:-0.505495 2:-0.505495 3:-0.530726 4:-0.488889 5:0.0322581 6:-0.398144 7:-0.294569 8:0.484397 9:-0.472527 10:-0.494505 11:-0.497207 12:-0.477778 13:-0.0967742 14:-0.439179 15:-0.186199 16:0.508352 17:-0.428571 18:-0.43956 19:-0.441341 20:-0.455556 21:-0.0322581 22:-0.601368 23:-0.123312 24:0.592448 
128 1:-0.362637 2:-0.384615 3:-0.396648 4:-0.4 5:0.16129 6:-0.59746 7:-0.4027 8:0.887839 9:-0.384615 10:-0.395604 11:-0.374302 12:-0.377778 13:-0.0322581 14:-0.450904 15:-0.2 16:0.777587 17:-0.351648 18:-0.384615 19:-0.385475 20:-0.366667 21:-0.0967742 22:-0.518319 23:-0.0977498 24:0.448137 
128 1:-0.351648 2:-0.384615 3:-0.385475 4:-0.366667 5:-0.0967742 6:-0.518319 7:-0.0977498 8:0.448137 9:-0.362637 10:-0.395604 11:-0.407821 12:-0.4 13:-0.354839 14:-0.461651 15:-0.0429043 16:0.250236 17:-0.384615 18:-0.395604 19:-0.385475 20:-0.377778 21:-0.0322581 22:-0.512946 23:-0.244164 24:0.406633 
128 1:-0.362637 2:-0.395604 3:-0.407821 4:-0.4 5:-0.354839 6:-0.461651 7:-0.0429043 8:0.250236 9:-0.384615 10:-0.395604 11:-0.385475 12:-0.377778 13:-0.0322581 14:-0.512946 15:-0.244164 16:0.406633 17:-0.395604 18:-0.406593 19:-0.407821 20:-0.4 21:-0.290323 22:-0.707377 23:-0.0169817 24:0.27656 
128 1:-0.395604 2:-0.406593 3:-0.407821 4:-0.4 5:-0.290323 6:-0.707377 7:-0.0169817 8:0.27656 9:-0.384615 10:-0.406593 11:-0.407821 12:-0.411111 13:-0.225806 14:-0.596483 15:-0.0814281 16:0.178612 17:-0.395604 18:-0.406593 19:-0.407821 20:-0.388889 21:-0.0322581 22:-0.697118 23:-0.218122 24:0.332665 
128 1:-0.384615 2:-0.395604 3:-0.385475 4:-0.388889 5:-0.16129 6:-0.683439 7:-0.314011 8:0.278373 9:-0.384615 10:-0.340659 11:-0.374302 12:-0.333333 13:0.16129 14:-0.303859 15:-0.109991 16:0.501583 17:-0.307692 18:-0.318681 19:-0.363128 20:-0.322222 21:-0.0967742 22:-0.113825 23:-0.0637864 24:0.336605 
128 1:-0.384615 2:-0.340659 3:-0.374302 4:-0.333333 5:0.16129 6:-0.303859 7:-0.109991 8:0.501583 9:-0.307692 10:-0.318681 11:-0.363128 12:-0.322222 13:-0.0967742 14:-0.113825 15:-0.0637864 16:0.336605 17:-0.32967 18:-0.362637 19:-0.396648 20:-0.4 21:-0.612903 22:-0.315584 23:0.0439844 24:0.00526965 
128 1:-0.461538 2:-0.494505 3:-0.50838 4:-0.488889 5:-0.0322581 6:-0.553004 7:-0.410021 8:0.0420847 9:-0.483516 10:-0.428571 11:-0.47486 12:-0.422222 13:0.225806 14:-0.495848 15:-0.431023 16:0.13208 17:-0.43956 18:-0.406593 19:-0.441341 20:-0.4 21:-0.0322581 22:-0.502687 23:-0.168797 24:0.0385071 
128 1:-0.43956 2:-0.406593 3:-0.441341 4:-0.4 5:-0.0322581 6:-0.502687 7:-0.168797 8:0.0385071 9:-0.406593 10:-0.395604 11:-0.396648 12:-0.4 13:-0.16129 14:-0.361505 15:-0.149955 16:0.090841 17:-0.351648 18:-0.340659 19:-0.351955 20:-0.333333 21:0.225806 22:-0.648266 23:-0.240204 24:0.690904 
128 1:-0.406593 2:-0.395604 3:-0.396648 4:-0.4 5:-0.16129 6:-0.361505 7:-0.149955 8:0.090841 9:-0.351648 10:-0.340659 11:-0.351955 12:-0.333333 13:0.225806 14:-0.648266 15:-0.240204 16:0.690904 17:-0.307692 18:-0.32967 19:-0.340782 20:-0.333333 21:-0.16129 22:-0.489008 23:0.089829 24:0.316082 
108.4355575878372 1:-0.351648 2:-0.340659 3:-0.351955 4:-0.333333 5:0.225806 6:-0.648266 7:-0.240204 8:0.690904 9:-0.307692 10:-0.32967 11:-0.340782 12:-0.333333 13:-0.16129 14:-0.489008 15:0.089829 16:0.316082 17:-0.417582 18:-0.384615 19:-0.430168 20:-0.377778 21:-0.419355 22:-0.90083 23:-0.120192 24:0.0573376 
128 1:-0.307692 2:-0.32967 3:-0.340782 4:-0.333333 5:-0.16129 6:-0.489008 7:0.089829 8:0.316082 9:-0.417582 10:-0.384615 11:-0.430168 12:-0.377778 13:-0.419355 14:-0.90083 15:-0.120192 16:0.0573376 17:-0.395604 18:-0.417582 19:-0.396648 20:-0.411111 21:-0.354839 22:-0.550562 23:-0.10243 24:0.018057 
128 1:-0.417582 2:-0.384615 3:-0.430168 4:-0.377778 5:-0.419355 6:-0.90083 7:-0.120192 8:0.0573376 9:-0.395604 10:-0.417582 11:-0.396648 12:-0.411111 13:-0.354839 14:-0.550562 15:-0.10243 16:0.018057 17:-0.351648 18:-0.362637 19:-0.407821 20:-0.422222 21:-0.225806 22:-0.425012 23:-0.132073 24:0.0331408 
128 1:-0.351648 2:-0.362637 3:-0.407821 4:-0.422222 5:-0.225806 6:-0.425012 7:-0.132073 8:0.0331408 9:-0.406593 10:-0.428571 11:-0.47486 12:-0.5 13:-0.612903 14:-0.724963 15:-0.0846685 16:-0.113563 17:-0.43956 18:-0.450549 19:-0.47486 20:-0.433333 21:0.225806 22:-0.504641 23:-0.277408 24:0.413474 
128 1:-0.450549 2:-0.428571 3:-0.452514 4:-0.444444 5:-0.225806 6:-0.469956 7:-0.40414 8:0.32418 9:-0.428571 10:-0.43956 11:-0.430168 12:-0.422222 13:-0.0322581 14:-0.519785 15:-0.128233 16:0.1965 17:-0.428571 18:-0.417582 19:-0.418994 20:-0.411111 21:-0.0967742 22:-0.412799 23:-0.0917492 24:0.174696 
128 1:-0.428571 2:-0.43956 3:-0.430168 4:-0.422222 5:-0.0322581 6:-0.519785 7:-0.128233 8:0.1965 9:-0.428571 10:-0.417582 11:-0.418994 12:-0.411111 13:-0.0967742 14:-0.412799 15:-0.0917492 16:0.174696 17:-0.43956 18:-0.43956 19:-0.441341 20:-0.444444 21:-0.354839 22:-0.315584 23:0.208881 24:-0.0174285 
128 1:-0.428571 2:-0.417582 3:-0.418994 4:-0.411111 5:-0.0967742 6:-0.412799 7:-0.0917492 8:0.174696 9:-0.43956 10:-0.43956 11:-0.441341 12:-0.444444 13:-0.354839 14:-0.315584 15:0.208881 16:-0.0174285 17:-0.406593 18:-0.428571 19:-0.497207 20:-0.522222 21:-0.612903 22:-0.553493 23:0.0389439 24:-0.250429 
96.49500341559021 1:-0.406593 2:-0.428571 3:-0.497207 4:-0.522222 5:-0.612903 6:-0.553493 7:0.0389439 8:-0.250429 9:-0.549451 10:-0.582418 11:-0.586592 12:-0.588889 13:-0.548387 14:-1 15:0.109511 16:-0.545312 17:-0.615385 18:-0.637363 19:-0.642458 20:-0.644444 21:-0.483871 22:-0.580362 23:0.161596 24:-1 
128 1:-0.637363 2:-0.626374 3:-0.642458 4:-0.655556 5:-0.225806 6:-0.480703 7:-0.0141014 8:-0.505306 9:-0.626374 10:-0.637363 11:-0.653631 12:-0.644444 13:-0.0967742 14:-0.383977 15:0.0388239 16:-0.191665 17:-0.604396 18:-0.637363 19:-0.631285 20:-0.633333 21:-0.0967742 22:-0.420127 23:-0.120552 24:-0.00481037 
128 1:-0.626374 2:-0.637363 3:-0.653631 4:-0.644444 5:-0.0967742 6:-0.383977 7:0.0388239 8:-0.191665 9:-0.604396 10:-0.637363 11:-0.631285 12:-0.633333 13:-0.0967742 14:-0.420127 15:-0.120552 16:-0.00481037 17:-0.604396 18:-0.626374 19:-0.642458 20:-0.644444 21:-0.225806 22:-0.357596 23:-0.243924 24:-0.105514 
128 1:-0.604396 2:-0.637363 3:-0.631285 4:-0.633333 5:-0.0967742 6:-0.420127 7:-0.120552 8:-0.00481037 9:-0.604396 10:-0.626374 11:-0.642458 12:-0.644444 13:-0.225806 14:-0.357596 15:-0.243924 16:-0.105514 17:-0.637363 18:-0.648352 19:-0.642458 20:-0.655556 21:-0.225806 22:-0.369321 23:-0.0820282 24:-0.0710435 
128 1:-0.604396 2:-0.626374 3:-0.642458 4:-0.644444 5:-0.225806 6:-0.357596 7:-0.243924 8:-0.105514 9:-0.637363 10:-0.648352 11:-0.642458 12:-0.655556 13:-0.225806 14:-0.369321 15:-0.0820282 16:-0.0710435 17:-0.604396 18:-0.626374 19:-0.642458 20:-0.655556 21:-0.16129 22:-0.21446 23:-0.154035 24:-0.257367 
128 1:-0.637363 2:-0.648352 3:-0.642458 4:-0.655556 5:-0.225806 6:-0.369321 7:-0.0820282 8:-0.0710435 9:-0.604396 10:-0.626374 11:-0.642458 12:-0.655556 13:-0.16129 14:-0.21446 15:-0.154035 16:-0.257367 17:-0.637363 18:-0.648352 19:-0.653631 20:-0.677778 21:-0.290323 22:-0.393747 23:-0.220762 24:-0.0311586 
120.4942724239146 1:-0.681319 2:-0.703297 3:-0.72067 4:-0.722222 5:-0.419355 6:-0.28041 7:-0.0232223 8:-0.666151 9:-0.725275 10:-0.703297 11:-0.72067 12:-0.711111 13:-0.0967742 14:-0.137763 15:-0.144554 16:-0.0920738 17:-0.67033 18:-0.67033 19:-0.675978 20:-0.655556 21:0.16129 22:-0.144113 23:-0.136874 24:-0.0464599 
128 1:-0.725275 2:-0.703297 3:-0.72067 4:-0.711111 5:-0.0967742 6:-0.137763 7:-0.144554 8:-0.0920738 9:-0.67033 10:-0.67033 11:-0.675978 12:-0.655556 13:0.16129 14:-0.144113 15:-0.136874 16:-0.0464599 17:-0.659341 18:-0.67033 19:-0.675978 20:-0.655556 21:-0.16129 22:-0.380557 23:-0.0825083 24:2.41727e-005 
128 1:-0.615385 2:-0.637363 3:-0.664804 4:-0.655556 5:-0.16129 6:-0.31998 7:-0.271167 8:-0.0251879 9:-0.626374 10:-0.615385 11:-0.631285 12:-0.622222 13:0.0322581 14:-0.263801 15:-0.587639 16:0.292731 17:-0.56044 18:-0.505495 19:-0.575419 20:-0.5 21:0.548387 22:0.977528 23:-0.129553 24:0.467186 
128 1:-0.472527 2:-0.494505 3:-0.486034 4:-0.477778 5:-0.0967742 6:-0.359062 7:-0.172877 8:0.242355 9:-0.43956 10:-0.461538 11:-0.463687 12:-0.444444 13:0.0322581 14:-0.258427 15:-0.164476 16:0.282675 17:-0.417582 18:-0.428571 19:-0.452514 20:-0.433333 21:-0.0967742 22:-0.439668 23:-0.0929493 24:0.594237 
128 1:-0.417582 2:-0.428571 3:-0.452514 4:-0.433333 5:-0.0967742 6:-0.439668 7:-0.0929493 8:0.594237 9:-0.428571 10:-0.43956 11:-0.452514 12:-0.444444 13:-0.225806 14:-0.463605 15:-0.138554 16:0.349851 17:-0.43956 18:-0.406593 19:-0.430168 20:-0.388889 21:0.16129 22:-0.44211 23:-0.209721 24:0.458072 
128 1:-0.43956 2:-0.406593 3:-0.430168 4:-0.388889 5:0.16129 6:-0.44211 7:-0.209721 8:0.458072 9:-0.373626 10:-0.384615 11:-0.385475 12:-0.388889 13:-0.16129 14:-0.417684 15:-0.188959 16:0.30929 17:-0.373626 18:-0.373626 19:-0.363128 20:-0.355556 21:0.0322581 22:-0.416219 23:-0.169997 24:0.55399 
6.455793304589061 1:-0.32967 2:-0.340659 3:-0.340782 4:-0.344444 5:-0.0322581 6:-0.330239 7:-0.126673 8:0.416737 9:-0.318681 10:-0.307692 11:-0.318436 12:-0.322222 13:-0.0322581 14:-0.351734 15:-0.0709871 16:0.574536 17:-0.263736 18:-0.252747 19:-0.26257 20:-0.244444 21:0.290323 22:-0.471422 23:-0.141794 24:0.606058 
128 1:-0.318681 2:-0.307692 3:-0.318436 4:-0.322222 5:-0.0322581 6:-0.351734 7:-0.0709871 8:0.574536 9:-0.263736 10:-0.252747 11:-0.26257 12:-0.244444 13:0.290323 14:-0.471422 15:-0.141794 16:0.606058 17:-0.32967 18:-0.32967 19:-0.318436 20:-0.322222 21:-0.612903 22:-0.6468 23:0.0857486 24:-0.0711402 
128 1:-0.32967 2:-0.32967 3:-0.318436 4:-0.322222 5:-0.612903 6:-0.6468 7:0.0857486 8:-0.0711402 9:-0.32967 10:-0.318681 11:-0.318436 12:-0.322222 13:-0.16129 14:-0.578896 15:0.0987099 16:0.231357 17:-0.307692 18:-0.318681 19:-0.318436 20:-0.3 21:-0.0322581 22:-0.413288 23:0.10423 24:0.268075 
128 1:-0.307692 2:-0.318681 3:-0.318436 4:-0.3 5:-0.0322581 6:-0.413288 7:0.10423 8:0.268075 9:-0.318681 10:-0.32967 11:-0.351955 12:-0.355556 13:-0.483871 14:-0.546165 15:0.09991 16:-0.113974 17:-0.296703 18:-0.285714 19:-0.296089 20:-0.3 21:0.16129 22:-0.570591 23:-0.172037 24:0.329063 
93.90762969371721 1:-0.252747 2:-0.274725 3:-0.273743 4:-0.3 5:-0.16129 6:-0.395213 7:0.134593 8:0.134714 9:-0.263736 10:-0.263736 11:-0.26257 12:-0.244444 13:0.16129 14:-0.426966 15:-0.0687069 16:0.425512 17:-0.252747 18:-0.252747 19:-0.26257 20:-0.233333 21:-0.0967742 22:-0.42257 23:0.174677 24:0.248133 
128 1:-0.263736 2:-0.263736 3:-0.26257 4:-0.244444 5:0.16129 6:-0.426966 7:-0.0687069 8:0.425512 9:-0.252747 10:-0.252747 11:-0.26257 12:-0.233333 13:-0.0967742 14:-0.42257 15:0.174677 16:0.248133 17:-0.230769 18:-0.252747 19:-0.251397 20:-0.277778 21:-0.419355 22:-0.427455 23:0.212481 24:0.187701 
128 1:-0.384615 2:-0.384615 3:-0.385475 4:-0.388889 5:0.0967742 6:-0.39277 7:-0.309811 8:0.505838 9:-0.32967 10:-0.318681 11:-0.351955 12:-0.311111 13:0.290323 14:-0.426478 15:-0.467387 16:0.752568 17:-0.252747 18:-0.252747 19:-0.26257 20:-0.233333 21:0.290323 22:-0.483146 23:-0.337654 24:0.706423 
128 1:-0.32967 2:-0.318681 3:-0.351955 4:-0.311111 5:0.290323 6:-0.426478 7:-0.467387 8:0.752568 9:-0.252747 10:-0.252747 11:-0.26257 12:-0.233333 13:0.290323 14:-0.483146 15:-0.337654 16:0.706423 17:-0.230769 18:-0.241758 19:-0.240223 20:-0.233333 21:-0.16129 22:-0.452858 23:-0.253525 24:0.442771 
128 1:-0.252747 2:-0.252747 3:-0.26257 4:-0.233333 5:0.290323 6:-0.483146 7:-0.337654 8:0.706423 9:-0.230769 10:-0.241758 11:-0.240223 12:-0.233333 13:-0.16129 14:-0.452858 15:-0.253525 16:0.442771 17:-0.241758 18:-0.263736 19:-0.251397 20:-0.277778 21:-0.419355 22:-0.809477 23:-0.107591 24:0.194397 
128 1:-0.274725 2:-0.274725 3:-0.273743 4:-0.266667 5:0.225806 6:-0.502687 7:-0.334893 8:0.283425 9:-0.131868 10:-0.153846 11:-0.150838 12:-0.144444 13:0.548387 14:-0.553493 15:-0.808461 16:0.775677 17:-0.10989 18:-0.131868 19:-0.128492 20:-0.122222 21:-0.0322581 22:-0.40254 23:-0.210561 24:0.532694 
128 1:-0.175824 2:-0.175824 3:-0.195531 4:-0.155556 5:-0.0967742 6:-0.910112 7:-0.0648665 8:0.212623 9:-0.175824 10:-0.164835 11:-0.162011 12:-0.155556 13:-0.16129 14:-0.655594 15:-0.0880288 16:0.291498 17:-0.120879 18:-0.153846 19:-0.139665 20:-0.133333 21:-0.0322581 22:-0.758183 23:-0.145755 24:0.383331 
128 1:-0.0879121 2:-0.0989011 3:-0.0837989 4:-0.0777778 5:0.0322581 6:-0.416219 7:-0.137594 8:0.373758 9:-0.021978 10:-0.032967 11:-0.0167598 12:-0.0333333 13:0.0967742 14:-0.460674 15:-0.189439 16:0.574271 17:-0.021978 18:-0.021978 19:-0.0502793 21:0.0322581 22:-0.302882 23:-0.275248 24:0.406053 
128 1:-0.021978 2:-0.021978 3:-0.0502793 5:0.0322581 6:-0.302882 7:-0.275248 8:0.406053 9:0.021978 10:-0.010989 11:-0.0614525 12:-0.0888889 13:-0.677419 14:-0.531998 15:0.0288629 16:0.0780053 17:-0.021978 18:-0.010989 19:-0.0167598 20:0.0111111 21:0.419355 22:-0.313141 23:-0.50111 24:0.488917 
128 1:0.021978 2:-0.010989 3:-0.0614525 4:-0.0888889 5:-0.677419 6:-0.531998 7:0.0288629 8:0.0780053 9:-0.021978 10:-0.010989 11:-0.0167598 12:0.0111111 13:0.419355 14:-0.313141 15:-0.50111 16:0.488917 17:0.032967 19:0.00558659 20:-0.0111111 21:-0.290323 22:-0.665364 23:-0.0805881 24:0.161739 
128 1:0.043956 2:0.010989 3:0.027933 4:0.0333333 5:-0.0322581 6:-0.381045 7:-0.19652 8:0.204477 9:0.0549451 10:0.043956 11:0.0391061 12:0.0444444 13:-0.0967742 14:-0.361993 15:-0.271767 16:0.270372 17:0.0659341 18:0.043956 19:0.0614525 20:0.0666667 21:-0.0322581 22:-0.502687 23:-0.122352 24:0.199981 
128 1:0.032967 2:0.010989 3:0.00558659 5:-0.548387 6:-0.600879 7:-0.0441044 8:-0.0609635 9:0.0549451 10:0.021978 11:0.0391061 12:0.0222222 13:-0.0322581 14:-0.503175 15:-0.257606 16:0.290459 17:0.0549451 18:0.032967 19:0.0502793 20:0.0555556 21:0.0322581 22:-0.453835 23:-0.174917 24:0.255239 
128 1:0.0549451 2:0.032967 3:0.0502793 4:0.0555556 5:0.0322581 6:-0.453835 7:-0.174917 8:0.255239 9:0.043956 10:0.032967 11:-0.00558659 12:-0.0222222 13:-0.612903 14:-0.587201 15:0.107831 16:-0.0878436 17:0.021978 19:0.0167598 20:0.0111111 21:0.0322581 22:-0.688813 23:-0.424662 24:0.310837 
128 1:0.043956 2:0.032967 3:-0.00558659 4:-0.0222222 5:-0.612903 6:-0.587201 7:0.107831 8:-0.0878436 9:0.021978 11:0.0167598 12:0.0111111 13:0.0322581 14:-0.688813 15:-0.424662 16:0.310837 18:-0.021978 19:-0.00558659 20:-0.0111111 21:-0.290323 22:-0.608207 23:-0.0467447 24:0.204404 
128 1:0.021978 3:0.0167598 4:0.0111111 5:0.0322581 6:-0.688813 7:-0.424662 8:0.310837 10:-0.021978 11:-0.00558659 12:-0.0111111 13:-0.290323 14:-0.608207 15:-0.0467447 16:0.204404 17:0.021978 19:-0.027933 20:-0.0444444 21:-0.354839 22:-0.888617 23:-0.212361 24:0.121734 
128 1:0.021978 3:-0.027933 4:-0.0444444 5:-0.354839 6:-0.888617 7:-0.212361 8:0.121734 9:-0.0659341 10:-0.0769231 11:-0.0837989 12:-0.0777778 13:-0.354839 14:-0.472887 15:-0.020222 16:-0.010225 17:-0.043956 18:-0.0549451 19:-0.0391061 20:-0.0555556 21:-0.0322581 22:-0.586712 23:-0.219562 24:0.22222 
128 1:-0.043956 2:-0.0549451 3:-0.0391061 4:-0.0555556 5:-0.0322581 6:-0.586712 7:-0.219562 8:0.22222 9:-0.021978 10:-0.043956 11:-0.0391061 12:-0.0666667 13:-0.225806 14:-0.489985 15:-0.171677 16:0.147719 17:-0.021978 18:-0.010989 19:-0.0167598 20:0.0111111 21:0.290323 22:-0.483146 23:-0.169517 24:0.369697 
128 1:-0.021978 2:-0.043956 3:-0.0391061 4:-0.0666667 5:-0.225806 6:-0.489985 7:-0.171677 8:0.147719 9:-0.021978 10:-0.010989 11:-0.0167598 12:0.0111111 13:0.290323 14:-0.483146 15:-0.169517 16:0.369697 17:-0.021978 18:-0.010989 19:-0.00558659 20:0.0111111 21:-0.16129 22:-0.620909 23:-0.0263426 24:0.154343 
128 1:-0.021978 2:-0.010989 3:-0.0167598 4:0.0111111 5:0.290323 6:-0.483146 7:-0.169517 8:0.369697 9:-0.021978 10:-0.010989 11:-0.00558659 12:0.0111111 13:-0.16129 14:-0.620909 15:-0.0263426 16:0.154343 17:-0.021978 18:-0.010989 19:-0.027933 21:-0.225806 22:-0.442599 23:-0.123672 24:0.0905509 
128 1:-0.021978 2:-0.010989 3:-0.027933 5:-0.225806 6:-0.442599 7:-0.123672 8:0.0905509 10:-0.021978 11:-0.027933 12:-0.0444444 13:-0.419355 14:-0.513923 15:0.0544254 16:-0.0349295 17:0.010989 18:-0.010989 19:-0.0167598 20:-0.0111111 21:0.0322581 22:-0.445042 23:-0.487189 24:0.348183 
128 1:0.010989 3:0.027933 5:0.0967742 6:-0.350757 7:-0.121632 8:0.336387 9:0.021978 10:0.032967 11:0.027933 12:0.0555556 13:0.16129 14:-0.426966 15:-0.221362 16:0.312335 17:0.0989011 18:0.164835 19:0.106145 20:0.166667 21:0.483871 22:-0.371275 23:-0.128473 24:0.319418 
128 1:0.021978 2:0.032967 3:0.027933 4:0.0555556 5:0.16129 6:-0.426966 7:-0.221362 8:0.312335 9:0.0989011 10:0.164835 11:0.106145 12:0.166667 13:0.483871 14:-0.371275 15:-0.128473 16:0.319418 17:0.142857 18:0.153846 19:0.162011 20:0.144444 21:-0.290323 22:-0.479238 23:-0.0727873 24:0.167613 
128 1:0.0989011 2:0.164835 3:0.106145 4:0.166667 5:0.483871 6:-0.371275 7:-0.128473 8:0.319418 9:0.142857 10:0.153846 11:0.162011 12:0.144444 13:-0.290323 14:-0.479238 15:-0.0727873 16:0.167613 17:0.10989 18:0.0769231 19:0.0949721 20:0.0666667 21:-0.612903 22:-0.428432 23:0.0979898 24:-0.110348 
128 1:0.142857 2:0.153846 3:0.162011 4:0.144444 5:-0.290323 6:-0.479238 7:-0.0727873 8:0.167613 9:0.10989 10:0.0769231 11:0.0949721 12:0.0666667 13:-0.612903 14:-0.428432 15:0.0979898 16:-0.110348 17:0.021978 18:0.032967 19:0.0167598 20:0.0333333 21:-0.354839 22:-0.454323 23:-0.374977 24:-0.0603592 
128 1:0.10989 2:0.0769231 3:0.0949721 4:0.0666667 5:-0.612903 6:-0.428432 7:0.0979898 8:-0.110348 9:0.021978 10:0.032967 11:0.0167598 12:0.0333333 13:-0.354839 14:-0.454323 15:-0.374977 16:-0.0603592 17:0.032967 19:-0.027933 20:-0.0333333 21:-0.548387 22:-0.535906 23:0.120072 24:-0.390099 
128 1:0.021978 2:0.032967 3:0.0167598 4:0.0333333 5:-0.354839 6:-0.454323 7:-0.374977 8:-0.0603592 9:0.032967 11:-0.027933 12:-0.0333333 13:-0.548387 14:-0.535906 15:0.120072 16:-0.390099 17:0.010989 18:-0.021978 19:-0.0391061 20:-0.0333333 21:-0.16129 22:-0.431851 23:-0.030183 24:-0.0691822 
128 1:0.10989 2:0.142857 3:0.117318 4:0.166667 5:-0.0322581 6:-0.342941 7:-0.330453 8:0.287728 9:0.197802 10:0.175824 11:0.184358 12:0.2 13:0.0322581 14:-0.220811 15:-0.212721 16:0.356982 17:0.197802 18:0.21978 19:0.206704 20:0.244444 21:0.0967742 22:-0.461163 23:-0.175278 24:0.311272 
128 1:0.197802 2:0.21978 3:0.206704 4:0.244444 5:0.0967742 6:-0.461163 7:-0.175278 8:0.311272 9:0.164835 10:0.164835 11:0.173184 12:0.144444 13:-0.741935 14:-0.564729 15:0.0178218 16:-0.0151563 17:0.208791 18:0.21978 19:0.22905 20:0.2 21:0.16129 22:-0.424035 23:-0.260726 24:0.512413 
128 1:0.208791 2:0.197802 3:0.162011 4:0.133333 5:-0.548387 6:0.0214949 7:-0.0655866 8:0.0596824 9:0.21978 10:0.197802 11:0.206704 12:0.211111 13:0.290323 14:-0.383977 15:-0.19856 16:0.276415 17:0.197802 18:0.208791 19:0.217877 20:0.233333 21:-0.0322581 22:-0.500244 23:-0.0978698 24:0.207232 
128 1:0.21978 2:0.186813 3:0.206704 4:0.211111 5:-0.290323 6:-0.704446 7:-0.00882088 8:0.181779 9:0.197802 10:0.21978 11:0.217877 12:0.244444 13:0.0322581 14:-0.361993 15:-0.175518 16:0.194034 17:0.263736 18:0.230769 19:0.240223 20:0.255556 21:-0.0967742 22:-0.38935 23:-0.240084 24:0.230051 
128 1:0.263736 2:0.230769 3:0.240223 4:0.255556 5:-0.0967742 6:-0.38935 7:-0.240084 8:0.230051 9:0.32967 10:0.296703 11:0.240223 12:0.244444 13:-0.225806 14:-0.483635 15:-0.107471 16:0.0758781 17:0.230769 18:0.274725 19:0.240223 20:0.288889 21:0.0967742 22:-0.55105 23:-0.0643864 24:0.186662 
128 1:0.32967 2:0.296703 3:0.240223 4:0.244444 5:-0.225806 6:-0.483635 7:-0.107471 8:0.0758781 9:0.230769 10:0.274725 11:0.240223 12:0.288889 13:0.0967742 14:-0.55105 15:-0.0643864 16:0.186662 17:0.318681 18:0.296703 19:0.26257 20:0.266667 21:-0.290323 22:-0.46214 23:0.266127 24:-0.221881 
128 1:0.230769 2:0.274725 3:0.240223 4:0.288889 5:0.0967742 6:-0.55105 7:-0.0643864 8:0.186662 9:0.318681 10:0.296703 11:0.26257 12:0.266667 13:-0.290323 14:-0.46214 15:0.266127 16:-0.221881 17:0.241758 18:0.252747 19:0.251397 20:0.255556 21:-0.225806 22:-0.636541 23:-0.331053 24:-0.0986246 
128 1:0.230769 2:0.208791 3:0.22905 4:0.233333 5:-0.0967742 6:-0.262824 7:-0.00330033 8:0.0962073 9:0.252747 10:0.263736 11:0.273743 12:0.288889 13:0.16129 14:-0.341475 15:-0.246445 16:0.362107 17:0.296703 18:0.285714 19:0.307263 20:0.311111 21:-0.0322581 22:-0.264778 23:-0.247405 24:0.284899 
128 1:0.32967 2:0.296703 3:0.318436 4:0.322222 5:0.16129 6:-0.28041 7:-0.192079 8:0.208925 9:0.351648 10:0.340659 11:0.351955 12:0.366667 13:0.0967742 14:-0.631168 15:-0.20288 16:0.273852 17:0.318681 18:0.32967 19:0.340782 20:0.333333 21:-0.354839 22:-0.417196 23:-0.00606061 24:-9.66908e-005 
128 1:0.318681 2:0.32967 3:0.340782 4:0.333333 5:-0.354839 6:-0.417196 7:-0.00606061 8:-9.66908e-005 9:0.340659 10:0.307692 11:0.296089 12:0.266667 13:-0.548387 14:-0.383977 15:0.229403 16:-0.219609 17:0.296703 18:0.274725 19:0.296089 20:0.288889 21:-0.0322581 22:-0.333659 23:-0.249325 24:0.128091 
128 1:0.296703 2:0.274725 3:0.296089 4:0.288889 5:-0.0322581 6:-0.333659 7:-0.249325 8:0.128091 9:0.285714 10:0.285714 11:0.251397 12:0.266667 13:-0.290323 14:-0.424524 15:-0.145515 16:0.0466049 17:0.274725 18:0.263736 19:0.273743 20:0.288889 21:-0.0322581 22:-0.426966 23:-0.00234023 24:0.142015 
128 1:0.285714 2:0.285714 3:0.251397 4:0.266667 5:-0.290323 6:-0.424524 7:-0.145515 8:0.0466049 9:0.274725 10:0.263736 11:0.273743 12:0.288889 13:-0.0322581 14:-0.426966 15:-0.00234023 16:0.142015 17:0.252747 18:0.230769 19:0.240223 20:0.211111 21:-0.612903 22:-0.240352 23:-0.059706 24:-0.056129 
128 1:0.274725 2:0.263736 3:0.273743 4:0.288889 5:-0.0322581 6:-0.426966 7:-0.00234023 8:0.142015 9:0.252747 10:0.230769 11:0.240223 12:0.211111 13:-0.612903 14:-0.240352 15:-0.059706 16:-0.056129 17:0.208791 18:0.197802 19:0.206704 20:0.177778 21:-0.354839 22:-0.523693 23:-0.0327033 24:-0.0784887 
128 1:0.208791 2:0.197802 3:0.206704 4:0.177778 5:-0.354839 6:-0.523693 7:-0.0327033 8:-0.0784887 9:0.186813 10:0.186813 11:0.195531 12:0.177778 13:-0.16129 14:-0.511969 15:-0.154035 16:0.028838 17:0.230769 18:0.252747 19:0.240223 20:0.277778 21:0.419355 22:-0.348803 23:-0.325293 24:0.131862 
128 1:0.186813 2:0.186813 3:0.195531 4:0.177778 5:-0.16129 6:-0.511969 7:-0.154035 8:0.028838 9:0.230769 10:0.252747 11:0.240223 12:0.277778 13:0.419355 14:-0.348803 15:-0.325293 16:0.131862 17:0.307692 18:0.274725 19:0.284916 20:0.266667 21:-0.225806 22:-0.487543 23:-0.00690069 24:0.108946 
116.1497844400009 1:0.307692 2:0.274725 3:0.284916 4:0.266667 5:-0.225806 6:-0.487543 7:-0.00690069 8:0.108946 9:0.307692 10:0.285714 11:0.150838 12:0.122222 13:-1 14:-0.579384 15:-0.010381 16:-0.578501 17:0.241758 18:0.230769 19:0.22905 20:0.2 21:0.290323 22:-0.367367 23:0.146955 24:0.0419638 
81.88156037086904 1:0.307692 2:0.285714 3:0.150838 4:0.122222 5:-1 6:-0.579384 7:-0.010381 8:-0.578501 9:0.241758 10:0.230769 11:0.22905 12:0.2 13:0.290323 14:-0.367367 15:0.146955 16:0.0419638 17:0.120879 18:0.120879 19:0.128492 20:0.111111 21:-0.677419 22:-0.167562 23:-0.158836 24:-0.6187 
128 1:0.241758 2:0.230769 3:0.22905 4:0.2 5:0.290323 6:-0.367367 7:0.146955 8:0.0419638 9:0.120879 10:0.120879 11:0.128492 12:0.111111 13:-0.677419 14:-0.167562 15:-0.158836 16:-0.6187 17:0.10989 18:0.0989011 19:0.106145 20:0.0888889 21:-0.290323 22:-0.430874 23:0.115752 24:-0.574657 
128 1:0.120879 2:0.120879 3:0.128492 4:0.111111 5:-0.677419 6:-0.167562 7:-0.158836 8:-0.6187 9:0.10989 10:0.0989011 11:0.106145 12:0.0888889 13:-0.290323 14:-0.430874 15:0.115752 16:-0.574657 17:0.0769231 18:0.0989011 19:0.0837989 20:0.0777778 21:-0.225806 22:-0.335125 23:-0.250405 24:-0.166356 
128 1:0.0769231 2:0.0989011 3:0.0837989 4:0.0777778 5:-0.225806 6:-0.335125 7:-0.250405 8:-0.166356 9:0.0989011 10:0.120879 11:0.106145 12:0.0777778 13:-0.16129 14:-0.180264 15:0.00918092 16:-0.13631 17:0.131868 18:0.10989 19:0.117318 20:0.111111 21:0.0322581 22:-0.404006 23:-0.157756 24:0.0253088 
128 1:0.0989011 2:0.120879 3:0.106145 4:0.0777778 5:-0.16129 6:-0.180264 7:0.00918092 8:-0.13631 9:0.131868 10:0.10989 11:0.117318 12:0.111111 13:0.0322581 14:-0.404006 15:-0.157756 16:0.0253088 17:0.120879 18:0.0879121 19:0.106145 20:0.1 21:-0.225806 22:-0.44211 23:-0.0178218 24:-0.0933791 
128 1:0.0989011 2:0.0879121 3:0.106145 4:0.1 5:-0.16129 6:-0.49829 7:-0.0789079 8:-0.0196282 9:0.131868 10:0.164835 11:0.139665 12:0.166667 13:0.225806 14:-0.412799 15:-0.0748275 16:0.270589 17:0.186813 18:0.197802 19:0.195531 20:0.2 21:0.0322581 22:-0.671226 23:-0.20108 24:0.245812 
128 1:0.131868 2:0.164835 3:0.139665 4:0.166667 5:0.225806 6:-0.412799 7:-0.0748275 8:0.270589 9:0.186813 10:0.197802 11:0.195531 12:0.2 13:0.0322581 14:-0.671226 15:-0.20108 16:0.245812 17:0.175824 18:0.164835 19:0.173184 20:0.144444 21:-0.483871 22:-0.388373 23:0.0156616 24:-0.0549204 
128 1:0.120879 2:0.142857 3:0.139665 4:0.166667 5:0.0967742 6:-0.442599 7:-0.216202 8:0.17605 9:0.164835 10:0.164835 11:0.150838 12:0.122222 13:-0.419355 14:-0.581339 15:-0.0753075 16:0.106118 17:0.120879 18:0.120879 19:0.139665 20:0.144444 21:-0.0322581 22:-0.490474 23:-0.175158 24:0.110493 
128 1:0.164835 2:0.164835 3:0.150838 4:0.122222 5:-0.419355 6:-0.581339 7:-0.0753075 8:0.106118 9:0.120879 10:0.120879 11:0.139665 12:0.144444 13:-0.0322581 14:-0.490474 15:-0.175158 16:0.110493 17:0.131868 18:0.120879 19:0.139665 20:0.144444 21:-0.16129 22:-0.412799 23:-0.0473447 24:0.0839276 
128 1:0.0659341 2:0.043956 3:0.0614525 4:0.0333333 5:-0.806452 6:-0.655105 7:-0.0964296 8:-0.756218 9:0.043956 10:0.0549451 11:0.0614525 12:0.0555556 13:-0.0322581 14:-0.427943 15:-0.218242 16:-0.140347 17:0.10989 18:0.120879 19:0.117318 20:0.122222 21:0.225806 22:-0.492428 23:-0.206001 24:0.388576 
128 1:0.153846 2:0.131868 3:0.139665 4:0.111111 5:-0.225806 6:-0.402052 7:-0.0934293 8:0.0450095 9:0.175824 10:0.175824 11:0.173184 12:0.2 13:0.354839 14:-0.427943 15:-0.372097 16:0.419952 17:0.21978 18:0.186813 19:0.206704 20:0.211111 21:-0.0967742 22:-0.364924 23:-0.248245 24:0.333438 
128 1:0.21978 2:0.208791 3:0.195531 4:0.188889 5:-0.290323 6:-0.434783 7:-0.114911 8:0.138437 9:0.230769 10:0.197802 11:0.206704 12:0.211111 13:-0.0322581 14:-0.422081 15:-0.211881 16:0.223573 17:0.230769 18:0.21978 19:0.22905 20:0.244444 21:0.0322581 22:-0.442599 23:-0.277888 24:0.308371 
128 1:0.230769 2:0.197802 3:0.206704 4:0.211111 5:-0.0322581 6:-0.422081 7:-0.211881 8:0.223573 9:0.230769 10:0.21978 11:0.22905 12:0.244444 13:0.0322581 14:-0.442599 15:-0.277888 16:0.308371 17:0.197802 18:0.21978 19:0.206704 20:0.233333 21:-0.225806 22:-0.43234 23:-0.161116 24:0.172472 
128 1:0.230769 2:0.21978 3:0.22905 4:0.244444 5:0.0322581 6:-0.442599 7:-0.277888 8:0.308371 9:0.197802 10:0.21978 11:0.206704 12:0.233333 13:-0.225806 14:-0.43234 15:-0.161116 16:0.172472 17:0.208791 18:0.208791 19:0.217877 20:0.188889 21:-0.419355 22:-0.495359 23:-0.118152 24:0.127849 
128 1:0.197802 2:0.21978 3:0.206704 4:0.233333 5:-0.225806 6:-0.43234 7:-0.161116 8:0.172472 9:0.208791 10:0.208791 11:0.217877 12:0.188889 13:-0.419355 14:-0.495359 15:-0.118152 16:0.127849 17:0.175824 18:0.153846 19:0.162011 20:0.133333 21:-0.483871 22:-0.345383 23:0.00738074 24:0.104257 
128 1:0.175824 2:0.153846 3:0.162011 4:0.133333 5:-0.483871 6:-0.345383 7:0.00738074 8:0.104257 9:0.10989 10:0.10989 11:0.106145 12:0.133333 13:-0.16129 14:-0.660967 15:0.135434 16:-0.048708 17:0.10989 18:0.0989011 19:0.106145 20:0.0777778 21:-0.483871 22:-0.361993 23:0.384338 24:-0.248326 
89.30249564565861 1:0.10989 2:0.10989 3:0.106145 4:0.133333 5:-0.16129 6:-0.660967 7:0.135434 8:-0.048708 9:0.10989 10:0.0989011 11:0.106145 12:0.0777778 13:-0.483871 14:-0.361993 15:0.384338 16:-0.248326 17:0.0879121 18:0.0659341 19:0.0837989 20:0.0555556 21:-0.290323 22:-0.44211 23:0.0138614 24:-0.194397 
128 1:0.0659341 2:0.0549451 3:0.0837989 4:0.0666667 5:-0.0322581 6:-0.327308 7:-0.0913891 8:0.0684329 9:0.0879121 10:0.0659341 11:0.0949721 12:0.0777778 13:-0.0967742 14:-0.252565 15:-0.138914 16:0.0862723 17:0.10989 18:0.0989011 19:0.117318 20:0.122222 21:0.0967742 22:-0.425012 23:-0.10291 24:0.238053 
128 1:0.0879121 2:0.0879121 3:0.106145 4:0.0777778 5:-0.419355 6:-0.36639 7:-0.0717072 8:0.0469917 9:0.10989 10:0.10989 11:0.106145 12:0.111111 13:0.0322581 14:-0.474841 15:0.0123012 16:0.317823 17:0.120879 18:0.131868 19:0.128492 20:0.144444 21:0.0322581 22:-0.420127 23:-0.278488 24:0.144794 
128 1:0.153846 2:0.142857 3:0.139665 4:0.144444 5:-0.16129 6:-0.411334 7:-0.149115 8:0.0442844 9:0.131868 10:0.131868 11:0.139665 12:0.155556 13:-0.0967742 14:-0.683928 15:-0.0991899 16:0.187048 17:0.175824 18:0.153846 19:0.184358 20:0.166667 21:-0.0967742 22:-0.39277 23:-0.158836 24:0.237279 
128 1:0.131868 2:0.131868 3:0.139665 4:0.155556 5:-0.0967742 6:-0.683928 7:-0.0991899 8:0.187048 9:0.175824 10:0.153846 11:0.184358 12:0.166667 13:-0.0967742 14:-0.39277 15:-0.158836 16:0.237279 17:0.175824 18:0.164835 19:0.173184 20:0.166667 21:-0.16129 22:-0.420127 23:-0.251845 24:0.225096 
128 1:0.175824 2:0.153846 3:0.184358 4:0.166667 5:-0.0967742 6:-0.39277 7:-0.158836 8:0.237279 9:0.175824 10:0.164835 11:0.173184 12:0.166667 13:-0.16129 14:-0.420127 15:-0.251845 16:0.225096 17:0.186813 18:0.175824 19:0.184358 20:0.166667 21:-0.16129 22:-0.603322 23:-0.236724 24:0.227247 
128 1:0.197802 2:0.164835 3:0.139665 4:0.122222 5:-0.419355 6:-0.447484 7:0.0490249 8:-0.0709952 9:0.142857 10:0.175824 11:0.162011 12:0.177778 13:0.16129 14:-0.917929 15:-0.368737 16:0.433755 17:0.0989011 18:0.10989 19:0.117318 20:0.111111 21:-0.548387 22:-0.793356 23:-0.224722 24:-0.154729 
128 1:0.0989011 2:0.10989 3:0.117318 4:0.111111 5:-0.548387 6:-0.793356 7:-0.224722 8:-0.154729 9:0.0879121 10:0.0659341 11:0.0837989 12:0.0666667 13:-0.419355 14:-0.803615 15:-0.0923492 16:-0.255336 17:0.0989011 18:0.0769231 19:0.0949721 20:0.1 21:0.0322581 22:-0.434294 23:-0.189559 24:0.135391 
128 1:0.0879121 2:0.0659341 3:0.0837989 4:0.0666667 5:-0.419355 6:-0.803615 7:-0.0923492 8:-0.255336 9:0.0989011 10:0.0769231 11:0.0949721 12:0.1 13:0.0322581 14:-0.434294 15:-0.189559 16:0.135391 17:0.0989011 18:0.0769231 19:0.0949721 20:0.1 21:-0.16129 22:-0.381045 23:-0.238284 24:0.113177 
128 1:0.10989 2:0.0879121 3:0.117318 4:0.1 5:-0.0967742 6:-0.443576 7:-0.186319 8:0.335541 9:0.142857 10:0.164835 11:0.162011 12:0.188889 13:0.354839 14:-0.337567 15:-0.371857 16:0.686359 17:0.197802 18:0.197802 19:0.206704 20:0.2 21:-0.0967742 22:-0.415242 23:-0.29673 24:0.879523 
112.9817668611807 1:0.142857 2:0.164835 3:0.162011 4:0.188889 5:0.354839 6:-0.337567 7:-0.371857 8:0.686359 9:0.197802 10:0.197802 11:0.206704 12:0.2 13:-0.0967742 14:-0.415242 15:-0.29673 16:0.879523 17:0.263736 18:0.241758 19:0.195531 20:0.177778 21:-0.290323 22:-0.411334 23:-0.311131 24:0.630762 
96.21617653168339 1:0.197802 2:0.197802 3:0.206704 4:0.2 5:-0.0967742 6:-0.415242 7:-0.29673 8:0.879523 9:0.263736 10:0.241758 11:0.195531 12:0.177778 13:-0.290323 14:-0.411334 15:-0.311131 16:0.630762 17:0.21978 18:0.186813 19:0.184358 20:0.177778 21:-0.16129 22:-0.27064 23:-0.10411 24:0.0868041 
89.39403086162257 1:0.263736 2:0.241758 3:0.195531 4:0.177778 5:-0.290323 6:-0.411334 7:-0.311131 8:0.630762 9:0.21978 10:0.186813 11:0.184358 12:0.177778 13:-0.16129 14:-0.27064 15:-0.10411 16:0.0868041 17:0.186813 18:0.175824 19:0.195531 20:0.177778 21:-0.16129 22:-0.659502 23:-0.0910291 24:0.17866 
128 1:0.21978 2:0.186813 3:0.184358 4:0.177778 5:-0.16129 6:-0.27064 7:-0.10411 8:0.0868041 9:0.186813 10:0.175824 11:0.195531 12:0.177778 13:-0.16129 14:-0.659502 15:-0.0910291 16:0.17866 17:0.164835 18:0.164835 19:0.173184 20:0.177778 21:-0.16129 22:-0.696141 23:-0.134713 24:0.122725 
128 1:0.175824 2:0.175824 3:0.184358 4:0.166667 5:-0.0967742 6:-0.518808 7:-0.248245 8:0.125698 9:0.186813 10:0.175824 11:0.195531 12:0.2 13:0.0322581 14:-0.191011 15:-0.108431 16:-0.00137784 17:0.230769 18:0.230769 19:0.251397 20:0.244444 21:0.0967742 22:-0.368832 23:-0.203 24:0.161449 
128 1:0.230769 2:0.230769 3:0.251397 4:0.244444 5:0.0967742 6:-0.368832 7:-0.203 8:0.161449 9:0.285714 10:0.274725 11:0.273743 12:0.244444 13:-0.16129 14:-0.454323 15:0.049625 16:0.088182 17:0.241758 18:0.263736 19:0.251397 20:0.277778 21:0.0322581 22:-0.44895 23:-0.452145 24:0.45406 
128 1:0.241758 2:0.263736 3:0.251397 4:0.277778 5:0.0322581 6:-0.44895 7:-0.452145 8:0.45406 9:0.307692 10:0.285714 11:0.284916 12:0.277778 13:-0.16129 14:-0.489008 15:-0.249565 16:0.273635 17:0.307692 18:0.285714 19:0.307263 20:0.288889 21:-0.0967742 22:-0.884221 23:-0.146235 24:0.275206 
128 1:0.307692 2:0.285714 3:0.307263 4:0.288889 5:-0.0967742 6:-0.884221 7:-0.146235 8:0.275206 9:0.307692 10:0.285714 11:0.318436 12:0.288889 13:-0.16129 14:-0.49829 15:-0.146115 16:0.191762 17:0.307692 18:0.285714 19:0.318436 20:0.3 21:-0.0967742 22:-0.524182 23:-0.156556 24:0.261138 
128 1:0.307692 2:0.285714 3:0.318436 4:0.288889 5:-0.16129 6:-0.49829 7:-0.146115 8:0.191762 9:0.307692 10:0.285714 11:0.318436 12:0.3 13:-0.0967742 14:-0.524182 15:-0.156556 16:0.261138 17:0.307692 18:0.274725 19:0.296089 20:0.3 21:-0.16129 22:-0.507084 23:-0.108311 24:0.52404 
128 1:0.307692 2:0.285714 3:0.318436 4:0.3 5:-0.0967742 6:-0.524182 7:-0.156556 8:0.261138 9:0.307692 10:0.274725 11:0.296089 12:0.3 13:-0.16129 14:-0.507084 15:-0.108311 16:0.52404 17:0.318681 18:0.296703 19:0.296089 20:0.266667 21:-0.354839 22:-0.548119 23:-0.0915092 24:0.306244 
128 1:0.263736 2:0.263736 3:0.26257 4:0.266667 5:-0.16129 6:-0.489008 7:-0.0621062 8:0.496797 9:0.252747 10:0.285714 11:0.273743 12:0.277778 13:-0.0967742 14:-0.459209 15:-0.180678 16:0.250163 17:0.274725 18:0.241758 19:0.240223 20:0.211111 21:-0.548387 22:-0.435271 23:-0.0424242 24:0.0617854 
128 1:0.252747 2:0.285714 3:0.273743 4:0.277778 5:-0.0967742 6:-0.459209 7:-0.180678 8:0.250163 9:0.274725 10:0.241758 11:0.240223 12:0.211111 13:-0.548387 14:-0.435271 15:-0.0424242 16:0.0617854 17:0.263736 18:0.241758 19:0.217877 20:0.211111 21:-0.16129 22:-0.425012 23:-0.10063 24:0.350286 
98.86974675125167 1:0.175824 2:0.153846 3:0.184358 4:0.155556 5:-0.225806 6:-0.603322 7:-0.0643864 8:0.0496024 9:0.175824 10:0.175824 11:0.195531 12:0.2 13:0.0967742 14:0.249145 15:-0.137834 16:0.0573134 17:0.21978 18:0.230769 19:0.22905 20:0.233333 21:0.0322581 22:-0.468002 23:-0.279568 24:0.277938 
128 1:0.175824 2:0.175824 3:0.195531 4:0.2 5:0.0967742 6:0.249145 7:-0.137834 8:0.0573134 9:0.21978 10:0.230769 11:0.22905 12:0.233333 13:0.0322581 14:-0.468002 15:-0.279568 16:0.277938 17:0.208791 18:0.186813 19:0.195531 20:0.177778 21:-0.483871 22:-0.438691 23:-0.0411041 24:-0.0102734 
128 1:0.208791 2:0.186813 3:0.195531 4:0.177778 5:-0.483871 6:-0.438691 7:-0.0411041 8:-0.0102734 9:0.175824 10:0.153846 11:0.173184 12:0.155556 13:-0.290323 14:-0.450415 15:-0.0683468 16:-0.0578694 17:0.197802 18:0.197802 19:0.217877 20:0.222222 21:0.225806 22:-0.454812 23:-0.19868 24:0.248785 
128 1:0.296703 2:0.307692 3:0.307263 4:0.333333 5:0.0322581 6:-0.382022 7:-0.166877 8:0.495516 9:0.340659 10:0.307692 11:0.318436 12:0.333333 13:-0.16129 14:-0.459209 15:-0.171077 16:0.254055 17:0.351648 18:0.384615 19:0.363128 20:0.411111 21:0.290323 22:-0.258915 23:-0.357576 24:0.591119 
128 1:0.351648 2:0.384615 3:0.363128 4:0.411111 5:0.290323 6:-0.258915 7:-0.357576 8:0.591119 9:0.362637 10:0.351648 11:0.363128 12:0.377778 13:-0.354839 14:-0.5149 15:-0.0307831 16:0.169644 17:0.351648 18:0.351648 19:0.374302 20:0.377778 21:-0.16129 22:-0.404006 23:0.0153015 24:0.156712 
128 1:0.351648 2:0.340659 3:0.374302 4:0.355556 5:-0.290323 6:-0.445042 7:-0.0954695 8:0.198941 9:0.406593 10:0.373626 11:0.374302 12:0.366667 13:-0.0967742 14:-0.572545 15:-0.260246 16:0.475815 17:0.417582 18:0.384615 19:0.385475 20:0.4 21:0.0322581 22:-0.535906 23:-0.306091 24:0.645121 
128 1:0.406593 2:0.373626 3:0.374302 4:0.366667 5:-0.0967742 6:-0.572545 7:-0.260246 8:0.475815 9:0.417582 10:0.384615 11:0.385475 12:0.4 13:0.0322581 14:-0.535906 15:-0.306091 16:0.645121 17:0.406593 18:0.373626 19:0.351955 20:0.333333 21:-0.548387 22:-0.22765 23:0.155836 24:0.268631 
128 1:0.296703 2:0.340659 3:0.318436 4:0.366667 5:0.354839 6:-0.355154 7:-0.119352 8:0.512171 9:0.373626 10:0.340659 11:0.351955 12:0.333333 13:-0.354839 14:-0.609184 15:-0.154515 16:0.220068 17:0.351648 18:0.318681 19:0.296089 20:0.322222 21:-0.225806 22:-0.534929 23:-0.209241 24:0.106166 
128 1:0.351648 2:0.318681 3:0.296089 4:0.322222 5:-0.225806 6:-0.534929 7:-0.209241 8:0.106166 9:0.32967 10:0.307692 11:0.318436 12:0.3 13:-0.290323 14:-0.444064 15:-0.121392 16:0.0836859 17:0.307692 18:0.296703 19:0.307263 20:0.322222 21:-0.0322581 22:-0.443087 23:-0.188719 24:0.138534 
128 1:0.307692 2:0.296703 3:0.307263 4:0.322222 5:-0.0322581 6:-0.443087 7:-0.188719 8:0.138534 9:0.318681 10:0.307692 11:0.329609 12:0.322222 13:-0.16129 14:-0.34001 15:-0.143834 16:0.162513 17:0.296703 18:0.318681 19:0.318436 20:0.333333 21:-0.0967742 22:-0.403029 23:-0.165677 24:0.171505 
128 1:0.318681 2:0.307692 3:0.329609 4:0.322222 5:-0.16129 6:-0.34001 7:-0.143834 8:0.162513 9:0.296703 10:0.318681 11:0.318436 12:0.333333 13:-0.0967742 14:-0.403029 15:-0.165677 16:0.171505 17:0.296703 18:0.263736 19:0.284916 20:0.277778 21:-0.483871 22:-0.640449 23:-0.0447045 24:-0.177548 
128 1:0.296703 2:0.263736 3:0.284916 4:0.277778 5:-0.483871 6:-0.640449 7:-0.0447045 8:-0.177548 9:0.285714 10:0.252747 11:0.273743 12:0.244444 13:-0.354839 14:-0.74597 15:-0.107951 16:-0.102299 17:0.263736 18:0.263736 19:0.273743 20:0.255556 21:-0.0967742 22:-0.427455 23:-0.10183 24:0.0401025 
128 1:0.252747 2:0.21978 3:0.251397 4:0.222222 5:-0.354839 6:-0.431851 7:-0.122832 8:-0.254732 9:0.230769 10:0.230769 11:0.251397 12:0.233333 13:-0.0967742 14:-0.404983 15:-0.143474 16:0.0697866 17:0.252747 18:0.274725 19:0.273743 20:0.3 21:0.225806 22:-0.295066 23:-0.156436 24:0.234717 
128 1:0.494505 2:0.472527 3:0.452514 4:0.444444 5:0.0967742 6:-0.60723 7:-0.154995 8:0.588823 9:0.483516 10:0.461538 11:0.486034 12:0.477778 13:0.0322581 14:-0.42257 15:-0.214521 16:0.543136 17:0.494505 18:0.472527 19:0.486034 20:0.477778 21:-0.16129 22:0.0102589 23:-0.105671 24:0.247625 
128 1:0.648352 2:0.648352 3:0.631285 4:0.6 5:-0.0322581 6:-0.447973 7:-0.472187 8:0.321473 9:0.615385 10:0.626374 11:0.642458 12:0.644444 13:0.0967742 14:-0.37616 15:-0.0587459 16:0.20322 17:0.626374 18:0.681319 19:0.642458 20:0.688889 21:0.0967742 22:-0.33659 23:-0.090189 24:0.400904 
128 1:0.615385 2:0.626374 3:0.642458 4:0.644444 5:0.0967742 6:-0.37616 7:-0.0587459 8:0.20322 9:0.626374 10:0.681319 11:0.642458 12:0.688889 13:0.0967742 14:-0.33659 15:-0.090189 16:0.400904 17:0.637363 18:0.648352 19:0.664804 20:0.655556 21:-0.354839 22:-0.577919 23:-0.0665467 24:0.142981 
128 1:0.626374 2:0.681319 3:0.642458 4:0.688889 5:0.0967742 6:-0.33659 7:-0.090189 8:0.400904 9:0.637363 10:0.648352 11:0.664804 12:0.655556 13:-0.354839 14:-0.577919 15:-0.0665467 16:0.142981 17:0.615385 18:0.626374 19:0.642458 20:0.655556 21:-0.16129 22:-0.00830484 23:-0.10351 24:0.087481 
109.923236746531 1:0.637363 2:0.648352 3:0.664804 4:0.655556 5:-0.354839 6:-0.577919 7:-0.0665467 8:0.142981 9:0.615385 10:0.626374 11:0.642458 12:0.655556 13:-0.16129 14:-0.00830484 15:-0.10351 16:0.087481 17:0.637363 18:0.604396 19:0.631285 20:0.622222 21:-0.354839 22:1 23:-0.139994 24:0.122725 
63.58682303331914 1:0.637363 2:0.604396 3:0.631285 4:0.622222 5:-0.354839 6:1 7:-0.139994 8:0.122725 9:0.593407 10:0.582418 11:0.620112 12:0.611111 13:-0.225806 14:-0.459697 15:-0.313171 16:0.209432 17:0.582418 18:0.582418 19:0.586592 20:0.6 21:-0.225806 22:-0.481192 23:-0.130513 24:0.126278 
128 1:0.637363 2:0.648352 3:0.653631 4:0.633333 5:-0.16129 6:-0.508061 7:-0.0690669 8:0.226837 9:0.637363 10:0.626374 11:0.664804 12:0.644444 13:-0.0967742 14:-0.493894 15:-0.0972697 16:0.141072 17:0.659341 18:0.648352 19:0.675978 20:0.677778 21:0.0322581 22:-0.462628 23:-0.110111 24:0.309459 
128 1:0.637363 2:0.626374 3:0.664804 4:0.644444 5:-0.0967742 6:-0.493894 7:-0.0972697 8:0.141072 9:0.659341 10:0.648352 11:0.675978 12:0.677778 13:0.0322581 14:-0.462628 15:-0.110111 16:0.309459 17:0.637363 18:0.648352 19:0.664804 20:0.677778 21:-0.16129 22:-0.487054 23:-0.109991 24:0.181489 
128 1:0.67033 2:0.648352 3:0.620112 4:0.588889 5:-0.677419 6:-0.472887 7:0.183798 8:-0.0877952 9:0.637363 10:0.648352 11:0.653631 12:0.677778 13:0.354839 14:-0.526624 15:-0.30009 16:0.308637 17:0.714286 18:0.692308 19:0.72067 20:0.722222 21:0.0967742 22:-0.450904 23:-0.189799 24:0.362663 
128 1:0.791209 2:0.769231 3:0.776536 4:0.777778 5:-0.0322581 6:-0.425012 7:-0.10459 8:0.266262 9:0.791209 10:0.78022 11:0.810056 12:0.811111 13:0.0322581 14:-0.476307 15:-0.241164 16:0.359424 17:0.846154 18:0.824176 19:0.821229 20:0.788889 21:-0.290323 22:-0.399121 23:-0.0540654 24:0.0399575 
128 1:0.692308 2:0.758242 3:0.709497 4:0.777778 5:0.290323 6:0.0180752 7:0.00558056 8:0.118954 9:0.769231 10:0.78022 11:0.787709 12:0.811111 13:0.0322581 14:-0.574988 15:-0.0565857 16:0.143199 17:0.857143 18:0.89011 19:0.877095 20:0.888889 21:0.290323 22:-0.436248 23:-0.343894 24:0.114482 
10.69422079251989 1:0.857143 2:0.89011 3:0.877095 4:0.888889 5:0.290323 6:-0.436248 7:-0.343894 8:0.114482 9:0.879121 10:0.868132 11:0.877095 12:0.866667 13:-0.290323 14:-0.446996 15:0.505191 16:-0.0679978 17:0.901099 18:0.89011 19:0.921788 20:0.922222 21:0.16129 22:-0.302882 23:0.264326 24:0.156687 
70.93779742197019 1:0.879121 2:0.868132 3:0.877095 4:0.866667 5:-0.290323 6:-0.446996 7:0.505191 8:-0.0679978 9:0.901099 10:0.89011 11:0.921788 12:0.922222 13:0.16129 14:-0.302882 15:0.264326 16:0.156687 17:0.923077 18:0.901099 19:0.932961 20:0.9 21:-0.290323 22:-0.390327 23:0.719532 24:-0.206701 
25.04233168734156 1:0.923077 2:0.901099 3:0.932961 4:0.9 5:-0.290323 6:-0.390327 7:0.719532 8:-0.206701 9:0.791209 10:0.824176 11:0.821229 12:0.855556 13:-0.16129 14:-0.418173 15:-1 16:0.495105 17:0.835165 18:0.802198 19:0.798883 20:0.777778 21:-0.612903 22:-0.490474 23:0.249805 24:-0.232203 
125.9257511960975 1:0.835165 2:0.802198 3:0.798883 4:0.777778 5:-0.612903 6:-0.490474 7:0.249805 8:-0.232203 9:0.736264 10:0.714286 11:0.731844 12:0.711111 13:-0.548387 14:-0.536395 15:-0.119952 16:-0.19285 17:0.758242 18:0.725275 19:0.743017 20:0.744444 21:0.0322581 22:-0.47533 23:-0.242724 24:0.111194 
128 1:0.758242 2:0.725275 3:0.743017 4:0.744444 5:0.0322581 6:-0.47533 7:-0.242724 8:0.111194 9:0.67033 10:0.681319 11:0.698324 12:0.711111 13:-0.354839 14:-0.43576 15:-0.177798 16:0.0141894 17:0.692308 18:0.692308 19:0.709497 20:0.722222 21:-0.0967742 22:-0.656082 23:-0.049625 24:0.151031 
128 1:0.692308 2:0.692308 3:0.709497 4:0.722222 5:-0.0967742 6:-0.656082 7:-0.049625 8:0.151031 9:0.703297 10:0.681319 11:0.709497 12:0.677778 13:-0.419355 14:-0.600879 15:-0.164236 16:-0.0248737 17:0.681319 18:0.681319 19:0.698324 20:0.711111 21:0.0322581 22:-0.384465 23:0.123312 24:-0.0576519 
128 1:0.703297 2:0.681319 3:0.709497 4:0.677778 5:-0.419355 6:-0.600879 7:-0.164236 8:-0.0248737 9:0.681319 10:0.681319 11:0.698324 12:0.711111 13:0.0322581 14:-0.384465 15:0.123312 16:-0.0576519 17:0.703297 18:0.681319 19:0.709497 20:0.688889 21:-0.290323 22:-0.504152 23:-0.182118 24:0.0109502 
128 1:0.681319 2:0.681319 3:0.698324 4:0.711111 5:0.0322581 6:-0.384465 7:0.123312 8:-0.0576519 9:0.703297 10:0.681319 11:0.709497 12:0.688889 13:-0.290323 14:-0.504152 15:-0.182118 16:0.0109502 17:0.681319 18:0.659341 19:0.675978 20:0.655556 21:-0.354839 22:-0.834392 23:-0.19832 24:-0.0863932 
4.667685568298277 1:0.703297 2:0.758242 3:0.72067 4:0.788889 5:0.612903 6:-0.40254 7:-0.418302 8:0.337209 9:0.769231 10:0.769231 11:0.787709 12:0.755556 13:-0.354839 14:-0.188569 15:-0.132313 16:-0.0779086 17:0.791209 18:0.846154 19:0.810056 20:0.844444 21:0.354839 22:-0.167562 23:-0.292889 24:0.259905 
128 1:0.769231 2:0.769231 3:0.787709 4:0.755556 5:-0.354839 6:-0.188569 7:-0.132313 8:-0.0779086 9:0.791209 10:0.846154 11:0.810056 12:0.844444 13:0.354839 14:-0.167562 15:-0.292889 16:0.259905 17:0.813187 18:0.813187 19:0.821229 20:0.811111 21:-0.354839 22:-0.420127 23:-0.10279 24:0.00737267 
128 1:0.857143 2:0.835165 3:0.865922 4:0.866667 5:-0.0322581 6:-0.565706 7:-0.174917 8:0.190916 9:0.835165 10:0.824176 11:0.854749 12:0.833333 13:-0.354839 14:-0.417684 15:-0.128113 16:0.0239793 17:0.824176 18:0.813187 19:0.843575 20:0.844444 21:-0.0967742 22:-0.440645 23:-0.146715 24:0.0518021 
128 1:0.835165 2:0.824176 3:0.854749 4:0.833333 5:-0.354839 6:-0.417684 7:-0.128113 8:0.0239793 9:0.824176 10:0.813187 11:0.843575 12:0.844444 13:-0.0967742 14:-0.440645 15:-0.146715 16:0.0518021 17:0.835165 18:0.813187 19:0.854749 20:0.833333 21:-0.225806 22:-0.576453 23:-0.229043 24:0.0760715 
128 1:0.835165 2:0.813187 3:0.854749 4:0.833333 5:-0.225806 6:-0.576453 7:-0.229043 8:0.0760715 9:0.857143 10:0.824176 11:0.832402 12:0.811111 13:-0.290323 14:-0.634099 15:-0.164236 16:0.0498683 17:0.824176 18:0.846154 19:0.854749 20:0.866667 21:0.16129 22:-0.539326 23:-0.19532 24:0.347337 
93.54063592291269 1:0.824176 2:0.846154 3:0.854749 4:0.866667 5:0.16129 6:-0.539326 7:-0.19532 8:0.347337 9:0.813187 10:0.802198 11:0.832402 12:0.811111 13:-0.483871 14:-0.478749 15:-0.180318 16:-0.0906476 17:0.78022 18:0.813187 19:0.810056 20:0.844444 21:0.0322581 22:-0.480703 23:-0.117672 24:0.0835892 
128 1:0.802198 2:0.802198 3:0.821229 4:0.788889 5:-0.483871 6:-0.38935 7:-0.000780078 8:0.00420605 9:0.835165 10:0.846154 11:0.865922 12:0.877778 13:0.354839 14:-0.446019 15:-0.317732 16:0.419565 17:0.813187 18:0.802198 19:0.832402 20:0.822222 21:-0.483871 22:-0.354177 23:-0.0749475 24:-0.127197 
128 1:0.824176 2:0.802198 3:0.832402 4:0.811111 5:-0.225806 6:-0.429897 7:-0.126553 8:-0.130919 9:0.824176 10:0.857143 11:0.854749 12:0.877778 13:0.225806 14:-0.383 15:-0.292889 16:0.175953 17:0.912088 18:0.912088 19:0.910615 20:0.911111 21:0.0322581 22:-0.398632 23:-0.381098 24:0.250381 
128 1:0.824176 2:0.857143 3:0.854749 4:0.877778 5:0.225806 6:-0.383 7:-0.292889 8:0.175953 9:0.912088 10:0.912088 11:0.910615 12:0.911111 13:0.0322581 14:-0.398632 15:-0.381098 16:0.250381 17:0.857143 18:0.835165 19:0.854749 20:0.844444 21:-0.548387 22:-0.327308 23:-0.0814281 24:-0.223017 
128 1:0.912088 2:0.912088 3:0.910615 4:0.911111 5:0.0322581 6:-0.398632 7:-0.381098 8:0.250381 9:0.857143 10:0.835165 11:0.854749 12:0.844444 13:-0.548387 14:-0.327308 15:-0.0814281 16:-0.223017 17:0.868132 18:0.835165 19:0.832402 20:0.833333 21:-0.225806 22:-0.592574 23:-0.112031 24:-0.13266 
128 1:0.857143 2:0.835165 3:0.854749 4:0.844444 5:-0.548387 6:-0.327308 7:-0.0814281 8:-0.223017 9:0.868132 10:0.835165 11:0.832402 12:0.833333 13:-0.225806 14:-0.592574 15:-0.112031 16:-0.13266 17:0.769231 18:0.791209 19:0.787709 20:0.8 21:-0.354839 22:-0.56424 23:0.154875 24:-0.544055 
84.48198746875492 1:0.769231 2:0.791209 3:0.787709 4:0.8 5:-0.354839 6:-0.56424 7:0.154875 8:-0.544055 9:0.824176 10:0.802198 11:0.776536 12:0.766667 13:-0.354839 14:-0.446507 15:-0.274287 16:-0.0735817 17:0.813187 18:0.813187 19:0.843575 20:0.833333 21:0.225806 22:-0.464582 23:-0.380378 24:0.160893 
128 1:0.813187 2:0.813187 3:0.843575 4:0.833333 5:0.225806 6:-0.464582 7:-0.380378 8:0.160893 9:0.846154 10:0.813187 11:0.798883 12:0.811111 13:-0.290323 14:-0.400098 15:-0.120672 16:0.0403926 17:0.824176 18:0.802198 19:0.843575 20:0.833333 21:-0.0322581 22:-0.452858 23:-0.175638 24:0.203341 
128 1:0.846154 2:0.813187 3:0.798883 4:0.811111 5:-0.290323 6:-0.400098 7:-0.120672 8:0.0403926 9:0.824176 10:0.802198 11:0.843575 12:0.833333 13:-0.0322581 14:-0.452858 15:-0.175638 16:0.203341 17:0.791209 18:0.78022 19:0.798883 20:0.8 21:-0.354839 22:-0.434294 23:-0.0388239 24:-0.0132708 
128 1:0.868132 2:0.846154 3:0.865922 4:0.866667 5:-0.0322581 6:-0.467513 7:-0.441224 8:0.249317 9:0.879121 10:0.868132 11:0.899441 12:0.9 13:0.0322581 14:-0.445042 15:-0.176838 16:0.319104 17:0.912088 18:0.879121 19:0.910615 20:0.911111 21:-0.0967742 22:-0.410357 23:-0.205281 24:0.29979 
128 1:0.879121 2:0.868132 3:0.899441 4:0.9 5:0.0322581 6:-0.445042 7:-0.176838 8:0.319104 9:0.912088 10:0.879121 11:0.910615 12:0.911111 13:-0.0967742 14:-0.410357 15:-0.205281 16:0.29979 17:0.857143 18:0.857143 19:0.888268 20:0.877778 21:-0.354839 22:-0.503664 23:-0.116352 24:0.177428 
128 1:0.879121 2:0.846154 3:0.888268 4:0.877778 5:-0.16129 6:-0.462628 7:-0.182238 8:0.179724 9:0.879121 10:0.89011 11:0.910615 12:0.911111 13:0.0322581 14:-0.464582 15:-0.29853 16:0.367933 17:0.912088 18:0.89011 19:0.899441 20:0.888889 21:-0.290323 22:-0.41573 23:0.00222022 24:0.142716 
128 1:0.857143 2:0.879121 3:0.888268 4:0.888889 5:-0.16129 6:-0.440645 7:-0.165197 8:0.131886 9:0.89011 10:0.89011 11:0.899441 12:0.911111 13:-0.0322581 14:-0.423547 15:-0.224002 16:0.14726 17:0.923077 18:0.89011 19:0.921788 20:0.922222 21:-0.0967742 22:-0.41573 23:-0.30213 24:0.148203 
128 1:0.89011 2:0.89011 3:0.899441 4:0.911111 5:-0.0322581 6:-0.423547 7:-0.224002 8:0.14726 9:0.923077 10:0.89011 11:0.921788 12:0.922222 13:-0.0967742 14:-0.41573 15:-0.30213 16:0.148203 17:0.89011 18:0.89011 19:0.910615 20:0.9 21:-0.290323 22:-0.5447 23:-0.438104 24:0.152868 
128 1:0.89011 2:0.89011 3:0.910615 4:0.9 5:-0.290323 6:-0.5447 7:-0.438104 8:0.152868 9:0.923077 10:0.901099 11:0.910615 12:0.9 13:-0.16129 14:-0.358085 15:-0.141794 16:0.0466049 17:0.901099 18:0.89011 19:0.921788 20:0.922222 21:-0.0322581 22:-0.516365 23:-0.166277 24:0.212502 
128 1:0.945055 2:0.923077 3:0.944134 4:0.944444 5:0.0967742 6:-0.245725 7:-0.158356 8:0.336532 9:0.912088 10:0.912088 11:0.944134 12:0.922222 13:-0.290323 14:-0.472399 15:-0.252805 16:0.110711 17:0.934066 18:0.912088 19:0.944134 20:0.933333 21:-0.0967742 22:-0.311676 23:-0.163516 24:0.241098 
73.14857576382647 1:0.934066 2:0.912088 3:0.932961 4:0.933333 5:-0.16129 6:-0.305813 7:-0.10207 8:0.0246078 9:0.945055 10:0.934066 11:0.955307 12:0.955556 13:-0.0322581 14:-0.615535 15:-0.124152 16:0.304213 17:1 18:0.967033 19:1 20:1 21:0.0967742 22:-0.519785 23:-0.274887 24:0.281418 
98.70318647996986 1:0.945055 2:0.934066 3:0.955307 4:0.955556 5:-0.0322581 6:-0.615535 7:-0.124152 8:0.304213 9:1 10:0.967033 11:1 12:1 13:0.0967742 14:-0.519785 15:-0.274887 16:0.281418 17:0.989011 18:0.978022 19:1 20:1 21:-0.16129 22:-0.555936 23:-0.276208 24:0.212236 
128 1:1 2:0.967033 3:1 4:1 5:0.0967742 6:-0.519785 7:-0.274887 8:0.281418 9:0.989011 10:0.978022 11:1 12:1 13:-0.16129 14:-0.555936 15:-0.276208 16:0.212236 17:0.989011 18:1 19:1 20:0.988889 21:-0.225806 22:-0.375672 23:-0.107951 24:0.142546 
128 1:0.989011 2:0.978022 3:1 4:1 5:-0.16129 6:-0.555936 7:-0.276208 8:0.212236 9:0.989011 10:1 11:1 12:0.988889 13:-0.225806 14:-0.375672 15:-0.107951 16:0.142546 17:1 18:0.978022 19:0.96648 20:0.933333 21:-0.483871 22:-0.426966 23:-0.10207 24:0.117286 
128 1:0.912088 2:0.879121 3:0.888268 4:0.855556 5:-0.0322581 6:-0.446507 7:-0.174917 8:0.0882545 9:0.857143 10:0.846154 11:0.854749 12:0.833333 13:-0.290323 14:-0.66683 15:-0.0138614 16:-0.0880128 17:0.879121 18:0.879121 19:0.899441 20:0.888889 21:0.16129 22:-0.499267 23:-0.348815 24:0.36085 
-128 1:-0.813187 2:-0.824176 3:-0.854749 4:-0.855556 5:-0.354839 6:-0.596971 7:-0.00546055 8:-0.000652663 9:-0.835165 10:-0.868132 11:-0.899441 12:-0.911111 13:-0.483871 14:-0.688813 15:-0.130153 16:-0.245425 17:-0.912088 18:-0.934066 19:-1 20:-0.966667 21:-0.483871 22:-0.830484 23:0.111791 24:-0.290507 
-128 1:-0.967033 2:-0.934066 3:-0.96648 4:-0.944444 5:-0.0322581 6:-0.481681 7:-0.159076 8:0.119848 9:-0.945055 10:-0.945055 11:-1 12:-0.966667 13:-0.290323 14:-0.558378 15:-0.317612 16:0.0647586 17:-0.945055 18:-0.956044 19:-0.977654 20:-0.966667 21:-0.16129 22:-0.399121 23:-0.182118 24:-0.0370567 
-54.9467297590806 1:-1 2:-1 3:-1 4:-1 5:-0.419355 6:-0.517831 7:-0.228683 8:0.0435592 9:-0.846154 10:-0.868132 11:-0.888268 12:-0.877778 13:0.548387 14:0.465559 15:-0.328773 16:0.742754 17:-0.901099 18:-0.868132 19:-0.910615 20:-0.877778 21:-0.16129 22:0.357108 23:-0.0237024 24:0.139259 
-105.0217321577033 1:-0.846154 2:-0.868132 3:-0.877095 4:-0.855556 5:-0.0322581 6:-0.44895 7:-0.10435 8:0.152796 9:-0.846154 10:-0.879121 11:-0.932961 12:-0.933333 13:-0.612903 14:-0.331216 15:-0.244764 16:0.0455655 17:-0.923077 18:-0.901099 19:-0.921788 20:-0.922222 21:-0.0967742 22:-0.39619 23:-0.321812 24:0.155164 
-128 1:-0.846154 2:-0.879121 3:-0.932961 4:-0.933333 5:-0.612903 6:-0.331216 7:-0.244764 8:0.0455655 9:-0.923077 10:-0.901099 11:-0.921788 12:-0.922222 13:-0.0967742 14:-0.39619 15:-0.321812 16:0.155164 17:-0.868132 18:-0.857143 19:-0.877095 20:-0.844444 21:0.290323 22:-0.270151 23:-0.340414 24:0.398608 
-128 1:-0.791209 2:-0.824176 3:-0.810056 4:-0.822222 5:-0.0322581 6:-0.720078 7:-0.108311 8:0.316421 9:-0.846154 10:-0.846154 11:-0.854749 12:-0.866667 13:-0.419355 14:-0.190523 15:-0.10291 16:0.0808576 17:-0.813187 18:-0.835165 19:-0.821229 20:-0.822222 21:0.0967742 22:-0.331705 23:-0.284128 24:0.245788 
-128 1:-0.846154 2:-0.846154 3:-0.854749 4:-0.866667 5:-0.419355 6:-0.190523 7:-0.10291 8:0.0808576 9:-0.813187 10:-0.835165 11:-0.821229 12:-0.822222 13:0.0967742 14:-0.331705 15:-0.284128 16:0.245788 17:-0.835165 18:-0.813187 19:-0.832402 20:-0.811111 21:-0.0967742 22:-0.668295 23:-0.0839484 24:0.403007 
-128 1:-0.835165 2:-0.813187 3:-0.832402 4:-0.811111 5:-0.0967742 6:-0.668295 7:-0.0839484 8:0.403007 9:-0.824176 10:-0.758242 11:-0.832402 12:-0.744444 13:0.225806 14:-0.554958 15:-0.0637864 16:0.623486 17:-0.736264 18:-0.758242 19:-0.765363 20:-0.766667 21:-0.290323 22:-0.31998 23:0.0372637 24:0.245885 
-90.83438960424302 1:-0.703297 2:-0.725275 3:-0.75419 4:-0.755556 5:-0.354839 6:-0.420616 7:0.00690069 8:0.202446 9:-0.681319 10:-0.692308 11:-0.687151 12:-0.677778 13:0.290323 14:-0.416219 15:-0.30465 16:0.95209 17:-0.747253 18:-0.681319 19:-0.743017 20:-0.7 21:-0.290323 22:-0.427455 23:-0.0815482 24:0.167106 
-128 1:-0.681319 2:-0.692308 3:-0.687151 4:-0.677778 5:0.290323 6:-0.416219 7:-0.30465 8:0.95209 9:-0.747253 10:-0.681319 11:-0.743017 12:-0.7 13:-0.290323 14:-0.427455 15:-0.0815482 16:0.167106 17:-0.659341 18:-0.648352 19:-0.664804 20:-0.644444 21:0.16129 22:-0.427455 23:-0.0613861 24:0.554594 
-128 1:-0.747253 2:-0.681319 3:-0.743017 4:-0.7 5:-0.290323 6:-0.427455 7:-0.0815482 8:0.167106 9:-0.659341 10:-0.648352 11:-0.664804 12:-0.644444 13:0.16129 14:-0.427455 15:-0.0613861 16:0.554594 17:-0.593407 18:-0.626374 19:-0.631285 20:-0.633333 21:-0.0967742 22:-0.42257 23:0.0809481 24:0.483913 
-128 1:-0.582418 2:-0.593407 3:-0.631285 4:-0.633333 5:-0.354839 6:-0.467025 7:-0.125353 8:0.171433 9:-0.593407 10:-0.582418 11:-0.597765 12:-0.577778 13:0.16129 14:-0.40596 15:-0.212601 16:0.496289 17:-0.549451 18:-0.571429 19:-0.608939 20:-0.611111 21:-0.354839 22:-0.617489 23:0.169637 24:0.27685 
-128 1:-0.593407 2:-0.582418 3:-0.597765 4:-0.577778 5:0.16129 6:-0.40596 7:-0.212601 8:0.496289 9:-0.549451 10:-0.571429 11:-0.608939 12:-0.611111 13:-0.354839 14:-0.617489 15:0.169637 16:0.27685 17:-0.604396 18:-0.56044 19:-0.597765 20:-0.544444 21:0.225806 22:-0.377626 23:-0.173717 24:0.347458 
-128 1:-0.505495 2:-0.527473 3:-0.530726 4:-0.533333 5:-0.354839 6:-0.616023 7:0.0333033 8:0.137156 9:-0.516484 10:-0.527473 11:-0.541899 12:-0.544444 13:-0.225806 14:-0.349292 15:-0.118392 16:0.142981 17:-0.549451 18:-0.56044 19:-0.575419 20:-0.544444 21:-0.16129 22:-0.499756 23:-0.0286229 24:0.301264 
-128 1:-0.516484 2:-0.527473 3:-0.541899 4:-0.544444 5:-0.225806 6:-0.349292 7:-0.118392 8:0.142981 9:-0.549451 10:-0.56044 11:-0.575419 12:-0.544444 13:-0.16129 14:-0.499756 15:-0.0286229 16:0.301264 17:-0.527473 18:-0.538462 19:-0.553073 20:-0.522222 21:-0.0322581 22:-0.591109 23:-0.210321 24:0.438613 
-128 1:-0.549451 2:-0.56044 3:-0.575419 4:-0.544444 5:-0.16129 6:-0.499756 7:-0.0286229 8:0.301264 9:-0.527473 10:-0.538462 11:-0.553073 12:-0.522222 13:-0.0322581 14:-0.591109 15:-0.210321 16:0.438613 17:-0.505495 18:-0.505495 19:-0.530726 20:-0.488889 21:0.0322581 22:-0.398144 23:-0.294569 24:0.484397 
-128 1:-0.527473 2:-0.538462 3:-0.553073 4:-0.522222 5:-0.0322581 6:-0.591109 7:-0.210321 8:0.438613 9:-0.505495 10:-0.505495 11:-0.530726 12:-0.488889 13:0.0322581 14:-0.398144 15:-0.294569 16:0.484397 17:-0.472527 18:-0.494505 19:-0.497207 20:-0.477778 21:-0.0967742 22:-0.439179 23:-0.186199 24:0.508352 
-128 1:-0.472527 2:-0.494505 3:-0.497207 4:-0.477778 5:-0.0967742 6:-0.439179 7:-0.186199 8:0.508352 9:-0.428571 10:-0.43956 11:-0.441341 12:-0.455556 13:-0.0322581 14:-0.601368 15:-0.123312 16:0.592448 17:-0.461538 18:-0.461538 19:-0.497207 20:-0.488889 21:-0.354839 22:-0.618466 23:-0.0825083 24:0.316807 
-128 1:-0.428571 2:-0.43956 3:-0.441341 4:-0.455556 5:-0.0322581 6:-0.601368 7:-0.123312 8:0.592448 9:-0.461538 10:-0.461538 11:-0.497207 12:-0.488889 13:-0.354839 14:-0.618466 15:-0.0825083 16:0.316807 17:-0.450549 18:-0.472527 19:-0.47486 20:-0.455556 21:0.0322581 22:-0.496336 23:-0.10111 24:0.474051 
-128 1:-0.461538 2:-0.461538 3:-0.497207 4:-0.488889 5:-0.354839 6:-0.618466 7:-0.0825083 8:0.316807 9:-0.450549 10:-0.472527 11:-0.47486 12:-0.455556 13:0.0322581 14:-0.496336 15:-0.10111 16:0.474051 17:-0.362637 18:-0.384615 19:-0.396648 20:-0.4 21:0.16129 22:-0.59746 23:-0.4027 24:0.887839 
-128 1:-0.450549 2:-0.472527 3:-0.47486 4:-0.455556 5:0.0322581 6:-0.496336 7:-0.10111 8:0.474051 9:-0.362637 10:-0.384615 11:-0.396648 12:-0.4 13:0.16129 14:-0.59746 15:-0.4027 16:0.887839 17:-0.384615 18:-0.395604 19:-0.374302 20:-0.377778 21:-0.0322581 22:-0.450904 23:-0.2 24:0.777587 
-128 1:-0.384615 2:-0.395604 3:-0.374302 4:-0.377778 5:-0.0322581 6:-0.450904 7:-0.2 8:0.777587 9:-0.351648 10:-0.384615 11:-0.385475 12:-0.366667 13:-0.0967742 14:-0.518319 15:-0.0977498 16:0.448137 17:-0.362637 18:-0.395604 19:-0.407821 20:-0.4 21:-0.354839 22:-0.461651 23:-0.0429043 24:0.250236 
-128 1:-0.384615 2:-0.395604 3:-0.385475 4:-0.377778 5:-0.0322581 6:-0.512946 7:-0.244164 8:0.406633 9:-0.395604 10:-0.406593 11:-0.407821 12:-0.4 13:-0.290323 14:-0.707377 15:-0.0169817 16:0.27656 17:-0.384615 18:-0.406593 19:-0.407821 20:-0.411111 21:-0.225806 22:-0.596483 23:-0.0814281 24:0.178612 
-128 1:-0.384615 2:-0.406593 3:-0.407821 4:-0.411111 5:-0.225806 6:-0.596483 7:-0.0814281 8:0.178612 9:-0.395604 10:-0.406593 11:-0.407821 12:-0.388889 13:-0.0322581 14:-0.697118 15:-0.218122 16:0.332665 17:-0.384615 18:-0.395604 19:-0.385475 20:-0.388889 21:-0.16129 22:-0.683439 23:-0.314011 24:0.278373 
-128 1:-0.395604 2:-0.406593 3:-0.407821 4:-0.388889 5:-0.0322581 6:-0.697118 7:-0.218122 8:0.332665 9:-0.384615 10:-0.395604 11:-0.385475 12:-0.388889 13:-0.16129 14:-0.683439 15:-0.314011 16:0.278373 17:-0.384615 18:-0.340659 19:-0.374302 20:-0.333333 21:0.16129 22:-0.303859 23:-0.109991 24:0.501583 
-128 1:-0.307692 2:-0.318681 3:-0.363128 4:-0.322222 5:-0.0967742 6:-0.113825 7:-0.0637864 8:0.336605 9:-0.32967 10:-0.362637 11:-0.396648 12:-0.4 13:-0.612903 14:-0.315584 15:0.0439844 16:0.00526965 17:-0.450549 18:-0.472527 19:-0.486034 20:-0.511111 21:-0.806452 22:-0.52809 23:0.312691 24:-0.227538 
-128 1:-0.32967 2:-0.362637 3:-0.396648 4:-0.4 5:-0.612903 6:-0.315584 7:0.0439844 8:0.00526965 9:-0.450549 10:-0.472527 11:-0.486034 12:-0.511111 13:-0.806452 14:-0.52809 15:0.312691 16:-0.227538 17:-0.461538 18:-0.494505 19:-0.50838 20:-0.488889 21:-0.0322581 22:-0.553004 23:-0.410021 24:0.0420847 
-51.20340095303408 1:-0.450549 2:-0.472527 3:-0.486034 4:-0.511111 5:-0.806452 6:-0.52809 7:0.312691 8:-0.227538 9:-0.461538 10:-0.494505 11:-0.50838 12:-0.488889 13:-0.0322581 14:-0.553004 15:-0.410021 16:0.0420847 17:-0.483516 18:-0.428571 19:-0.47486 20:-0.422222 21:0.225806 22:-0.495848 23:-0.431023 24:0.13208 
-94.50968749221954 1:-0.483516 2:-0.428571 3:-0.47486 4:-0.422222 5:0.225806 6:-0.495848 7:-0.431023 8:0.13208 9:-0.43956 10:-0.406593 11:-0.441341 12:-0.4 13:-0.0322581 14:-0.502687 15:-0.168797 16:0.0385071 17:-0.406593 18:-0.395604 19:-0.396648 20:-0.4 21:-0.16129 22:-0.361505 23:-0.149955 24:0.090841 
-51.71972478392747 1:-0.395604 2:-0.417582 3:-0.396648 4:-0.411111 5:-0.354839 6:-0.550562 7:-0.10243 8:0.018057 9:-0.351648 10:-0.362637 11:-0.407821 12:-0.422222 13:-0.225806 14:-0.425012 15:-0.132073 16:0.0331408 17:-0.406593 18:-0.428571 19:-0.47486 20:-0.5 21:-0.612903 22:-0.724963 23:-0.0846685 24:-0.113563 
-128 1:-0.43956 2:-0.450549 3:-0.47486 4:-0.433333 5:0.225806 6:-0.504641 7:-0.277408 8:0.413474 9:-0.450549 10:-0.428571 11:-0.452514 12:-0.444444 13:-0.225806 14:-0.469956 15:-0.40414 16:0.32418 17:-0.428571 18:-0.43956 19:-0.430168 20:-0.422222 21:-0.0322581 22:-0.519785 23:-0.128233 24:0.1965 
-128 1:-0.549451 2:-0.582418 3:-0.586592 4:-0.588889 5:-0.548387 6:-1 7:0.109511 8:-0.545312 9:-0.615385 10:-0.637363 11:-0.642458 12:-0.644444 13:-0.483871 14:-0.580362 15:0.161596 16:-1 17:-0.637363 18:-0.626374 19:-0.642458 20:-0.655556 21:-0.225806 22:-0.480703 23:-0.0141014 24:-0.505306 
-128 1:-0.615385 2:-0.637363 3:-0.642458 4:-0.644444 5:-0.483871 6:-0.580362 7:0.161596 8:-1 9:-0.637363 10:-0.626374 11:-0.642458 12:-0.655556 13:-0.225806 14:-0.480703 15:-0.0141014 16:-0.505306 17:-0.626374 18:-0.637363 19:-0.653631 20:-0.644444 21:-0.0967742 22:-0.383977 23:0.0388239 24:-0.191665 
-113.0370530954683 1:-0.604396 2:-0.626374 3:-0.642458 4:-0.655556 5:-0.16129 6:-0.21446 7:-0.154035 8:-0.257367 9:-0.637363 10:-0.648352 11:-0.653631 12:-0.677778 13:-0.290323 14:-0.393747 15:-0.220762 16:-0.0311586 17:-0.681319 18:-0.703297 19:-0.72067 20:-0.722222 21:-0.419355 22:-0.28041 23:-0.0232223 24:-0.666151 
-128 1:-0.637363 2:-0.648352 3:-0.653631 4:-0.677778 5:-0.290323 6:-0.393747 7:-0.220762 8:-0.0311586 9:-0.681319 10:-0.703297 11:-0.72067 12:-0.722222 13:-0.419355 14:-0.28041 15:-0.0232223 16:-0.666151 17:-0.725275 18:-0.703297 19:-0.72067 20:-0.711111 21:-0.0967742 22:-0.137763 23:-0.144554 24:-0.0920738 
-128 1:-0.67033 2:-0.67033 3:-0.675978 4:-0.655556 5:0.16129 6:-0.144113 7:-0.136874 8:-0.0464599 9:-0.659341 10:-0.67033 11:-0.675978 12:-0.655556 13:-0.16129 14:-0.380557 15:-0.0825083 16:2.41727e-005 17:-0.615385 18:-0.637363 19:-0.664804 20:-0.655556 21:-0.16129 22:-0.31998 23:-0.271167 24:-0.0251879 
-128 1:-0.626374 2:-0.615385 3:-0.631285 4:-0.622222 5:0.0322581 6:-0.263801 7:-0.587639 8:0.292731 9:-0.56044 10:-0.505495 11:-0.575419 12:-0.5 13:0.548387 14:0.977528 15:-0.129553 16:0.467186 17:-0.516484 18:-0.527473 19:-0.541899 20:-0.566667 21:-0.548387 22:-0.535418 23:-0.0415842 24:0.0104184 
-87.73121766995942 1:-0.56044 2:-0.505495 3:-0.575419 4:-0.5 5:0.548387 6:0.977528 7:-0.129553 8:0.467186 9:-0.516484 10:-0.527473 11:-0.541899 12:-0.566667 13:-0.548387 14:-0.535418 15:-0.0415842 16:0.0104184 17:-0.494505 18:-0.494505 19:-0.50838 20:-0.488889 21:0.290323 22:-0.120176 23:-0.258086 24:0.44236 
-128 1:-0.516484 2:-0.527473 3:-0.541899 4:-0.566667 5:-0.548387 6:-0.535418 7:-0.0415842 8:0.0104184 9:-0.494505 10:-0.494505 11:-0.50838 12:-0.488889 13:0.290323 14:-0.120176 15:-0.258086 16:0.44236 17:-0.472527 18:-0.494505 19:-0.486034 20:-0.477778 21:-0.0967742 22:-0.359062 23:-0.172877 24:0.242355 
-128 1:-0.494505 2:-0.494505 3:-0.50838 4:-0.488889 5:0.290323 6:-0.120176 7:-0.258086 8:0.44236 9:-0.472527 10:-0.494505 11:-0.486034 12:-0.477778 13:-0.0967742 14:-0.359062 15:-0.172877 16:0.242355 17:-0.43956 18:-0.461538 19:-0.463687 20:-0.444444 21:0.0322581 22:-0.258427 23:-0.164476 24:0.282675 
-128 1:-0.43956 2:-0.461538 3:-0.463687 4:-0.444444 5:0.0322581 6:-0.258427 7:-0.164476 8:0.282675 9:-0.417582 10:-0.428571 11:-0.452514 12:-0.433333 13:-0.0967742 14:-0.439668 15:-0.0929493 16:0.594237 17:-0.428571 18:-0.43956 19:-0.452514 20:-0.444444 21:-0.225806 22:-0.463605 23:-0.138554 24:0.349851 
-128 1:-0.428571 2:-0.43956 3:-0.452514 4:-0.444444 5:-0.225806 6:-0.463605 7:-0.138554 8:0.349851 9:-0.43956 10:-0.406593 11:-0.430168 12:-0.388889 13:0.16129 14:-0.44211 15:-0.209721 16:0.458072 17:-0.373626 18:-0.384615 19:-0.385475 20:-0.388889 21:-0.16129 22:-0.417684 23:-0.188959 24:0.30929 
-128 1:-0.373626 2:-0.384615 3:-0.385475 4:-0.388889 5:-0.16129 6:-0.417684 7:-0.188959 8:0.30929 9:-0.373626 10:-0.373626 11:-0.363128 12:-0.355556 13:0.0322581 14:-0.416219 15:-0.169997 16:0.55399 17:-0.351648 18:-0.384615 19:-0.351955 20:-0.366667 21:-0.225806 22:-0.765999 23:-0.0577858 24:0.161715 
-128 1:-0.351648 2:-0.384615 3:-0.351955 4:-0.366667 5:-0.225806 6:-0.765999 7:-0.0577858 8:0.161715 9:-0.32967 10:-0.340659 11:-0.340782 12:-0.344444 13:-0.0322581 14:-0.330239 15:-0.126673 16:0.416737 17:-0.318681 18:-0.307692 19:-0.318436 20:-0.322222 21:-0.0322581 22:-0.351734 23:-0.0709871 24:0.574536 
-128 1:-0.263736 2:-0.252747 3:-0.26257 4:-0.244444 5:0.290323 6:-0.471422 7:-0.141794 8:0.606058 9:-0.32967 10:-0.32967 11:-0.318436 12:-0.322222 13:-0.612903 14:-0.6468 15:0.0857486 16:-0.0711402 17:-0.32967 18:-0.318681 19:-0.318436 20:-0.322222 21:-0.16129 22:-0.578896 23:0.0987099 24:0.231357 
-128 1:-0.32967 2:-0.318681 3:-0.318436 4:-0.322222 5:-0.16129 6:-0.578896 7:0.0987099 8:0.231357 9:-0.307692 10:-0.318681 11:-0.318436 12:-0.3 13:-0.0322581 14:-0.413288 15:0.10423 16:0.268075 17:-0.318681 18:-0.32967 19:-0.351955 20:-0.355556 21:-0.483871 22:-0.546165 23:0.09991 24:-0.113974 
-128 1:-0.318681 2:-0.32967 3:-0.351955 4:-0.355556 5:-0.483871 6:-0.546165 7:0.09991 8:-0.113974 9:-0.296703 10:-0.285714 11:-0.296089 12:-0.3 13:0.16129 14:-0.570591 15:-0.172037 16:0.329063 17:-0.252747 18:-0.274725 19:-0.273743 20:-0.3 21:-0.16129 22:-0.395213 23:0.134593 24:0.134714 
-128 1:-0.296703 2:-0.285714 3:-0.296089 4:-0.3 5:0.16129 6:-0.570591 7:-0.172037 8:0.329063 9:-0.252747 10:-0.274725 11:-0.273743 12:-0.3 13:-0.16129 14:-0.395213 15:0.134593 16:0.134714 17:-0.263736 18:-0.263736 19:-0.26257 20:-0.244444 21:0.16129 22:-0.426966 23:-0.0687069 24:0.425512 
-94.09427741496751 1:-0.230769 2:-0.252747 3:-0.251397 4:-0.277778 5:-0.419355 6:-0.427455 7:0.212481 8:0.187701 9:-0.263736 10:-0.296703 11:-0.463687 12:-0.388889 13:-0.806452 14:-0.745481 15:1 16:-0.807295 17:-0.472527 18:-0.472527 19:-0.47486 20:-0.466667 21:-0.16129 22:-0.206155 23:-0.741494 24:0.295898 
-122.6480780925889 1:-0.472527 2:-0.472527 3:-0.47486 4:-0.466667 5:-0.16129 6:-0.206155 7:-0.741494 8:0.295898 9:-0.450549 10:-0.43956 11:-0.452514 12:-0.433333 13:0.0322581 14:-0.329262 15:-0.329133 16:0.474196 17:-0.384615 18:-0.384615 19:-0.385475 20:-0.388889 21:0.0967742 22:-0.39277 23:-0.309811 24:0.505838 
-128 1:-0.450549 2:-0.43956 3:-0.452514 4:-0.433333 5:0.0322581 6:-0.329262 7:-0.329133 8:0.474196 9:-0.384615 10:-0.384615 11:-0.385475 12:-0.388889 13:0.0967742 14:-0.39277 15:-0.309811 16:0.505838 17:-0.32967 18:-0.318681 19:-0.351955 20:-0.311111 21:0.290323 22:-0.426478 23:-0.467387 24:0.752568 
-91.07315868806285 1:-0.230769 2:-0.241758 3:-0.240223 4:-0.233333 5:-0.16129 6:-0.452858 7:-0.253525 8:0.442771 9:-0.241758 10:-0.263736 11:-0.251397 12:-0.277778 13:-0.419355 14:-0.809477 15:-0.107591 16:0.194397 17:-0.285714 18:-0.318681 19:-0.329609 20:-0.333333 21:-0.483871 22:-0.7064 23:0.0149415 24:-0.130653 
-128 1:-0.241758 2:-0.263736 3:-0.251397 4:-0.277778 5:-0.419355 6:-0.809477 7:-0.107591 8:0.194397 9:-0.285714 10:-0.318681 11:-0.329609 12:-0.333333 13:-0.483871 14:-0.7064 15:0.0149415 16:-0.130653 17:-0.274725 18:-0.274725 19:-0.273743 20:-0.266667 21:0.225806 22:-0.502687 23:-0.334893 24:0.283425 
-95.6410783647744 1:-0.285714 2:-0.318681 3:-0.329609 4:-0.333333 5:-0.483871 6:-0.7064 7:0.0149415 8:-0.130653 9:-0.274725 10:-0.274725 11:-0.273743 12:-0.266667 13:0.225806 14:-0.502687 15:-0.334893 16:0.283425 17:-0.131868 18:-0.153846 19:-0.150838 20:-0.144444 21:0.548387 22:-0.553493 23:-0.808461 24:0.775677 
-128 1:-0.131868 2:-0.153846 3:-0.150838 4:-0.144444 5:0.548387 6:-0.553493 7:-0.808461 8:0.775677 9:-0.10989 10:-0.131868 11:-0.128492 12:-0.122222 13:-0.0322581 14:-0.40254 15:-0.210561 16:0.532694 17:-0.142857 18:-0.164835 19:-0.184358 20:-0.177778 21:-0.483871 22:-0.76893 23:0.0361836 24:-0.172569 
-128 1:-0.197802 2:-0.164835 3:-0.184358 4:-0.166667 5:-0.0967742 6:-0.621886 7:-0.473747 8:0.344461 9:-0.175824 10:-0.175824 11:-0.195531 12:-0.155556 13:-0.0967742 14:-0.910112 15:-0.0648665 16:0.212623 17:-0.175824 18:-0.164835 19:-0.162011 20:-0.155556 21:-0.16129 22:-0.655594 23:-0.0880288 24:0.291498 
-43.27418771225253 1:-0.175824 2:-0.164835 3:-0.162011 4:-0.155556 5:-0.16129 6:-0.655594 7:-0.0880288 8:0.291498 9:-0.120879 10:-0.153846 11:-0.139665 12:-0.133333 13:-0.0322581 14:-0.758183 15:-0.145755 16:0.383331 17:-0.131868 18:-0.153846 19:-0.139665 20:-0.144444 21:-0.225806 22:-0.40596 23:-0.240924 24:0.458411 
-101.1596284560352 1:-0.131868 2:-0.153846 3:-0.139665 4:-0.144444 5:-0.225806 6:-0.40596 7:-0.240924 8:0.458411 9:-0.10989 10:-0.120879 11:-0.117318 12:-0.1 13:0.0967742 14:-0.720078 15:-0.118872 16:0.427325 17:-0.0879121 18:-0.120879 19:-0.106145 20:-0.122222 21:-0.290323 22:-0.506106 23:-0.30417 24:0.282361 
-128 1:-0.0879121 2:-0.120879 3:-0.106145 4:-0.122222 5:-0.290323 6:-0.506106 7:-0.30417 8:0.282361 9:-0.0879121 10:-0.0989011 11:-0.139665 12:-0.111111 13:-0.0967742 14:0.0263801 15:-0.150195 16:0.251638 17:-0.0879121 18:-0.0989011 19:-0.0837989 20:-0.0777778 21:0.0322581 22:-0.416219 23:-0.137594 24:0.373758 
-128 1:-0.0879121 2:-0.0989011 3:-0.139665 4:-0.111111 5:-0.0967742 6:0.0263801 7:-0.150195 8:0.251638 9:-0.0879121 10:-0.0989011 11:-0.0837989 12:-0.0777778 13:0.0322581 14:-0.416219 15:-0.137594 16:0.373758 17:-0.021978 18:-0.032967 19:-0.0167598 20:-0.0333333 21:0.0967742 22:-0.460674 23:-0.189439 24:0.574271 
-128 1:-0.021978 2:-0.032967 3:-0.0167598 4:-0.0333333 5:0.0967742 6:-0.460674 7:-0.189439 8:0.574271 9:-0.021978 10:-0.021978 11:-0.0502793 13:0.0322581 14:-0.302882 15:-0.275248 16:0.406053 17:0.021978 18:-0.010989 19:-0.0614525 20:-0.0888889 21:-0.677419 22:-0.531998 23:0.0288629 24:0.0780053 
-128 1:0.032967 3:0.00558659 4:-0.0111111 5:-0.290323 6:-0.665364 7:-0.0805881 8:0.161739 9:-0.0769231 10:-0.0769231 11:-0.0726257 12:-0.0888889 13:-0.612903 14:-0.499267 15:0.0707471 16:-0.0986729 17:-0.0659341 18:-0.0659341 19:-0.0614525 20:-0.0444444 21:0.0967742 22:-0.482169 23:-0.226883 24:0.189804 
-128 1:-0.0769231 2:-0.0769231 3:-0.0726257 4:-0.0888889 5:-0.612903 6:-0.499267 7:0.0707471 8:-0.0986729 9:-0.0659341 10:-0.0659341 11:-0.0614525 12:-0.0444444 13:0.0967742 14:-0.482169 15:-0.226883 16:0.189804 17:-0.021978 19:-0.027933 20:0.0111111 21:0.16129 22:-0.596483 23:-0.454425 24:0.458798 
-128 1:-0.0659341 2:-0.0659341 3:-0.0614525 4:-0.0444444 5:0.0967742 6:-0.482169 7:-0.226883 8:0.189804 9:-0.021978 11:-0.027933 12:0.0111111 13:0.16129 14:-0.596483 15:-0.454425 16:0.458798 17:0.043956 18:0.010989 19:0.027933 20:0.0333333 21:-0.0322581 22:-0.381045 23:-0.19652 24:0.204477 
-128 1:-0.021978 3:-0.027933 4:0.0111111 5:0.16129 6:-0.596483 7:-0.454425 8:0.458798 9:0.043956 10:0.010989 11:0.027933 12:0.0333333 13:-0.0322581 14:-0.381045 15:-0.19652 16:0.204477 17:0.0549451 18:0.043956 19:0.0391061 20:0.0444444 21:-0.0967742 22:-0.361993 23:-0.271767 24:0.270372 
-128 1:0.0549451 2:0.043956 3:0.0391061 4:0.0444444 5:-0.0967742 6:-0.361993 7:-0.271767 8:0.270372 9:0.0659341 10:0.043956 11:0.0614525 12:0.0666667 13:-0.0322581 14:-0.502687 15:-0.122352 16:0.199981 17:0.032967 18:0.010989 19:0.00558659 21:-0.548387 22:-0.600879 23:-0.0441044 24:-0.0609635 
-128 1:0.0659341 2:0.043956 3:0.0614525 4:0.0666667 5:-0.0322581 6:-0.502687 7:-0.122352 8:0.199981 9:0.032967 10:0.010989 11:0.00558659 13:-0.548387 14:-0.600879 15:-0.0441044 16:-0.0609635 17:0.0549451 18:0.021978 19:0.0391061 20:0.0222222 21:-0.0322581 22:-0.503175 23:-0.257606 24:0.290459 
-128 1:0.0549451 2:0.021978 3:0.0391061 4:0.0222222 5:-0.0322581 6:-0.503175 7:-0.257606 8:0.290459 9:0.0549451 10:0.032967 11:0.0502793 12:0.0555556 13:0.0322581 14:-0.453835 15:-0.174917 16:0.255239 17:0.043956 18:0.032967 19:-0.00558659 20:-0.0222222 21:-0.612903 22:-0.587201 23:0.107831 24:-0.0878436 
-128 2:-0.021978 3:-0.00558659 4:-0.0111111 5:-0.290323 6:-0.608207 7:-0.0467447 8:0.204404 9:0.021978 11:-0.027933 12:-0.0444444 13:-0.354839 14:-0.888617 15:-0.212361 16:0.121734 17:-0.0659341 18:-0.0769231 19:-0.0837989 20:-0.0777778 21:-0.354839 22:-0.472887 23:-0.020222 24:-0.010225 
-128 1:-0.0659341 2:-0.0769231 3:-0.0837989 4:-0.0777778 5:-0.354839 6:-0.472887 7:-0.020222 8:-0.010225 9:-0.043956 10:-0.0549451 11:-0.0391061 12:-0.0555556 13:-0.0322581 14:-0.586712 15:-0.219562 16:0.22222 17:-0.021978 18:-0.043956 19:-0.0391061 20:-0.0666667 21:-0.225806 22:-0.489985 23:-0.171677 24:0.147719 
-128 1:-0.021978 2:-0.010989 3:-0.00558659 4:0.0111111 5:-0.16129 6:-0.620909 7:-0.0263426 8:0.154343 9:-0.021978 10:-0.010989 11:-0.027933 13:-0.225806 14:-0.442599 15:-0.123672 16:0.0905509 18:-0.021978 19:-0.027933 20:-0.0444444 21:-0.419355 22:-0.513923 23:0.0544254 24:-0.0349295 
-128 1:0.010989 2:-0.010989 3:-0.0167598 4:-0.0111111 5:0.0322581 6:-0.445042 7:-0.487189 8:0.348183 10:-0.032967 11:-0.0502793 12:-0.0666667 13:-0.483871 14:-0.1915 15:-0.0508251 16:-0.0637434 17:0.010989 18:-0.021978 19:-0.027933 20:-0.0444444 21:-0.0322581 22:-0.443576 23:-0.207081 24:0.196935 
-128 2:-0.032967 3:-0.0502793 4:-0.0666667 5:-0.483871 6:-0.1915 7:-0.0508251 8:-0.0637434 9:0.010989 10:-0.021978 11:-0.027933 12:-0.0444444 13:-0.0322581 14:-0.443576 15:-0.207081 16:0.196935 17:0.010989 19:0.027933 21:0.0967742 22:-0.350757 23:-0.121632 24:0.336387 
-128 1:0.010989 2:-0.021978 3:-0.027933 4:-0.0444444 5:-0.0322581 6:-0.443576 7:-0.207081 8:0.196935 9:0.010989 11:0.027933 13:0.0967742 14:-0.350757 15:-0.121632 16:0.336387 17:0.021978 18:0.032967 19:0.027933 20:0.0555556 21:0.16129 22:-0.426966 23:-0.221362 24:0.312335 
-128 1:0.032967 3:-0.027933 4:-0.0333333 5:-0.548387 6:-0.535906 7:0.120072 8:-0.390099 9:0.010989 10:-0.021978 11:-0.0391061 12:-0.0333333 13:-0.16129 14:-0.431851 15:-0.030183 16:-0.0691822 17:-0.043956 18:-0.032967 19:-0.0391061 20:-0.0666667 21:-0.354839 22:-0.282853 23:-0.0985899 24:-0.321618 
-128 1:0.010989 2:-0.021978 3:-0.0391061 4:-0.0333333 5:-0.16129 6:-0.431851 7:-0.030183 8:-0.0691822 9:-0.043956 10:-0.032967 11:-0.0391061 12:-0.0666667 13:-0.354839 14:-0.282853 15:-0.0985899 16:-0.321618 17:0.0769231 18:0.120879 19:0.0726257 20:0.133333 21:1 22:-0.315095 23:-0.440024 24:0.61053 
-128 1:-0.043956 2:-0.032967 3:-0.0391061 4:-0.0666667 5:-0.354839 6:-0.282853 7:-0.0985899 8:-0.321618 9:0.0769231 10:0.120879 11:0.0726257 12:0.133333 13:1 14:-0.315095 15:-0.440024 16:0.61053 17:0.131868 18:0.131868 19:0.139665 20:0.144444 21:-0.0967742 22:-0.469468 23:-0.0643864 24:0.243902 
-128 1:0.0769231 2:0.120879 3:0.0726257 4:0.133333 5:1 6:-0.315095 7:-0.440024 8:0.61053 9:0.131868 10:0.131868 11:0.139665 12:0.144444 13:-0.0967742 14:-0.469468 15:-0.0643864 16:0.243902 17:0.10989 18:0.142857 19:0.117318 20:0.166667 21:-0.0322581 22:-0.342941 23:-0.330453 24:0.287728 
-128 1:0.131868 2:0.131868 3:0.139665 4:0.144444 5:-0.0967742 6:-0.469468 7:-0.0643864 8:0.243902 9:0.10989 10:0.142857 11:0.117318 12:0.166667 13:-0.0322581 14:-0.342941 15:-0.330453 16:0.287728 17:0.197802 18:0.175824 19:0.184358 20:0.2 21:0.0322581 22:-0.220811 23:-0.212721 24:0.356982 
-128 1:0.197802 2:0.175824 3:0.184358 4:0.2 5:0.0322581 6:-0.220811 7:-0.212721 8:0.356982 9:0.197802 10:0.21978 11:0.206704 12:0.244444 13:0.0967742 14:-0.461163 15:-0.175278 16:0.311272 17:0.164835 18:0.164835 19:0.173184 20:0.144444 21:-0.741935 22:-0.564729 23:0.0178218 24:-0.0151563 
-115.6389157883969 1:0.164835 2:0.164835 3:0.173184 4:0.144444 5:-0.741935 6:-0.564729 7:0.0178218 8:-0.0151563 9:0.208791 10:0.21978 11:0.22905 12:0.2 13:0.16129 14:-0.424035 15:-0.260726 16:0.512413 17:0.208791 18:0.197802 19:0.162011 20:0.133333 21:-0.548387 22:0.0214949 23:-0.0655866 24:0.0596824 
-128 1:0.208791 2:0.21978 3:0.22905 4:0.2 5:0.16129 6:-0.424035 7:-0.260726 8:0.512413 9:0.208791 10:0.197802 11:0.162011 12:0.133333 13:-0.548387 14:0.0214949 15:-0.0655866 16:0.0596824 17:0.21978 18:0.197802 19:0.206704 20:0.211111 21:0.290323 22:-0.383977 23:-0.19856 24:0.276415 
-128 1:0.21978 2:0.197802 3:0.206704 4:0.211111 5:0.290323 6:-0.383977 7:-0.19856 8:0.276415 9:0.197802 10:0.208791 11:0.217877 12:0.233333 13:-0.0322581 14:-0.500244 15:-0.0978698 16:0.207232 17:0.21978 18:0.186813 19:0.206704 20:0.211111 21:-0.290323 22:-0.704446 23:-0.00882088 24:0.181779 
-128 1:0.197802 2:0.208791 3:0.217877 4:0.233333 5:-0.0322581 6:-0.500244 7:-0.0978698 8:0.207232 9:0.21978 10:0.186813 11:0.206704 12:0.211111 13:-0.290323 14:-0.704446 15:-0.00882088 16:0.181779 17:0.197802 18:0.21978 19:0.217877 20:0.244444 21:0.0322581 22:-0.361993 23:-0.175518 24:0.194034 
-128 1:0.197802 2:0.21978 3:0.217877 4:0.244444 5:0.0322581 6:-0.361993 7:-0.175518 8:0.194034 9:0.263736 10:0.230769 11:0.240223 12:0.255556 13:-0.0967742 14:-0.38935 15:-0.240084 16:0.230051 17:0.32967 18:0.296703 19:0.240223 20:0.244444 21:-0.225806 22:-0.483635 23:-0.107471 24:0.0758781 
-128 1:0.318681 2:0.296703 3:0.26257 4:0.266667 5:-0.290323 6:-0.46214 7:0.266127 8:-0.221881 9:0.241758 10:0.252747 11:0.251397 12:0.255556 13:-0.225806 14:-0.636541 15:-0.331053 16:-0.0986246 17:0.230769 18:0.21978 19:0.217877 20:0.222222 21:-0.354839 22:-0.444064 23:-0.0879088 24:0.0516329 
-128 1:0.241758 2:0.252747 3:0.251397 4:0.255556 5:-0.225806 6:-0.636541 7:-0.331053 8:-0.0986246 9:0.230769 10:0.21978 11:0.217877 12:0.222222 13:-0.354839 14:-0.444064 15:-0.0879088 16:0.0516329 17:0.230769 18:0.208791 19:0.22905 20:0.233333 21:-0.0967742 22:-0.262824 23:-0.00330033 24:0.0962073 
-128 1:0.230769 2:0.21978 3:0.217877 4:0.222222 5:-0.354839 6:-0.444064 7:-0.0879088 8:0.0516329 9:0.230769 10:0.208791 11:0.22905 12:0.233333 13:-0.0967742 14:-0.262824 15:-0.00330033 16:0.0962073 17:0.252747 18:0.263736 19:0.273743 20:0.288889 21:0.16129 22:-0.341475 23:-0.246445 24:0.362107 
-128 1:0.252747 2:0.263736 3:0.273743 4:0.288889 5:0.16129 6:-0.341475 7:-0.246445 8:0.362107 9:0.296703 10:0.285714 11:0.307263 12:0.311111 13:-0.0322581 14:-0.264778 15:-0.247405 16:0.284899 17:0.32967 18:0.318681 19:0.296089 20:0.266667 21:-0.419355 22:-0.378603 23:0.0363036 24:0.11644 
-128 1:0.296703 2:0.285714 3:0.307263 4:0.311111 5:-0.0322581 6:-0.264778 7:-0.247405 8:0.284899 9:0.32967 10:0.318681 11:0.296089 12:0.266667 13:-0.419355 14:-0.378603 15:0.0363036 16:0.11644 17:0.32967 18:0.296703 19:0.318436 20:0.322222 21:0.16129 22:-0.28041 23:-0.192079 24:0.208925 
-17.21180730543279 1:0.351648 2:0.340659 3:0.351955 4:0.366667 5:0.0967742 6:-0.631168 7:-0.20288 8:0.273852 9:0.318681 10:0.32967 11:0.340782 12:0.333333 13:-0.354839 14:-0.417196 15:-0.00606061 16:-9.66908e-005 17:0.340659 18:0.307692 19:0.296089 20:0.266667 21:-0.548387 22:-0.383977 23:0.229403 24:-0.219609 
-128 1:0.340659 2:0.307692 3:0.296089 4:0.266667 5:-0.548387 6:-0.383977 7:0.229403 8:-0.219609 9:0.296703 10:0.274725 11:0.296089 12:0.288889 13:-0.0322581 14:-0.333659 15:-0.249325 16:0.128091 17:0.285714 18:0.285714 19:0.251397 20:0.266667 21:-0.290323 22:-0.424524 23:-0.145515 24:0.0466049 
-128 1:0.252747 2:0.230769 3:0.240223 4:0.211111 5:-0.612903 6:-0.240352 7:-0.059706 8:-0.056129 9:0.208791 10:0.197802 11:0.206704 12:0.177778 13:-0.354839 14:-0.523693 15:-0.0327033 16:-0.0784887 17:0.186813 18:0.186813 19:0.195531 20:0.177778 21:-0.16129 22:-0.511969 23:-0.154035 24:0.028838 
-128 1:0.10989 2:0.0989011 3:0.106145 4:0.0888889 5:-0.290323 6:-0.430874 7:0.115752 8:-0.574657 9:0.0769231 10:0.0989011 11:0.0837989 12:0.0777778 13:-0.225806 14:-0.335125 15:-0.250405 16:-0.166356 17:0.0989011 18:0.120879 19:0.106145 20:0.0777778 21:-0.16129 22:-0.180264 23:0.00918092 24:-0.13631 
-128 1:0.131868 2:0.10989 3:0.117318 4:0.111111 5:0.0322581 6:-0.404006 7:-0.157756 8:0.0253088 9:0.120879 10:0.0879121 11:0.106145 12:0.1 13:-0.225806 14:-0.44211 15:-0.0178218 16:-0.0933791 17:0.0989011 18:0.0879121 19:0.106145 20:0.1 21:-0.16129 22:-0.49829 23:-0.0789079 24:-0.0196282 
-128 1:0.120879 2:0.0879121 3:0.106145 4:0.1 5:-0.225806 6:-0.44211 7:-0.0178218 8:-0.0933791 9:0.0989011 10:0.0879121 11:0.106145 12:0.1 13:-0.16129 14:-0.49829 15:-0.0789079 16:-0.0196282 17:0.131868 18:0.164835 19:0.139665 20:0.166667 21:0.225806 22:-0.412799 23:-0.0748275 24:0.270589 
-128 1:0.186813 2:0.197802 3:0.195531 4:0.2 5:0.0322581 6:-0.671226 7:-0.20108 8:0.245812 9:0.175824 10:0.164835 11:0.173184 12:0.144444 13:-0.483871 14:-0.388373 15:0.0156616 16:-0.0549204 17:0.142857 18:0.131868 19:0.150838 20:0.122222 21:-0.290323 22:-0.423547 23:0.0541854 24:0.0819938 
-128 1:0.142857 2:0.131868 3:0.150838 4:0.122222 5:-0.290323 6:-0.423547 7:0.0541854 8:0.0819938 9:0.120879 10:0.142857 11:0.139665 12:0.166667 13:0.0967742 14:-0.442599 15:-0.216202 16:0.17605 17:0.164835 18:0.164835 19:0.150838 20:0.122222 21:-0.419355 22:-0.581339 23:-0.0753075 24:0.106118 
-128 1:0.120879 2:0.120879 3:0.139665 4:0.144444 5:-0.0322581 6:-0.490474 7:-0.175158 8:0.110493 9:0.131868 10:0.120879 11:0.139665 12:0.144444 13:-0.16129 14:-0.412799 15:-0.0473447 16:0.0839276 17:0.0659341 18:0.043956 19:0.0614525 20:0.0333333 21:-0.806452 22:-0.655105 23:-0.0964296 24:-0.756218 
-128 1:0.043956 2:0.0549451 3:0.0614525 4:0.0555556 5:-0.0322581 6:-0.427943 7:-0.218242 8:-0.140347 9:0.10989 10:0.120879 11:0.117318 12:0.122222 13:0.225806 14:-0.492428 15:-0.206001 16:0.388576 17:0.153846 18:0.131868 19:0.139665 20:0.111111 21:-0.225806 22:-0.402052 23:-0.0934293 24:0.0450095 
-128 1:0.10989 2:0.120879 3:0.117318 4:0.122222 5:0.225806 6:-0.492428 7:-0.206001 8:0.388576 9:0.153846 10:0.131868 11:0.139665 12:0.111111 13:-0.225806 14:-0.402052 15:-0.0934293 16:0.0450095 17:0.175824 18:0.175824 19:0.173184 20:0.2 21:0.354839 22:-0.427943 23:-0.372097 24:0.419952 
-128 1:0.175824 2:0.175824 3:0.173184 4:0.2 5:0.354839 6:-0.427943 7:-0.372097 8:0.419952 9:0.21978 10:0.186813 11:0.206704 12:0.211111 13:-0.0967742 14:-0.364924 15:-0.248245 16:0.333438 17:0.21978 18:0.208791 19:0.195531 20:0.188889 21:-0.290323 22:-0.434783 23:-0.114911 24:0.138437 
-128 1:0.21978 2:0.186813 3:0.206704 4:0.211111 5:-0.0967742 6:-0.364924 7:-0.248245 8:0.333438 9:0.21978 10:0.208791 11:0.195531 12:0.188889 13:-0.290323 14:-0.434783 15:-0.114911 16:0.138437 17:0.230769 18:0.197802 19:0.206704 20:0.211111 21:-0.0322581 22:-0.422081 23:-0.211881 24:0.223573 
-128 1:0.10989 2:0.0989011 3:0.106145 4:0.0777778 5:-0.483871 6:-0.361993 7:0.384338 8:-0.248326 9:0.0879121 10:0.0659341 11:0.0837989 12:0.0555556 13:-0.290323 14:-0.44211 15:0.0138614 16:-0.194397 17:0.0659341 18:0.0549451 19:0.0726257 20:0.0444444 21:-0.225806 22:-0.420127 23:-0.0743474 24:-0.19256 
-128 1:0.0879121 2:0.0659341 3:0.0837989 4:0.0555556 5:-0.290323 6:-0.44211 7:0.0138614 8:-0.194397 9:0.0659341 10:0.0549451 11:0.0726257 12:0.0444444 13:-0.225806 14:-0.420127 15:-0.0743474 16:-0.19256 17:0.0659341 18:0.0549451 19:0.0837989 20:0.0666667 21:-0.0322581 22:-0.327308 23:-0.0913891 24:0.0684329 
-128 1:0.0659341 2:0.0549451 3:0.0726257 4:0.0444444 5:-0.225806 6:-0.420127 7:-0.0743474 8:-0.19256 9:0.0659341 10:0.0549451 11:0.0837989 12:0.0666667 13:-0.0322581 14:-0.327308 15:-0.0913891 16:0.0684329 17:0.0879121 18:0.0659341 19:0.0949721 20:0.0777778 21:-0.0967742 22:-0.252565 23:-0.138914 24:0.0862723 
-128 1:0.0879121 2:0.0659341 3:0.0949721 4:0.0777778 5:-0.0967742 6:-0.252565 7:-0.138914 8:0.0862723 9:0.10989 10:0.0989011 11:0.117318 12:0.122222 13:0.0967742 14:-0.425012 15:-0.10291 16:0.238053 17:0.0879121 18:0.0879121 19:0.106145 20:0.0777778 21:-0.419355 22:-0.36639 23:-0.0717072 24:0.0469917 
-128 1:0.10989 2:0.0989011 3:0.117318 4:0.122222 5:0.0967742 6:-0.425012 7:-0.10291 8:0.238053 9:0.0879121 10:0.0879121 11:0.106145 12:0.0777778 13:-0.419355 14:-0.36639 15:-0.0717072 16:0.0469917 17:0.10989 18:0.10989 19:0.106145 20:0.111111 21:0.0322581 22:-0.474841 23:0.0123012 24:0.317823 
-128 1:0.10989 2:0.10989 3:0.106145 4:0.111111 5:0.0322581 6:-0.474841 7:0.0123012 8:0.317823 9:0.120879 10:0.131868 11:0.128492 12:0.144444 13:0.0322581 14:-0.420127 15:-0.278488 16:0.144794 17:0.153846 18:0.142857 19:0.139665 20:0.144444 21:-0.16129 22:-0.411334 23:-0.149115 24:0.0442844 
-128 1:0.120879 2:0.131868 3:0.128492 4:0.144444 5:0.0322581 6:-0.420127 7:-0.278488 8:0.144794 9:0.153846 10:0.142857 11:0.139665 12:0.144444 13:-0.16129 14:-0.411334 15:-0.149115 16:0.0442844 17:0.131868 18:0.131868 19:0.139665 20:0.155556 21:-0.0967742 22:-0.683928 23:-0.0991899 24:0.187048 
-47.1925078016867 1:0.175824 2:0.164835 3:0.173184 4:0.166667 5:-0.16129 6:-0.420127 7:-0.251845 8:0.225096 9:0.186813 10:0.175824 11:0.184358 12:0.166667 13:-0.16129 14:-0.603322 15:-0.236724 16:0.227247 17:0.197802 18:0.164835 19:0.139665 20:0.122222 21:-0.419355 22:-0.447484 23:0.0490249 24:-0.0709952 
-128 1:0.0989011 2:0.0769231 3:0.0949721 4:0.1 5:0.0322581 6:-0.434294 7:-0.189559 8:0.135391 9:0.0989011 10:0.0769231 11:0.0949721 12:0.1 13:-0.16129 14:-0.381045 15:-0.238284 16:0.113177 17:0.0769231 18:0.0769231 19:0.0949721 20:0.0888889 21:-0.225806 22:-0.524182 23:-0.184758 24:0.0881578 
-128 1:0.0989011 2:0.0769231 3:0.0949721 4:0.1 5:-0.16129 6:-0.381045 7:-0.238284 8:0.113177 9:0.0769231 10:0.0769231 11:0.0949721 12:0.0888889 13:-0.225806 14:-0.524182 15:-0.184758 16:0.0881578 17:0.10989 18:0.0879121 19:0.117318 20:0.1 21:-0.0967742 22:-0.443576 23:-0.186319 24:0.335541 
-128 1:0.0769231 2:0.0769231 3:0.0949721 4:0.0888889 5:-0.225806 6:-0.524182 7:-0.184758 8:0.0881578 9:0.10989 10:0.0879121 11:0.117318 12:0.1 13:-0.0967742 14:-0.443576 15:-0.186319 16:0.335541 17:0.142857 18:0.164835 19:0.162011 20:0.188889 21:0.354839 22:-0.337567 23:-0.371857 24:0.686359 
-128 1:0.186813 2:0.175824 3:0.195531 4:0.177778 5:-0.16129 6:-0.659502 7:-0.0910291 8:0.17866 9:0.164835 10:0.164835 11:0.173184 12:0.177778 13:-0.16129 14:-0.696141 15:-0.134713 16:0.122725 17:0.164835 18:0.153846 19:0.173184 20:0.155556 21:-0.290323 22:-0.574499 23:-0.0108611 24:-0.227368 
-128 1:0.164835 2:0.164835 3:0.173184 4:0.177778 5:-0.16129 6:-0.696141 7:-0.134713 8:0.122725 9:0.164835 10:0.153846 11:0.173184 12:0.155556 13:-0.290323 14:-0.574499 15:-0.0108611 16:-0.227368 17:0.175824 18:0.175824 19:0.184358 20:0.166667 21:-0.0967742 22:-0.518808 23:-0.248245 24:0.125698 
-128 1:0.164835 2:0.153846 3:0.173184 4:0.155556 5:-0.290323 6:-0.574499 7:-0.0108611 8:-0.227368 9:0.175824 10:0.175824 11:0.184358 12:0.166667 13:-0.0967742 14:-0.518808 15:-0.248245 16:0.125698 17:0.186813 18:0.175824 19:0.195531 20:0.2 21:0.0322581 22:-0.191011 23:-0.108431 24:-0.00137784 
-128 1:0.186813 2:0.175824 3:0.195531 4:0.2 5:0.0322581 6:-0.191011 7:-0.108431 8:-0.00137784 9:0.230769 10:0.230769 11:0.251397 12:0.244444 13:0.0967742 14:-0.368832 15:-0.203 16:0.161449 17:0.285714 18:0.274725 19:0.273743 20:0.244444 21:-0.16129 22:-0.454323 23:0.049625 24:0.088182 
-128 1:0.285714 2:0.274725 3:0.273743 4:0.244444 5:-0.16129 6:-0.454323 7:0.049625 8:0.088182 9:0.241758 10:0.263736 11:0.251397 12:0.277778 13:0.0322581 14:-0.44895 15:-0.452145 16:0.45406 17:0.307692 18:0.285714 19:0.284916 20:0.277778 21:-0.16129 22:-0.489008 23:-0.249565 24:0.273635 
-128 1:0.307692 2:0.285714 3:0.284916 4:0.277778 5:-0.16129 6:-0.489008 7:-0.249565 8:0.273635 9:0.307692 10:0.285714 11:0.307263 12:0.288889 13:-0.0967742 14:-0.884221 15:-0.146235 16:0.275206 17:0.307692 18:0.285714 19:0.318436 20:0.288889 21:-0.16129 22:-0.49829 23:-0.146115 24:0.191762 
-128 1:0.307692 2:0.274725 3:0.296089 4:0.3 5:-0.16129 6:-0.507084 7:-0.108311 8:0.52404 9:0.318681 10:0.296703 11:0.296089 12:0.266667 13:-0.354839 14:-0.548119 15:-0.0915092 16:0.306244 17:0.263736 18:0.263736 19:0.26257 20:0.266667 21:-0.16129 22:-0.489008 23:-0.0621062 24:0.496797 
-128 1:0.263736 2:0.241758 3:0.217877 4:0.211111 5:-0.16129 6:-0.425012 7:-0.10063 8:0.350286 9:0.186813 10:0.164835 11:0.195531 12:0.166667 13:-0.419355 14:-0.652662 15:-0.0493849 16:-0.0495298 17:0.175824 18:0.153846 19:0.184358 20:0.155556 21:-0.225806 22:-0.603322 23:-0.0643864 24:0.0496024 
-128 1:0.186813 2:0.164835 3:0.195531 4:0.166667 5:-0.419355 6:-0.652662 7:-0.0493849 8:-0.0495298 9:0.175824 10:0.153846 11:0.184358 12:0.155556 13:-0.225806 14:-0.603322 15:-0.0643864 16:0.0496024 17:0.175824 18:0.175824 19:0.195531 20:0.2 21:0.0967742 22:0.249145 23:-0.137834 24:0.0573134 
-128 1:0.21978 2:0.230769 3:0.22905 4:0.233333 5:0.0322581 6:-0.468002 7:-0.279568 8:0.277938 9:0.208791 10:0.186813 11:0.195531 12:0.177778 13:-0.483871 14:-0.438691 15:-0.0411041 16:-0.0102734 17:0.175824 18:0.153846 19:0.173184 20:0.155556 21:-0.290323 22:-0.450415 23:-0.0683468 24:-0.0578694 
-128 1:0.175824 2:0.153846 3:0.173184 4:0.155556 5:-0.290323 6:-0.450415 7:-0.0683468 8:-0.0578694 9:0.197802 10:0.197802 11:0.217877 12:0.222222 13:0.225806 14:-0.454812 15:-0.19868 16:0.248785 17:0.263736 18:0.230769 19:0.240223 20:0.211111 21:-0.225806 22:-0.544211 23:-0.242724 24:0.301482 
-128 1:0.197802 2:0.197802 3:0.217877 4:0.222222 5:0.225806 6:-0.454812 7:-0.19868 8:0.248785 9:0.263736 10:0.230769 11:0.240223 12:0.211111 13:-0.225806 14:-0.544211 15:-0.242724 16:0.301482 17:0.208791 18:0.208791 19:0.22905 20:0.222222 21:-0.0967742 22:-0.439668 23:-0.168677 24:0.183277 
-128 1:0.263736 2:0.230769 3:0.240223 4:0.211111 5:-0.225806 6:-0.544211 7:-0.242724 8:0.301482 9:0.208791 10:0.208791 11:0.22905 12:0.222222 13:-0.0967742 14:-0.439668 15:-0.168677 16:0.183277 17:0.263736 18:0.274725 19:0.284916 20:0.3 21:0.290323 22:-0.359062 23:-0.184518 24:0.604027 
-128 1:0.263736 2:0.274725 3:0.284916 4:0.3 5:0.290323 6:-0.359062 7:-0.184518 8:0.604027 9:0.296703 10:0.307692 11:0.307263 12:0.333333 13:0.0322581 14:-0.382022 15:-0.166877 16:0.495516 17:0.340659 18:0.307692 19:0.318436 20:0.333333 21:-0.16129 22:-0.459209 23:-0.171077 24:0.254055 
-128 1:0.362637 2:0.351648 3:0.363128 4:0.377778 5:-0.354839 6:-0.5149 7:-0.0307831 8:0.169644 9:0.351648 10:0.351648 11:0.374302 12:0.377778 13:-0.16129 14:-0.404006 15:0.0153015 16:0.156712 17:0.351648 18:0.340659 19:0.374302 20:0.355556 21:-0.290323 22:-0.445042 23:-0.0954695 24:0.198941 
-128 1:0.351648 2:0.351648 3:0.374302 4:0.377778 5:-0.16129 6:-0.404006 7:0.0153015 8:0.156712 9:0.351648 10:0.340659 11:0.374302 12:0.355556 13:-0.290323 14:-0.445042 15:-0.0954695 16:0.198941 17:0.406593 18:0.373626 19:0.374302 20:0.366667 21:-0.0967742 22:-0.572545 23:-0.260246 24:0.475815 
-128 1:0.406593 2:0.373626 3:0.351955 4:0.333333 5:-0.548387 6:-0.22765 7:0.155836 8:0.268631 9:0.362637 10:0.340659 11:0.340782 12:0.333333 13:-0.16129 14:-0.617489 15:-0.128113 16:0.49583 17:0.32967 18:0.318681 19:0.307263 20:0.277778 21:-0.483871 22:-0.443576 23:0.0251425 24:0.17165 
-128 1:0.373626 2:0.340659 3:0.351955 4:0.333333 5:-0.354839 6:-0.609184 7:-0.154515 8:0.220068 9:0.351648 10:0.318681 11:0.296089 12:0.322222 13:-0.225806 14:-0.534929 15:-0.209241 16:0.106166 17:0.32967 18:0.307692 19:0.318436 20:0.3 21:-0.290323 22:-0.444064 23:-0.121392 24:0.0836859 
-128 1:0.32967 2:0.307692 3:0.318436 4:0.3 5:-0.290323 6:-0.444064 7:-0.121392 8:0.0836859 9:0.307692 10:0.296703 11:0.307263 12:0.322222 13:-0.0322581 14:-0.443087 15:-0.188719 16:0.138534 17:0.318681 18:0.307692 19:0.329609 20:0.322222 21:-0.16129 22:-0.34001 23:-0.143834 24:0.162513 
-128 1:0.296703 2:0.318681 3:0.318436 4:0.333333 5:-0.0967742 6:-0.403029 7:-0.165677 8:0.171505 9:0.296703 10:0.263736 11:0.284916 12:0.277778 13:-0.483871 14:-0.640449 15:-0.0447045 16:-0.177548 17:0.285714 18:0.252747 19:0.273743 20:0.244444 21:-0.354839 22:-0.74597 23:-0.107951 24:-0.102299 
-128 1:0.285714 2:0.252747 3:0.273743 4:0.244444 5:-0.354839 6:-0.74597 7:-0.107951 8:-0.102299 9:0.263736 10:0.263736 11:0.273743 12:0.255556 13:-0.0967742 14:-0.427455 15:-0.10183 16:0.0401025 17:0.252747 18:0.21978 19:0.251397 20:0.222222 21:-0.354839 22:-0.431851 23:-0.122832 24:-0.254732 
-128 1:0.263736 2:0.263736 3:0.273743 4:0.255556 5:-0.0967742 6:-0.427455 7:-0.10183 8:0.0401025 9:0.252747 10:0.21978 11:0.251397 12:0.222222 13:-0.354839 14:-0.431851 15:-0.122832 16:-0.254732 17:0.230769 18:0.230769 19:0.251397 20:0.233333 21:-0.0967742 22:-0.404983 23:-0.143474 24:0.0697866 
-128 1:0.230769 2:0.230769 3:0.251397 4:0.233333 5:-0.0967742 6:-0.404983 7:-0.143474 8:0.0697866 9:0.252747 10:0.274725 11:0.273743 12:0.3 13:0.225806 14:-0.295066 15:-0.156436 16:0.234717 17:0.32967 18:0.307692 19:0.296089 20:0.3 21:-0.16129 22:-0.329262 23:-0.0390639 24:0.319055 
-128 1:0.32967 2:0.307692 3:0.296089 4:0.3 5:-0.16129 6:-0.329262 7:-0.0390639 8:0.319055 9:0.318681 10:0.318681 11:0.318436 12:0.344444 13:0.0967742 14:-0.425501 15:-0.0519052 16:0.415988 17:0.351648 18:0.318681 19:0.340782 20:0.322222 21:-0.290323 22:-0.43234 23:-0.0618662 24:0.441127 
-128 1:0.318681 2:0.318681 3:0.318436 4:0.344444 5:0.0967742 6:-0.425501 7:-0.0519052 8:0.415988 9:0.351648 10:0.318681 11:0.340782 12:0.322222 13:-0.290323 14:-0.43234 15:-0.0618662 16:0.441127 17:0.351648 18:0.340659 19:0.340782 20:0.366667 21:0.0967742 22:-0.427943 23:-0.422862 24:0.361116 
-128 1:0.351648 2:0.318681 3:0.340782 4:0.322222 5:-0.290323 6:-0.43234 7:-0.0618662 8:0.441127 9:0.351648 10:0.340659 11:0.340782 12:0.366667 13:0.0967742 14:-0.427943 15:-0.422862 16:0.361116 17:0.384615 18:0.373626 19:0.396648 20:0.4 21:0.0322581 22:-0.453346 23:-0.345335 24:0.563006 
-128 1:0.351648 2:0.340659 3:0.340782 4:0.366667 5:0.0967742 6:-0.427943 7:-0.422862 8:0.361116 9:0.384615 10:0.373626 11:0.396648 12:0.4 13:0.0322581 14:-0.453346 15:-0.345335 16:0.563006 17:0.494505 18:0.472527 19:0.452514 20:0.444444 21:0.0967742 22:-0.60723 23:-0.154995 24:0.588823 
-128 1:0.483516 2:0.461538 3:0.486034 4:0.477778 5:0.0322581 6:-0.42257 7:-0.214521 8:0.543136 9:0.494505 10:0.472527 11:0.486034 12:0.477778 13:-0.16129 14:0.0102589 15:-0.105671 16:0.247625 17:0.461538 18:0.461538 19:0.486034 20:0.466667 21:-0.225806 22:-0.415242 23:-0.175158 24:0.154995 
-128 1:0.494505 2:0.472527 3:0.486034 4:0.477778 5:-0.16129 6:0.0102589 7:-0.105671 8:0.247625 9:0.461538 10:0.461538 11:0.486034 12:0.466667 13:-0.225806 14:-0.415242 15:-0.175158 16:0.154995 17:0.505495 18:0.549451 19:0.530726 20:0.577778 21:0.483871 22:-0.640449 23:-0.139034 24:0.390993 
-128 1:0.461538 2:0.461538 3:0.486034 4:0.466667 5:-0.225806 6:-0.415242 7:-0.175158 8:0.154995 9:0.505495 10:0.549451 11:0.530726 12:0.577778 13:0.483871 14:-0.640449 15:-0.139034 16:0.390993 17:0.648352 18:0.648352 19:0.631285 20:0.6 21:-0.0322581 22:-0.447973 23:-0.472187 24:0.321473 
-128 1:0.505495 2:0.549451 3:0.530726 4:0.577778 5:0.483871 6:-0.640449 7:-0.139034 8:0.390993 9:0.648352 10:0.648352 11:0.631285 12:0.6 13:-0.0322581 14:-0.447973 15:-0.472187 16:0.321473 17:0.615385 18:0.626374 19:0.642458 20:0.644444 21:0.0967742 22:-0.37616 23:-0.0587459 24:0.20322 
-128 1:0.593407 2:0.582418 3:0.620112 4:0.611111 5:-0.225806 6:-0.459697 7:-0.313171 8:0.209432 9:0.582418 10:0.582418 11:0.586592 12:0.6 13:-0.225806 14:-0.481192 15:-0.130513 16:0.126278 17:0.604396 18:0.593407 19:0.608939 20:0.588889 21:-0.225806 22:-0.446996 23:-0.122112 24:0.204308 
-128 1:0.604396 2:0.593407 3:0.608939 4:0.588889 5:-0.225806 6:-0.446996 7:-0.122112 8:0.204308 9:0.604396 10:0.604396 11:0.620112 12:0.633333 13:0.0967742 14:-0.446507 15:-0.126073 16:0.201479 17:0.637363 18:0.648352 19:0.653631 20:0.633333 21:-0.16129 22:-0.508061 23:-0.0690669 24:0.226837 
-128 1:0.604396 2:0.604396 3:0.620112 4:0.633333 5:0.0967742 6:-0.446507 7:-0.126073 8:0.201479 9:0.637363 10:0.648352 11:0.653631 12:0.633333 13:-0.16129 14:-0.508061 15:-0.0690669 16:0.226837 17:0.637363 18:0.626374 19:0.664804 20:0.644444 21:-0.0967742 22:-0.493894 23:-0.0972697 24:0.141072 
