svm_type c_svc
kernel_type rbf
gamma 0.00195313
nr_class 2
total_sv 393
rho 44.6667
label 0 1
nr_sv 196 197
SV
8192 1:-0.989166 2:-0.780822 3:-0.789954 4:-0.843318 5:-0.851163 6:-0.612903 8:-0.151441 9:0.0635464 10:-0.352945 11:-0.989166 12:-0.844749 13:-0.853881 14:-0.880184 15:-0.87907 16:-0.354839 17:0.0769231 18:-0.596971 19:-0.00546055 20:-0.000652663 21:-0.986999 22:-0.865471 23:-0.893805 24:-0.918919 25:-0.928251 26:-0.483871 27:0.0769231 28:-0.688813 29:-0.130153 30:-0.245425 
8192 1:-0.986999 2:-0.863014 3:-0.890411 4:-0.917051 5:-0.925581 6:-0.483871 7:0.0769231 8:-0.688813 9:-0.130153 10:-0.245425 11:-0.984832 12:-0.926941 13:-0.945205 14:-1 15:-0.972093 16:-0.483871 17:0.384615 18:-0.830484 19:0.111791 20:-0.290507 21:-0.986999 22:-0.973094 23:-0.946903 24:-0.972973 25:-0.955157 26:-0.0322581 27:-0.230769 28:-0.481681 29:-0.159076 30:0.119848 
8192 1:-0.984832 2:-0.926941 3:-0.945205 4:-1 5:-0.972093 6:-0.483871 7:0.384615 8:-0.830484 9:0.111791 10:-0.290507 11:-0.986999 12:-0.972603 13:-0.945205 14:-0.97235 15:-0.953488 16:-0.0322581 17:-0.230769 18:-0.481681 19:-0.159076 20:0.119848 21:-0.989166 22:-0.955157 23:-0.955752 24:-1 25:-0.973094 26:-0.290323 27:-0.307692 28:-0.558378 29:-0.317612 30:0.0647586 
8192 1:-0.989166 2:-0.954338 3:-0.954338 4:-1 5:-0.972093 6:-0.290323 7:-0.307692 8:-0.558378 9:-0.317612 10:0.0647586 11:-0.993499 12:-0.954338 13:-0.96347 14:-0.981567 15:-0.972093 16:-0.16129 17:-0.384615 18:-0.399121 19:-0.182118 20:-0.0370567 21:-0.989166 22:-0.946188 23:-0.938053 24:-0.954955 25:-0.964126 26:-0.0967742 27:-0.384615 28:-0.670249 29:-0.355056 30:0.303101 
8192 1:-0.989166 2:-0.945205 3:-0.936073 4:-0.953917 5:-0.962791 6:-0.0967742 7:-0.384615 8:-0.670249 9:-0.355056 10:0.303101 11:-0.991333 12:-1 13:-1 14:-1 15:-1 16:-0.419355 18:-0.517831 19:-0.228683 20:0.0435592 21:-0.980498 22:-0.874439 23:-0.893805 24:-0.90991 25:-0.901345 26:0.548387 27:0.461538 28:0.465559 29:-0.328773 30:0.742754 
1420.342806039983 1:-0.980498 2:-0.872146 3:-0.890411 4:-0.907834 5:-0.897674 6:0.548387 7:0.461538 8:0.465559 9:-0.328773 10:0.742754 11:-0.991333 12:-0.917808 13:-0.890411 14:-0.926267 15:-0.897674 16:-0.16129 17:-0.230769 18:0.357108 19:-0.0237024 20:0.139259 21:-0.995666 22:-0.874439 23:-0.893805 24:-0.900901 25:-0.883408 26:-0.0322581 27:-0.461538 28:-0.44895 29:-0.10435 30:0.152796 
8192 1:-0.993499 2:-0.936073 3:-0.917808 4:-0.935484 5:-0.934884 6:-0.0967742 7:-0.384615 8:-0.39619 9:-0.321812 10:0.155164 11:-0.993499 12:-0.890411 13:-0.881279 14:-0.898618 15:-0.869767 16:0.290323 17:-0.153846 18:-0.270151 19:-0.340414 20:0.398608 21:-0.995666 22:-0.829596 23:-0.858407 24:-0.846847 25:-0.856502 26:-0.0322581 27:-0.384615 28:-0.720078 29:-0.108311 30:0.316421 
1203.786525206791 1:-0.995666 2:-0.844749 3:-0.863014 4:-0.852535 5:-0.851163 6:0.0967742 7:-0.461538 8:-0.331705 9:-0.284128 10:0.245788 11:-0.991333 12:-0.863014 13:-0.844749 14:-0.861751 15:-0.84186 16:-0.0967742 17:-0.384615 18:-0.668295 19:-0.0839484 20:0.403007 21:-0.984832 22:-0.856502 23:-0.80531 24:-0.864865 25:-0.793722 26:0.225806 28:-0.554958 29:-0.0637864 30:0.623486 
8192 1:-0.984832 2:-0.853881 3:-0.799087 4:-0.861751 5:-0.786047 6:0.225806 8:-0.554958 9:-0.0637864 10:0.623486 11:-1 12:-0.780822 13:-0.799087 14:-0.806452 15:-0.804651 16:-0.290323 17:-0.615385 18:-0.31998 19:0.0372637 20:0.245885 21:-0.989166 22:-0.757848 23:-0.787611 24:-0.801802 25:-0.775785 26:0.0967742 27:-0.153846 28:-0.420127 29:-0.227483 30:0.800865 
8192 1:-0.989166 2:-0.753425 3:-0.780822 4:-0.797235 5:-0.767442 6:0.0967742 7:-0.153846 8:-0.420127 9:-0.227483 10:0.800865 11:-0.995666 12:-0.753425 13:-0.771689 14:-0.797235 15:-0.795349 16:-0.354839 17:-0.538462 18:-0.420616 19:0.00690069 20:0.202446 21:-0.980498 22:-0.73991 23:-0.752212 24:-0.747748 25:-0.73991 26:0.290323 27:0.307692 28:-0.416219 29:-0.30465 30:0.95209 
5344.377448791478 1:-0.984832 2:-0.716895 3:-0.707763 4:-0.723502 5:-0.702326 6:0.16129 7:0.230769 8:-0.427455 9:-0.0613861 10:0.554594 11:-0.991333 12:-0.6621 13:-0.689498 14:-0.695853 15:-0.693023 16:-0.0967742 17:-0.0769231 18:-0.42257 19:0.0809481 20:0.483913 21:-0.982665 22:-0.650224 23:-0.663717 24:-0.657658 25:-0.650224 26:0.225806 27:0.615385 28:-0.378114 29:-0.206721 30:1 
8192 1:-0.991333 2:-0.6621 3:-0.689498 4:-0.695853 5:-0.693023 6:-0.0967742 7:-0.0769231 8:-0.42257 9:0.0809481 10:0.483913 11:-0.982665 12:-0.643836 13:-0.652968 14:-0.64977 15:-0.637209 16:0.225806 17:0.615385 18:-0.378114 19:-0.206721 20:1 21:-0.991333 22:-0.668161 23:-0.663717 24:-0.666667 25:-0.650224 26:-0.16129 27:-0.307692 28:-0.41915 29:-0.0343834 30:0.403321 
8192 1:-0.982665 2:-0.643836 3:-0.652968 4:-0.64977 5:-0.637209 6:0.225806 7:0.615385 8:-0.378114 9:-0.206721 10:1 11:-0.991333 12:-0.6621 13:-0.652968 14:-0.658986 15:-0.637209 16:-0.16129 17:-0.307692 18:-0.41915 19:-0.0343834 20:0.403321 21:-0.993499 22:-0.659193 23:-0.637168 24:-0.657658 25:-0.650224 26:-0.16129 27:-0.384615 28:-0.449438 29:-0.168917 30:0.498924 
8192 1:-0.991333 2:-0.6621 3:-0.652968 4:-0.658986 5:-0.637209 6:-0.16129 7:-0.307692 8:-0.41915 9:-0.0343834 10:0.403321 11:-0.993499 12:-0.652968 13:-0.625571 14:-0.64977 15:-0.637209 16:-0.16129 17:-0.384615 18:-0.449438 19:-0.168917 20:0.498924 21:-0.995666 22:-0.641256 23:-0.663717 24:-0.666667 25:-0.67713 26:-0.354839 27:-0.461538 28:-0.443576 29:-0.079868 30:0.186903 
8192 1:-0.995666 2:-0.634703 3:-0.652968 4:-0.658986 5:-0.665116 6:-0.354839 7:-0.461538 8:-0.443576 9:-0.079868 10:0.186903 11:-0.995666 12:-0.652968 13:-0.6621 14:-0.695853 15:-0.693023 16:-0.354839 17:-0.538462 18:-0.467025 19:-0.125353 20:0.171433 21:-0.995666 22:-0.668161 23:-0.663717 24:-0.675676 25:-0.659193 26:0.16129 27:-0.230769 28:-0.40596 29:-0.212601 30:0.496289 
8192 1:-0.989166 2:-0.671233 3:-0.634703 4:-0.668203 5:-0.618605 6:0.225806 7:-0.153846 8:-0.377626 9:-0.173717 10:0.347458 11:-0.991333 12:-0.570776 13:-0.589041 14:-0.585253 15:-0.6 16:-0.0322581 17:-0.230769 18:-0.024426 19:-0.134473 20:0.490923 21:-0.993499 22:-0.578475 23:-0.60177 24:-0.594595 25:-0.596413 26:-0.0322581 27:-0.307692 28:-0.451392 29:-0.269487 30:0.538954 
8192 1:-0.991333 2:-0.570776 3:-0.589041 4:-0.585253 5:-0.6 6:-0.0322581 7:-0.230769 8:-0.024426 9:-0.134473 10:0.490923 11:-0.993499 12:-0.570776 13:-0.589041 14:-0.585253 15:-0.581395 16:-0.0322581 17:-0.307692 18:-0.451392 19:-0.269487 20:0.538954 21:-0.991333 22:-0.596413 23:-0.619469 24:-0.621622 25:-0.623318 26:-0.354839 27:-0.307692 28:-0.616023 29:0.0333033 30:0.137156 
8192 1:-0.993499 2:-0.570776 3:-0.589041 4:-0.585253 5:-0.581395 6:-0.0322581 7:-0.307692 8:-0.451392 9:-0.269487 10:0.538954 11:-0.991333 12:-0.589041 13:-0.607306 14:-0.612903 15:-0.609302 16:-0.354839 17:-0.307692 18:-0.616023 19:0.0333033 20:0.137156 21:-0.995666 22:-0.605381 23:-0.619469 24:-0.630631 25:-0.632287 26:-0.225806 27:-0.538462 28:-0.349292 29:-0.118392 30:0.142981 
8192 1:-0.993499 2:-0.589041 3:-0.589041 4:-0.612903 5:-0.572093 6:0.0322581 7:-0.307692 8:-0.398144 9:-0.294569 10:0.484397 11:-0.993499 12:-0.561644 13:-0.579909 14:-0.585253 15:-0.562791 16:-0.0967742 17:-0.230769 18:-0.439179 19:-0.186199 20:0.508352 21:-0.991333 22:-0.533632 23:-0.548673 24:-0.54955 25:-0.560538 26:-0.0322581 27:-0.230769 28:-0.601368 29:-0.123312 30:0.592448 
8192 1:-0.984832 2:-0.47032 3:-0.488584 4:-0.502304 5:-0.497674 6:0.16129 8:-0.59746 9:-0.4027 10:0.887839 11:-0.982665 12:-0.488584 13:-0.497717 14:-0.483871 15:-0.47907 16:-0.0322581 17:-0.153846 18:-0.450904 19:-0.2 20:0.777587 21:-0.993499 22:-0.470852 23:-0.504425 24:-0.504505 25:-0.488789 26:-0.0967742 27:-0.384615 28:-0.518319 29:-0.0977498 30:0.448137 
8192 1:-0.993499 2:-0.461187 3:-0.488584 4:-0.493088 5:-0.469767 6:-0.0967742 7:-0.384615 8:-0.518319 9:-0.0977498 10:0.448137 11:-0.993499 12:-0.47032 13:-0.497717 14:-0.511521 15:-0.497674 16:-0.354839 17:-0.230769 18:-0.461651 19:-0.0429043 20:0.250236 21:-0.993499 22:-0.497758 23:-0.513274 24:-0.504505 25:-0.497758 26:-0.0322581 27:-0.461538 28:-0.512946 29:-0.244164 30:0.406633 
8192 1:-0.993499 2:-0.47032 3:-0.497717 4:-0.511521 5:-0.497674 6:-0.354839 7:-0.230769 8:-0.461651 9:-0.0429043 10:0.250236 11:-0.993499 12:-0.488584 13:-0.497717 14:-0.493088 15:-0.47907 16:-0.0322581 17:-0.461538 18:-0.512946 19:-0.244164 20:0.406633 21:-0.995666 22:-0.506726 23:-0.522124 24:-0.522523 25:-0.515695 26:-0.290323 27:-0.461538 28:-0.707377 29:-0.0169817 30:0.27656 
8192 1:-0.995666 2:-0.497717 3:-0.506849 4:-0.511521 5:-0.497674 6:-0.290323 7:-0.461538 8:-0.707377 9:-0.0169817 10:0.27656 11:-1 12:-0.488584 13:-0.506849 14:-0.511521 15:-0.506977 16:-0.225806 17:-0.692308 18:-0.596483 19:-0.0814281 20:0.178612 21:-0.997833 22:-0.506726 23:-0.522124 24:-0.522523 25:-0.506726 26:-0.0322581 27:-0.615385 28:-0.697118 29:-0.218122 30:0.332665 
8192 1:-0.995666 2:-0.488584 3:-0.497717 4:-0.493088 5:-0.488372 6:-0.16129 7:-0.538462 8:-0.683439 9:-0.314011 10:0.278373 11:-0.986999 12:-0.488584 13:-0.452055 14:-0.483871 15:-0.44186 16:0.16129 18:-0.303859 19:-0.109991 20:0.501583 21:-0.984832 22:-0.434978 23:-0.451327 24:-0.486486 25:-0.452915 26:-0.0967742 28:-0.113825 29:-0.0637864 30:0.336605 
8192 1:-0.986999 2:-0.488584 3:-0.452055 4:-0.483871 5:-0.44186 6:0.16129 8:-0.303859 9:-0.109991 10:0.501583 11:-0.984832 12:-0.424658 13:-0.43379 14:-0.474654 15:-0.432558 16:-0.0967742 18:-0.113825 19:-0.0637864 20:0.336605 21:-0.991333 22:-0.452915 23:-0.486726 24:-0.513514 25:-0.515695 26:-0.612903 27:-0.307692 28:-0.315584 29:0.0439844 30:0.00526965 
8192 1:-0.991333 2:-0.552511 3:-0.579909 4:-0.59447 5:-0.572093 6:-0.0322581 7:-0.307692 8:-0.553004 9:-0.410021 10:0.0420847 11:-0.989166 12:-0.570776 13:-0.525114 14:-0.56682 15:-0.516279 16:0.225806 17:-0.153846 18:-0.495848 19:-0.431023 20:0.13208 21:-0.995666 22:-0.542601 23:-0.522124 24:-0.54955 25:-0.515695 26:-0.0322581 27:-0.615385 28:-0.502687 29:-0.168797 30:0.0385071 
8192 1:-0.995666 2:-0.534247 3:-0.506849 4:-0.539171 5:-0.497674 6:-0.0322581 7:-0.615385 8:-0.502687 9:-0.168797 10:0.0385071 11:-0.997833 12:-0.506849 13:-0.497717 14:-0.502304 15:-0.497674 16:-0.16129 17:-0.769231 18:-0.361505 19:-0.149955 20:0.090841 21:-0.989166 22:-0.470852 23:-0.469027 24:-0.477477 25:-0.461883 26:0.225806 27:-0.153846 28:-0.648266 29:-0.240204 30:0.690904 
8192 1:-0.997833 2:-0.506849 3:-0.497717 4:-0.502304 5:-0.497674 6:-0.16129 7:-0.769231 8:-0.361505 9:-0.149955 10:0.090841 11:-0.989166 12:-0.461187 13:-0.452055 14:-0.465438 15:-0.44186 16:0.225806 17:-0.153846 18:-0.648266 19:-0.240204 20:0.690904 21:-0.991333 22:-0.434978 23:-0.460177 24:-0.468468 25:-0.461883 26:-0.16129 27:-0.307692 28:-0.489008 29:0.089829 30:0.316082 
8192 1:-0.991333 2:-0.424658 3:-0.442922 4:-0.456221 5:-0.44186 6:-0.16129 7:-0.307692 8:-0.489008 9:0.089829 10:0.316082 11:-0.986999 12:-0.515982 13:-0.488584 14:-0.529954 15:-0.47907 16:-0.419355 17:0.230769 18:-0.90083 19:-0.120192 20:0.0573376 21:-0.995666 22:-0.506726 23:-0.530973 24:-0.513514 25:-0.524664 26:-0.354839 27:-0.538462 28:-0.550562 29:-0.10243 30:0.018057 
8192 1:-0.986999 2:-0.515982 3:-0.488584 4:-0.529954 5:-0.47907 6:-0.419355 7:0.230769 8:-0.90083 9:-0.120192 10:0.0573376 11:-0.995666 12:-0.497717 13:-0.515982 14:-0.502304 15:-0.506977 16:-0.354839 17:-0.538462 18:-0.550562 19:-0.10243 20:0.018057 21:-0.993499 22:-0.470852 23:-0.486726 24:-0.522523 25:-0.533632 26:-0.225806 27:-0.384615 28:-0.425012 29:-0.132073 30:0.0331408 
8192 1:-0.993499 2:-0.461187 3:-0.47032 4:-0.511521 5:-0.516279 6:-0.225806 7:-0.384615 8:-0.425012 9:-0.132073 10:0.0331408 11:-0.989166 12:-0.506849 13:-0.525114 14:-0.56682 15:-0.581395 16:-0.612903 17:0.153846 18:-0.724963 19:-0.0846685 20:-0.113563 21:-0.993499 22:-0.542601 23:-0.557522 24:-0.576577 25:-0.542601 26:0.225806 27:-0.230769 28:-0.504641 29:-0.277408 30:0.413474 
8192 1:-0.993499 2:-0.543379 3:-0.525114 4:-0.548387 5:-0.534884 6:-0.225806 7:-0.615385 8:-0.469956 9:-0.40414 10:0.32418 11:-0.997833 12:-0.525114 13:-0.534247 14:-0.529954 15:-0.516279 16:-0.0322581 17:-0.692308 18:-0.519785 19:-0.128233 20:0.1965 21:-0.997833 22:-0.533632 23:-0.530973 24:-0.531532 25:-0.524664 26:-0.0967742 27:-0.692308 28:-0.412799 29:-0.0917492 30:0.174696 
8192 1:-0.997833 2:-0.525114 3:-0.534247 4:-0.529954 5:-0.516279 6:-0.0322581 7:-0.692308 8:-0.519785 9:-0.128233 10:0.1965 11:-0.997833 12:-0.525114 13:-0.515982 14:-0.520737 15:-0.506977 16:-0.0967742 17:-0.692308 18:-0.412799 19:-0.0917492 20:0.174696 21:-0.991333 22:-0.542601 23:-0.548673 24:-0.54955 25:-0.55157 26:-0.354839 27:-0.615385 28:-0.315584 29:0.208881 30:-0.0174285 
8192 1:-0.997833 2:-0.525114 3:-0.515982 4:-0.520737 5:-0.506977 6:-0.0967742 7:-0.692308 8:-0.412799 9:-0.0917492 10:0.174696 11:-0.991333 12:-0.534247 13:-0.534247 14:-0.539171 15:-0.534884 16:-0.354839 17:-0.615385 18:-0.315584 19:0.208881 20:-0.0174285 21:-0.986999 22:-0.515695 23:-0.539823 24:-0.594595 25:-0.61435 26:-0.612903 27:0.0769231 28:-0.553493 29:0.0389439 30:-0.250429 
6109.554957939546 1:-0.991333 2:-0.534247 3:-0.534247 4:-0.539171 5:-0.534884 6:-0.354839 7:-0.615385 8:-0.315584 9:0.208881 10:-0.0174285 11:-0.986999 12:-0.506849 13:-0.525114 14:-0.585253 15:-0.6 16:-0.612903 17:0.0769231 18:-0.553493 19:0.0389439 20:-0.250429 21:-0.978332 22:-0.632287 23:-0.663717 24:-0.666667 25:-0.668161 26:-0.548387 27:0.307692 28:-1 29:0.109511 30:-0.545312 
8192 1:-0.986999 2:-0.506849 3:-0.525114 4:-0.585253 5:-0.6 6:-0.612903 7:0.0769231 8:-0.553493 9:0.0389439 10:-0.250429 11:-0.978332 12:-0.625571 13:-0.652968 14:-0.658986 15:-0.655814 16:-0.548387 17:0.307692 18:-1 19:0.109511 20:-0.545312 21:-0.980498 22:-0.686099 23:-0.707965 24:-0.711712 25:-0.713004 26:-0.483871 27:0.538462 28:-0.580362 29:0.161596 30:-1 
8192 1:-0.984832 2:-0.69863 3:-0.689498 4:-0.705069 5:-0.711628 6:-0.225806 7:-0.0769231 8:-0.480703 9:-0.0141014 10:-0.505306 11:-0.991333 12:-0.689498 13:-0.69863 14:-0.714286 15:-0.702326 16:-0.0967742 17:-0.384615 18:-0.383977 19:0.0388239 20:-0.191665 21:-0.991333 22:-0.67713 23:-0.707965 24:-0.702703 25:-0.704036 26:-0.0967742 27:-0.461538 28:-0.420127 29:-0.120552 30:-0.00481037 
8192 1:-0.991333 2:-0.689498 3:-0.69863 4:-0.714286 5:-0.702326 6:-0.0967742 7:-0.384615 8:-0.383977 9:0.0388239 10:-0.191665 11:-0.991333 12:-0.671233 13:-0.69863 14:-0.695853 15:-0.693023 16:-0.0967742 17:-0.461538 18:-0.420127 19:-0.120552 20:-0.00481037 21:-0.991333 22:-0.67713 23:-0.699115 24:-0.711712 25:-0.713004 26:-0.225806 27:-0.153846 28:-0.357596 29:-0.243924 30:-0.105514 
8192 1:-0.991333 2:-0.671233 3:-0.69863 4:-0.695853 5:-0.693023 6:-0.0967742 7:-0.461538 8:-0.420127 9:-0.120552 10:-0.00481037 11:-0.991333 12:-0.671233 13:-0.689498 14:-0.705069 15:-0.702326 16:-0.225806 17:-0.153846 18:-0.357596 19:-0.243924 20:-0.105514 21:-0.991333 22:-0.704036 23:-0.716814 24:-0.711712 25:-0.721973 26:-0.225806 27:-0.461538 28:-0.369321 29:-0.0820282 30:-0.0710435 
8192 1:-0.991333 2:-0.671233 3:-0.689498 4:-0.705069 5:-0.702326 6:-0.225806 7:-0.153846 8:-0.357596 9:-0.243924 10:-0.105514 11:-0.991333 12:-0.69863 13:-0.707763 14:-0.705069 15:-0.711628 16:-0.225806 17:-0.461538 18:-0.369321 19:-0.0820282 20:-0.0710435 21:-0.989166 22:-0.67713 23:-0.699115 24:-0.711712 25:-0.721973 26:-0.16129 27:-0.230769 28:-0.21446 29:-0.154035 30:-0.257367 
8192 1:-0.991333 2:-0.69863 3:-0.707763 4:-0.705069 5:-0.711628 6:-0.225806 7:-0.461538 8:-0.369321 9:-0.0820282 10:-0.0710435 11:-0.989166 12:-0.671233 13:-0.689498 14:-0.705069 15:-0.711628 16:-0.16129 17:-0.230769 18:-0.21446 19:-0.154035 20:-0.257367 21:-0.995666 22:-0.704036 23:-0.716814 24:-0.720721 25:-0.73991 26:-0.290323 27:-0.538462 28:-0.393747 29:-0.220762 30:-0.0311586 
7201.924915448738 1:-0.984832 2:-0.73516 3:-0.753425 4:-0.769585 5:-0.767442 6:-0.419355 7:0.384615 8:-0.28041 9:-0.0232223 10:-0.666151 11:-0.993499 12:-0.771689 13:-0.753425 14:-0.769585 15:-0.75814 16:-0.0967742 17:-0.384615 18:-0.137763 19:-0.144554 20:-0.0920738 21:-0.993499 22:-0.730942 23:-0.734513 24:-0.738739 25:-0.721973 26:0.16129 27:-0.461538 28:-0.144113 29:-0.136874 30:-0.0464599 
8192 1:-0.993499 2:-0.771689 3:-0.753425 4:-0.769585 5:-0.75814 6:-0.0967742 7:-0.384615 8:-0.137763 9:-0.144554 10:-0.0920738 11:-0.993499 12:-0.726027 13:-0.726027 14:-0.732719 15:-0.711628 16:0.16129 17:-0.461538 18:-0.144113 19:-0.136874 20:-0.0464599 21:-0.993499 22:-0.721973 23:-0.734513 24:-0.738739 25:-0.721973 26:-0.16129 27:-0.384615 28:-0.380557 29:-0.0825083 30:2.41727e-005 
8192 1:-0.991333 2:-0.680365 3:-0.69863 4:-0.723502 5:-0.711628 6:-0.16129 7:-0.461538 8:-0.31998 9:-0.271167 10:-0.0251879 11:-0.991333 12:-0.689498 13:-0.680365 14:-0.695853 15:-0.683721 16:0.0322581 17:-0.384615 18:-0.263801 19:-0.587639 20:0.292731 21:-0.986999 22:-0.641256 23:-0.60177 24:-0.657658 25:-0.596413 26:0.548387 27:0.153846 28:0.977528 29:-0.129553 30:0.467186 
8192 1:-0.997833 2:-0.561644 3:-0.579909 4:-0.576037 5:-0.562791 6:-0.0967742 7:-0.461538 8:-0.359062 9:-0.172877 10:0.242355 11:-0.993499 12:-0.534247 13:-0.552511 14:-0.557604 15:-0.534884 16:0.0322581 17:-0.538462 18:-0.258427 19:-0.164476 20:0.282675 21:-0.989166 22:-0.524664 23:-0.539823 24:-0.558559 25:-0.542601 26:-0.0967742 27:-0.230769 28:-0.439668 29:-0.0929493 30:0.594237 
8192 1:-0.989166 2:-0.515982 3:-0.525114 4:-0.548387 5:-0.525581 6:-0.0967742 7:-0.230769 8:-0.439668 9:-0.0929493 10:0.594237 11:-0.980498 12:-0.525114 13:-0.534247 14:-0.548387 15:-0.534884 16:-0.225806 17:-0.230769 18:-0.463605 19:-0.138554 20:0.349851 21:-0.993499 22:-0.542601 23:-0.522124 24:-0.540541 25:-0.506726 26:0.16129 27:-0.384615 28:-0.44211 29:-0.209721 30:0.458072 
8192 1:-0.993499 2:-0.534247 3:-0.506849 4:-0.529954 5:-0.488372 6:0.16129 7:-0.384615 8:-0.44211 9:-0.209721 10:0.458072 11:-0.995666 12:-0.479452 13:-0.488584 14:-0.493088 15:-0.488372 16:-0.16129 17:-0.538462 18:-0.417684 19:-0.188959 20:0.30929 21:-0.991333 22:-0.488789 23:-0.495575 24:-0.486486 25:-0.479821 26:0.0322581 27:-0.307692 28:-0.416219 29:-0.169997 30:0.55399 
8192 1:-0.986999 2:-0.43379 3:-0.424658 4:-0.437788 5:-0.432558 6:-0.0322581 7:-0.153846 8:-0.351734 9:-0.0709871 10:0.574536 11:-0.986999 12:-0.388128 13:-0.378995 14:-0.391705 15:-0.367442 16:0.290323 17:0.0769231 18:-0.471422 19:-0.141794 20:0.606058 21:-0.984832 22:-0.452915 23:-0.460177 24:-0.45045 25:-0.452915 26:-0.612903 28:-0.6468 29:0.0857486 30:-0.0711402 
6256.841599857228 1:-0.984832 2:-0.442922 3:-0.442922 4:-0.437788 5:-0.432558 6:-0.612903 8:-0.6468 9:0.0857486 10:-0.0711402 11:-0.993499 12:-0.442922 13:-0.43379 14:-0.437788 15:-0.432558 16:-0.16129 17:-0.307692 18:-0.578896 19:0.0987099 20:0.231357 21:-0.993499 22:-0.434978 23:-0.451327 24:-0.45045 25:-0.434978 26:-0.0322581 27:-0.384615 28:-0.413288 29:0.10423 30:0.268075 
8192 1:-0.993499 2:-0.424658 3:-0.43379 4:-0.437788 5:-0.413953 6:-0.0322581 7:-0.384615 8:-0.413288 9:0.10423 10:0.268075 11:-0.991333 12:-0.43379 13:-0.442922 14:-0.465438 15:-0.460465 16:-0.483871 17:-0.538462 18:-0.546165 19:0.09991 20:-0.113974 21:-0.991333 22:-0.426009 23:-0.424779 24:-0.432432 25:-0.434978 26:0.16129 27:-0.384615 28:-0.570591 29:-0.172037 30:0.329063 
8192 1:-0.993499 2:-0.388128 3:-0.388128 4:-0.391705 5:-0.367442 6:0.16129 7:-0.307692 8:-0.426966 9:-0.0687069 10:0.425512 11:-0.991333 12:-0.378995 13:-0.378995 14:-0.391705 15:-0.35814 16:-0.0967742 17:-0.461538 18:-0.42257 19:0.174677 20:0.248133 21:-0.995666 22:-0.372197 23:-0.39823 24:-0.396396 25:-0.41704 26:-0.419355 27:-0.461538 28:-0.427455 29:0.212481 30:0.187701 
8192 1:-0.991333 2:-0.488584 3:-0.488584 4:-0.493088 5:-0.488372 6:0.0967742 7:-0.153846 8:-0.39277 9:-0.309811 10:0.505838 11:-0.989166 12:-0.442922 13:-0.43379 14:-0.465438 15:-0.423256 16:0.290323 18:-0.426478 19:-0.467387 20:0.752568 21:-0.989166 22:-0.390135 23:-0.39823 24:-0.405405 25:-0.381166 26:0.290323 27:-0.0769231 28:-0.483146 29:-0.337654 30:0.706423 
8192 1:-0.989166 2:-0.442922 3:-0.43379 4:-0.465438 5:-0.423256 6:0.290323 8:-0.426478 9:-0.467387 10:0.752568 11:-0.989166 12:-0.378995 13:-0.378995 14:-0.391705 15:-0.35814 16:0.290323 17:-0.0769231 18:-0.483146 19:-0.337654 20:0.706423 21:-0.993499 22:-0.372197 23:-0.389381 24:-0.387387 25:-0.381166 26:-0.16129 27:-0.384615 28:-0.452858 29:-0.253525 30:0.442771 
8192 1:-0.989166 2:-0.378995 3:-0.378995 4:-0.391705 5:-0.35814 6:0.290323 7:-0.0769231 8:-0.483146 9:-0.337654 10:0.706423 11:-0.993499 12:-0.360731 13:-0.369863 14:-0.373272 15:-0.35814 16:-0.16129 17:-0.384615 18:-0.452858 19:-0.253525 20:0.442771 21:-0.997833 22:-0.381166 23:-0.40708 24:-0.396396 25:-0.41704 26:-0.419355 27:-0.615385 28:-0.809477 29:-0.107591 30:0.194397 
8192 1:-0.993499 2:-0.39726 3:-0.39726 4:-0.400922 5:-0.386047 6:0.225806 7:-0.384615 8:-0.502687 9:-0.334893 10:0.283425 11:-0.982665 12:-0.278539 13:-0.296804 14:-0.299539 15:-0.283721 16:0.548387 18:-0.553493 19:-0.808461 20:0.775677 21:-0.986999 22:-0.273543 23:-0.300885 24:-0.297297 25:-0.29148 26:-0.0322581 27:0.0769231 28:-0.40254 29:-0.210561 30:0.532694 
8192 1:-0.984832 2:-0.287671 3:-0.305936 4:-0.327189 5:-0.311628 6:-0.483871 7:0.230769 8:-0.76893 9:0.0361836 10:-0.172569 11:-0.989166 12:-0.333333 13:-0.305936 14:-0.327189 15:-0.302326 16:-0.0967742 17:-0.153846 18:-0.621886 19:-0.473747 20:0.344461 21:-0.986999 22:-0.327354 23:-0.336283 24:-0.351351 25:-0.318386 26:-0.0967742 27:-0.0769231 28:-0.910112 29:-0.0648665 30:0.212623 
8192 1:-0.986999 2:-0.315068 3:-0.315068 4:-0.336406 5:-0.293023 6:-0.0967742 7:-0.0769231 8:-0.910112 9:-0.0648665 10:0.212623 11:-0.993499 12:-0.315068 13:-0.305936 14:-0.308756 15:-0.293023 16:-0.16129 17:-0.615385 18:-0.655594 19:-0.0880288 20:0.291498 21:-0.986999 22:-0.282511 23:-0.318584 24:-0.306306 25:-0.300448 26:-0.0322581 27:-0.153846 28:-0.758183 29:-0.145755 30:0.383331 
8192 1:-0.991333 2:-0.242009 3:-0.251142 4:-0.24424 5:-0.227907 6:0.0322581 7:-0.153846 8:-0.416219 9:-0.137594 10:0.373758 11:-0.989166 12:-0.187215 13:-0.196347 14:-0.18894 15:-0.190698 16:0.0967742 17:-0.307692 18:-0.460674 19:-0.189439 20:0.574271 21:-0.991333 22:-0.201794 23:-0.212389 24:-0.234234 25:-0.192825 26:0.0322581 27:-0.384615 28:-0.302882 29:-0.275248 30:0.406053 
8192 1:-0.991333 2:-0.187215 3:-0.187215 4:-0.21659 5:-0.162791 6:0.0322581 7:-0.384615 8:-0.302882 9:-0.275248 10:0.406053 11:-0.991333 12:-0.150685 13:-0.178082 14:-0.225806 15:-0.237209 16:-0.677419 17:-0.461538 18:-0.531998 19:0.0288629 20:0.0780053 21:-0.989166 22:-0.201794 23:-0.20354 24:-0.207207 25:-0.183857 26:0.419355 27:-0.230769 28:-0.313141 29:-0.50111 30:0.488917 
8192 1:-0.991333 2:-0.150685 3:-0.178082 4:-0.225806 5:-0.237209 6:-0.677419 7:-0.461538 8:-0.531998 9:0.0288629 10:0.0780053 11:-0.989166 12:-0.187215 13:-0.178082 14:-0.18894 15:-0.153488 16:0.419355 17:-0.230769 18:-0.313141 19:-0.50111 20:0.488917 21:-0.997833 22:-0.156951 23:-0.19469 24:-0.189189 25:-0.201794 26:-0.290323 27:-0.615385 28:-0.665364 29:-0.0805881 30:0.161739 
8192 1:-0.997833 2:-0.13242 3:-0.159817 4:-0.152074 5:-0.134884 6:-0.0322581 7:-0.692308 8:-0.381045 9:-0.19652 10:0.204477 11:-0.997833 12:-0.123288 13:-0.13242 14:-0.142857 15:-0.125581 16:-0.0967742 17:-0.615385 18:-0.361993 19:-0.271767 20:0.270372 21:-0.995666 22:-0.130045 23:-0.159292 24:-0.144144 25:-0.139013 26:-0.0322581 27:-0.692308 28:-0.502687 29:-0.122352 30:0.199981 
8192 1:-0.993499 2:-0.141553 3:-0.159817 4:-0.170507 5:-0.162791 6:-0.548387 7:-0.384615 8:-0.600879 9:-0.0441044 10:-0.0609635 11:-0.993499 12:-0.123288 13:-0.150685 14:-0.142857 15:-0.144186 16:-0.0322581 17:-0.538462 18:-0.503175 19:-0.257606 20:0.290459 21:-0.997833 22:-0.139013 23:-0.168142 24:-0.153153 25:-0.147982 26:0.0322581 27:-0.769231 28:-0.453835 29:-0.174917 30:0.255239 
8192 1:-0.997833 2:-0.123288 3:-0.141553 4:-0.133641 5:-0.116279 6:0.0322581 7:-0.769231 8:-0.453835 9:-0.174917 10:0.255239 11:-0.989166 12:-0.13242 13:-0.141553 14:-0.179724 15:-0.181395 16:-0.612903 17:-0.307692 18:-0.587201 19:0.107831 20:-0.0878436 21:-0.993499 22:-0.165919 23:-0.19469 24:-0.18018 25:-0.183857 26:0.0322581 27:-0.461538 28:-0.688813 29:-0.424662 30:0.310837 
8192 1:-0.989166 2:-0.13242 3:-0.141553 4:-0.179724 5:-0.181395 6:-0.612903 7:-0.307692 8:-0.587201 9:0.107831 10:-0.0878436 11:-0.993499 12:-0.150685 13:-0.16895 14:-0.16129 15:-0.153488 16:0.0322581 17:-0.461538 18:-0.688813 19:-0.424662 20:0.310837 21:-0.993499 22:-0.183857 23:-0.212389 24:-0.198198 25:-0.201794 26:-0.290323 27:-0.384615 28:-0.608207 29:-0.0467447 30:0.204404 
8192 1:-0.993499 2:-0.150685 3:-0.16895 4:-0.16129 5:-0.153488 6:0.0322581 7:-0.461538 8:-0.688813 9:-0.424662 10:0.310837 11:-0.993499 12:-0.16895 13:-0.187215 14:-0.179724 15:-0.172093 16:-0.290323 17:-0.384615 18:-0.608207 19:-0.0467447 20:0.204404 21:-0.993499 22:-0.165919 23:-0.19469 24:-0.216216 25:-0.2287 26:-0.354839 27:-0.461538 28:-0.888617 29:-0.212361 30:0.121734 
8192 1:-0.993499 2:-0.150685 3:-0.16895 4:-0.198157 5:-0.2 6:-0.354839 7:-0.461538 8:-0.888617 9:-0.212361 10:0.121734 11:-0.995666 12:-0.223744 13:-0.232877 14:-0.24424 15:-0.227907 16:-0.354839 17:-0.538462 18:-0.472887 19:-0.020222 20:-0.010225 21:-0.995666 22:-0.219731 23:-0.238938 24:-0.225225 25:-0.237668 26:-0.0322581 27:-0.615385 28:-0.586712 29:-0.219562 30:0.22222 
8192 1:-0.995666 2:-0.205479 3:-0.214612 4:-0.207373 5:-0.209302 6:-0.0322581 7:-0.615385 8:-0.586712 9:-0.219562 10:0.22222 11:-0.997833 12:-0.187215 13:-0.205479 14:-0.207373 15:-0.218605 16:-0.225806 17:-0.769231 18:-0.489985 19:-0.171677 20:0.147719 21:-0.993499 22:-0.201794 23:-0.20354 24:-0.207207 25:-0.183857 26:0.290323 27:-0.461538 28:-0.483146 29:-0.169517 30:0.369697 
8192 1:-0.997833 2:-0.187215 3:-0.205479 4:-0.207373 5:-0.218605 6:-0.225806 7:-0.769231 8:-0.489985 9:-0.171677 10:0.147719 11:-0.993499 12:-0.187215 13:-0.178082 14:-0.18894 15:-0.153488 16:0.290323 17:-0.461538 18:-0.483146 19:-0.169517 20:0.369697 21:-0.997833 22:-0.201794 23:-0.20354 24:-0.198198 25:-0.183857 26:-0.16129 27:-0.769231 28:-0.620909 29:-0.0263426 30:0.154343 
8192 1:-0.993499 2:-0.187215 3:-0.178082 4:-0.18894 5:-0.153488 6:0.290323 7:-0.461538 8:-0.483146 9:-0.169517 10:0.369697 11:-0.997833 12:-0.187215 13:-0.178082 14:-0.179724 15:-0.153488 16:-0.16129 17:-0.769231 18:-0.620909 19:-0.0263426 20:0.154343 21:-0.997833 22:-0.201794 23:-0.20354 24:-0.216216 25:-0.192825 26:-0.225806 27:-0.692308 28:-0.442599 29:-0.123672 30:0.0905509 
8192 1:-0.997833 2:-0.187215 3:-0.178082 4:-0.198157 5:-0.162791 6:-0.225806 7:-0.692308 8:-0.442599 9:-0.123672 10:0.0905509 11:-0.995666 12:-0.16895 13:-0.187215 14:-0.198157 15:-0.2 16:-0.419355 17:-0.692308 18:-0.513923 19:0.0544254 20:-0.0349295 21:-0.986999 22:-0.174888 23:-0.20354 24:-0.207207 25:-0.201794 26:0.0322581 27:-0.615385 28:-0.445042 29:-0.487189 30:0.348183 
8192 1:-0.993499 2:-0.159817 3:-0.16895 4:-0.152074 5:-0.162791 6:0.0967742 7:-0.615385 8:-0.350757 9:-0.121632 10:0.336387 11:-0.991333 12:-0.150685 13:-0.141553 14:-0.152074 15:-0.116279 16:0.16129 17:-0.384615 18:-0.426966 19:-0.221362 20:0.312335 21:-0.982665 22:-0.103139 23:-0.0619469 24:-0.108108 25:-0.058296 26:0.483871 27:0.384615 28:-0.371275 29:-0.128473 30:0.319418 
8192 1:-0.991333 2:-0.150685 3:-0.141553 4:-0.152074 5:-0.116279 6:0.16129 7:-0.384615 8:-0.426966 9:-0.221362 10:0.312335 11:-0.982665 12:-0.086758 13:-0.0319635 14:-0.0875576 15:-0.0232558 16:0.483871 17:0.384615 18:-0.371275 19:-0.128473 20:0.319418 21:-0.991333 22:-0.0672646 23:-0.0707965 24:-0.0630631 25:-0.0762332 26:-0.290323 27:-0.307692 28:-0.479238 29:-0.0727873 30:0.167613 
8192 1:-0.982665 2:-0.086758 3:-0.0319635 4:-0.0875576 5:-0.0232558 6:0.483871 7:0.384615 8:-0.371275 9:-0.128473 10:0.319418 11:-0.991333 12:-0.0502283 13:-0.0410959 14:-0.0414747 15:-0.0418605 16:-0.290323 17:-0.307692 18:-0.479238 19:-0.0727873 20:0.167613 21:-0.991333 22:-0.0941704 23:-0.132743 24:-0.117117 25:-0.139013 26:-0.612903 27:-0.461538 28:-0.428432 29:0.0979898 30:-0.110348 
8192 1:-0.991333 2:-0.0502283 3:-0.0410959 4:-0.0414747 5:-0.0418605 6:-0.290323 7:-0.307692 8:-0.479238 9:-0.0727873 10:0.167613 11:-0.991333 12:-0.0776256 13:-0.105023 14:-0.0967742 15:-0.106977 16:-0.612903 17:-0.461538 18:-0.428432 19:0.0979898 20:-0.110348 21:-0.997833 22:-0.165919 23:-0.168142 24:-0.18018 25:-0.165919 26:-0.354839 27:-0.692308 28:-0.454323 29:-0.374977 30:-0.0603592 
8192 1:-0.991333 2:-0.0776256 3:-0.105023 4:-0.0967742 5:-0.106977 6:-0.612903 7:-0.461538 8:-0.428432 9:0.0979898 10:-0.110348 11:-0.997833 12:-0.150685 13:-0.141553 14:-0.16129 15:-0.134884 16:-0.354839 17:-0.692308 18:-0.454323 19:-0.374977 20:-0.0603592 21:-0.986999 22:-0.156951 23:-0.19469 24:-0.216216 25:-0.219731 26:-0.548387 28:-0.535906 29:0.120072 30:-0.390099 
8192 1:-0.997833 2:-0.150685 3:-0.141553 4:-0.16129 5:-0.134884 6:-0.354839 7:-0.692308 8:-0.454323 9:-0.374977 10:-0.0603592 11:-0.986999 12:-0.141553 13:-0.16895 14:-0.198157 15:-0.190698 16:-0.548387 18:-0.535906 19:0.120072 20:-0.390099 21:-0.989166 22:-0.174888 23:-0.212389 24:-0.225225 25:-0.219731 26:-0.16129 27:-0.230769 28:-0.431851 29:-0.030183 30:-0.0691822 
8192 1:-0.993499 2:-0.00456621 3:0.0136986 4:-0.00460829 5:0.0418605 6:0.0967742 7:-0.384615 8:-0.461163 9:-0.175278 10:0.311272 11:-0.993499 12:-0.0319635 13:-0.0319635 14:-0.0322581 15:-0.0418605 16:-0.741935 17:-0.538462 18:-0.564729 19:0.0178218 20:-0.0151563 21:-0.980498 22:-0.0134529 23:-0.0176991 24:-0.00900901 25:-0.0313901 26:0.16129 27:0.0769231 28:-0.424035 29:-0.260726 30:0.512413 
8192 1:-0.984832 2:0.00456621 3:-0.00456621 4:-0.0414747 5:-0.0511628 6:-0.548387 7:-0.230769 8:0.0214949 9:-0.0655866 10:0.0596824 11:-0.995666 12:0.0136986 13:-0.00456621 14:-0.00460829 15:0.0139535 16:0.290323 17:-0.615385 18:-0.383977 19:-0.19856 20:0.276415 21:-0.995666 22:-0.0224215 23:-0.0265487 24:-0.018018 25:-0.0044843 26:-0.0322581 27:-0.615385 28:-0.500244 29:-0.0978698 30:0.207232 
8192 1:-0.995666 2:0.0136986 3:-0.0136986 4:-0.00460829 5:0.0139535 6:-0.290323 7:-0.615385 8:-0.704446 9:-0.00882088 10:0.181779 11:-0.997833 12:-0.00456621 13:0.0136986 14:0.00460829 15:0.0418605 16:0.0322581 17:-0.615385 18:-0.361993 19:-0.175518 20:0.194034 21:-0.997833 22:0.0313901 23:-0.00884956 25:0.0134529 26:-0.0967742 27:-0.615385 28:-0.38935 29:-0.240084 30:0.230051 
8192 1:-0.991333 2:0.105023 3:0.0776256 4:0.0230415 5:0.0418605 6:-0.225806 7:-0.307692 8:-0.483635 9:-0.107471 10:0.0758781 11:-0.993499 12:0.0228311 13:0.0593607 14:0.0230415 15:0.0790698 16:0.0967742 17:-0.538462 18:-0.55105 19:-0.0643864 20:0.186662 21:-0.986999 22:0.0762332 23:0.0442478 24:0.018018 25:0.0224215 26:-0.290323 27:-0.0769231 28:-0.46214 29:0.266127 30:-0.221881 
8192 1:-0.993499 2:0.0228311 3:0.0593607 4:0.0230415 5:0.0790698 6:0.0967742 7:-0.538462 8:-0.55105 9:-0.0643864 10:0.186662 11:-0.986999 12:0.0958904 13:0.0776256 14:0.0414747 15:0.0604651 16:-0.290323 17:-0.0769231 18:-0.46214 19:0.266127 20:-0.221881 21:-0.989166 22:0.0134529 23:0.00884956 24:0.00900901 25:0.0134529 26:-0.225806 27:-0.0769231 28:-0.636541 29:-0.331053 30:-0.0986246 
8192 1:-0.986999 2:0.0228311 3:0.00456621 4:0.0138249 5:0.0325581 6:-0.0967742 7:-0.461538 8:-0.262824 9:-0.00330033 10:0.0962073 11:-0.986999 12:0.0410959 13:0.0502283 14:0.0506912 15:0.0790698 16:0.16129 17:-0.461538 18:-0.341475 19:-0.246445 20:0.362107 21:-0.997833 22:0.058296 23:0.0353982 24:0.0540541 25:0.058296 26:-0.0322581 27:-0.769231 28:-0.264778 29:-0.247405 30:0.284899 
8192 1:-0.997833 2:0.105023 3:0.0776256 4:0.0875576 5:0.106977 6:0.16129 7:-0.692308 8:-0.28041 9:-0.192079 10:0.208925 11:-0.995666 12:0.123288 13:0.114155 14:0.115207 15:0.144186 16:0.0967742 17:-0.538462 18:-0.631168 19:-0.20288 20:0.273852 21:-0.993499 22:0.0762332 23:0.0707965 24:0.0810811 25:0.0762332 26:-0.354839 27:-0.538462 28:-0.417196 29:-0.00606061 30:-9.66908e-005 
8192 1:-0.993499 2:0.0958904 3:0.105023 4:0.105991 5:0.116279 6:-0.354839 7:-0.538462 8:-0.417196 9:-0.00606061 10:-9.66908e-005 11:-0.991333 12:0.114155 13:0.086758 14:0.0691244 15:0.0604651 16:-0.548387 17:-0.384615 18:-0.383977 19:0.229403 20:-0.219609 21:-0.989166 22:0.058296 23:0.0265487 24:0.045045 25:0.0403587 26:-0.0322581 27:-0.615385 28:-0.333659 29:-0.249325 30:0.128091 
8192 1:-0.989166 2:0.0776256 3:0.0593607 4:0.0691244 5:0.0790698 6:-0.0322581 7:-0.615385 8:-0.333659 9:-0.249325 10:0.128091 11:-0.993499 12:0.0684932 13:0.0684932 14:0.0322581 15:0.0604651 16:-0.290323 17:-0.615385 18:-0.424524 19:-0.145515 20:0.0466049 21:-0.997833 22:0.0403587 23:0.0176991 24:0.027027 25:0.0403587 26:-0.0322581 27:-0.692308 28:-0.426966 29:-0.00234023 30:0.142015 
8192 1:-0.993499 2:0.0684932 3:0.0684932 4:0.0322581 5:0.0604651 6:-0.290323 7:-0.615385 8:-0.424524 9:-0.145515 10:0.0466049 11:-0.997833 12:0.0593607 13:0.0502283 14:0.0506912 15:0.0790698 16:-0.0322581 17:-0.692308 18:-0.426966 19:-0.00234023 20:0.142015 21:-0.995666 22:0.0224215 23:-0.00884956 25:-0.0224215 26:-0.612903 27:-0.538462 28:-0.240352 29:-0.059706 30:-0.056129 
8192 1:-0.997833 2:0.0593607 3:0.0502283 4:0.0506912 5:0.0790698 6:-0.0322581 7:-0.692308 8:-0.426966 9:-0.00234023 10:0.142015 11:-0.995666 12:0.0410959 13:0.0228311 14:0.0230415 15:0.0139535 16:-0.612903 17:-0.538462 18:-0.240352 19:-0.059706 20:-0.056129 21:-0.993499 22:-0.0134529 23:-0.0353982 24:-0.027027 25:-0.0493274 26:-0.354839 27:-0.538462 28:-0.523693 29:-0.0327033 30:-0.0784887 
8192 1:-0.993499 2:0.00456621 3:-0.00456621 4:-0.00460829 5:-0.0139535 6:-0.354839 7:-0.538462 8:-0.523693 9:-0.0327033 10:-0.0784887 11:-0.997833 12:-0.0136986 13:-0.0136986 14:-0.0138249 15:-0.0139535 16:-0.16129 17:-0.538462 18:-0.511969 19:-0.154035 20:0.028838 21:-0.993499 22:0.0044843 23:0.00884956 25:0.0313901 26:0.419355 27:-0.538462 28:-0.348803 29:-0.325293 30:0.131862 
8192 1:-0.997833 2:-0.0136986 3:-0.0136986 4:-0.0138249 5:-0.0139535 6:-0.16129 7:-0.538462 8:-0.511969 9:-0.154035 10:0.028838 11:-0.993499 12:0.0228311 13:0.0410959 14:0.0230415 15:0.0697674 16:0.419355 17:-0.538462 18:-0.348803 19:-0.325293 20:0.131862 21:-0.995666 22:0.0672646 23:0.0265487 24:0.036036 25:0.0224215 26:-0.225806 27:-0.615385 28:-0.487543 29:-0.00690069 30:0.108946 
8192 1:-0.995666 2:0.086758 3:0.0593607 4:0.0599078 5:0.0604651 6:-0.225806 7:-0.615385 8:-0.487543 9:-0.00690069 10:0.108946 11:-0.980498 12:0.086758 13:0.0684932 14:-0.0506912 15:-0.0604651 16:-1 17:0.615385 18:-0.579384 19:-0.010381 20:-0.578501 21:-0.986999 22:0.0134529 23:-0.00884956 24:-0.00900901 25:-0.0313901 26:0.290323 27:-0.0769231 28:-0.367367 29:0.146955 30:0.0419638 
6422.589864093262 1:-0.980498 2:0.086758 3:0.0684932 4:-0.0506912 5:-0.0604651 6:-1 7:0.615385 8:-0.579384 9:-0.010381 10:-0.578501 11:-0.986999 12:0.0319635 13:0.0228311 14:0.0138249 15:0.00465116 16:0.290323 17:-0.0769231 18:-0.367367 19:0.146955 20:0.0419638 21:-0.976165 22:-0.0852018 23:-0.0973451 24:-0.0900901 25:-0.103139 26:-0.677419 27:0.384615 28:-0.167562 29:-0.158836 30:-0.6187 
8192 1:-0.986999 2:0.0319635 3:0.0228311 4:0.0138249 5:0.00465116 6:0.290323 7:-0.0769231 8:-0.367367 9:0.146955 10:0.0419638 11:-0.976165 12:-0.0684932 13:-0.0684932 14:-0.0691244 15:-0.0697674 16:-0.677419 17:0.384615 18:-0.167562 19:-0.158836 20:-0.6187 21:-0.984832 22:-0.0941704 23:-0.115044 24:-0.108108 25:-0.121076 26:-0.290323 28:-0.430874 29:0.115752 30:-0.574657 
8192 1:-0.976165 2:-0.0684932 3:-0.0684932 4:-0.0691244 5:-0.0697674 6:-0.677419 7:0.384615 8:-0.167562 9:-0.158836 10:-0.6187 11:-0.984832 12:-0.0776256 13:-0.086758 14:-0.0875576 15:-0.0883721 16:-0.290323 18:-0.430874 19:0.115752 20:-0.574657 21:-0.989166 22:-0.121076 23:-0.115044 24:-0.126126 25:-0.130045 26:-0.225806 27:-0.230769 28:-0.335125 29:-0.250405 30:-0.166356 
1936.289205763039 1:-0.989166 2:-0.105023 3:-0.086758 4:-0.105991 5:-0.0976744 6:-0.225806 7:-0.230769 8:-0.335125 9:-0.250405 10:-0.166356 11:-0.989166 12:-0.086758 13:-0.0684932 14:-0.0875576 15:-0.0976744 16:-0.16129 17:-0.307692 18:-0.180264 19:0.00918092 20:-0.13631 21:-0.993499 22:-0.0762332 23:-0.106195 24:-0.0990991 25:-0.103139 26:0.0322581 27:-0.692308 28:-0.404006 29:-0.157756 30:0.0253088 
8192 1:-0.989166 2:-0.086758 3:-0.0684932 4:-0.0875576 5:-0.0976744 6:-0.16129 7:-0.307692 8:-0.180264 9:0.00918092 10:-0.13631 11:-0.993499 12:-0.0593607 13:-0.0776256 14:-0.078341 15:-0.0697674 16:0.0322581 17:-0.692308 18:-0.404006 19:-0.157756 20:0.0253088 21:-0.993499 22:-0.0852018 23:-0.123894 24:-0.108108 25:-0.112108 26:-0.225806 27:-0.615385 28:-0.44211 29:-0.0178218 30:-0.0933791 
8192 1:-0.997833 2:-0.086758 3:-0.0958904 4:-0.0875576 5:-0.0790698 6:-0.16129 7:-0.615385 8:-0.49829 9:-0.0789079 10:-0.0196282 11:-0.991333 12:-0.0593607 13:-0.0319635 14:-0.0599078 15:-0.0232558 16:0.225806 17:-0.307692 18:-0.412799 19:-0.0748275 20:0.270589 21:-0.993499 22:-0.0313901 23:-0.0353982 24:-0.036036 25:-0.0313901 26:0.0322581 27:-0.384615 28:-0.671226 29:-0.20108 30:0.245812 
8192 1:-0.991333 2:-0.0593607 3:-0.0319635 4:-0.0599078 5:-0.0232558 6:0.225806 7:-0.307692 8:-0.412799 9:-0.0748275 10:0.270589 11:-0.993499 12:-0.0136986 13:-0.00456621 14:-0.0138249 15:0.00465116 16:0.0322581 17:-0.384615 18:-0.671226 19:-0.20108 20:0.245812 21:-0.995666 22:-0.0403587 23:-0.0619469 24:-0.0540541 25:-0.0762332 26:-0.483871 27:-0.615385 28:-0.388373 29:0.0156616 30:-0.0549204 
8192 1:-0.993499 2:-0.0684932 3:-0.0502283 4:-0.0599078 5:-0.0232558 6:0.0967742 7:-0.615385 8:-0.442599 9:-0.216202 10:0.17605 11:-0.993499 12:-0.0319635 13:-0.0319635 14:-0.0506912 15:-0.0604651 16:-0.419355 17:-0.615385 18:-0.581339 19:-0.0753075 20:0.106118 21:-0.982665 22:-0.0852018 23:-0.0973451 24:-0.0810811 25:-0.0762332 26:-0.0322581 27:-0.692308 28:-0.490474 29:-0.175158 30:0.110493 
8192 1:-0.993499 2:-0.0319635 3:-0.0319635 4:-0.0506912 5:-0.0604651 6:-0.419355 7:-0.615385 8:-0.581339 9:-0.0753075 10:0.106118 11:-0.982665 12:-0.0684932 13:-0.0684932 14:-0.0599078 15:-0.0418605 16:-0.0322581 17:-0.692308 18:-0.490474 19:-0.175158 20:0.110493 21:-0.997833 22:-0.0762332 23:-0.0973451 24:-0.0810811 25:-0.0762332 26:-0.16129 27:-0.615385 28:-0.412799 29:-0.0473447 30:0.0839276 
8192 1:-0.982665 2:-0.114155 3:-0.13242 4:-0.124424 5:-0.134884 6:-0.806452 7:0.538462 8:-0.655105 9:-0.0964296 10:-0.756218 11:-0.991333 12:-0.13242 13:-0.123288 14:-0.124424 15:-0.116279 16:-0.0322581 17:-0.307692 18:-0.427943 19:-0.218242 20:-0.140347 21:-0.991333 22:-0.0941704 23:-0.0973451 24:-0.0990991 25:-0.0941704 26:0.225806 27:-0.307692 28:-0.492428 29:-0.206001 30:0.388576 
8192 1:-0.997833 2:-0.0410959 3:-0.0593607 4:-0.0599078 5:-0.0697674 6:-0.225806 7:-0.692308 8:-0.402052 9:-0.0934293 10:0.0450095 11:-0.991333 12:-0.0228311 13:-0.0228311 14:-0.0322581 15:0.00465116 16:0.354839 17:-0.230769 18:-0.427943 19:-0.372097 20:0.419952 21:-0.993499 22:-0.0044843 23:-0.0442478 24:-0.027027 25:-0.0224215 26:-0.0967742 27:-0.461538 28:-0.364924 29:-0.248245 30:0.333438 
8192 1:-0.995666 2:0.0136986 3:0.00456621 4:-0.0138249 5:-0.00465116 6:-0.290323 7:-0.615385 8:-0.434783 9:-0.114911 10:0.138437 11:-0.993499 12:0.0228311 13:-0.00456621 14:-0.00460829 15:0.0139535 16:-0.0322581 17:-0.538462 18:-0.422081 19:-0.211881 20:0.223573 21:-0.995666 22:0.0044843 23:-0.0176991 24:-0.00900901 25:0.0044843 26:0.0322581 27:-0.615385 28:-0.442599 29:-0.277888 30:0.308371 
8192 1:-0.993499 2:0.0228311 3:-0.00456621 4:-0.00460829 5:0.0139535 6:-0.0322581 7:-0.538462 8:-0.422081 9:-0.211881 10:0.223573 11:-0.995666 12:0.0228311 13:0.0136986 14:0.0138249 15:0.0418605 16:0.0322581 17:-0.615385 18:-0.442599 19:-0.277888 20:0.308371 21:-0.993499 22:-0.0224215 23:-0.0176991 24:-0.027027 25:-0.0044843 26:-0.225806 27:-0.615385 28:-0.43234 29:-0.161116 30:0.172472 
8192 1:-0.995666 2:0.0228311 3:0.0136986 4:0.0138249 5:0.0418605 6:0.0322581 7:-0.615385 8:-0.442599 9:-0.277888 10:0.308371 11:-0.993499 12:-0.00456621 13:0.0136986 14:-0.00460829 15:0.0325581 16:-0.225806 17:-0.615385 18:-0.43234 19:-0.161116 20:0.172472 21:-0.989166 22:-0.0134529 23:-0.0265487 24:-0.018018 25:-0.0403587 26:-0.419355 27:-0.538462 28:-0.495359 29:-0.118152 30:0.127849 
8192 1:-0.993499 2:-0.00456621 3:0.0136986 4:-0.00460829 5:0.0325581 6:-0.225806 7:-0.615385 8:-0.43234 9:-0.161116 10:0.172472 11:-0.989166 12:0.00456621 13:0.00456621 14:0.00460829 15:-0.00465116 16:-0.419355 17:-0.538462 18:-0.495359 19:-0.118152 20:0.127849 21:-0.995666 22:-0.0403587 23:-0.0707965 24:-0.0630631 25:-0.0852018 26:-0.483871 27:-0.538462 28:-0.345383 29:0.00738074 30:0.104257 
8192 1:-0.995666 2:-0.0228311 3:-0.0410959 4:-0.0414747 5:-0.0511628 6:-0.483871 7:-0.538462 8:-0.345383 9:0.00738074 10:0.104257 11:-0.993499 12:-0.0776256 13:-0.0776256 14:-0.0875576 15:-0.0511628 16:-0.16129 17:-0.307692 18:-0.660967 19:0.135434 20:-0.048708 21:-0.991333 22:-0.0941704 23:-0.115044 24:-0.108108 25:-0.130045 26:-0.483871 27:-0.230769 28:-0.361993 29:0.384338 30:-0.248326 
8008.833228510697 1:-0.993499 2:-0.0776256 3:-0.0776256 4:-0.0875576 5:-0.0511628 6:-0.16129 7:-0.307692 8:-0.660967 9:0.135434 10:-0.048708 11:-0.991333 12:-0.0776256 13:-0.086758 14:-0.0875576 15:-0.0976744 16:-0.483871 17:-0.230769 18:-0.361993 19:0.384338 20:-0.248326 21:-0.993499 22:-0.112108 23:-0.141593 24:-0.126126 25:-0.147982 26:-0.290323 27:-0.307692 28:-0.44211 29:0.0138614 30:-0.194397 
8192 1:-1 2:-0.114155 3:-0.123288 4:-0.105991 5:-0.106977 6:-0.0322581 7:-0.846154 8:-0.327308 9:-0.0913891 10:0.0684329 11:-1 12:-0.0958904 13:-0.114155 14:-0.0967742 15:-0.0976744 16:-0.0967742 17:-0.769231 18:-0.252565 19:-0.138914 20:0.0862723 21:-0.995666 22:-0.0941704 23:-0.115044 24:-0.0990991 25:-0.0941704 26:0.0967742 27:-0.538462 28:-0.425012 29:-0.10291 30:0.238053 
8192 1:-0.991333 2:-0.0958904 3:-0.0958904 4:-0.0875576 5:-0.0976744 6:-0.419355 7:-0.307692 8:-0.36639 9:-0.0717072 10:0.0469917 11:-0.989166 12:-0.0776256 13:-0.0776256 14:-0.0875576 15:-0.0697674 16:0.0322581 17:-0.230769 18:-0.474841 19:0.0123012 20:0.317823 21:-0.993499 22:-0.0852018 23:-0.0884956 24:-0.0900901 25:-0.0762332 26:0.0322581 27:-0.461538 28:-0.420127 29:-0.278488 30:0.144794 
8192 1:-0.993499 2:-0.0410959 3:-0.0502283 4:-0.0599078 5:-0.0418605 6:-0.16129 7:-0.461538 8:-0.411334 9:-0.149115 10:0.0442844 11:-0.995666 12:-0.0593607 13:-0.0593607 14:-0.0599078 15:-0.0325581 16:-0.0967742 17:-0.461538 18:-0.683928 19:-0.0991899 20:0.187048 21:-0.993499 22:-0.0403587 23:-0.0707965 24:-0.045045 25:-0.058296 26:-0.0967742 27:-0.384615 28:-0.39277 29:-0.158836 30:0.237279 
8192 1:-0.995666 2:-0.0593607 3:-0.0593607 4:-0.0599078 5:-0.0325581 6:-0.0967742 7:-0.461538 8:-0.683928 9:-0.0991899 10:0.187048 11:-0.993499 12:-0.0228311 13:-0.0410959 14:-0.0230415 15:-0.0232558 16:-0.0967742 17:-0.384615 18:-0.39277 19:-0.158836 20:0.237279 21:-0.995666 22:-0.0403587 23:-0.0619469 24:-0.0540541 25:-0.058296 26:-0.16129 27:-0.692308 28:-0.420127 29:-0.251845 30:0.225096 
8192 1:-0.993499 2:-0.0228311 3:-0.0410959 4:-0.0230415 5:-0.0232558 6:-0.0967742 7:-0.384615 8:-0.39277 9:-0.158836 10:0.237279 11:-0.995666 12:-0.0228311 13:-0.0319635 14:-0.0322581 15:-0.0232558 16:-0.16129 17:-0.692308 18:-0.420127 19:-0.251845 20:0.225096 21:-0.995666 22:-0.0313901 23:-0.0530973 24:-0.045045 25:-0.058296 26:-0.16129 27:-0.538462 28:-0.603322 29:-0.236724 30:0.227247 
8192 1:-0.991333 2:-0.00456621 3:-0.0319635 4:-0.0599078 5:-0.0604651 6:-0.419355 7:-0.307692 8:-0.447484 9:0.0490249 10:-0.0709952 11:-0.984832 12:-0.0502283 13:-0.0228311 14:-0.0414747 15:-0.0139535 16:0.16129 17:-0.0769231 18:-0.917929 19:-0.368737 20:0.433755 21:-0.982665 22:-0.103139 23:-0.106195 24:-0.0990991 25:-0.103139 26:-0.548387 27:0.153846 28:-0.793356 29:-0.224722 30:-0.154729 
8192 1:-0.982665 2:-0.086758 3:-0.0776256 4:-0.078341 5:-0.0697674 6:-0.548387 7:0.153846 8:-0.793356 9:-0.224722 10:-0.154729 11:-0.991333 12:-0.0958904 13:-0.114155 14:-0.105991 15:-0.106977 16:-0.419355 17:-0.0769231 18:-0.803615 19:-0.0923492 20:-0.255336 21:-0.997833 22:-0.103139 23:-0.132743 24:-0.117117 25:-0.112108 26:0.0322581 27:-0.692308 28:-0.434294 29:-0.189559 30:0.135391 
8192 1:-0.991333 2:-0.0958904 3:-0.114155 4:-0.105991 5:-0.106977 6:-0.419355 7:-0.0769231 8:-0.803615 9:-0.0923492 10:-0.255336 11:-0.997833 12:-0.086758 13:-0.105023 14:-0.0967742 15:-0.0790698 16:0.0322581 17:-0.692308 18:-0.434294 19:-0.189559 20:0.135391 21:-0.993499 22:-0.103139 23:-0.132743 24:-0.117117 25:-0.112108 26:-0.16129 27:-0.538462 28:-0.381045 29:-0.238284 30:0.113177 
8192 1:-0.986999 2:-0.0776256 3:-0.0958904 4:-0.078341 5:-0.0790698 6:-0.0967742 7:-0.538462 8:-0.443576 9:-0.186319 10:0.335541 11:-0.980498 12:-0.0502283 13:-0.0319635 14:-0.0414747 15:-0.00465116 16:0.354839 17:-0.0769231 18:-0.337567 19:-0.371857 20:0.686359 21:-0.973998 22:-0.0224215 23:-0.0353982 24:-0.027027 25:-0.0313901 26:-0.0967742 28:-0.415242 29:-0.29673 30:0.879523 
8192 1:-0.980498 2:-0.0502283 3:-0.0319635 4:-0.0414747 5:-0.00465116 6:0.354839 7:-0.0769231 8:-0.337567 9:-0.371857 10:0.686359 11:-0.973998 12:-0.00456621 13:-0.00456621 14:-0.00460829 15:0.00465116 16:-0.0967742 18:-0.415242 19:-0.29673 20:0.879523 21:-0.941495 22:0.0313901 24:-0.036036 25:-0.0493274 26:-0.290323 27:0.538462 28:-0.411334 29:-0.311131 30:0.630762 
3555.32923883763 1:-0.973998 2:-0.00456621 3:-0.00456621 4:-0.00460829 5:0.00465116 6:-0.0967742 8:-0.415242 9:-0.29673 10:0.879523 11:-0.941495 12:0.0502283 13:0.0319635 14:-0.0138249 15:-0.0139535 16:-0.290323 17:0.538462 18:-0.411334 19:-0.311131 20:0.630762 21:-0.991333 22:-0.0044843 23:-0.0442478 24:-0.045045 25:-0.0493274 26:-0.16129 27:-0.461538 28:-0.27064 29:-0.10411 30:0.0868041 
8192 1:-0.941495 2:0.0502283 3:0.0319635 4:-0.0138249 5:-0.0139535 6:-0.290323 7:0.538462 8:-0.411334 9:-0.311131 10:0.630762 11:-0.991333 12:0.0136986 13:-0.0136986 14:-0.0230415 15:-0.0139535 16:-0.16129 17:-0.461538 18:-0.27064 19:-0.10411 20:0.0868041 21:-0.991333 22:-0.0313901 23:-0.0530973 24:-0.036036 25:-0.0493274 26:-0.16129 27:-0.461538 28:-0.659502 29:-0.0910291 30:0.17866 
8192 1:-0.991333 2:0.0136986 3:-0.0136986 4:-0.0230415 5:-0.0139535 6:-0.16129 7:-0.461538 8:-0.27064 9:-0.10411 10:0.0868041 11:-0.991333 12:-0.0136986 13:-0.0228311 14:-0.0138249 15:-0.0139535 16:-0.16129 17:-0.461538 18:-0.659502 19:-0.0910291 20:0.17866 21:-0.993499 22:-0.0493274 23:-0.0619469 24:-0.0540541 25:-0.0493274 26:-0.16129 27:-0.461538 28:-0.696141 29:-0.134713 30:0.122725 
8192 1:-0.993499 2:-0.0228311 3:-0.0228311 4:-0.0230415 5:-0.0232558 6:-0.0967742 7:-0.615385 8:-0.518808 9:-0.248245 10:0.125698 11:-0.982665 12:-0.0136986 13:-0.0228311 14:-0.0138249 15:0.00465116 16:0.0322581 17:-0.384615 18:-0.191011 19:-0.108431 20:-0.00137784 21:-0.993499 22:0.0044843 23:-0.00884956 24:0.00900901 25:0.0044843 26:0.0967742 27:-0.307692 28:-0.368832 29:-0.203 30:0.161449 
8192 1:-0.993499 2:0.0228311 3:0.0228311 4:0.0322581 5:0.0418605 6:0.0967742 7:-0.307692 8:-0.368832 9:-0.203 10:0.161449 11:-0.984832 12:0.0684932 13:0.0593607 14:0.0506912 15:0.0418605 16:-0.16129 17:-0.230769 18:-0.454323 19:0.049625 20:0.088182 21:-0.986999 22:0.0134529 23:0.0176991 24:0.00900901 25:0.0313901 26:0.0322581 27:-0.153846 28:-0.44895 29:-0.452145 30:0.45406 
8192 1:-0.986999 2:0.0319635 3:0.0502283 4:0.0322581 5:0.0697674 6:0.0322581 7:-0.153846 8:-0.44895 9:-0.452145 10:0.45406 11:-0.991333 12:0.086758 13:0.0684932 14:0.0599078 15:0.0697674 16:-0.16129 17:-0.384615 18:-0.489008 19:-0.249565 20:0.273635 21:-0.995666 22:0.0672646 23:0.0353982 24:0.0540541 25:0.0403587 26:-0.0967742 27:-0.538462 28:-0.884221 29:-0.146235 30:0.275206 
8192 1:-0.995666 2:0.086758 3:0.0684932 4:0.078341 5:0.0790698 6:-0.0967742 7:-0.538462 8:-0.884221 9:-0.146235 10:0.275206 11:0.44312 12:0.086758 13:0.0684932 14:0.0875576 15:0.0790698 16:-0.16129 17:-1 18:-0.49829 19:-0.146115 20:0.191762 21:-0.997833 22:0.0672646 23:0.0353982 24:0.0630631 25:0.0493274 26:-0.0967742 27:-0.615385 28:-0.524182 29:-0.156556 30:0.261138 
8192 1:0.44312 2:0.086758 3:0.0684932 4:0.0875576 5:0.0790698 6:-0.16129 7:-1 8:-0.49829 9:-0.146115 10:0.191762 11:-0.997833 12:0.086758 13:0.0684932 14:0.0875576 15:0.0883721 16:-0.0967742 17:-0.615385 18:-0.524182 19:-0.156556 20:0.261138 21:-0.989166 22:0.0672646 23:0.0265487 24:0.045045 25:0.0493274 26:-0.16129 27:-0.461538 28:-0.507084 29:-0.108311 30:0.52404 
8192 1:-0.997833 2:0.086758 3:0.0684932 4:0.0875576 5:0.0883721 6:-0.0967742 7:-0.615385 8:-0.524182 9:-0.156556 10:0.261138 11:-0.989166 12:0.086758 13:0.0593607 14:0.0691244 15:0.0883721 16:-0.16129 17:-0.461538 18:-0.507084 19:-0.108311 20:0.52404 21:-0.993499 22:0.0762332 23:0.0442478 24:0.045045 25:0.0224215 26:-0.354839 27:-0.615385 28:-0.548119 29:-0.0915092 30:0.306244 
8192 1:-0.989166 2:0.0502283 3:0.0502283 4:0.0414747 5:0.0604651 6:-0.16129 7:-0.538462 8:-0.489008 9:-0.0621062 10:0.496797 11:-0.993499 12:0.0410959 13:0.0684932 14:0.0506912 15:0.0697674 16:-0.0967742 17:-0.538462 18:-0.459209 19:-0.180678 20:0.250163 21:-0.982665 22:0.0403587 25:-0.0224215 26:-0.548387 27:-0.153846 28:-0.435271 29:-0.0424242 30:0.0617854 
8192 1:-0.993499 2:0.0410959 3:0.0684932 4:0.0506912 5:0.0697674 6:-0.0967742 7:-0.538462 8:-0.459209 9:-0.180678 10:0.250163 11:-0.982665 12:0.0593607 13:0.0319635 14:0.0230415 15:0.0139535 16:-0.548387 17:-0.153846 18:-0.435271 19:-0.0424242 20:0.0617854 21:-0.986999 22:0.0313901 24:-0.018018 25:-0.0224215 26:-0.16129 27:-0.153846 28:-0.425012 29:-0.10063 30:0.350286 
6870.544732515763 1:-0.997833 2:-0.0228311 3:-0.0410959 4:-0.0230415 5:-0.0325581 6:-0.225806 7:-0.692308 8:-0.603322 9:-0.0643864 10:0.0496024 11:-0.993499 12:-0.0228311 13:-0.0228311 14:-0.0138249 15:0.00465116 16:0.0967742 17:-0.692308 18:0.249145 19:-0.137834 20:0.0573134 21:-0.986999 22:-0.0044843 23:-0.00884956 24:-0.00900901 25:-0.0044843 26:0.0322581 27:-0.384615 28:-0.468002 29:-0.279568 30:0.277938 
8192 1:-0.993499 2:-0.0228311 3:-0.0228311 4:-0.0138249 5:0.00465116 6:0.0967742 7:-0.692308 8:0.249145 9:-0.137834 10:0.0573134 11:-0.986999 12:0.0136986 13:0.0228311 14:0.0138249 15:0.0325581 16:0.0322581 17:-0.384615 18:-0.468002 19:-0.279568 20:0.277938 21:-0.991333 22:-0.0134529 23:-0.0442478 24:-0.036036 25:-0.0493274 26:-0.483871 27:-0.153846 28:-0.438691 29:-0.0411041 30:-0.0102734 
8192 1:-0.991333 2:0.00456621 3:-0.0136986 4:-0.0138249 5:-0.0139535 6:-0.483871 7:-0.153846 8:-0.438691 9:-0.0411041 10:-0.0102734 11:-0.993499 12:-0.0228311 13:-0.0410959 14:-0.0322581 15:-0.0325581 16:-0.290323 17:-0.307692 18:-0.450415 19:-0.0683468 20:-0.0578694 21:-0.997833 22:-0.0224215 23:-0.0353982 24:-0.018018 25:-0.0134529 26:0.225806 27:-0.769231 28:-0.454812 29:-0.19868 30:0.248785 
8192 1:-0.986999 2:0.0776256 3:0.086758 4:0.078341 5:0.116279 6:0.0322581 7:-0.307692 8:-0.382022 9:-0.166877 10:0.495516 11:-0.995666 12:0.114155 13:0.086758 14:0.0875576 15:0.116279 16:-0.16129 17:-0.615385 18:-0.459209 19:-0.171077 20:0.254055 21:-0.989166 22:0.103139 23:0.115044 24:0.0990991 25:0.139013 26:0.290323 27:-0.0769231 28:-0.258915 29:-0.357576 30:0.591119 
8192 1:-0.989166 2:0.123288 3:0.150685 4:0.124424 5:0.181395 6:0.290323 7:-0.0769231 8:-0.258915 9:-0.357576 10:0.591119 11:-0.991333 12:0.13242 13:0.123288 14:0.124424 15:0.153488 16:-0.354839 17:-0.384615 18:-0.5149 19:-0.0307831 20:0.169644 21:-0.995666 22:0.103139 23:0.0884956 24:0.108108 25:0.112108 26:-0.16129 27:-0.615385 28:-0.404006 29:0.0153015 30:0.156712 
8192 1:-0.995666 2:0.123288 3:0.114155 4:0.133641 5:0.134884 6:-0.290323 7:-0.692308 8:-0.445042 9:-0.0954695 10:0.198941 11:-0.991333 12:0.16895 13:0.141553 14:0.133641 15:0.144186 16:-0.0967742 17:-0.615385 18:-0.572545 19:-0.260246 20:0.475815 21:-0.986999 22:0.156951 23:0.115044 24:0.117117 25:0.130045 26:0.0322581 27:-0.384615 28:-0.535906 29:-0.306091 30:0.645121 
8192 1:-0.991333 2:0.16895 3:0.141553 4:0.133641 5:0.144186 6:-0.0967742 7:-0.615385 8:-0.572545 9:-0.260246 10:0.475815 11:-0.986999 12:0.178082 13:0.150685 14:0.142857 15:0.172093 16:0.0322581 17:-0.384615 18:-0.535906 19:-0.306091 20:0.645121 21:-0.989166 22:0.147982 23:0.106195 24:0.0900901 25:0.0762332 26:-0.548387 27:-0.230769 28:-0.22765 29:0.155836 30:0.268631 
8192 1:-0.989166 2:0.105023 3:0.0958904 4:0.078341 5:0.0697674 6:-0.483871 7:-0.307692 8:-0.443576 9:0.0251425 10:0.17165 11:-0.984832 12:0.0776256 13:0.114155 14:0.0875576 15:0.144186 16:0.354839 18:-0.355154 19:-0.119352 20:0.512171 21:-0.995666 22:0.121076 23:0.079646 24:0.0900901 25:0.0762332 26:-0.354839 27:-0.615385 28:-0.609184 29:-0.154515 30:0.220068 
8192 1:-0.984832 2:0.0776256 3:0.114155 4:0.0875576 5:0.144186 6:0.354839 8:-0.355154 9:-0.119352 10:0.512171 11:-0.995666 12:0.141553 13:0.114155 14:0.115207 15:0.116279 16:-0.354839 17:-0.615385 18:-0.609184 19:-0.154515 20:0.220068 21:-0.995666 22:0.103139 23:0.0619469 24:0.045045 25:0.0672646 26:-0.225806 27:-0.538462 28:-0.534929 29:-0.209241 30:0.106166 
8192 1:-0.995666 2:0.123288 3:0.0958904 4:0.0691244 5:0.106977 6:-0.225806 7:-0.538462 8:-0.534929 9:-0.209241 10:0.106166 11:-0.995666 12:0.105023 13:0.086758 14:0.0875576 15:0.0883721 16:-0.290323 17:-0.615385 18:-0.444064 19:-0.121392 20:0.0836859 21:-1 22:0.0672646 23:0.0442478 24:0.0540541 25:0.0672646 26:-0.0322581 27:-0.846154 28:-0.443087 29:-0.188719 30:0.138534 
8192 1:-1 2:0.086758 3:0.0776256 4:0.078341 5:0.106977 6:-0.0322581 7:-0.846154 8:-0.443087 9:-0.188719 10:0.138534 11:-0.995666 12:0.0958904 13:0.086758 14:0.0967742 15:0.106977 16:-0.16129 17:-0.692308 18:-0.34001 19:-0.143834 20:0.162513 21:-0.997833 22:0.058296 23:0.0619469 24:0.0630631 25:0.0762332 26:-0.0967742 27:-0.692308 28:-0.403029 29:-0.165677 30:0.171505 
8192 1:-0.995666 2:0.0958904 3:0.086758 4:0.0967742 5:0.106977 6:-0.16129 7:-0.692308 8:-0.34001 9:-0.143834 10:0.162513 11:-0.997833 12:0.0776256 13:0.0958904 14:0.0875576 15:0.116279 16:-0.0967742 17:-0.692308 18:-0.403029 19:-0.165677 20:0.171505 21:-0.991333 22:0.058296 23:0.0176991 24:0.036036 25:0.0313901 26:-0.483871 27:-0.153846 28:-0.640449 29:-0.0447045 30:-0.177548 
8192 1:-0.991333 2:0.0776256 3:0.0502283 4:0.0599078 5:0.0697674 6:-0.483871 7:-0.153846 8:-0.640449 9:-0.0447045 10:-0.177548 11:-0.995666 12:0.0684932 13:0.0410959 14:0.0506912 15:0.0418605 16:-0.354839 17:-0.538462 18:-0.74597 19:-0.107951 20:-0.102299 21:-0.991333 22:0.0313901 23:0.0176991 24:0.027027 25:0.0134529 26:-0.0967742 27:-0.615385 28:-0.427455 29:-0.10183 30:0.0401025 
8192 1:-0.991333 2:0.0410959 3:0.0136986 4:0.0322581 5:0.0232558 6:-0.354839 7:-0.384615 8:-0.431851 9:-0.122832 10:-0.254732 11:-0.989166 12:0.0228311 13:0.0228311 14:0.0322581 15:0.0325581 16:-0.0967742 17:-0.615385 18:-0.404983 19:-0.143474 20:0.0697866 21:-0.995666 22:0.0224215 23:0.0265487 24:0.027027 25:0.0493274 26:0.225806 27:-0.615385 28:-0.295066 29:-0.156436 30:0.234717 
8192 1:-0.982665 2:0.242009 3:0.223744 4:0.198157 5:0.209302 6:0.0967742 7:0.0769231 8:-0.60723 9:-0.154995 10:0.588823 11:-0.991333 12:0.232877 13:0.214612 14:0.225806 15:0.237209 16:0.0322581 17:-0.384615 18:-0.42257 19:-0.214521 20:0.543136 21:-0.993499 22:0.219731 23:0.185841 24:0.198198 25:0.192825 26:-0.16129 27:-0.461538 28:0.0102589 29:-0.105671 30:0.247625 
3825.39431115411 1:-0.982665 2:0.369863 3:0.369863 4:0.345622 5:0.339535 6:-0.0322581 7:0.0769231 8:-0.447973 9:-0.472187 10:0.321473 11:-0.989166 12:0.342466 13:0.351598 14:0.354839 15:0.376744 16:0.0967742 17:-0.230769 18:-0.37616 19:-0.0587459 20:0.20322 21:-0.982665 22:0.327354 23:0.353982 24:0.324324 25:0.363229 26:0.0967742 27:0.153846 28:-0.33659 29:-0.090189 30:0.400904 
8192 1:-0.982665 2:0.351598 3:0.39726 4:0.354839 5:0.413953 6:0.0967742 7:0.153846 8:-0.33659 9:-0.090189 10:0.400904 11:-0.991333 12:0.360731 13:0.369863 14:0.373272 15:0.386047 16:-0.354839 17:-0.538462 18:-0.577919 19:-0.0665467 20:0.142981 21:-0.991333 22:0.318386 23:0.309735 24:0.324324 25:0.336323 26:-0.16129 27:-0.461538 28:-0.00830484 29:-0.10351 30:0.087481 
8192 1:-0.991333 2:0.360731 3:0.369863 4:0.373272 5:0.386047 6:-0.354839 7:-0.538462 8:-0.577919 9:-0.0665467 10:0.142981 11:-0.991333 12:0.342466 13:0.351598 14:0.354839 15:0.386047 16:-0.16129 17:-0.461538 18:-0.00830484 19:-0.10351 20:0.087481 21:-0.986999 22:0.336323 23:0.292035 24:0.315315 25:0.309417 26:-0.354839 27:-0.230769 28:1 29:-0.139994 30:0.122725 
3928.130716686549 1:-0.986999 2:0.360731 3:0.333333 4:0.345622 5:0.35814 6:-0.354839 7:-0.230769 8:1 9:-0.139994 10:0.122725 11:-0.993499 12:0.324201 13:0.315068 14:0.336406 15:0.348837 16:-0.225806 17:-0.384615 18:-0.459697 19:-0.313171 20:0.209432 21:-0.993499 22:0.29148 23:0.274336 24:0.279279 25:0.29148 26:-0.225806 27:-0.615385 28:-0.481192 29:-0.130513 30:0.126278 
8192 1:-0.993499 2:0.360731 3:0.369863 4:0.364055 5:0.367442 6:-0.16129 7:-0.538462 8:-0.508061 9:-0.0690669 10:0.226837 11:-0.995666 12:0.360731 13:0.351598 14:0.373272 15:0.376744 16:-0.0967742 17:-0.692308 18:-0.493894 19:-0.0972697 20:0.141072 21:-0.991333 22:0.35426 23:0.327434 24:0.351351 25:0.35426 26:0.0322581 27:-0.538462 28:-0.462628 29:-0.110111 30:0.309459 
8192 1:-0.995666 2:0.360731 3:0.351598 4:0.373272 5:0.376744 6:-0.0967742 7:-0.692308 8:-0.493894 9:-0.0972697 10:0.141072 11:-0.991333 12:0.378995 13:0.369863 14:0.382488 15:0.404651 16:0.0322581 17:-0.538462 18:-0.462628 19:-0.110111 20:0.309459 21:-0.989166 22:0.336323 23:0.327434 24:0.342342 25:0.35426 26:-0.16129 27:-0.461538 28:-0.487054 29:-0.109991 30:0.181489 
8192 1:-0.973998 2:0.388128 3:0.369863 4:0.336406 5:0.330233 6:-0.677419 7:-0.230769 8:-0.472887 9:0.183798 10:-0.0877952 11:-0.989166 12:0.360731 13:0.369863 14:0.364055 15:0.404651 16:0.354839 17:-0.615385 18:-0.526624 19:-0.30009 20:0.308637 21:-0.993499 22:0.399103 23:0.362832 24:0.387387 25:0.390135 26:0.0967742 27:-0.538462 28:-0.450904 29:-0.189799 30:0.362663 
8192 1:-0.993499 2:0.424658 3:0.406393 4:0.419355 5:0.44186 6:0.0967742 7:-0.538462 8:-0.450904 9:-0.189799 10:0.362663 11:-0.308776 12:0.43379 13:0.406393 14:0.428571 15:0.44186 16:-0.16129 17:-1 18:-0.539814 19:-0.10051 20:0.144819 21:-0.993499 22:0.41704 23:0.415929 24:0.414414 25:0.443946 26:0.225806 27:-0.461538 28:-0.73913 29:-0.224242 30:0.374097 
8192 1:-0.986999 2:0.488584 3:0.47032 4:0.465438 5:0.488372 6:-0.0322581 7:-0.461538 8:-0.425012 9:-0.10459 10:0.266262 11:-0.993499 12:0.488584 13:0.479452 14:0.493088 15:0.516279 16:0.0322581 17:-0.538462 18:-0.476307 19:-0.241164 20:0.359424 21:-0.986999 22:0.506726 23:0.469027 24:0.468468 25:0.443946 26:-0.290323 27:-0.307692 28:-0.399121 29:-0.0540654 30:0.0399575 
8192 1:-0.989166 2:0.406393 3:0.461187 4:0.410138 5:0.488372 6:0.290323 7:-0.384615 8:0.0180752 9:0.00558056 10:0.118954 11:-0.995666 12:0.47032 13:0.479452 14:0.474654 15:0.516279 16:0.0322581 17:-0.692308 18:-0.574988 19:-0.0565857 20:0.143199 21:-0.989166 22:0.515695 23:0.522124 24:0.513514 25:0.524664 26:0.290323 27:-0.384615 28:-0.436248 29:-0.343894 30:0.114482 
6295.563444729531 1:-0.982665 2:0.561644 3:0.552511 4:0.548387 5:0.562791 6:-0.290323 7:-0.153846 8:-0.446996 9:0.505191 10:-0.0679978 11:-0.991333 12:0.579909 13:0.570776 14:0.585253 15:0.609302 16:0.16129 17:-0.538462 18:-0.302882 19:0.264326 20:0.156687 21:-0.984832 22:0.569507 23:0.530973 24:0.558559 25:0.533632 26:-0.290323 28:-0.390327 29:0.719532 30:-0.206701 
1845.3733022766 1:-0.984832 2:0.598174 3:0.579909 4:0.59447 5:0.590698 6:-0.290323 8:-0.390327 9:0.719532 10:-0.206701 11:-0.976165 12:0.488584 13:0.515982 14:0.502304 15:0.553488 16:-0.16129 17:0.461538 18:-0.418173 19:-1 20:0.495105 21:-0.982665 22:0.497758 23:0.451327 24:0.45045 25:0.434978 26:-0.612903 27:0.230769 28:-0.490474 29:0.249805 30:-0.232203 
3953.581588090852 1:-0.982665 2:0.525114 3:0.497717 4:0.483871 5:0.488372 6:-0.612903 7:0.230769 8:-0.490474 9:0.249805 10:-0.232203 11:-0.980498 12:0.442922 13:0.424658 14:0.428571 15:0.432558 16:-0.548387 17:0.0769231 18:-0.536395 19:-0.119952 20:-0.19285 21:-0.991333 22:0.434978 23:0.389381 24:0.405405 25:0.408072 26:0.0322581 27:-0.461538 28:-0.47533 29:-0.242724 30:0.111194 
8192 1:-0.991333 2:0.461187 3:0.43379 4:0.437788 5:0.460465 6:0.0322581 7:-0.461538 8:-0.47533 9:-0.242724 10:0.111194 11:-0.989166 12:0.388128 13:0.39726 14:0.400922 15:0.432558 16:-0.354839 17:-0.384615 18:-0.43576 19:-0.177798 20:0.0141894 21:-0.993499 22:0.381166 23:0.362832 24:0.378378 25:0.390135 26:-0.0967742 27:-0.538462 28:-0.656082 29:-0.049625 30:0.151031 
8192 1:-0.993499 2:0.406393 3:0.406393 4:0.410138 5:0.44186 6:-0.0967742 7:-0.538462 8:-0.656082 9:-0.049625 10:0.151031 11:-0.993499 12:0.415525 13:0.39726 14:0.410138 15:0.404651 16:-0.419355 17:-0.461538 18:-0.600879 19:-0.164236 20:-0.0248737 21:-0.993499 22:0.372197 23:0.353982 24:0.369369 25:0.381166 26:0.0322581 27:-0.538462 28:-0.384465 29:0.123312 30:-0.0576519 
8192 1:-0.993499 2:0.415525 3:0.39726 4:0.410138 5:0.404651 6:-0.419355 7:-0.461538 8:-0.600879 9:-0.164236 10:-0.0248737 11:-0.993499 12:0.39726 13:0.39726 14:0.400922 15:0.432558 16:0.0322581 17:-0.538462 18:-0.384465 19:0.123312 20:-0.0576519 21:-0.995666 22:0.390135 23:0.353982 24:0.378378 25:0.363229 26:-0.290323 27:-0.769231 28:-0.504152 29:-0.182118 30:0.0109502 
8192 1:-0.993499 2:0.39726 3:0.39726 4:0.400922 5:0.432558 6:0.0322581 7:-0.538462 8:-0.384465 9:0.123312 10:-0.0576519 11:-0.995666 12:0.415525 13:0.39726 14:0.410138 15:0.413953 16:-0.290323 17:-0.769231 18:-0.504152 19:-0.182118 20:0.0109502 21:-0.993499 22:0.372197 23:0.336283 24:0.351351 25:0.336323 26:-0.354839 27:-0.461538 28:-0.834392 29:-0.19832 30:-0.0863932 
271.882388823434 1:-0.993499 2:0.39726 3:0.378995 4:0.382488 5:0.386047 6:-0.354839 7:-0.461538 8:-0.834392 9:-0.19832 10:-0.0863932 11:-0.997833 12:0.388128 13:0.369863 14:0.391705 15:0.386047 16:-0.16129 17:-0.692308 18:-0.428432 19:-0.0292229 20:-0.0104426 21:-0.986999 22:0.390135 23:0.415929 24:0.387387 25:0.443946 26:0.612903 27:-0.230769 28:-0.40254 29:-0.418302 30:0.337209 
8192 1:-0.986999 2:0.415525 3:0.461187 4:0.419355 5:0.497674 6:0.612903 7:-0.230769 8:-0.40254 9:-0.418302 10:0.337209 11:-0.991333 12:0.47032 13:0.47032 14:0.474654 15:0.469767 16:-0.354839 17:-0.384615 18:-0.188569 19:-0.132313 20:-0.0779086 21:-0.980498 22:0.461883 23:0.486726 24:0.459459 25:0.488789 26:0.354839 27:0.153846 28:-0.167562 29:-0.292889 30:0.259905 
7509.658891641218 1:-0.995666 2:0.506849 3:0.497717 4:0.502304 5:0.534884 6:-0.0322581 7:-0.461538 8:-0.734245 9:-0.260606 10:0.238246 11:-0.993499 12:0.497717 13:0.515982 14:0.511521 15:0.544186 16:-0.0967742 17:-0.230769 18:-0.261358 19:-0.191479 20:0.171819 21:-0.993499 22:0.515695 23:0.477876 24:0.504505 25:0.506726 26:-0.0322581 27:-0.461538 28:-0.565706 29:-0.174917 30:0.190916 
8192 1:-0.993499 2:0.543379 3:0.525114 4:0.539171 5:0.562791 6:-0.0322581 7:-0.461538 8:-0.565706 9:-0.174917 10:0.190916 11:-0.995666 12:0.525114 13:0.515982 14:0.529954 15:0.534884 16:-0.354839 17:-0.538462 18:-0.417684 19:-0.128113 20:0.0239793 21:-0.993499 22:0.488789 23:0.460177 24:0.486486 25:0.488789 26:-0.0967742 27:-0.615385 28:-0.440645 29:-0.146715 30:0.0518021 
8192 1:-0.995666 2:0.525114 3:0.515982 4:0.529954 5:0.534884 6:-0.354839 7:-0.538462 8:-0.417684 9:-0.128113 10:0.0239793 11:-0.993499 12:0.515982 13:0.506849 14:0.520737 15:0.544186 16:-0.0967742 17:-0.615385 18:-0.440645 19:-0.146715 20:0.0518021 21:-0.997833 22:0.497758 23:0.460177 24:0.495495 25:0.479821 26:-0.225806 27:-0.769231 28:-0.576453 29:-0.229043 30:0.0760715 
8192 1:-0.997833 2:0.525114 3:0.506849 4:0.529954 5:0.534884 6:-0.225806 7:-0.769231 8:-0.576453 9:-0.229043 10:0.0760715 11:-0.995666 12:0.543379 13:0.515982 14:0.511521 15:0.516279 16:-0.290323 17:-0.692308 18:-0.634099 19:-0.164236 20:0.0498683 21:-0.993499 22:0.488789 23:0.486726 24:0.495495 25:0.506726 26:0.16129 27:-0.384615 28:-0.539326 29:-0.19532 30:0.347337 
8192 1:-0.993499 2:0.515982 3:0.534247 4:0.529954 5:0.562791 6:0.16129 7:-0.384615 8:-0.539326 9:-0.19532 10:0.347337 11:-0.993499 12:0.506849 13:0.497717 14:0.511521 15:0.516279 16:-0.483871 17:-0.538462 18:-0.478749 19:-0.180318 20:-0.0906476 21:-0.993499 22:0.452915 23:0.460177 24:0.459459 25:0.488789 26:0.0322581 27:-0.615385 28:-0.480703 29:-0.117672 30:0.0835892 
8192 1:-0.993499 2:0.497717 3:0.497717 4:0.502304 5:0.497674 6:-0.483871 7:-0.538462 8:-0.38935 9:-0.000780078 10:0.00420605 11:-0.989166 12:0.525114 13:0.534247 14:0.539171 15:0.572093 16:0.354839 17:-0.230769 18:-0.446019 19:-0.317732 20:0.419565 21:-0.991333 22:0.479821 23:0.451327 24:0.477477 25:0.470852 26:-0.483871 27:-0.538462 28:-0.354177 29:-0.0749475 30:-0.127197 
8192 1:-0.993499 2:0.515982 3:0.497717 4:0.511521 5:0.516279 6:-0.225806 7:-0.692308 8:-0.429897 9:-0.126553 10:-0.130919 11:-0.993499 12:0.515982 13:0.543379 14:0.529954 15:0.572093 16:0.225806 17:-0.538462 18:-0.383 19:-0.292889 20:0.175953 21:-0.991333 22:0.560538 23:0.539823 24:0.540541 25:0.542601 26:0.0322581 27:-0.461538 28:-0.398632 29:-0.381098 30:0.250381 
8192 1:-0.993499 2:0.515982 3:0.543379 4:0.529954 5:0.572093 6:0.225806 7:-0.538462 8:-0.383 9:-0.292889 10:0.175953 11:-0.991333 12:0.589041 13:0.589041 14:0.576037 15:0.6 16:0.0322581 17:-0.461538 18:-0.398632 19:-0.381098 20:0.250381 21:-0.989166 22:0.515695 23:0.477876 24:0.495495 25:0.488789 26:-0.548387 27:-0.384615 28:-0.327308 29:-0.0814281 30:-0.223017 
8192 1:-0.991333 2:0.589041 3:0.589041 4:0.576037 5:0.6 6:0.0322581 7:-0.461538 8:-0.398632 9:-0.381098 10:0.250381 11:-0.989166 12:0.543379 13:0.525114 14:0.529954 15:0.544186 16:-0.548387 17:-0.384615 18:-0.327308 19:-0.0814281 20:-0.223017 21:-0.991333 22:0.524664 23:0.477876 24:0.477477 25:0.479821 26:-0.225806 27:-0.461538 28:-0.592574 29:-0.112031 30:-0.13266 
8192 1:-0.989166 2:0.543379 3:0.525114 4:0.529954 5:0.544186 6:-0.548387 7:-0.384615 8:-0.327308 9:-0.0814281 10:-0.223017 11:-0.991333 12:0.552511 13:0.525114 14:0.511521 15:0.534884 16:-0.225806 17:-0.461538 18:-0.592574 19:-0.112031 20:-0.13266 21:-0.984832 22:0.443946 23:0.442478 24:0.441441 25:0.452915 26:-0.354839 27:-0.0769231 28:-0.56424 29:0.154875 30:-0.544055 
8192 1:-0.984832 2:0.47032 3:0.488584 4:0.474654 5:0.506977 6:-0.354839 7:-0.0769231 8:-0.56424 9:0.154875 10:-0.544055 11:-0.989166 12:0.515982 13:0.497717 14:0.465438 15:0.47907 16:-0.354839 17:-0.538462 18:-0.446507 19:-0.274287 20:-0.0735817 21:-0.995666 22:0.479821 23:0.460177 24:0.486486 25:0.479821 26:0.225806 27:-0.692308 28:-0.464582 29:-0.380378 30:0.160893 
8192 1:-0.995666 2:0.506849 3:0.506849 4:0.520737 5:0.534884 6:0.225806 7:-0.692308 8:-0.464582 9:-0.380378 10:0.160893 11:-0.991333 12:0.534247 13:0.506849 14:0.483871 15:0.516279 16:-0.290323 17:-0.461538 18:-0.400098 19:-0.120672 20:0.0403926 21:-1 22:0.488789 23:0.451327 24:0.486486 25:0.479821 26:-0.0322581 27:-0.846154 28:-0.452858 29:-0.175638 30:0.203341 
8192 1:-0.991333 2:0.534247 3:0.506849 4:0.483871 5:0.516279 6:-0.290323 7:-0.461538 8:-0.400098 9:-0.120672 10:0.0403926 11:-1 12:0.515982 13:0.497717 14:0.520737 15:0.534884 16:-0.0322581 17:-0.846154 18:-0.452858 19:-0.175638 20:0.203341 21:-0.995666 22:0.461883 23:0.433628 24:0.45045 25:0.452915 26:-0.354839 27:-0.846154 28:-0.434294 29:-0.0388239 30:-0.0132708 
8192 1:-0.997833 2:0.552511 3:0.534247 4:0.539171 5:0.562791 6:-0.0322581 7:-0.692308 8:-0.467513 9:-0.441224 10:0.249317 11:-0.995666 12:0.561644 13:0.552511 14:0.56682 15:0.590698 16:0.0322581 17:-0.615385 18:-0.445042 19:-0.176838 20:0.319104 21:-0.997833 22:0.560538 23:0.513274 24:0.540541 25:0.542601 26:-0.0967742 27:-0.692308 28:-0.410357 29:-0.205281 30:0.29979 
8192 1:-0.995666 2:0.561644 3:0.552511 4:0.56682 5:0.590698 6:0.0322581 7:-0.615385 8:-0.445042 9:-0.176838 10:0.319104 11:-0.997833 12:0.589041 13:0.561644 14:0.576037 15:0.6 16:-0.0967742 17:-0.692308 18:-0.410357 19:-0.205281 20:0.29979 21:-0.995666 22:0.515695 23:0.495575 24:0.522523 25:0.515695 26:-0.354839 27:-0.692308 28:-0.503664 29:-0.116352 30:0.177428 
8192 1:-0.995666 2:0.543379 3:0.543379 4:0.557604 5:0.572093 6:-0.354839 7:-0.692308 8:-0.503664 9:-0.116352 10:0.177428 11:-0.995666 12:0.561644 13:0.534247 14:0.557604 15:0.572093 16:-0.16129 17:-0.692308 18:-0.462628 19:-0.182238 20:0.179724 21:-0.993499 22:0.533632 23:0.522124 24:0.540541 25:0.542601 26:0.0322581 27:-0.615385 28:-0.464582 29:-0.29853 30:0.367933 
8192 1:-0.995666 2:0.561644 3:0.534247 4:0.557604 5:0.572093 6:-0.16129 7:-0.692308 8:-0.462628 9:-0.182238 10:0.179724 11:-0.993499 12:0.561644 13:0.570776 14:0.576037 15:0.6 16:0.0322581 17:-0.615385 18:-0.464582 19:-0.29853 20:0.367933 21:-0.991333 22:0.560538 23:0.522124 24:0.531532 25:0.524664 26:-0.290323 27:-0.615385 28:-0.41573 29:0.00222022 30:0.142716 
8192 1:-0.995666 2:0.543379 3:0.561644 4:0.557604 5:0.581395 6:-0.16129 7:-0.615385 8:-0.440645 9:-0.165197 10:0.131886 11:-0.995666 12:0.570776 13:0.570776 14:0.56682 15:0.6 16:-0.0322581 17:-0.461538 18:-0.423547 19:-0.224002 20:0.14726 21:-0.986999 22:0.569507 23:0.522124 24:0.54955 25:0.55157 26:-0.0967742 27:-0.538462 28:-0.41573 29:-0.30213 30:0.148203 
8192 1:-0.995666 2:0.570776 3:0.570776 4:0.56682 5:0.6 6:-0.0322581 7:-0.461538 8:-0.423547 9:-0.224002 10:0.14726 11:-0.986999 12:0.598174 13:0.570776 14:0.585253 15:0.609302 16:-0.0967742 17:-0.538462 18:-0.41573 19:-0.30213 20:0.148203 21:-0.989166 22:0.542601 23:0.522124 24:0.540541 25:0.533632 26:-0.290323 27:-0.615385 28:-0.5447 29:-0.438104 30:0.152868 
8192 1:-0.989166 2:0.570776 3:0.570776 4:0.576037 5:0.590698 6:-0.290323 7:-0.615385 8:-0.5447 9:-0.438104 10:0.152868 11:-0.993499 12:0.598174 13:0.579909 14:0.576037 15:0.590698 16:-0.16129 17:-0.615385 18:-0.358085 19:-0.141794 20:0.0466049 21:-0.991333 22:0.55157 23:0.522124 24:0.54955 25:0.55157 26:-0.0322581 27:-0.538462 28:-0.516365 29:-0.166277 30:0.212502 
8192 1:-0.991333 2:0.579909 3:0.570776 4:0.585253 5:0.609302 6:-0.0322581 7:-0.538462 8:-0.516365 9:-0.166277 10:0.212502 11:-0.993499 12:0.616438 13:0.598174 14:0.585253 15:0.590698 16:-0.290323 17:-0.692308 18:-0.430874 19:-0.142994 20:0.136068 21:-0.991333 22:0.587444 23:0.548673 24:0.567568 25:0.569507 26:0.0967742 27:-0.692308 28:-0.245725 29:-0.158356 30:0.336532 
8192 1:-0.991333 2:0.616438 3:0.598174 4:0.603687 5:0.627907 6:0.0967742 7:-0.692308 8:-0.245725 9:-0.158356 10:0.336532 11:-0.995666 12:0.589041 13:0.589041 14:0.603687 15:0.609302 16:-0.290323 17:-0.769231 18:-0.472399 19:-0.252805 20:0.110711 21:-0.993499 22:0.578475 23:0.539823 24:0.567568 25:0.560538 26:-0.0967742 27:-0.615385 28:-0.311676 29:-0.163516 30:0.241098 
8192 1:-0.980498 2:0.607306 3:0.589041 4:0.59447 5:0.618605 6:-0.16129 7:-0.692308 8:-0.305813 9:-0.10207 10:0.0246078 11:-0.995666 12:0.616438 13:0.607306 14:0.612903 15:0.637209 16:-0.0322581 17:-0.615385 18:-0.615535 19:-0.124152 20:0.304213 21:-0.991333 22:0.632287 23:0.584071 24:0.612613 25:0.61435 26:0.0967742 27:-0.230769 28:-0.519785 29:-0.274887 30:0.281418 
8192 1:-0.995666 2:0.616438 3:0.607306 4:0.612903 5:0.637209 6:-0.0322581 7:-0.615385 8:-0.615535 9:-0.124152 10:0.304213 11:-0.991333 12:0.6621 13:0.634703 14:0.64977 15:0.674419 16:0.0967742 17:-0.230769 18:-0.519785 19:-0.274887 20:0.281418 21:-0.991333 22:0.623318 23:0.59292 24:0.612613 25:0.61435 26:-0.16129 27:-0.384615 28:-0.555936 29:-0.276208 30:0.212236 
8192 1:-0.991333 2:0.6621 3:0.634703 4:0.64977 5:0.674419 6:0.0967742 7:-0.230769 8:-0.519785 9:-0.274887 10:0.281418 11:-0.991333 12:0.652968 13:0.643836 14:0.64977 15:0.674419 16:-0.16129 17:-0.384615 18:-0.555936 19:-0.276208 20:0.212236 21:-0.993499 22:0.623318 23:0.610619 24:0.612613 25:0.605381 26:-0.225806 27:-0.615385 28:-0.375672 29:-0.107951 30:0.142546 
8192 1:-0.991333 2:0.652968 3:0.643836 4:0.64977 5:0.674419 6:-0.16129 7:-0.384615 8:-0.555936 9:-0.276208 10:0.212236 11:-0.993499 12:0.652968 13:0.6621 14:0.64977 15:0.665116 16:-0.225806 17:-0.615385 18:-0.375672 19:-0.107951 20:0.142546 21:-0.993499 22:0.632287 23:0.59292 24:0.585586 25:0.560538 26:-0.483871 27:-0.538462 28:-0.426966 29:-0.10207 30:0.117286 
353.0101225486046 1:-0.995666 2:0.589041 3:0.579909 4:0.59447 5:0.590698 6:-0.354839 7:-0.615385 8:-0.562775 9:-0.169997 10:0.0619788 11:-0.991333 12:0.589041 13:0.570776 14:0.539171 15:0.534884 16:-0.548387 17:-0.461538 18:-0.134831 19:-0.10135 20:-0.0530349 21:-0.991333 22:0.560538 23:0.513274 24:0.522523 25:0.497758 26:-0.0322581 27:-0.538462 28:-0.446507 29:-0.174917 30:0.0882545 
8192 1:-0.991333 2:0.589041 3:0.561644 4:0.557604 5:0.553488 6:-0.0322581 7:-0.538462 8:-0.446507 9:-0.174917 10:0.0882545 11:-0.989166 12:0.543379 13:0.534247 14:0.529954 15:0.534884 16:-0.290323 17:-0.538462 18:-0.66683 19:-0.0138614 20:-0.0880128 21:-0.991333 22:0.533632 23:0.513274 24:0.531532 25:0.524664 26:0.16129 27:-0.538462 28:-0.499267 29:-0.348815 30:0.36085 
8192 1:-0.989166 2:0.625571 3:0.616438 4:0.62212 5:0.655814 6:0.354839 7:-0.307692 8:-0.454323 9:-0.145875 10:0.310764 11:-0.984832 12:0.616438 13:0.6621 14:0.631336 15:0.693023 16:0.0967742 17:-0.153846 18:-0.561798 19:-0.30129 20:0.238101 21:-0.991333 22:0.641256 23:0.654867 24:0.648649 25:0.668161 26:0.0967742 27:-0.461538 28:-0.452369 29:-0.210081 30:0.25594 
8192 1:-0.980498 2:0.908676 3:0.926941 4:0.917051 5:0.972093 6:0.419355 7:0.153846 8:-0.615535 9:-0.253165 10:0.528608 11:-0.991333 12:0.954338 13:0.926941 14:0.917051 15:0.972093 16:-0.16129 17:-0.307692 18:-0.570103 19:-0.070387 20:0.21023 21:-0.993499 22:0.919283 23:0.876106 24:0.900901 25:0.910314 26:-0.0967742 27:-0.615385 28:-0.369321 29:-0.090309 30:0.196186 
6894.360133553823 1:-0.993499 2:0.96347 3:0.936073 4:0.926267 5:0.934884 6:-0.483871 7:-0.615385 8:-0.545677 9:-0.0432643 10:0.0738717 11:-0.989166 12:0.990868 13:0.96347 14:0.963134 15:0.972093 16:0.0967742 17:-0.307692 18:-0.558378 19:0.10387 20:0.254853 21:-0.991333 22:0.955157 23:0.938053 24:0.954955 25:0.928251 26:0.0322581 27:-0.384615 28:-0.63361 29:-0.119952 30:0.25246 
6038.270146561446 1:-0.991333 2:0.990868 3:1 4:1 5:1 6:0.0322581 7:-0.384615 8:-0.63361 9:-0.119952 10:0.25246 11:-0.989166 12:0.96347 13:0.96347 14:0.97235 15:0.972093 16:-0.354839 17:-0.538462 18:-0.350757 19:-0.0855086 20:0.16377 21:-0.995666 22:0.946188 23:0.911504 24:0.945946 25:0.928251 26:0.0322581 27:-0.615385 28:0.525159 29:-0.169877 30:0.184897 
8192 1:-0.995666 2:0.981735 3:0.972603 4:0.990783 5:1 6:0.0322581 7:-0.615385 8:0.525159 9:-0.169877 10:0.184897 11:-0.995666 12:1 13:0.972603 14:0.981567 15:0.981395 16:-0.290323 17:-0.615385 18:-0.602345 19:-0.146115 20:0.12959 21:-0.993499 22:0.93722 23:0.893805 24:0.927928 25:0.910314 26:-0.16129 27:-0.692308 28:-0.299463 29:-0.144434 30:0.178346 
2600.850575975217 1:-0.995666 2:0.945205 3:0.936073 4:0.9447 5:0.944186 6:-0.419355 7:-0.769231 8:-0.436737 9:-0.145755 10:0.0927748 11:-0.993499 12:0.954338 13:0.972603 14:0.97235 15:1 16:0.225806 17:-0.692308 18:-0.0547142 19:-0.186439 20:0.295632 21:-0.986999 22:1 23:1 24:1 25:1 26:0.354839 27:-0.307692 28:-0.463605 29:-0.138314 30:0.252242 
-8192 1:-0.989166 2:-0.844749 3:-0.853881 4:-0.880184 5:-0.87907 6:-0.354839 7:0.0769231 8:-0.596971 9:-0.00546055 10:-0.000652663 11:-0.986999 12:-0.863014 13:-0.890411 14:-0.917051 15:-0.925581 16:-0.483871 17:0.0769231 18:-0.688813 19:-0.130153 20:-0.245425 21:-0.984832 22:-0.928251 23:-0.946903 24:-1 25:-0.973094 26:-0.483871 27:0.384615 28:-0.830484 29:0.111791 30:-0.290507 
-1791.167779654097 1:-0.993499 2:-0.954338 3:-0.96347 4:-0.981567 5:-0.972093 6:-0.16129 7:-0.384615 8:-0.399121 9:-0.182118 10:-0.0370567 11:-0.989166 12:-0.945205 13:-0.936073 14:-0.953917 15:-0.962791 16:-0.0967742 17:-0.384615 18:-0.670249 19:-0.355056 20:0.303101 21:-0.991333 22:-1 23:-1 24:-1 25:-1 26:-0.419355 28:-0.517831 29:-0.228683 30:0.0435592 
-2231.666472914545 1:-0.991333 2:-1 3:-1 4:-1 5:-1 6:-0.419355 8:-0.517831 9:-0.228683 10:0.0435592 11:-0.980498 12:-0.872146 13:-0.890411 14:-0.907834 15:-0.897674 16:0.548387 17:0.461538 18:0.465559 19:-0.328773 20:0.742754 21:-0.991333 22:-0.919283 23:-0.893805 24:-0.927928 25:-0.901345 26:-0.16129 27:-0.230769 28:0.357108 29:-0.0237024 30:0.139259 
-3368.293913103552 1:-0.995666 2:-0.872146 3:-0.890411 4:-0.898618 5:-0.87907 6:-0.0322581 7:-0.461538 8:-0.44895 9:-0.10435 10:0.152796 11:-0.989166 12:-0.872146 13:-0.899543 14:-0.9447 15:-0.944186 16:-0.612903 17:-0.0769231 18:-0.331216 19:-0.244764 20:0.0455655 21:-0.993499 22:-0.93722 23:-0.920354 24:-0.936937 25:-0.93722 26:-0.0967742 27:-0.384615 28:-0.39619 29:-0.321812 30:0.155164 
-8192 1:-0.989166 2:-0.872146 3:-0.899543 4:-0.9447 5:-0.944186 6:-0.612903 7:-0.0769231 8:-0.331216 9:-0.244764 10:0.0455655 11:-0.993499 12:-0.936073 13:-0.917808 14:-0.935484 15:-0.934884 16:-0.0967742 17:-0.384615 18:-0.39619 19:-0.321812 20:0.155164 21:-0.993499 22:-0.892377 23:-0.884956 24:-0.900901 25:-0.874439 26:0.290323 27:-0.153846 28:-0.270151 29:-0.340414 30:0.398608 
-8192 1:-0.995666 2:-0.826484 3:-0.853881 4:-0.843318 5:-0.851163 6:-0.0322581 7:-0.384615 8:-0.720078 9:-0.108311 10:0.316421 11:-0.995666 12:-0.872146 13:-0.872146 14:-0.880184 15:-0.888372 16:-0.419355 17:-0.615385 18:-0.190523 19:-0.10291 20:0.0808576 21:-0.995666 22:-0.847534 23:-0.867257 24:-0.855856 25:-0.856502 26:0.0967742 27:-0.461538 28:-0.331705 29:-0.284128 30:0.245788 
-8192 1:-0.995666 2:-0.872146 3:-0.872146 4:-0.880184 5:-0.888372 6:-0.419355 7:-0.615385 8:-0.190523 9:-0.10291 10:0.0808576 11:-0.995666 12:-0.844749 13:-0.863014 14:-0.852535 15:-0.851163 16:0.0967742 17:-0.461538 18:-0.331705 19:-0.284128 20:0.245788 21:-0.991333 22:-0.865471 23:-0.849558 24:-0.864865 25:-0.847534 26:-0.0967742 27:-0.384615 28:-0.668295 29:-0.0839484 30:0.403007 
-5611.123912743023 1:-0.991333 2:-0.863014 3:-0.844749 4:-0.861751 5:-0.84186 6:-0.0967742 7:-0.384615 8:-0.668295 9:-0.0839484 10:0.403007 11:-0.984832 12:-0.853881 13:-0.799087 14:-0.861751 15:-0.786047 16:0.225806 18:-0.554958 19:-0.0637864 20:0.623486 21:-1 22:-0.784753 23:-0.80531 24:-0.810811 25:-0.811659 26:-0.290323 27:-0.615385 28:-0.31998 29:0.0372637 30:0.245885 
-8192 1:-0.995666 2:-0.753425 3:-0.771689 4:-0.797235 5:-0.795349 6:-0.354839 7:-0.538462 8:-0.420616 9:0.00690069 10:0.202446 11:-0.980498 12:-0.73516 13:-0.744292 14:-0.741935 15:-0.730233 16:0.290323 17:0.307692 18:-0.416219 19:-0.30465 20:0.95209 21:-0.978332 22:-0.793722 23:-0.743363 24:-0.792793 25:-0.757848 26:-0.290323 27:0.538462 28:-0.427455 29:-0.0815482 30:0.167106 
-8192 1:-0.980498 2:-0.73516 3:-0.744292 4:-0.741935 5:-0.730233 6:0.290323 7:0.307692 8:-0.416219 9:-0.30465 10:0.95209 11:-0.978332 12:-0.789954 13:-0.73516 14:-0.788018 15:-0.748837 16:-0.290323 17:0.538462 18:-0.427455 19:-0.0815482 20:0.167106 21:-0.984832 22:-0.721973 23:-0.716814 24:-0.72973 25:-0.713004 26:0.16129 27:0.230769 28:-0.427455 29:-0.0613861 30:0.554594 
-8192 1:-0.978332 2:-0.789954 3:-0.73516 4:-0.788018 5:-0.748837 6:-0.290323 7:0.538462 8:-0.427455 9:-0.0815482 10:0.167106 11:-0.984832 12:-0.716895 13:-0.707763 14:-0.723502 15:-0.702326 16:0.16129 17:0.230769 18:-0.427455 19:-0.0613861 20:0.554594 21:-0.991333 22:-0.668161 23:-0.699115 24:-0.702703 25:-0.704036 26:-0.0967742 27:-0.0769231 28:-0.42257 29:0.0809481 30:0.483913 
-8192 1:-0.993499 2:-0.652968 3:-0.625571 4:-0.64977 5:-0.637209 6:-0.16129 7:-0.384615 8:-0.449438 9:-0.168917 10:0.498924 11:-0.995666 12:-0.634703 13:-0.652968 14:-0.658986 15:-0.665116 16:-0.354839 17:-0.461538 18:-0.443576 19:-0.079868 20:0.186903 21:-0.995666 22:-0.659193 23:-0.672566 24:-0.702703 25:-0.704036 26:-0.354839 27:-0.538462 28:-0.467025 29:-0.125353 30:0.171433 
-8192 1:-0.995666 2:-0.652968 3:-0.6621 4:-0.695853 5:-0.693023 6:-0.354839 7:-0.538462 8:-0.467025 9:-0.125353 10:0.171433 11:-0.995666 12:-0.6621 13:-0.652968 14:-0.668203 15:-0.646512 16:0.16129 17:-0.230769 18:-0.40596 19:-0.212601 20:0.496289 21:-0.989166 22:-0.632287 23:-0.654867 24:-0.684685 25:-0.686099 26:-0.354839 27:-0.384615 28:-0.617489 29:0.169637 30:0.27685 
-8192 1:-0.995666 2:-0.6621 3:-0.652968 4:-0.668203 5:-0.646512 6:0.16129 7:-0.230769 8:-0.40596 9:-0.212601 10:0.496289 11:-0.989166 12:-0.625571 13:-0.643836 14:-0.677419 15:-0.674419 16:-0.354839 17:-0.384615 18:-0.617489 19:0.169637 20:0.27685 21:-0.989166 22:-0.67713 23:-0.646018 24:-0.675676 25:-0.632287 26:0.225806 27:-0.153846 28:-0.377626 29:-0.173717 30:0.347458 
-8192 1:-0.991333 2:-0.589041 3:-0.607306 4:-0.612903 5:-0.609302 6:-0.354839 7:-0.307692 8:-0.616023 9:0.0333033 10:0.137156 11:-0.995666 12:-0.598174 13:-0.607306 14:-0.62212 15:-0.618605 16:-0.225806 17:-0.538462 18:-0.349292 19:-0.118392 20:0.142981 21:-0.989166 22:-0.632287 23:-0.646018 24:-0.657658 25:-0.632287 26:-0.16129 27:-0.0769231 28:-0.499756 29:-0.0286229 30:0.301264 
-8192 1:-0.995666 2:-0.598174 3:-0.607306 4:-0.62212 5:-0.618605 6:-0.225806 7:-0.538462 8:-0.349292 9:-0.118392 10:0.142981 11:-0.989166 12:-0.625571 13:-0.634703 14:-0.64977 15:-0.618605 16:-0.16129 17:-0.0769231 18:-0.499756 19:-0.0286229 20:0.301264 21:-0.995666 22:-0.61435 23:-0.628319 24:-0.63964 25:-0.61435 26:-0.0322581 27:-0.384615 28:-0.591109 29:-0.210321 30:0.438613 
-8192 1:-0.989166 2:-0.625571 3:-0.634703 4:-0.64977 5:-0.618605 6:-0.16129 7:-0.0769231 8:-0.499756 9:-0.0286229 10:0.301264 11:-0.995666 12:-0.607306 13:-0.616438 14:-0.631336 15:-0.6 16:-0.0322581 17:-0.384615 18:-0.591109 19:-0.210321 20:0.438613 21:-0.993499 22:-0.596413 23:-0.60177 24:-0.621622 25:-0.587444 26:0.0322581 27:-0.307692 28:-0.398144 29:-0.294569 30:0.484397 
-8192 1:-0.995666 2:-0.607306 3:-0.616438 4:-0.631336 5:-0.6 6:-0.0322581 7:-0.384615 8:-0.591109 9:-0.210321 10:0.438613 11:-0.993499 12:-0.589041 13:-0.589041 14:-0.612903 15:-0.572093 16:0.0322581 17:-0.307692 18:-0.398144 19:-0.294569 20:0.484397 21:-0.993499 22:-0.569507 23:-0.59292 24:-0.594595 25:-0.578475 26:-0.0967742 27:-0.230769 28:-0.439179 29:-0.186199 30:0.508352 
-8192 1:-0.993499 2:-0.561644 3:-0.579909 4:-0.585253 5:-0.562791 6:-0.0967742 7:-0.230769 8:-0.439179 9:-0.186199 10:0.508352 11:-0.991333 12:-0.525114 13:-0.534247 14:-0.539171 15:-0.544186 16:-0.0322581 17:-0.230769 18:-0.601368 19:-0.123312 20:0.592448 21:-0.993499 22:-0.560538 23:-0.566372 24:-0.594595 25:-0.587444 26:-0.354839 27:-0.153846 28:-0.618466 29:-0.0825083 30:0.316807 
-8192 1:-0.991333 2:-0.525114 3:-0.534247 4:-0.539171 5:-0.544186 6:-0.0322581 7:-0.230769 8:-0.601368 9:-0.123312 10:0.592448 11:-0.993499 12:-0.552511 13:-0.552511 14:-0.585253 15:-0.572093 16:-0.354839 17:-0.153846 18:-0.618466 19:-0.0825083 20:0.316807 21:-0.993499 22:-0.55157 23:-0.575221 24:-0.576577 25:-0.560538 26:0.0322581 27:-0.384615 28:-0.496336 29:-0.10111 30:0.474051 
-8192 1:-0.993499 2:-0.552511 3:-0.552511 4:-0.585253 5:-0.572093 6:-0.354839 7:-0.153846 8:-0.618466 9:-0.0825083 10:0.316807 11:-0.993499 12:-0.543379 13:-0.561644 14:-0.56682 15:-0.544186 16:0.0322581 17:-0.384615 18:-0.496336 19:-0.10111 20:0.474051 21:-0.984832 22:-0.479821 23:-0.504425 24:-0.513514 25:-0.515695 26:0.16129 28:-0.59746 29:-0.4027 30:0.887839 
-8192 1:-0.993499 2:-0.543379 3:-0.561644 4:-0.56682 5:-0.544186 6:0.0322581 7:-0.384615 8:-0.496336 9:-0.10111 10:0.474051 11:-0.984832 12:-0.47032 13:-0.488584 14:-0.502304 15:-0.497674 16:0.16129 18:-0.59746 19:-0.4027 20:0.887839 21:-0.982665 22:-0.497758 23:-0.513274 24:-0.495495 25:-0.497758 26:-0.0322581 27:-0.153846 28:-0.450904 29:-0.2 30:0.777587 
-8192 1:-0.982665 2:-0.488584 3:-0.497717 4:-0.483871 5:-0.47907 6:-0.0322581 7:-0.153846 8:-0.450904 9:-0.2 10:0.777587 11:-0.993499 12:-0.461187 13:-0.488584 14:-0.493088 15:-0.469767 16:-0.0967742 17:-0.384615 18:-0.518319 19:-0.0977498 20:0.448137 21:-0.993499 22:-0.479821 23:-0.513274 24:-0.522523 25:-0.515695 26:-0.354839 27:-0.230769 28:-0.461651 29:-0.0429043 30:0.250236 
-8192 1:-0.993499 2:-0.488584 3:-0.497717 4:-0.493088 5:-0.47907 6:-0.0322581 7:-0.461538 8:-0.512946 9:-0.244164 10:0.406633 11:-0.995666 12:-0.497717 13:-0.506849 14:-0.511521 15:-0.497674 16:-0.290323 17:-0.461538 18:-0.707377 19:-0.0169817 20:0.27656 21:-1 22:-0.497758 23:-0.522124 24:-0.522523 25:-0.524664 26:-0.225806 27:-0.692308 28:-0.596483 29:-0.0814281 30:0.178612 
-8192 1:-1 2:-0.488584 3:-0.506849 4:-0.511521 5:-0.506977 6:-0.225806 7:-0.692308 8:-0.596483 9:-0.0814281 10:0.178612 11:-0.997833 12:-0.497717 13:-0.506849 14:-0.511521 15:-0.488372 16:-0.0322581 17:-0.615385 18:-0.697118 19:-0.218122 20:0.332665 21:-0.995666 22:-0.497758 23:-0.513274 24:-0.504505 25:-0.506726 26:-0.16129 27:-0.538462 28:-0.683439 29:-0.314011 30:0.278373 
-8192 1:-0.997833 2:-0.497717 3:-0.506849 4:-0.511521 5:-0.488372 6:-0.0322581 7:-0.615385 8:-0.697118 9:-0.218122 10:0.332665 11:-0.995666 12:-0.488584 13:-0.497717 14:-0.493088 15:-0.488372 16:-0.16129 17:-0.538462 18:-0.683439 19:-0.314011 20:0.278373 21:-0.986999 22:-0.497758 23:-0.469027 24:-0.495495 25:-0.461883 26:0.16129 28:-0.303859 29:-0.109991 30:0.501583 
-8192 1:-0.984832 2:-0.424658 3:-0.43379 4:-0.474654 5:-0.432558 6:-0.0967742 8:-0.113825 9:-0.0637864 10:0.336605 11:-0.991333 12:-0.442922 13:-0.47032 14:-0.502304 15:-0.497674 16:-0.612903 17:-0.307692 18:-0.315584 19:0.0439844 20:0.00526965 21:-0.982665 22:-0.55157 23:-0.575221 24:-0.585586 25:-0.605381 26:-0.806452 27:0.384615 28:-0.52809 29:0.312691 30:-0.227538 
-8192 1:-0.991333 2:-0.442922 3:-0.47032 4:-0.502304 5:-0.497674 6:-0.612903 7:-0.307692 8:-0.315584 9:0.0439844 10:0.00526965 11:-0.982665 12:-0.543379 13:-0.561644 14:-0.576037 15:-0.590698 16:-0.806452 17:0.384615 18:-0.52809 19:0.312691 20:-0.227538 21:-0.991333 22:-0.560538 23:-0.59292 24:-0.603604 25:-0.587444 26:-0.0322581 27:-0.307692 28:-0.553004 29:-0.410021 30:0.0420847 
-8192 1:-0.982665 2:-0.543379 3:-0.561644 4:-0.576037 5:-0.590698 6:-0.806452 7:0.384615 8:-0.52809 9:0.312691 10:-0.227538 11:-0.991333 12:-0.552511 13:-0.579909 14:-0.59447 15:-0.572093 16:-0.0322581 17:-0.307692 18:-0.553004 19:-0.410021 20:0.0420847 21:-0.989166 22:-0.578475 23:-0.539823 24:-0.576577 25:-0.533632 26:0.225806 27:-0.153846 28:-0.495848 29:-0.431023 30:0.13208 
-8192 1:-0.989166 2:-0.570776 3:-0.525114 4:-0.56682 5:-0.516279 6:0.225806 7:-0.153846 8:-0.495848 9:-0.431023 10:0.13208 11:-0.995666 12:-0.534247 13:-0.506849 14:-0.539171 15:-0.497674 16:-0.0322581 17:-0.615385 18:-0.502687 19:-0.168797 20:0.0385071 21:-0.997833 22:-0.515695 23:-0.513274 24:-0.513514 25:-0.515695 26:-0.16129 27:-0.769231 28:-0.361505 29:-0.149955 30:0.090841 
-8192 1:-0.995666 2:-0.497717 3:-0.515982 4:-0.502304 5:-0.506977 6:-0.354839 7:-0.538462 8:-0.550562 9:-0.10243 10:0.018057 11:-0.993499 12:-0.461187 13:-0.47032 14:-0.511521 15:-0.516279 16:-0.225806 17:-0.384615 18:-0.425012 19:-0.132073 20:0.0331408 21:-0.989166 22:-0.515695 23:-0.539823 24:-0.576577 25:-0.596413 26:-0.612903 27:0.153846 28:-0.724963 29:-0.0846685 30:-0.113563 
-8192 1:-0.989166 2:-0.506849 3:-0.525114 4:-0.56682 5:-0.581395 6:-0.612903 7:0.153846 8:-0.724963 9:-0.0846685 10:-0.113563 11:-0.993499 12:-0.534247 13:-0.543379 14:-0.56682 15:-0.525581 16:0.225806 17:-0.230769 18:-0.504641 19:-0.277408 20:0.413474 21:-0.993499 22:-0.55157 23:-0.539823 24:-0.558559 25:-0.55157 26:-0.225806 27:-0.615385 28:-0.469956 29:-0.40414 30:0.32418 
-8192 1:-0.993499 2:-0.534247 3:-0.543379 4:-0.56682 5:-0.525581 6:0.225806 7:-0.230769 8:-0.504641 9:-0.277408 10:0.413474 11:-0.993499 12:-0.543379 13:-0.525114 14:-0.548387 15:-0.534884 16:-0.225806 17:-0.615385 18:-0.469956 19:-0.40414 20:0.32418 21:-0.997833 22:-0.533632 23:-0.548673 24:-0.540541 25:-0.533632 26:-0.0322581 27:-0.692308 28:-0.519785 29:-0.128233 30:0.1965 
-8192 1:-0.978332 2:-0.625571 3:-0.652968 4:-0.658986 5:-0.655814 6:-0.548387 7:0.307692 8:-1 9:0.109511 10:-0.545312 11:-0.980498 12:-0.680365 13:-0.69863 14:-0.705069 15:-0.702326 16:-0.483871 17:0.538462 18:-0.580362 19:0.161596 20:-1 21:-0.984832 22:-0.704036 23:-0.699115 24:-0.711712 25:-0.721973 26:-0.225806 27:-0.0769231 28:-0.480703 29:-0.0141014 30:-0.505306 
-8192 1:-0.980498 2:-0.680365 3:-0.69863 4:-0.705069 5:-0.702326 6:-0.483871 7:0.538462 8:-0.580362 9:0.161596 10:-1 11:-0.984832 12:-0.69863 13:-0.689498 14:-0.705069 15:-0.711628 16:-0.225806 17:-0.0769231 18:-0.480703 19:-0.0141014 20:-0.505306 21:-0.991333 22:-0.695067 23:-0.707965 24:-0.720721 25:-0.713004 26:-0.0967742 27:-0.384615 28:-0.383977 29:0.0388239 30:-0.191665 
-8192 1:-0.989166 2:-0.671233 3:-0.689498 4:-0.705069 5:-0.711628 6:-0.16129 7:-0.230769 8:-0.21446 9:-0.154035 10:-0.257367 11:-0.995666 12:-0.69863 13:-0.707763 14:-0.714286 15:-0.730233 16:-0.290323 17:-0.538462 18:-0.393747 19:-0.220762 20:-0.0311586 21:-0.984832 22:-0.73991 23:-0.761062 24:-0.774775 25:-0.775785 26:-0.419355 27:0.384615 28:-0.28041 29:-0.0232223 30:-0.666151 
-8192 1:-0.993499 2:-0.726027 3:-0.726027 4:-0.732719 5:-0.711628 6:0.16129 7:-0.461538 8:-0.144113 9:-0.136874 10:-0.0464599 11:-0.993499 12:-0.716895 13:-0.726027 14:-0.732719 15:-0.711628 16:-0.16129 17:-0.384615 18:-0.380557 19:-0.0825083 20:2.41727e-005 21:-0.991333 22:-0.686099 23:-0.707965 24:-0.72973 25:-0.721973 26:-0.16129 27:-0.461538 28:-0.31998 29:-0.271167 30:-0.0251879 
-8192 1:-0.991333 2:-0.689498 3:-0.680365 4:-0.695853 5:-0.683721 6:0.0322581 7:-0.384615 8:-0.263801 9:-0.587639 10:0.292731 11:-0.986999 12:-0.634703 13:-0.589041 14:-0.64977 15:-0.581395 16:0.548387 17:0.153846 18:0.977528 19:-0.129553 20:0.467186 21:-0.995666 22:-0.605381 23:-0.619469 24:-0.630631 25:-0.650224 26:-0.548387 27:-0.461538 28:-0.535418 29:-0.0415842 30:0.0104184 
-8166.69418746332 1:-0.986999 2:-0.634703 3:-0.589041 4:-0.64977 5:-0.581395 6:0.548387 7:0.153846 8:0.977528 9:-0.129553 10:0.467186 11:-0.995666 12:-0.598174 13:-0.607306 14:-0.62212 15:-0.637209 16:-0.548387 17:-0.461538 18:-0.535418 19:-0.0415842 20:0.0104184 21:-0.991333 22:-0.587444 23:-0.59292 24:-0.603604 25:-0.587444 26:0.290323 27:-0.307692 28:-0.120176 29:-0.258086 30:0.44236 
-8192 1:-0.995666 2:-0.598174 3:-0.607306 4:-0.62212 5:-0.637209 6:-0.548387 7:-0.461538 8:-0.535418 9:-0.0415842 10:0.0104184 11:-0.991333 12:-0.579909 13:-0.579909 14:-0.59447 15:-0.572093 16:0.290323 17:-0.307692 18:-0.120176 19:-0.258086 20:0.44236 21:-0.997833 22:-0.569507 23:-0.59292 24:-0.585586 25:-0.578475 26:-0.0967742 27:-0.461538 28:-0.359062 29:-0.172877 30:0.242355 
-8192 1:-0.991333 2:-0.579909 3:-0.579909 4:-0.59447 5:-0.572093 6:0.290323 7:-0.307692 8:-0.120176 9:-0.258086 10:0.44236 11:-0.997833 12:-0.561644 13:-0.579909 14:-0.576037 15:-0.562791 16:-0.0967742 17:-0.461538 18:-0.359062 19:-0.172877 20:0.242355 21:-0.993499 22:-0.542601 23:-0.566372 24:-0.567568 25:-0.55157 26:0.0322581 27:-0.538462 28:-0.258427 29:-0.164476 30:0.282675 
-8192 1:-0.993499 2:-0.534247 3:-0.552511 4:-0.557604 5:-0.534884 6:0.0322581 7:-0.538462 8:-0.258427 9:-0.164476 10:0.282675 11:-0.989166 12:-0.515982 13:-0.525114 14:-0.548387 15:-0.525581 16:-0.0967742 17:-0.230769 18:-0.439668 19:-0.0929493 20:0.594237 21:-0.980498 22:-0.533632 23:-0.548673 24:-0.558559 25:-0.55157 26:-0.225806 27:-0.230769 28:-0.463605 29:-0.138554 30:0.349851 
-8192 1:-0.980498 2:-0.525114 3:-0.534247 4:-0.548387 5:-0.534884 6:-0.225806 7:-0.230769 8:-0.463605 9:-0.138554 10:0.349851 11:-0.993499 12:-0.534247 13:-0.506849 14:-0.529954 15:-0.488372 16:0.16129 17:-0.384615 18:-0.44211 19:-0.209721 20:0.458072 21:-0.995666 22:-0.488789 23:-0.504425 24:-0.504505 25:-0.506726 26:-0.16129 27:-0.538462 28:-0.417684 29:-0.188959 30:0.30929 
-96.63833451704097 1:-0.995666 2:-0.479452 3:-0.488584 4:-0.493088 5:-0.488372 6:-0.16129 7:-0.538462 8:-0.417684 9:-0.188959 10:0.30929 11:-0.991333 12:-0.479452 13:-0.479452 14:-0.474654 15:-0.460465 16:0.0322581 17:-0.307692 18:-0.416219 19:-0.169997 20:0.55399 21:-0.092091 22:-0.470852 23:-0.504425 24:-0.477477 25:-0.488789 26:-0.225806 27:-1 28:-0.765999 29:-0.0577858 30:0.161715 
-4648.373551395309 1:-0.991333 2:-0.479452 3:-0.479452 4:-0.474654 5:-0.460465 6:0.0322581 7:-0.307692 8:-0.416219 9:-0.169997 10:0.55399 11:-0.092091 12:-0.461187 13:-0.488584 14:-0.465438 15:-0.469767 16:-0.225806 17:-1 18:-0.765999 19:-0.0577858 20:0.161715 21:-0.993499 22:-0.452915 23:-0.469027 24:-0.468468 25:-0.470852 26:-0.0322581 27:-0.461538 28:-0.330239 29:-0.126673 30:0.416737 
-7589.709580508235 1:-0.092091 2:-0.461187 3:-0.488584 4:-0.465438 5:-0.469767 6:-0.225806 7:-1 8:-0.765999 9:-0.0577858 10:0.161715 11:-0.993499 12:-0.442922 13:-0.452055 14:-0.456221 15:-0.451163 16:-0.0322581 17:-0.461538 18:-0.330239 19:-0.126673 20:0.416737 21:-0.986999 22:-0.443946 23:-0.442478 24:-0.45045 25:-0.452915 26:-0.0322581 27:-0.153846 28:-0.351734 29:-0.0709871 30:0.574536 
-8192 1:-0.986999 2:-0.388128 3:-0.378995 4:-0.391705 5:-0.367442 6:0.290323 7:0.0769231 8:-0.471422 9:-0.141794 10:0.606058 11:-0.984832 12:-0.442922 13:-0.442922 14:-0.437788 15:-0.432558 16:-0.612903 18:-0.6468 19:0.0857486 20:-0.0711402 21:-0.993499 22:-0.452915 23:-0.451327 24:-0.45045 25:-0.452915 26:-0.16129 27:-0.307692 28:-0.578896 29:0.0987099 30:0.231357 
-8192 1:-0.993499 2:-0.442922 3:-0.43379 4:-0.437788 5:-0.432558 6:-0.16129 7:-0.307692 8:-0.578896 9:0.0987099 10:0.231357 11:-0.993499 12:-0.424658 13:-0.43379 14:-0.437788 15:-0.413953 16:-0.0322581 17:-0.384615 18:-0.413288 19:0.10423 20:0.268075 21:-0.991333 22:-0.443946 23:-0.460177 24:-0.477477 25:-0.479821 26:-0.483871 27:-0.538462 28:-0.546165 29:0.09991 30:-0.113974 
-8192 1:-0.991333 2:-0.43379 3:-0.442922 4:-0.465438 5:-0.460465 6:-0.483871 7:-0.538462 8:-0.546165 9:0.09991 10:-0.113974 11:-0.991333 12:-0.415525 13:-0.406393 14:-0.419355 15:-0.413953 16:0.16129 17:-0.384615 18:-0.570591 19:-0.172037 20:0.329063 21:-0.993499 22:-0.390135 23:-0.415929 24:-0.414414 25:-0.434978 26:-0.16129 27:-0.461538 28:-0.395213 29:0.134593 30:0.134714 
-8192 1:-0.991333 2:-0.415525 3:-0.406393 4:-0.419355 5:-0.413953 6:0.16129 7:-0.384615 8:-0.570591 9:-0.172037 10:0.329063 11:-0.993499 12:-0.378995 13:-0.39726 14:-0.400922 15:-0.413953 16:-0.16129 17:-0.461538 18:-0.395213 19:0.134593 20:0.134714 21:-0.993499 22:-0.399103 23:-0.40708 24:-0.405405 25:-0.390135 26:0.16129 27:-0.307692 28:-0.426966 29:-0.0687069 30:0.425512 
-7298.9620090781 1:-0.995666 2:-0.360731 3:-0.378995 4:-0.382488 5:-0.395349 6:-0.419355 7:-0.461538 8:-0.427455 9:0.212481 10:0.187701 11:-0.973998 12:-0.388128 13:-0.415525 14:-0.557604 15:-0.488372 16:-0.806452 17:1 18:-0.745481 19:1 20:-0.807295 21:-0.989166 22:-0.569507 23:-0.575221 24:-0.576577 25:-0.569507 26:-0.16129 27:0.230769 28:-0.206155 29:-0.741494 30:0.295898 
-6664.559375366336 1:-0.973998 2:-0.388128 3:-0.415525 4:-0.557604 5:-0.488372 6:-0.806452 7:1 8:-0.745481 9:1 10:-0.807295 11:-0.989166 12:-0.561644 13:-0.561644 14:-0.56682 15:-0.553488 16:-0.16129 17:0.230769 18:-0.206155 19:-0.741494 20:0.295898 21:-0.989166 22:-0.55157 23:-0.548673 24:-0.558559 25:-0.542601 26:0.0322581 27:-0.153846 28:-0.329262 29:-0.329133 30:0.474196 
-8192 1:-0.989166 2:-0.561644 3:-0.561644 4:-0.56682 5:-0.553488 6:-0.16129 7:0.230769 8:-0.206155 9:-0.741494 10:0.295898 11:-0.989166 12:-0.543379 13:-0.534247 14:-0.548387 15:-0.525581 16:0.0322581 17:-0.153846 18:-0.329262 19:-0.329133 20:0.474196 21:-0.991333 22:-0.497758 23:-0.504425 24:-0.504505 25:-0.506726 26:0.0967742 27:-0.153846 28:-0.39277 29:-0.309811 30:0.505838 
-8192 1:-0.989166 2:-0.543379 3:-0.534247 4:-0.548387 5:-0.525581 6:0.0322581 7:-0.153846 8:-0.329262 9:-0.329133 10:0.474196 11:-0.991333 12:-0.488584 13:-0.488584 14:-0.493088 15:-0.488372 16:0.0967742 17:-0.153846 18:-0.39277 19:-0.309811 20:0.505838 21:-0.989166 22:-0.452915 23:-0.451327 24:-0.477477 25:-0.443946 26:0.290323 28:-0.426478 29:-0.467387 30:0.752568 
-8192 1:-0.993499 2:-0.360731 3:-0.369863 4:-0.373272 5:-0.35814 6:-0.16129 7:-0.384615 8:-0.452858 9:-0.253525 10:0.442771 11:-0.997833 12:-0.369863 13:-0.388128 14:-0.382488 15:-0.395349 16:-0.419355 17:-0.615385 18:-0.809477 19:-0.107591 20:0.194397 21:-0.991333 22:-0.41704 23:-0.451327 24:-0.459459 25:-0.461883 26:-0.483871 27:-0.153846 28:-0.7064 29:0.0149415 30:-0.130653 
-8192 1:-0.997833 2:-0.369863 3:-0.388128 4:-0.382488 5:-0.395349 6:-0.419355 7:-0.615385 8:-0.809477 9:-0.107591 10:0.194397 11:-0.991333 12:-0.406393 13:-0.43379 14:-0.447005 15:-0.44186 16:-0.483871 17:-0.153846 18:-0.7064 19:0.0149415 20:-0.130653 21:-0.993499 22:-0.408072 23:-0.415929 24:-0.414414 25:-0.408072 26:0.225806 27:-0.384615 28:-0.502687 29:-0.334893 30:0.283425 
-2234.898577444333 1:-0.991333 2:-0.406393 3:-0.43379 4:-0.447005 5:-0.44186 6:-0.483871 7:-0.153846 8:-0.7064 9:0.0149415 10:-0.130653 11:-0.993499 12:-0.39726 13:-0.39726 14:-0.400922 15:-0.386047 16:0.225806 17:-0.384615 18:-0.502687 19:-0.334893 20:0.283425 21:-0.982665 22:-0.29148 23:-0.318584 24:-0.315315 25:-0.309417 26:0.548387 28:-0.553493 29:-0.808461 30:0.775677 
-8192 1:-0.982665 2:-0.278539 3:-0.296804 4:-0.299539 5:-0.283721 6:0.548387 8:-0.553493 9:-0.808461 10:0.775677 11:-0.986999 12:-0.260274 13:-0.278539 14:-0.281106 15:-0.265116 16:-0.0322581 17:0.0769231 18:-0.40254 19:-0.210561 20:0.532694 21:-0.984832 22:-0.300448 23:-0.327434 24:-0.342342 25:-0.336323 26:-0.483871 27:0.230769 28:-0.76893 29:0.0361836 30:-0.172569 
-846.3737529942254 1:-0.986999 2:-0.260274 3:-0.278539 4:-0.281106 5:-0.265116 6:-0.0322581 7:0.0769231 8:-0.40254 9:-0.210561 10:0.532694 11:-0.984832 12:-0.287671 13:-0.305936 14:-0.327189 15:-0.311628 16:-0.483871 17:0.230769 18:-0.76893 19:0.0361836 20:-0.172569 21:-0.989166 22:-0.345291 23:-0.327434 24:-0.342342 25:-0.327354 26:-0.0967742 27:-0.153846 28:-0.621886 29:-0.473747 30:0.344461 
-8192 1:-0.989166 2:-0.333333 3:-0.305936 4:-0.327189 5:-0.302326 6:-0.0967742 7:-0.153846 8:-0.621886 9:-0.473747 10:0.344461 11:-0.986999 12:-0.315068 13:-0.315068 14:-0.336406 15:-0.293023 16:-0.0967742 17:-0.0769231 18:-0.910112 19:-0.0648665 20:0.212623 21:-0.993499 22:-0.327354 23:-0.327434 24:-0.324324 25:-0.318386 26:-0.16129 27:-0.615385 28:-0.655594 29:-0.0880288 30:0.291498 
-8192 1:-0.993499 2:-0.315068 3:-0.305936 4:-0.308756 5:-0.293023 6:-0.16129 7:-0.615385 8:-0.655594 9:-0.0880288 10:0.291498 11:-0.986999 12:-0.269406 13:-0.296804 14:-0.290323 15:-0.274419 16:-0.0322581 17:-0.153846 18:-0.758183 19:-0.145755 20:0.383331 21:-0.989166 22:-0.29148 23:-0.318584 24:-0.306306 25:-0.309417 26:-0.225806 28:-0.40596 29:-0.240924 30:0.458411 
-8192 1:-0.989166 2:-0.278539 3:-0.296804 4:-0.290323 5:-0.283721 6:-0.225806 8:-0.40596 9:-0.240924 10:0.458411 11:-0.989166 12:-0.260274 13:-0.269406 14:-0.271889 15:-0.246512 16:0.0967742 17:-0.153846 18:-0.720078 19:-0.118872 20:0.427325 21:-0.991333 22:-0.255605 23:-0.292035 24:-0.279279 25:-0.29148 26:-0.290323 27:-0.384615 28:-0.506106 29:-0.30417 30:0.282361 
-8192 1:-0.989166 2:-0.260274 3:-0.269406 4:-0.271889 5:-0.246512 6:0.0967742 7:-0.153846 8:-0.720078 9:-0.118872 10:0.427325 11:-0.991333 12:-0.242009 13:-0.269406 14:-0.262673 15:-0.265116 16:-0.290323 17:-0.384615 18:-0.506106 19:-0.30417 20:0.282361 21:-0.993499 22:-0.255605 23:-0.274336 24:-0.306306 25:-0.282511 26:-0.0967742 27:-0.384615 28:0.0263801 29:-0.150195 30:0.251638 
-8192 1:-0.991333 2:-0.242009 3:-0.269406 4:-0.262673 5:-0.265116 6:-0.290323 7:-0.384615 8:-0.506106 9:-0.30417 10:0.282361 11:-0.993499 12:-0.242009 13:-0.251142 14:-0.290323 15:-0.255814 16:-0.0967742 17:-0.384615 18:0.0263801 19:-0.150195 20:0.251638 21:-0.991333 22:-0.255605 23:-0.274336 24:-0.261261 25:-0.255605 26:0.0322581 27:-0.153846 28:-0.416219 29:-0.137594 30:0.373758 
-8192 1:-0.993499 2:-0.242009 3:-0.251142 4:-0.290323 5:-0.255814 6:-0.0967742 7:-0.384615 8:0.0263801 9:-0.150195 10:0.251638 11:-0.991333 12:-0.242009 13:-0.251142 14:-0.24424 15:-0.227907 16:0.0322581 17:-0.153846 18:-0.416219 19:-0.137594 20:0.373758 21:-0.989166 22:-0.201794 23:-0.221239 24:-0.207207 25:-0.219731 26:0.0967742 27:-0.307692 28:-0.460674 29:-0.189439 30:0.574271 
-8192 1:-0.997833 2:-0.141553 3:-0.16895 4:-0.170507 5:-0.172093 6:-0.290323 7:-0.615385 8:-0.665364 9:-0.0805881 10:0.161739 11:-0.995666 12:-0.232877 13:-0.232877 14:-0.235023 15:-0.237209 16:-0.612903 17:-0.461538 18:-0.499267 19:0.0707471 20:-0.0986729 21:-0.997833 22:-0.237668 23:-0.247788 24:-0.243243 25:-0.2287 26:0.0967742 27:-0.769231 28:-0.482169 29:-0.226883 30:0.189804 
